0.575374
0.430648
0.47536
0.187965
0.202653
-0.483172
-0.557159
0.156145
0.578398
0.506993
0.282043
-0.721462
0.0237221
-0.292981
-0.0514332
0.187885
-0.187304
0.740861
-0.173293
0.637228
0.431938
0.765819
-0.276593
0.409229
-0.301775
0.442213
0.146935
0.421321
0.368611
-0.703856
-0.162544
0.17768
0.49978
-0.474807
-0.400501
-0.0665493
-0.174536
-0.154741
-0.684881
-0.399196
-0.448252
0.375175
-0.354969
0.339606
-0.703694
0.370694
-0.200168
-0.160179
0.344379
0.393415
-0.277018
0.0202173
0.426829
0.263861
-0.332251
-0.671535
-0.0886864
0.590328
0.513208
-0.507777
0.647002
-0.421441
0.44771
0.326186
-0.111608
-0.729903
-0.480028
0.479873
-0.126772
-0.381632
-0.698313
0.18384
0.763729
-0.278728
-0.251714
-0.716483
-0.685505
0.325641
-0.0587824
0.453514
-0.014708
0.461349
-0.311961
-0.403964
-0.0835326
0.105908
-0.301884
0.587108
-0.0908137
-0.559298
-0.700744
-0.215521
-0.204158
0.520616
-0.603324
0.45978
0.573643
-0.279999
0.165856
-0.319695
0.0951711
0.21587
0.636275
0.0810344
0.712617
-0.390125
0.139733
-0.744148
0.713555
-0.6913
0.479655
-0.0764634
0.514266
-0.6324
0.266885
-0.306997
0.263088
0.747075
-0.501741
-0.593116
-0.566152
-0.43399
-0.0289971
0.00324669
-0.687602
0.142605
-0.312618
0.690376
0.611871
0.614437
-0.450551
-0.0279382
0.0890492
-0.548375
-0.716763
0.0134037
-0.174696
0.19339
0.0399416
-0.245142
0.265399
-0.251679
0.433798
-0.0120555
-0.0710692
-0.0343534
0.506394
-0.595321
-0.0569638
0.771264
-0.407642
0.144775
-0.45481
0.344022
-0.634364
-0.367125
-0.288547
-0.17333
-0.47882
-0.424845
-0.348268
-0.152107
0.280805
0.521607
0.0537681
0.331353
-0.24101
0.643641
-0.248475
0.576423
-0.374458
-0.757488
-0.449314
-0.713228
0.0481255
0.248438
0.00359262
-0.245575
0.418366
0.704093
-0.248051
-0.740161
0.0839265
0.0654253
0.374551
0.228038
0.473596
-0.695833
-0.72676
0.774493
-0.352937
-0.338845
-0.167298
0.713517
-0.537626
0.705988
0.283831
-0.0152488
0.569543
-0.738587
-0.212831
-0.58323
-0.726802
0.11291
-0.519811
0.0922363
-0.426839
0.262051
0.651274
0.792233
0.221288
-0.385743
-0.757057
-0.491978
0.433047
0.383904
0.493191
0.13553
0.460988
0.546855
0.138674
-0.67177
-0.511224
-0.7198
-0.693843
-0.268535
0.696915
0.333325
0.510859
0.517788
0.366939
-0.488944
0.689126
0.414639
0.386678
-0.608561
-0.274173
0.736361
0.42503
-0.439965
0.734872
-0.134637
-0.0335461
0.747649
0.14963
-0.361431
0.355176
-0.1272
0.544899
0.0431474
-0.354672
-0.0883542
0.146252
-0.0889087
-0.0881698
0.178197
0.408858
-0.169216
-0.250899
0.125727
-0.445382
-0.650528
0.40247
-0.541768
0.526389
0.016897
-0.380911
-0.523486
-0.0235586
-0.72735
-0.16751
-0.0744988
-0.0924406
0.567006
-0.100933
-0.716303
-0.578232
-0.50607
-0.0778499
0.738305
0.310117
0.336385
-0.123758
-0.316039
-0.526697
0.561813
0.649588
0.662179
-0.360248
-0.349636
0.0159041
-0.03756
-0.26317
-0.371579
0.169393
-0.513835
0.411723
0.559773
-0.262295
-0.376265
0.61403
0.342252
0.333692
-0.209231
0.144841
-0.521806
-0.203069
0.324148
-0.262837
0.479659
0.289804
-0.724992
0.044004
-0.607432
-0.267969
0.292989
0.731948
-0.391758
0.178906
-0.416424
0.00166518
-0.577543
0.318941
0.52771
-0.148857
-0.261755
-0.760782
-0.52081
-0.50219
-0.246218
-0.133119
-0.668118
-0.686646
-0.570858
-0.149452
0.155612
-0.304128
0.416934
-0.218625
0.189851
0.125023
-0.710245
0.236774
-0.595892
-0.536312
0.74343
0.473915
-0.574307
-0.417664
-0.127447
-0.221828
0.37573
0.0651746
-0.677558
0.131321
0.649927
-0.224227
0.126128
-0.658047
0.0402536
0.637699
-0.0121021
0.144617
0.732414
0.19638
0.769096
0.185382
0.661707
0.406871
0.721088
0.0535719
-0.236902
-0.744738
-0.481352
-0.0525781
-0.494779
-0.485674
-0.356393
-0.285931
-0.131156
0.292531
0.271606
-0.537353
-0.421952
0.334092
0.337503
-0.54792
-0.662606
-0.302509
-0.416664
0.156138
-0.433425
0.35492
-0.475381
-0.472008
-0.226702
-0.482769
0.490789
-0.351002
0.684408
0.457882
0.472072
-0.311836
0.512171
-0.757728
0.406253
-0.755412
-0.468484
-0.712028
-0.270383
0.17786
0.353011
-0.773573
0.41115
0.703049
0.340471
-0.00130756
-0.589076
0.471242
0.460076
-0.257261
-0.168178
-0.755159
-0.679789
0.124572
-0.45301
-0.13258
0.423598
-0.730853
0.284095
0.35448
0.536424
-0.00870809
-0.728154
0.211168
0.0329573
0.482758
0.256267
0.349151
0.53598
0.764471
-0.251977
0.113733
0.757614
-0.624122
0.0469602
0.325528
0.123158
0.202988
0.0184503
-0.175351
0.722231
0.615995
-0.171226
-0.740985
-0.0129804
0.166917
-0.103481
-0.357585
0.218491
-0.585472
0.770941
-0.0499568
0.223983
-0.723062
-0.607362
-0.577668
0.539783
0.413351
0.527302
0.301703
0.399069
-0.484907
-0.359851
0.388196
-0.333124
0.465623
-0.0612169
0.577308
-0.0852104
0.721146
-0.401023
-0.174175
0.583605
0.245332
-0.105594
-0.197324
-0.36217
0.571701
0.21571
0.630413
0.753318
0.202962
-0.190156
0.164966
0.246085
0.0189486
0.382558
0.00731756
-0.345009
0.138449
-0.49222
-0.728988
0.445192
-0.0561562
0.430958
-0.655549
-0.355308
-0.394111
0.6895
0.315073
-0.375059
-0.490786
-0.615617
-0.636277
0.555207
0.0450403
-0.0674782
-0.585012
-0.171166
-0.640133
-0.726604
-0.198962
0.334829
-0.143208
0.739456
-0.183466
0.601916
0.350702
0.605905
-0.508282
-0.266446
-0.621382
-0.44427
-0.590718
0.105337
0.766929
-0.475895
0.522801
-0.403057
-0.563075
0.0646013
-0.0736099
-0.255511
0.206227
0.0665074
-0.472723
-0.503328
0.763879
-0.286124
0.0893971
-0.652008
-0.243987
0.664515
0.455535
0.389248
0.630717
-0.503143
0.236048
0.216457
-0.6369
0.522889
0.727974
-0.529242
-0.714379
-0.653646
0.345012
-0.722442
-0.370824
0.0991111
-0.357576
-0.152893
-0.607517
0.340299
0.369741
0.405205
-0.391748
0.654949
0.647557
-0.382043
-0.373194
0.00584452
-0.251945
0.138812
-0.118491
-0.569645
-0.253333
-0.274243
-0.31052
0.762762
0.70088
-0.265358
0.48233
0.625028
0.0366659
0.535315
0.754494
-0.366622
0.594962
-0.385107
0.513899
-0.537171
0.238684
0.677098
0.574954
-0.162595
0.296006
-0.607959
-0.249652
0.17967
-0.183745
0.0978279
-0.640176
0.306354
-0.537151
0.0119283
0.513851
-0.00979287
0.517166
-0.566743
-0.0140615
0.443517
0.00715569
-0.265937
0.301637
-0.728038
-0.518909
0.27534
-0.324539
-0.707245
0.670018
-0.590384
-0.472677
0.135625
-0.68912
-0.673749
0.746203
0.382459
-0.471444
-0.288095
-0.19575
0.109669
0.577409
-0.0512815
-0.330447
-0.726649
0.732781
-0.582903
0.051493
0.468157
-0.371241
-0.737911
0.135785
0.408872
-0.259622
-0.335696
0.460337
-0.0188201
0.700528
-0.616579
0.0578588
0.614265
-0.44353
0.357394
-0.0190907
-0.363989
0.463658
-0.0463483
-0.758044
0.76585
0.425974
-0.179153
0.0957893
0.236509
0.513818
0.568208
0.287717
0.45787
0.753644
-0.430955
0.156599
-0.392946
-0.395055
-0.478872
-0.755242
0.118413
-0.0385146
0.496006
-0.702689
-0.112024
0.608965
0.172895
-0.243141
-0.598567
-0.226397
0.503266
-0.186244
-0.537104
-0.320391
-0.180422
-0.552815
-0.662475
0.395026
0.29081
0.347592
0.160709
0.138426
-0.126239
-0.20415
0.0619926
0.189845
0.755148
0.462024
0.565851
-0.491722
0.501848
-0.070725
0.237095
0.209938
0.155458
-0.618746
0.0742773
-0.545567
-0.0982087
0.22631
-0.0211126
-0.371993
-0.746366
0.199486
0.0862075
-0.157391
0.424927
0.201103
-0.54255
-0.0171851
-0.209377
0.389012
-0.658068
0.416697
-0.571808
0.218751
-0.136139
-0.612056
-0.0763806
-0.342849
-0.336511
-0.351148
0.367295
0.677498
0.629979
-0.369705
-0.704111
-0.109462
-0.14158
-0.0309144
-0.653911
0.605907
0.368398
-0.616908
0.0383275
-0.315473
0.000229905
-0.309924
0.658331
0.233015
0.450343
-0.337369
-0.215626
0.55846
-0.690614
0.0141478
-0.0283104
-0.0827068
0.162566
0.667769
0.361076
0.606541
-0.455997
-0.0441579
0.514937
-0.592757
0.364727
0.573146
0.0946141
-0.535059
-0.25612
0.231941
-0.729614
-0.645499
0.402142
0.085178
-0.193333
-0.383143
0.552621
-0.312919
0.620843
0.222861
0.123155
-0.334833
-0.0162165
0.178828
0.438063
0.762911
-0.650384
-0.154423
0.667575
0.485446
-0.321085
-0.565013
-0.33205
-0.580355
-0.387272
-0.744393
0.764668
0.482038
-0.550413
-0.236509
-0.0586272
-0.494018
-0.130237
-0.461288
0.35668
0.438761
-0.0678313
0.145561
-0.650866
-0.213547
-0.40011
0.251352
0.228418
0.377488
-0.273361
-0.0982787
0.364295
-0.201754
0.52295
0.243137
-0.492493
-0.586665
0.453159
-0.050552
-0.396203
-0.707541
-0.0165049
-0.401748
0.546369
0.226902
0.149953
-0.281132
0.535745
0.76216
0.0327117
0.117492
0.414335
0.749765
-0.501581
0.542186
-0.236096
-0.125321
0.0220195
0.770632
-0.525336
0.473911
-0.0804407
0.613803
-0.496118
-0.362594
0.0778903
-0.195633
-0.151642
-0.237495
0.52156
0.213564
-0.166356
-0.276628
0.580254
-0.401255
0.730967
-0.0773745
0.0684134
0.477589
-0.0955058
-0.652356
-0.167956
-0.455539
-0.673558
0.0979319
-0.677747
-0.126908
0.742338
0.123686
-0.127089
-0.554037
-0.178811
0.541481
-0.713905
0.109014
-0.574974
0.158614
0.665368
0.0161686
0.695024
0.401556
-0.564508
-0.27793
-0.64348
-0.766226
0.0974695
-0.688685
-0.071927
-0.591889
0.537731
0.621513
-0.449298
-0.377242
-0.619245
-0.358925
0.476603
-0.523275
0.296939
0.449811
0.375149
-0.601823
0.67404
-0.571733
0.712554
0.733406
0.311172
-0.656219
0.0707951
0.172616
0.104738
0.0019055
-0.173676
0.320987
0.492212
-0.0379931
0.328325
-0.183307
0.039314
-0.524829
0.0075907
-0.171175
-0.746221
0.314669
0.211479
-0.534281
0.737237
-0.0588193
-0.256948
0.265256
-0.384368
-0.662982
0.437276
-0.487601
-0.465061
0.370286
-0.529663
0.607477
0.457005
0.310716
-0.000561861
-0.196047
-0.434313
0.598099
-0.661686
-0.710309
-0.221234
0.451396
-0.118288
0.598148
0.694979
0.663164
-0.347142
-0.770089
0.187643
0.653006
-0.510765
0.176435
-0.193101
-0.0333146
-0.353017
0.174301
0.0761052
-0.695905
0.458615
0.38626
0.457711
0.711461
0.216823
0.165835
0.331692
-0.533583
0.767114
0.623217
-0.686305
-0.646872
0.692221
-0.131585
0.567274
-0.21432
-0.30879
0.480915
-0.3276
0.115315
0.47932
0.64717
-0.0208778
0.720793
0.0437062
0.545356
-0.0895685
0.460033
-0.0603616
0.770153
0.557097
-0.347356
0.378768
0.250274
-0.408082
-0.172427
-0.355778
0.651568
0.0688759
-0.364312
0.495455
0.135068
-0.233214
0.399359
-0.771181
-0.467577
-0.587425
-0.301448
-0.769086
-0.139968
0.595197
0.489517
-0.265606
-0.197729
0.471646
0.56851
-0.399732
-0.40325
0.256939
0.319799
-0.416036
0.0412687
0.747042
0.73317
-0.483519
-0.434941
-0.211842
-0.0635421
-0.560994
0.628494
0.359982
0.734717
0.0218835
-0.66368
0.325
0.0266179
-0.365568
0.516399
0.499386
-0.383697
-0.390494
0.311069
-0.663153
0.121342
-0.66435
0.552582
-0.106671
-0.33361
-0.620321
-0.60622
-0.753718
-0.265191
0.221423
0.762387
-0.307764
0.500952
-0.44869
0.252565
-0.337777
-0.237267
0.107895
-0.772134
-0.309587
-0.683383
-0.69853
-0.74681
0.105701
-0.301758
0.56264
-0.163176
0.0931981
-0.588187
-0.628323
0.211041
0.303218
-0.522344
-0.00259743
-0.565483
-0.0649469
0.186211
-0.37904
-0.0247047
0.637224
0.560121
-0.0756206
-0.462901
0.300558
0.247822
0.565619
0.740318
-0.745595
-0.0859466
0.736012
-0.270961
0.108688
-0.699144
-0.219183
-0.629342
-0.22146
-0.450507
-0.0434199
0.624851
-0.264276
0.100524
0.058543
-0.732334
0.362354
-0.712051
-0.531482
-0.468075
0.261794
-0.136213
0.246286
0.0354157
-0.353714
-0.575102
0.368247
0.712054
0.470931
0.200926
0.663778
0.512854
-0.653609
0.629743
-0.529592
0.145
0.703799
0.0351327
0.303094
-0.323441
0.336624
-0.498193
-0.468712
-0.691009
0.381708
0.36155
-0.645725
-0.0342172
0.423483
-0.40424
0.275597
-0.148822
0.191109
-0.222835
0.680909
0.604478
-0.0216135
0.287827
0.518609
-0.314274
-0.272683
0.43535
-0.579393
-0.145924
0.29159
-0.329268
0.774138
0.19994
0.493396
0.274857
0.618983
0.0250225
0.537924
-0.619982
0.129109
0.160221
0.507451
0.255317
-0.647153
0.156229
0.618327
0.395796
-0.762871
0.053226
-0.66337
0.661437
-0.111052
0.156424
0.233072
-0.32234
0.616607
0.746032
-0.663449
-0.745362
-0.171336
0.396286
-0.307134
-0.176768
-0.181509
-0.623894
-0.705257
-0.309358
0.179986
0.650813
-0.165947
-0.475904
0.0262877
-0.439437
0.546675
0.152255
0.48968
0.391967
-0.225578
0.50293
-0.333913
-0.0644942
0.432502
0.333
-0.716811
-0.142818
-0.776892
0.655544
-0.166493
-0.658878
0.68919
0.466696
0.508564
-0.37798
-0.487701
-0.44403
-0.222025
-0.375174
0.00762191
0.745221
-0.465387
0.625034
-0.513944
0.310759
-0.623844
-0.750965
-0.303228
0.641065
0.41358
0.248161
0.377895
-0.6836
-0.595376
0.0370633
0.431397
-0.504193
0.70586
0.437189
-0.62418
-0.21261
0.537612
-0.685303
-0.524655
0.27202
-0.284162
-0.238465
0.596342
0.265623
0.157583
-0.172612
0.21811
0.426381
-0.320788
0.50769
-0.0266833
-0.180656
0.523468
0.435517
-0.296259
0.162181
-0.0928395
-0.690283
0.2617
0.0934307
0.117027
-0.0844725
0.385143
0.0422349
-0.438453
0.515455
0.596105
-0.657437
0.611412
-0.688733
0.387894
-0.447074
-0.148922
0.210121
0.587519
-0.770533
-0.737055
0.0389412
0.398991
-0.326786
-0.233391
-0.347547
0.286572
-0.51072
-0.705486
0.748478
0.44368
-0.0107547
-0.722532
-0.0650533
-0.683039
0.178038
0.62362
0.446085
-0.527511
-0.579404
0.217043
-0.67818
-0.454109
0.036106
-0.609667
0.690683
0.357311
-0.0184957
0.131163
0.15879
-0.00887765
0.169881
-0.584164
-0.346535
0.64865
-0.0276158
0.0758644
0.140395
0.212688
0.133231
0.0937131
-0.126622
-0.623649
0.175448
0.57797
-0.522478
-0.408973
0.43936
0.695202
-0.181588
0.709398
0.0918524
-0.120656
-0.58855
-0.653307
0.0319243
-0.656044
0.471132
-0.755568
0.246816
-0.144125
0.00856695
-0.356897
0.0463353
0.442159
-0.493003
0.748595
-0.277548
0.432965
0.215675
0.666421
-0.200857
-0.664364
-0.725707
0.750283
0.677383
-0.472243
-0.438926
0.337117
-0.557274
0.152641
0.199002
0.297394
-0.758559
0.348244
0.436873
0.044349
0.488791
0.16532
0.0754998
-0.0505121
-0.752622
-0.685835
0.366289
0.0554794
0.520485
0.654063
0.0448209
-0.56818
0.318443
-0.53501
-0.623608
-0.693455
-0.438139
-0.565916
-0.71635
-0.545898
-0.271854
-0.377711
0.563434
-0.0582678
0.546539
-0.00943847
-0.505826
0.538585
-0.366909
0.73173
-0.140639
-0.690823
0.0995288
0.690159
0.0255645
0.11143
0.764027
-0.380326
-0.610617
0.515041
-0.496776
0.202225
0.77133
0.616202
0.451835
-0.61987
0.673248
-0.766521
-0.425214
0.731399
-0.546809
0.0749451
-0.429128
-0.757069
-0.758502
-0.654751
0.00930812
-0.491634
0.695301
0.404074
-0.515153
-0.213469
0.461367
0.332948
-0.306009
-0.295617
-0.338436
-0.301886
0.108143
-0.177159
-0.559427
0.394451
-0.742493
-0.565844
0.205658
0.518288
-0.391901
0.116684
0.488973
-0.0555324
0.060612
0.709194
-0.772434
0.413909
0.725451
-0.759614
0.532501
-0.030739
-0.471303
0.449797
-0.42813
-0.197972
-0.549648
-0.733631
-0.669048
-0.0686345
-0.242903
-0.213969
0.400631
0.641222
0.375491
0.613243
0.258188
0.405976
-0.730678
-0.3075
0.111372
-0.390102
0.559625
-0.18438
0.332944
-0.136675
-0.249058
0.330683
-0.502272
-0.283914
0.364592
-0.749718
0.465312
0.670847
0.479594
-0.73498
-0.338716
0.716708
-0.684333
-0.232
-0.132961
-0.194114
0.306569
-0.506357
-0.320308
-0.0975017
-0.682513
0.71998
-0.469115
-0.640433
-0.364085
0.418182
-0.234805
-0.577803
-0.525813
-0.665057
0.0760041
0.00405878
0.449903
0.348732
0.491087
0.0422046
0.366621
0.183814
-0.064142
0.0741772
0.224505
0.369122
0.0047252
0.320867
-0.639916
0.651466
-0.645983
0.434462
-0.644054
-0.188393
-0.443254
-0.555099
-0.257792
-0.137053
-0.424507
0.155651
-0.494916
0.112821
0.362979
-0.250645
0.179276
-0.358203
0.497643
-0.0981849
-0.768659
0.247846
0.714814
0.36816
-0.334942
-0.130029
-0.330159
0.657765
-0.540391
0.455381
0.178174
-0.435328
0.306817
0.286664
-0.75396
0.433544
-0.669656
-0.405368
0.659547
-0.157064
0.22667
-0.538329
0.770058
0.500663
0.343991
0.362817
-0.527948
-0.254304
-0.291843
0.298837
0.172469
-0.289829
0.086734
0.143425
0.156901
0.255708
-0.209911
-0.266413
0.209926
-0.119897
0.202661
-0.0197415
0.0255161
0.0275617
-0.209397
0.0272973
-0.0996118
-0.167936
0.164333
-0.149331
0.0667734
-0.0484408
-0.0601826
0.0658502
-0.15748
-0.221839
-0.0921857
-0.0579865
-0.00795459
-0.0804423
-0.0661425
-0.134596
-0.0719935
-0.273932
-0.287724
-0.215016
0.286292
-0.19978
-0.188551
0.19906
-0.0157535
-0.286129
-0.124728
-0.292675
0.0490876
-0.02935
0.0376939
0.247837
0.10236
-0.0939297
-0.200993
-0.129554
0.156736
0.0443422
0.234583
-0.295097
0.123246
-0.158704
-0.0555133
-0.187419
0.0649591
0.185461
-0.0229061
0.289432
0.211223
-0.00663203
-0.226388
0.198932
0.0936062
-0.115289
0.0900211
-0.2193
-0.0954492
0.269818
-0.214336
0.251627
-0.0659949
0.12542
0.196356
-0.268771
-0.272326
0.29398
-0.101241
0.182668
0.0386853
-0.16098
0.186257
-0.135642
-0.0173691
-0.166359
-0.0192664
-0.253908
-0.28125
0.25896
-0.262236
0.231845
-0.0480886
-0.19154
0.128652
-0.252986
-0.00674604
-0.0720285
-0.174547
0.201785
-0.104236
-0.0889774
0.14995
0.132027
-0.26604
0.0438791
0.16367
-0.235124
0.0446945
-0.239812
0.251994
-0.212008
-0.0956337
0.14465
-0.0527313
0.185885
0.282972
0.226302
0.233094
-0.295299
0.186754
0.268278
0.231751
-0.166611
-0.226149
0.0671213
-0.118981
0.0758562
0.297814
0.00555026
-0.0202664
-0.108376
0.215539
-0.174785
-0.279147
0.255945
0.17016
0.17926
-0.278594
-0.087041
0.243838
0.271565
-0.00221337
-0.156549
0.115428
0.247964
-0.272109
0.0960957
0.172769
0.257336
0.0984136
0.0570025
0.222372
0.0301581
0.194757
-0.298223
-0.198584
-0.22572
0.0735119
-0.201733
0.0781013
-0.249468
-0.0169191
-0.00518169
-0.127411
0.00234469
-0.0496046
-0.251266
-0.117642
-0.0324386
-0.0413965
-0.170997
-0.0621103
0.261464
-0.0268223
-0.246424
0.207753
0.00228204
0.151263
0.0829987
-0.0387005
-0.0523199
-0.159504
-0.11402
0.276513
-0.264182
-0.117094
-0.224956
-0.194551
0.257516
-0.127824
0.182908
-0.291845
0.155193
-0.116496
-0.117445
-0.146743
0.13576
-0.0764437
0.0385751
-0.20696
0.18209
0.170399
0.036131
0.140237
-0.150105
0.0950176
0.0520052
0.138432
-0.0555131
-0.154331
-0.204783
0.183337
-0.0309353
-0.0184959
0.169797
0.00373676
0.154509
0.237921
0.114249
0.107754
-0.192109
-0.00401761
0.127198
0.268579
0.190122
-0.29926
-0.168894
0.00920814
-0.0739708
0.167874
0.111049
-0.182808
0.0415796
-0.141494
0.257767
0.178237
0.254049
0.0158103
0.0140087
-0.106053
0.155659
0.122594
-0.212552
-0.170199
-0.198237
0.2548
0.143862
0.255725
0.196783
-0.0443892
0.0764164
-0.29637
0.262613
-0.0932714
0.268922
0.143306
-0.101327
-0.191463
-0.135012
0.126098
0.270829
0.276576
0.254208
0.0140731
-0.161963
0.212132
-0.112836
-0.221358
-0.0701034
0.213277
-0.0171423
-0.221949
0.0319473
0.055837
-0.0871236
0.127141
0.00363939
-0.249872
0.0820794
-0.105579
-0.000349908
-0.141671
-0.0903998
-0.0395656
0.067275
-0.120111
-0.185844
0.275555
-0.00810438
-0.0223156
0.106114
-0.0328925
-0.0364872
0.0554221
0.270683
0.0938463
-0.0298891
-0.12989
0.190668
0.197679
-0.221753
-0.126421
0.274043
0.111399
0.23413
-0.120117
-0.0658987
-0.0639317
-0.0588089
-0.280979
0.129021
0.25062
-0.1136
-0.255395
-0.090144
0.247384
-0.0725953
0.039571
0.222541
0.213662
-0.27349
0.0290143
-0.120921
-0.015556
-0.222232
-0.153609
-0.206148
0.0340131
0.0205017
0.280144
-0.068529
0.0919595
-0.154254
-0.0948094
-0.105428
-0.223664
0.085266
0.130742
0.0207613
-0.274616
0.152488
-0.154798
0.264489
-0.267329
-0.10696
-0.119142
0.283836
0.111225
0.226732
0.203408
0.0301007
0.240578
-0.0675202
0.203561
-0.07655
0.00698407
-0.244505
0.0234916
-0.265002
0.0743037
0.00219803
-0.0276713
-0.131986
0.13969
0.169524
0.0625468
0.221116
-0.0344694
-0.103356
-0.0577249
-0.0125633
-0.255598
0.0913201
-0.0448572
-0.215571
0.280676
0.147847
-0.227072
0.0932123
0.0685945
0.27714
-0.1702
0.0152452
-0.10469
-0.267945
0.242346
0.202221
-0.21682
-0.0416623
0.228686
0.159052
0.252759
-0.0993512
-0.28745
0.104696
-0.220277
0.0833241
0.0427514
0.0471596
0.266123
0.277754
-0.271756
-0.279506
0.0599404
-0.0063348
-0.200326
0.0404032
-0.166484
-0.141713
-0.151037
0.194745
-0.177947
-0.0270821
-0.0940873
0.0390603
-0.0150131
-0.15812
-0.0630095
0.0834797
0.115738
-0.129339
-0.0619405
0.0842265
0.0783546
-0.0591026
-0.113571
0.141608
-0.277155
0.210109
-0.106329
0.290012
0.183007
-0.0807151
-0.297131
-0.0549524
0.197097
-0.215198
0.285545
-0.264946
-0.0384105
-0.160928
0.229558
0.0752625
0.0947631
-0.167295
-0.185713
-0.209094
-0.0138709
0.0385117
0.184479
-0.201705
0.214955
-0.202491
0.177531
-0.015682
0.0430963
-0.241042
-0.160485
0.0763435
0.266749
0.0326919
0.0692244
0.151158
0.246481
0.0472046
-0.212734
0.145785
0.146245
-0.209967
0.183122
-0.185113
-0.081903
0.102375
0.197106
-0.28368
0.24751
-0.290662
-0.177315
-0.0613939
0.0463575
0.297427
0.0340302
-0.0268237
-0.18674
-0.102072
0.259558
0.158869
-0.0430032
-0.203067
-0.071122
-0.0997511
0.128579
0.27967
-0.243987
0.0571619
0.0470856
-0.144406
-0.0838748
-0.0892382
-0.0539382
-0.220304
0.0150014
0.162366
0.189442
-0.0985172
0.185436
0.130147
-0.0923508
-0.296704
-0.243777
0.270002
0.294968
0.0793856
-0.0619242
-0.199543
0.287
-0.113929
0.253532
-0.061436
-0.0127981
-0.110698
0.15022
-0.1949
-0.117388
0.215996
0.159395
0.232015
-0.234094
-0.232519
-0.167751
0.0148541
-0.153259
0.145788
-0.126272
-0.267272
-0.250645
-0.249045
0.156372
-0.0412427
-0.245925
0.22061
-0.069573
-0.248877
-0.00474946
0.157354
-0.150817
-0.0183
-0.250479
-0.192256
0.212937
0.0412397
-0.00432605
0.0664673
0.133454
0.177084
-0.0236502
-0.0044515
0.106161
0.0484952
0.0674937
0.236105
-0.238683
0.217065
0.0841743
-0.0672288
0.237442
0.129867
-0.0148698
0.101178
-0.203782
0.0423446
0.0234665
0.0200019
0.0883398
-0.277794
-0.120573
0.244516
0.00247712
-0.0622366
-0.242491
-0.0840188
0.274532
0.0517738
0.288383
0.117157
-0.0797521
-0.0336368
-0.187649
-0.275179
-0.284869
0.176768
0.25138
-0.224438
0.0852454
0.0377314
0.000278496
0.0322898
-0.127083
0.291454
-0.154043
-0.0279845
0.0234572
0.1627
0.286101
-0.18287
0.178014
-0.124725
-0.239793
-0.120652
0.107794
-0.193632
0.102457
0.0792377
0.149453
0.0895016
-0.111037
-0.221855
-0.258079
-0.0013251
-0.198467
-0.237243
-0.118582
-0.241098
-0.165109
0.277232
0.0993124
0.131518
0.00959553
0.265415
0.120962
0.143512
-0.0622835
-0.157413
0.00258287
-0.077857
-0.0448326
-0.117454
0.0907845
0.00484634
0.0568003
-0.0961904
0.121873
-0.138153
0.279852
-0.034337
0.244736
-0.131581
0.048165
0.291168
0.172863
0.141599
-0.23731
-0.248539
0.205132
-0.113404
-0.274197
0.000684296
-0.280682
0.0314083
-0.0262265
0.145248
-0.126997
0.214693
0.286685
0.177893
-0.163361
-0.0700919
-0.248231
0.228619
0.241355
0.118765
-0.170527
0.0695884
0.280373
-0.193547
-0.260564
0.224687
-0.0212856
0.085828
0.225135
-0.147355
-0.0727582
0.279789
-0.0989126
-0.163683
-0.122779
-0.0791227
0.138215
-0.101848
0.253448
-0.190343
-0.258856
-0.187021
-0.275524
-0.282154
0.292531
-0.152556
-0.0384287
-0.246658
-0.217489
-0.0903222
0.175213
-0.0951886
0.276398
0.147526
0.00547964
-0.281611
0.0749596
0.281864
0.105177
-0.000176109
-0.168731
-0.267912
-0.017171
0.0363596
-0.127979
0.153135
0.245046
-0.291641
-0.242552
0.198237
-0.187956
-0.209095
-0.27903
-0.170125
-0.186895
-0.283028
-0.00717391
0.0822176
-0.219868
0.0676546
0.293591
0.243443
0.267175
0.270797
0.0899973
-0.0241382
0.290606
-0.124365
-0.035799
0.0838842
0.177283
0.0965096
0.113146
-0.141728
-0.171761
0.293953
-0.285482
-0.21559
0.297751
-0.233439
0.285158
-0.185667
-0.140888
-0.290342
-0.0446568
-0.0243177
-0.267194
0.244953
-0.246861
-0.194777
0.00508109
-0.252979
-0.241719
-0.0314869
-0.278167
0.155531
0.259488
-0.292639
-0.266489
-0.0803788
0.088381
0.199524
-0.28445
-0.084512
-0.233425
-0.159832
-0.0931715
-0.230012
-0.0775173
-0.0972423
-0.166153
-0.0912748
0.0136454
-0.0103231
-0.0888754
0.267571
0.269271
-0.059456
0.212707
-0.277106
0.0502943
-0.0761251
-0.220287
0.107475
0.199021
-0.200375
-0.0377624
0.15766
-0.197487
-0.00981375
-0.222036
0.195865
-0.0982832
-0.205307
-0.192732
-0.0358165
-0.061867
0.0109379
0.0373565
0.164899
0.212394
0.17151
-0.225597
-0.0667596
-0.13722
-0.00887883
-0.0949172
-0.165075
0.239596
-0.181756
-0.139804
-0.00227727
0.0398492
-0.0619816
-0.190805
-0.0584599
0.0326151
0.0715448
-0.206188
0.133503
-0.230053
-0.128492
0.0314032
-0.0250566
-0.0361382
0.142061
0.238831
0.202921
-0.148658
-0.0295351
0.0688179
-0.235151
-0.157669
0.143484
-0.004939
0.00634862
-0.165652
0.200637
0.138335
-0.225626
-0.277862
0.298887
0.0721591
0.0619538
-0.0662674
0.179145
-0.300468
0.265395
-0.0469966
-0.204345
0.103301
0.0249057
-0.0322246
-0.165386
0.300127
0.228223
0.274561
0.231945
0.131358
-0.175877
-0.0962793
-0.0989684
-0.109534
0.0489187
-0.256414
0.184958
-0.243677
-0.124622
0.0863155
0.197015
-0.0491142
0.10729
0.194988
-0.277348
-0.131194
-0.169888
0.203436
-0.128857
-0.201896
-0.144443
-0.0343092
0.20013
0.180855
0.227323
-0.265145
0.178413
0.157348
-0.290202
0.112191
-0.00704589
-0.165793
-0.285839
0.198523
0.0204226
0.06447
0.229877
-0.0969665
0.123425
-0.19013
0.28897
0.0239764
0.0663588
0.0994108
-0.0891831
0.0912604
0.278636
0.0399387
-0.0129555
-0.169006
0.139893
0.150832
0.0963313
0.0319165
0.0215557
0.0314905
0.0635716
-0.101137
-0.113927
0.0845674
-0.283043
0.191233
0.21333
-0.261584
0.0722602
-0.0661721
0.101226
0.0113128
0.144105
-0.0707605
0.133101
0.13573
0.239769
-0.100615
-0.0596743
-0.155535
0.287101
-0.0877138
0.195119
-0.0197762
0.0498963
0.0325152
-0.171215
-0.143631
-0.234576
0.154747
0.185252
0.142128
-0.247265
-0.217545
-0.0716789
-0.233094
0.263671
-0.168062
-0.189931
0.0496713
0.0654672
0.208891
-0.237067
-0.0777233
-0.164844
0.197774
-0.242757
-0.22956
-0.21433
-0.00211303
-0.0700859
-0.216998
0.202133
-0.18014
0.0489269
-0.0440219
0.149042
0.170741
0.107258
0.212571
0.0206364
-0.0142465
0.0535397
0.081747
0.0648552
0.2842
0.148305
0.0388846
-0.176295
0.265533
-0.213005
0.195428
0.176582
-0.141654
-0.185427
-0.294683
-0.252326
-0.127935
-0.216738
-0.149149
0.168115
0.0103802
-0.0678211
0.0706612
0.128733
0.285306
-0.277986
-0.0252588
0.157392
0.138249
-0.109853
-0.123355
-0.167396
0.253013
0.265734
0.202075
0.23114
0.117937
-0.0456122
-0.243431
0.0770572
0.0496481
0.251155
-0.0463369
0.202741
-0.240446
-0.0451236
0.263922
-0.0773613
0.0441
-0.187128
-0.208651
-0.252358
0.0390921
0.161404
0.16918
0.0217904
0.187329
-0.156217
-0.117305
0.0270266
0.0371808
0.0587395
0.149883
-0.0140072
0.0235147
0.0567262
-0.080725
-0.165423
-0.285797
-0.0264919
0.215239
0.0530407
-0.0748847
-0.137145
-0.0446905
-0.0165637
0.12247
-0.0757242
0.202251
-0.139083
0.0375663
0.297266
-0.0909786
-0.23143
0.156147
-0.222187
0.0942177
0.0499417
-0.0726929
0.276933
-0.229405
0.25856
0.0390775
0.223692
-0.0478231
-0.240089
-0.0126785
0.177267
-0.10363
-0.000465043
-0.147657
-0.183425
-0.243231
0.0680987
-0.020103
0.0127687
-0.249377
-0.201906
0.231507
0.247626
-0.0398792
-0.0371566
0.244151
0.160667
0.038006
0.105857
0.244502
-0.159665
-0.145843
-0.141726
-0.186196
-0.0808178
-0.176345
0.147097
-0.150252
0.0734753
0.21101
0.135589
-0.0573535
-0.189855
-0.166262
0.0903229
-0.0813384
-0.117713
-0.134468
0.191541
0.193429
-0.0877824
0.292705
0.128456
-0.131779
-0.0532045
-0.197229
-0.189779
-0.198647
0.139489
0.209712
-0.258979
0.277548
-0.236505
-0.0936476
-0.2139
-0.00780272
0.0308907
0.236513
0.137344
-0.209083
0.146459
-0.0244165
0.0414975
0.25581
0.103987
-0.171229
-0.127791
0.288497
-0.0102574
-0.232409
0.190467
0.203127
-0.238524
0.0201531
-0.234029
0.00169858
0.114503
-0.124186
0.109345
-0.0440904
-0.206307
0.153378
-0.0636372
-0.138923
-0.23721
0.0147288
0.146799
0.078361
-0.0505119
-0.0170295
0.175924
-0.199519
0.259006
-0.0768811
-0.245859
0.0618579
0.0524718
-0.0775053
0.051178
-0.252398
-0.00541348
-0.0617846
0.246297
0.0534818
0.255553
-0.282718
-0.238388
0.0738019
-0.103528
0.171207
-0.272821
-0.00773589
0.02557
-0.0510151
0.152186
0.0808282
0.269916
-0.000702335
-0.134421
-0.0734524
0.28449
-0.250463
0.02314
0.24453
-0.0325933
0.083098
0.00563842
-0.284159
-0.290753
-0.240547
-0.246419
-0.00218416
-0.0103128
-0.293842
-0.242751
-0.0626749
-0.272202
-0.181619
-0.279681
-0.0790792
0.282062
-0.256707
0.215987
0.00915152
0.000553905
0.0713275
-0.205434
-0.0263946
-0.239789
-0.0426851
0.194867
-0.251696
0.00272473
-0.0707989
0.290775
0.270995
-0.293464
-0.013383
0.280214
-0.288896
0.0454299
-0.262005
0.0142245
-0.270011
-0.253629
0.0702716
-0.0248903
-0.226895
0.182866
-0.00527902
-0.0072196
0.164606
0.0325783
-0.0895171
-0.13009
-0.264704
0.277554
-0.0350896
0.00553431
-0.268296
0.226218
-0.0927621
-0.213079
-0.0774103
0.130314
-0.228821
-0.103263
0.140692
0.0560769
-0.126685
0.147867
-0.202828
-0.0833901
-0.132921
-0.171805
-0.0397301
0.232191
0.108765
0.0362815
0.12136
-0.200336
-0.270135
-0.0143576
0.135927
-0.0584903
0.161686
0.174207
-0.0862581
-0.177696
-0.121118
-0.0517582
-0.248427
0.0718871
0.0274025
-0.0287151
-0.0939579
0.0975576
0.162427
-0.264142
-0.144386
-0.254819
0.189814
-0.0432125
-0.0467777
-0.250284
0.0869651
0.219172
0.281369
-0.103374
-0.0462818
0.0995888
-0.00196051
-0.019003
-0.216146
-0.167629
0.223011
0.242518
-0.297965
-0.163811
-0.227608
-0.126333
0.0841608
-0.180281
0.245587
-0.183057
0.0943667
-0.151359
0.218205
-0.0402918
-0.117111
-0.226216
-0.00192903
-0.230904
0.0318708
0.256714
-0.18065
-0.181602
0.177704
-0.200147
0.0125658
-0.171016
0.198258
-0.286649
0.112829
0.278497
-0.1527
0.0334373
0.223773
-0.14893
0.168194
0.295254
0.0228123
-0.0464895
-0.186346
-0.0330404
0.0687184
0.20705
0.116158
-0.0139456
-0.133992
0.297359
0.0622361
0.166754
-0.230783
-0.206128
0.122664
-0.113741
-0.0887572
-0.0013174
-0.0155254
0.224078
0.126332
-0.119657
0.237515
-0.060054
-0.139949
-0.216842
0.272159
-0.213724
-0.0660377
0.142637
-0.219278
0.255137
-0.2068
-0.10503
-0.0772953
0.163451
-0.197618
-0.263316
-0.149517
-0.0314195
-0.265656
0.215586
-0.168659
-0.198298
-0.293566
0.254667
-0.0117599
-0.0832099
-0.0481691
0.272737
-0.156509
-0.219974
-0.144107
-0.22993
0.024777
0.0156917
-0.127742
-0.00542968
0.0991236
0.101416
-0.161576
0.169795
0.0473608
-0.0722287
-0.225225
0.275519
-0.22066
-0.120581
-0.279034
-0.0499519
0.142864
-0.254655
-0.139186
0.278757
-0.144005
-0.133167
0.237005
0.145286
0.0872767
-0.126755
0.109931
0.216315
-0.0384878
0.260493
-0.28954
0.28234
-0.0201051
-0.12561
-0.0338831
-0.22911
0.263074
0.109503
0.258084
0.0129129
-0.276792
-0.266302
-0.00779798
-0.18717
-0.0958178
-0.00141203
0.0581857
-0.25398
0.044752
0.208843
-0.279252
0.194338
-0.223332
0.251136
0.0413827
0.153946
-0.184655
-0.14145
0.0785481
0.0884291
-0.191467
0.0748251
0.0640661
0.0942752
0.249205
-0.275361
0.164106
0.206611
0.127497
0.125652
-0.065279
0.146523
0.147944
0.21682
0.267948
-0.243313
-0.0682418
0.0193251
-0.19345
0.278756
-0.0641292
-0.169115
0.183683
0.0176144
-0.227833
-0.087464
-0.129121
-0.111503
0.0741974
0.232527
0.262199
0.18089
0.0116107
0.0263954
-0.0319158
-0.0495393
0.0531332
-0.154893
-0.134068
-0.1155
0.259623
0.0837835
-0.266736
0.118743
0.0104188
0.293332
0.175679
0.233015
0.0125274
0.278204
0.207523
0.258803
-0.205424
0.0776674
-0.0390706
-0.12974
-0.285699
0.110314
0.0545398
0.0836519
0.050402
0.0394822
-0.0403268
-0.244023
-0.229234
0.239522
-0.00829175
0.120506
-0.235235
0.153678
0.293337
-0.262277
-0.0621785
-0.272548
0.147862
0.242259
-0.279981
0.0083278
0.169847
0.0452624
-0.0165369
0.0808993
0.00907711
0.0850848
-0.141021
0.251934
0.250039
-0.134144
0.0702685
0.0096595
0.238616
-0.178726
-0.254038
-0.0979875
-0.142952
-0.182824
-0.170604
0.151399
0.236996
-0.0965963
0.014108
0.226368
-0.0716445
0.257507
0.256554
-0.228935
0.181579
0.278753
0.0801041
0.0591548
0.0313905
-0.223905
-0.160946
-0.277823
0.149373
0.00429528
0.280501
0.115118
0.167525
0.0592159
-0.164997
0.108668
0.179836
-0.116553
-0.279352
-0.25482
-0.0130249
-0.146772
0.194866
-0.0782911
0.0529254
-0.0987126
-0.162116
0.28104
-0.152044
-0.204286
-0.255515
-0.263197
-0.220843
0.134534
0.0926129
0.0984801
0.193444
0.229097
0.125071
0.0344444
-0.0596615
0.106295
-0.14851
-0.188726
-0.129371
-0.0111989
0.201197
-0.24443
0.17385
0.220591
-0.215234
-0.162001
-0.222783
0.288499
0.0621939
0.101889
-0.125189
0.211884
0.0725931
0.0226263
-0.299116
0.134223
0.071563
-0.203751
-0.0506064
-0.116471
0.18299
-0.158436
-0.186913
0.0157759
0.187491
0.0553507
-0.154088
-0.247807
0.155364
0.0192573
0.0210146
0.0545356
0.0638505
-0.100705
0.0011343
0.154809
0.048486
0.0599647
0.133603
-0.178011
-0.139711
-0.288539
-0.271656
0.265535
0.0370256
-0.25934
0.095138
-0.188287
-0.174721
-0.269308
-0.00110046
-0.278108
-0.136815
0.112283
0.0469649
-0.221747
-0.131091
0.190586
-0.187962
-0.294784
-0.104774
0.132506
0.083801
0.27723
-0.27192
-0.227836
0.110462
0.0761281
0.116422
-0.0671679
0.203868
0.279503
-0.0596189
0.211332
0.232097
0.302839
0.252941
0.0189388
-0.184119
-0.217802
0.0654591
0.13604
-0.19774
0.249501
-0.0578233
0.162297
-0.28634
0.103485
0.0354302
-0.186984
0.118806
0.259532
0.257269
-0.101821
0.2242
0.295365
-0.0416018
0.0415724
0.0743217
-0.218024
0.288489
-0.0262776
-0.230152
-0.0585405
-0.102867
-0.283796
-0.0675228
-0.139879
0.0447165
0.0579768
-0.0503896
-0.196834
-0.121286
0.0621341
-0.261304
0.11858
-0.0690641
-0.253622
-0.0725683
0.284829
-0.140056
-0.257323
0.239962
-0.179312
-0.0652154
0.165386
-0.180965
0.199587
-0.082416
0.193283
0.276177
-0.100811
-0.137338
-0.249614
0.140454
0.0584022
-0.236286
-0.223568
0.215959
0.103132
0.135086
-0.133856
0.208164
-0.285193
0.234765
0.25177
0.132541
-0.136126
0.297317
-0.245944
-0.156969
-0.146881
-0.204105
-0.217297
-0.0197999
0.0372958
0.257728
0.098522
-0.063955
-0.129285
-0.0141472
-0.085468
0.0641876
0.154204
-0.0308619
-0.0974837
-0.0893358
0.0288571
-0.0231845
-0.172155
-0.162692
-0.182541
-0.00489134
-0.254232
-0.173633
-0.0740917
0.29687
0.259108
0.0849743
0.288851
-0.28383
0.230083
-0.143978
-0.188845
-0.279947
0.132288
0.151427
0.273717
-0.0713153
-0.218162
-0.149793
0.216505
0.000253509
0.215017
0.0713702
0.275804
-0.18844
0.286116
0.00677206
0.0859123
-0.191858
0.136135
0.217863
0.0976089
0.17043
-0.25651
-0.269697
0.191507
0.288921
0.108712
0.182611
-0.276019
0.0560495
-0.270732
-0.15826
0.0803821
0.164861
0.274246
0.0459721
-0.226338
-0.231663
0.176208
0.30366
0.0669092
0.090225
0.064924
0.0300184
0.20114
0.0322024
-0.273957
-0.00415553
0.141373
0.172471
-0.0827076
-0.0555439
0.0410894
-0.0618224
-0.0338952
-0.0716021
-0.0613976
-0.216912
-0.203637
-0.0305593
0.134116
-0.168062
0.0845236
-0.0873281
0.283968
0.0595532
0.256985
-0.229039
0.140935
0.125305
-0.236205
-0.0904151
-0.0788416
0.12588
0.216495
-0.184418
-0.142543
0.253391
0.127342
-0.288941
0.128004
-0.271249
-0.0590492
-0.123057
-0.0263216
0.225773
0.101326
0.228172
-0.281488
0.1999
-0.107331
0.155861
-0.255421
0.288552
-0.251333
-0.269669
0.0508521
0.304239
-0.207585
-0.121283
0.112775
-0.141898
0.0720846
-0.266093
0.265547
0.00489087
-0.136362
-0.162741
-0.0363476
0.280766
-0.179494
-0.213779
-0.292682
0.0627644
-0.0364335
-0.0131504
-0.0185315
-0.226505
-0.0814687
-0.00187114
0.262309
0.106371
-0.145099
-0.30232
0.0781652
-0.107975
-0.270941
-0.16498
-0.106513
-0.196539
0.00969623
-0.279536
-0.0543248
-0.21057
-0.242795
-0.0760027
0.104703
-0.0720547
0.0375326
-0.217561
-0.102005
0.163155
-0.133879
-0.0825677
-0.0606198
0.132677
0.214518
0.220119
0.199403
-0.166797
-0.0842695
0.163601
0.232263
0.0684001
0.176493
0.0214185
0.262211
0.199052
0.15529
-0.134786
-0.301723
-0.131891
-0.120115
-0.0409257
-0.0443675
-0.0550132
0.187761
-0.239586
0.165971
-0.0826152
-0.146245
-0.225494
-0.217248
0.0114346
-0.0118531
0.0294733
-0.148459
-0.0952957
-0.0534539
-0.259662
0.0261411
0.165203
0.211376
-0.0312229
-0.0703242
0.0811354
0.276949
-0.103263
-0.0307103
0.124821
0.0579599
-0.0312483
0.286049
0.229632
0.227705
-0.0404988
-0.122986
0.11153
0.0218201
-0.246087
-0.258108
0.177369
-0.175197
-0.168806
-0.106625
0.127231
0.15276
0.0332334
-0.277243
-0.205756
0.0918948
0.0625095
0.259398
-0.014655
-0.268856
-0.108477
-0.229375
-0.287989
0.0932304
0.0468987
0.142531
-0.162627
-0.281342
0.141914
-0.224541
0.242886
-0.218726
-0.0396161
0.0632616
0.106977
0.0148956
0.0922842
-0.0192607
0.145895
0.217716
0.166708
-0.014882
0.0692949
-0.0864207
0.0126003
0.165293
0.287808
-0.222031
0.119527
-0.0176329
-0.182565
-0.282957
0.0606655
-0.179021
0.0943991
-0.189938
0.276582
0.232842
-0.17842
0.108454
-0.283506
-0.224009
0.196347
-0.0229564
0.141481
0.00854701
0.297453
-0.0628509
0.288962
0.147603
-0.14898
0.163344
-0.160686
0.214306
-0.226241
0.145553
0.0883779
-0.223624
0.226299
-0.0974015
0.057418
-0.255834
-0.0829155
-0.177308
-0.129185
-0.288114
-0.0828881
-0.145578
0.254777
0.0469014
0.258868
0.265927
0.110779
0.159619
-0.058122
-0.0527877
-0.138267
-0.0668883
0.174505
-0.152773
-0.208861
-0.264293
-0.288494
-0.0693203
0.250636
-0.203119
-0.212435
0.0328581
-0.129915
-0.288946
0.242147
0.230364
-0.240846
-0.146747
-0.251611
-0.0755184
-0.11703
-0.0312688
0.0764176
-0.18246
-0.285247
0.0377552
-0.222185
0.123577
-0.090897
0.0370012
-0.215567
0.065948
0.270316
0.277582
0.213618
-0.243325
0.28003
0.252415
-0.00185401
0.236077
-0.255558
0.0654368
-0.0280299
-0.0940547
0.072622
-0.0899554
-0.142129
0.137356
0.0890424
-0.0996613
-0.222542
0.246684
0.181264
0.150933
-0.221317
0.216778
-0.0952559
-0.126501
0.0383432
0.10462
0.197228
0.128249
-0.133696
0.166273
0.0969408
-0.212635
0.240006
0.0715558
-0.259753
-0.0623564
0.0263522
-0.220108
-0.285435
0.286685
-0.00202084
0.0833908
-0.0945716
0.173211
-0.0823795
0.282728
-0.244371
0.0106531
0.239426
0.252618
-0.15068
-0.287214
0.171797
0.0668674
-0.110018
-0.0833866
-0.145192
-0.218947
-0.255742
0.0293351
0.260465
0.127892
0.105807
0.180575
-0.0868361
0.138869
-0.180098
0.231984
0.221807
-0.178341
0.20986
-0.0721377
0.227493
-0.177745
-0.209969
-0.167501
-0.166858
-0.131825
0.152344
-0.234796
-0.174773
-0.287543
-0.190457
0.284582
0.059987
-0.0185714
-0.105039
0.220942
0.0849571
-0.0654537
-0.048203
0.0426199
-0.237378
-0.239715
-0.0616129
-0.033187
0.202523
0.060872
-0.104289
0.132395
0.183622
-0.178469
-0.236146
0.104396
-0.0371633
-0.152239
0.245552
0.0964828
0.00588185
0.091039
0.177193
0.120735
0.0959847
0.274207
0.0996309
-0.142312
-0.0297823
0.29527
-0.212476
-0.244015
-0.0695224
0.038186
0.0953988
-0.00984091
0.0953193
-0.265707
0.263316
-0.000917906
0.0881085
-0.139706
-0.169105
-0.0223568
-0.0189542
-0.109003
-0.221321
0.241879
0.0390854
-0.277789
0.0363542
-0.256834
0.111706
-0.0875506
0.163664
-0.0953066
-0.115723
-0.0326472
0.066319
0.158124
-0.0400713
0.14859
0.2119
0.190689
-0.113582
0.00484413
-0.118144
0.278818
0.0355248
-0.155409
-0.0165738
-0.176811
0.00117326
0.111229
0.103872
0.282552
-0.293232
0.181327
0.223346
0.0454856
0.206269
-0.0378642
0.0924153
0.0189201
0.170431
-0.0443237
0.22464
-0.246275
0.223985
-0.0157544
0.208446
-0.116719
-0.165774
0.121042
-0.228809
0.019283
-0.175687
-0.0425321
-7.82265e-06
0.15354
0.0940701
0.28068
0.281556
-0.192878
0.087665
0.087823
-0.218349
0.0918125
-0.0337999
-0.292265
-0.1551
-0.124366
-0.0340721
0.2378
0.190914
-0.15696
-0.110093
0.115609
-0.101997
-0.185179
-0.207437
-0.191688
-0.00591753
-0.0766271
0.221589
0.0722822
0.244018
-0.251063
-0.26913
-0.0583943
0.206554
0.128327
-0.0834184
0.19434
0.228078
-0.294644
-0.0186801
-0.287981
0.114925
0.25569
-0.288539
0.247351
-0.173482
-0.0128745
0.187903
-0.285516
0.122945
-0.222008
0.127146
-0.286058
-0.106666
0.214015
-0.177861
0.188271
-0.155388
-0.248086
-0.0413794
-0.216364
-0.198782
-0.0205678
0.0215291
-0.297163
-0.198611
0.2383
0.204972
-0.267216
0.257014
-0.109316
-0.255994
0.0648293
-0.162301
-0.237105
0.00115586
-0.0365558
0.0507728
-0.113456
-0.0193344
-0.124865
-0.0389749
-0.193985
-0.105726
0.159613
-0.27569
0.0210883
0.0429288
-0.140522
0.0657764
0.298784
-0.0595038
0.165221
-0.019424
0.259274
0.185875
0.0818913
0.207702
0.0855459
0.121475
0.15572
0.269767
0.161191
-0.0910924
-0.201938
0.227717
0.215872
0.0711456
-0.0255556
-0.191707
-0.250715
0.152457
0.0709926
-0.146341
-0.249202
-0.0775096
-0.122085
0.0708943
0.265005
0.0415488
-0.160232
0.266769
0.282829
-0.292002
-0.0602788
0.245
0.185738
-0.274201
0.14583
-0.0331864
0.144228
0.000573688
-0.0669432
0.00588295
0.214819
0.03641
-0.0685396
0.132997
-0.192722
0.206245
0.237447
-0.142976
0.0662571
0.0133295
0.0105272
0.107567
0.235051
0.189836
-0.11663
0.203833
-0.0719197
0.0227151
0.166063
-0.0923403
0.0315961
-0.198921
-0.148737
-0.0834561
-0.166635
-0.300186
0.183992
0.272942
0.00330949
-0.186284
-0.020961
-0.0837124
0.147579
0.207625
-0.249192
0.255058
0.12121
0.290805
-0.189275
-0.119051
-0.000487754
0.123174
0.285041
-0.0656185
0.0133003
-0.131475
-0.160713
0.242451
0.189492
-0.299378
-0.152437
-0.0770598
-0.195002
0.00277197
0.136912
-0.0698835
0.00215237
0.0189547
-0.0963695
-0.291422
0.12956
0.180092
-0.0688853
-0.0218708
0.0940656
-0.0212146
-0.0639821
-0.0905512
-0.0324076
0.0454956
0.0885664
0.269802
-0.130923
0.0757636
-0.104002
0.185985
0.244748
0.0406039
0.128614
0.139738
0.0406011
0.275385
-0.246928
0.147763
-0.0189878
0.186899
-0.227183
0.284397
-0.098914
-0.0207473
0.290758
-0.267354
-0.14039
-0.0770006
0.012464
0.256676
0.193678
0.247786
-0.137263
-0.140494
-0.00577524
0.251855
-0.176324
0.168583
0.0220109
0.0316874
0.0574573
-0.0312607
-0.228209
-0.126484
-0.199057
0.118791
-0.141939
-0.145784
-0.0424277
0.13431
-0.253664
0.0355981
0.119254
-0.0515902
-0.278374
0.112988
-0.0166453
-0.117634
-0.267926
0.295732
-0.168633
0.230194
0.247944
-0.00519433
-0.205437
-0.0566912
-0.048048
-0.0715931
-0.188129
0.265506
0.255017
0.160804
-0.0693605
-0.272907
-0.261378
0.0359757
0.138211
-0.0953839
0.194051
-0.20139
-0.261023
0.235513
0.129717
0.162729
-0.115031
0.143534
-0.0299512
0.164417
-0.278583
0.0041943
0.165428
-0.139407
-0.0643087
0.115732
0.15645
0.0325109
-0.237901
-0.205099
0.259663
-0.130862
-0.23385
0.213736
-0.263983
0.00134108
0.241936
-0.217624
-0.254923
0.0840305
-0.0176785
0.234328
0.183309
0.0167395
0.171652
0.0124367
-0.126812
-0.245032
-0.145971
0.154892
0.219505
-0.126932
-0.137113
0.0876318
0.034776
0.0945762
-0.100123
-0.109423
-0.163415
-0.0372868
-0.011545
-0.203382
0.134733
0.0607457
-0.290481
0.169014
-0.238223
0.256936
0.24158
-0.192859
0.0376594
-0.0758239
-0.265091
-0.08349
0.242667
0.202477
0.227464
-0.184964
0.256833
-0.21242
0.269699
0.179495
-0.0432437
-0.176451
-0.0358926
0.294181
0.222776
0.165402
-0.121302
-0.235215
-0.173119
0.171792
-0.147441
0.262708
-0.0717858
-0.137941
0.127988
-0.00757648
-0.178812
0.0657405
0.0978787
0.15937
0.295214
0.135056
-0.228944
0.232811
0.0384759
-0.297049
-0.246114
-0.00258306
-0.209657
-0.2782
-0.126163
0.0487593
-0.152684
0.142142
0.0403267
-0.221755
0.0131312
0.220797
-0.161024
0.139454
0.0955081
-0.00244442
0.0931481
-0.276341
0.160131
-0.0807484
0.015411
0.278247
0.2823
-0.186479
0.132259
0.277048
0.240127
0.21098
0.214165
-0.0175796
0.221047
0.272861
0.269636
-0.291541
0.279032
-0.153963
0.057375
-0.162295
0.286465
-0.194623
-0.0851817
-0.00776076
-0.281705
0.0531587
-0.164375
0.11277
-0.261768
0.223067
0.131226
0.204143
-0.158592
-0.155153
0.179879
-0.168325
-0.0451415
0.0203466
-0.194101
-0.0962946
-0.0639358
-0.277165
0.178111
-0.143581
0.281908
0.149751
-0.140975
0.269942
0.299775
0.218878
-0.187998
0.274849
-0.292108
0.0338567
-0.0176683
-0.272613
-0.221486
0.109201
0.149193
-0.173504
0.0390549
-0.0189696
-0.265932
0.183766
0.132418
0.215471
-0.283478
-0.210929
-0.0692236
-0.169503
-0.00351009
0.161682
-0.146457
-0.127984
-0.27487
-0.150014
-0.278548
-0.1217
-0.181447
-0.280167
-0.208899
-0.0652798
-0.299555
-0.195572
0.252326
-0.00813221
-0.15869
-0.263686
-0.20157
0.287574
-0.146278
0.141119
-0.0316776
-0.1204
0.0172371
-0.206304
-0.2121
0.0336368
-0.108451
0.0259704
0.162739
0.192742
-0.108468
-0.278031
-0.228547
-0.0942955
-0.129335
-0.212083
0.0900765
-0.0138666
-0.185641
0.179781
0.220298
-0.179785
0.291229
0.18522
0.107682
-0.173037
0.211386
0.211854
-0.184728
-0.230921
0.0499158
0.0792844
-0.0523822
-0.237768
0.186287
0.0413061
0.111027
-0.223046
-0.244377
-0.0168679
0.271087
-0.0530005
0.00218934
-0.272217
0.161325
0.176908
-0.182858
-0.0518171
-0.123389
-0.06665
-0.161219
-0.200109
0.0575761
-0.175062
0.279775
-0.135724
-0.0449417
0.192573
-0.227681
0.0777015
0.265434
0.111513
-0.134907
-0.0892467
0.172711
-0.255119
0.25187
-0.00177668
-0.176466
-0.281154
0.273212
-0.209413
-0.032621
-0.0215996
-0.183216
-0.169202
-0.131819
-0.0651461
0.086652
0.0378459
0.166889
0.220629
0.135495
-0.0756727
-0.243996
0.106238
0.0902634
0.0160156
0.0128088
0.156151
-0.205579
-0.0295771
-0.0337277
-0.0539073
0.184
-0.147048
-0.00119035
0.134803
0.148561
0.113821
0.151061
0.116943
0.194071
-0.181833
-0.208652
-0.289741
-0.0574067
-0.0455587
-0.0503163
-0.275484
0.296539
-0.175636
0.242281
0.13434
0.0514725
-0.30083
-0.0525693
-0.160807
0.0106821
0.26037
0.295139
0.102231
-0.0676911
-0.0436103
-0.233067
-0.181799
0.1249
0.0555295
0.257191
-0.0383266
-0.128197
0.0996467
-0.231131
-0.23268
0.231257
-0.125255
-0.229584
-0.116818
0.145351
0.0371857
-0.0906936
0.133585
0.157315
-0.139315
-0.0284007
-0.0919842
-0.134676
0.218696
0.0477031
0.169041
0.17059
0.0334275
-0.013167
-0.201063
-0.289163
0.0477694
-0.0783546
0.129805
-0.206036
-0.127264
-0.218731
-0.0245066
0.288491
-0.147898
0.0260157
0.215794
0.0319313
0.105084
-0.210128
-0.140055
-0.159311
-0.00407331
-0.30633
0.289787
0.153445
-0.0395466
-0.101193
-0.283448
-0.118142
0.238443
0.174533
-0.24009
-0.0230047
-0.12994
-0.154591
-0.0227713
0.210206
0.0759881
-0.19193
-0.296718
0.242984
-0.11649
-0.0300613
0.232253
0.0506142
0.289061
0.141709
-0.226204
0.100427
0.234564
-0.0511498
0.233366
-0.0646193
-0.0581103
0.233182
-0.207741
0.213985
-0.16672
-0.203885
-0.216499
-0.230995
0.270695
-0.155604
0.0318466
-0.174648
-0.00440981
-0.288326
-0.260146
-0.23733
-0.188753
-0.255752
-0.280597
0.000711576
0.00570621
0.233515
-0.259487
0.00238842
0.0898194
-0.187723
-0.193441
0.0175271
0.0550499
-0.256976
0.253083
-0.29667
0.2736
-0.259041
0.214129
-0.205038
-0.160172
-0.295749
-0.138984
-0.187311
-0.153189
0.183747
-0.0523819
0.141233
0.189662
-0.0154248
0.208569
0.298121
0.0301098
0.221863
-0.00858572
-0.255738
0.162018
0.0323066
0.0514574
-0.0512166
0.145378
0.155632
0.269178
-0.0877927
0.208786
0.216355
-0.0991538
0.180651
0.262462
-0.176516
0.276756
-0.201772
-0.178061
-0.16631
-0.0948007
-0.0275732
-0.290727
0.153906
-0.189787
0.205764
-0.157474
-0.282213
0.200956
0.17774
0.23517
-0.109692
0.219906
0.0882877
0.222836
-0.0273408
-0.261727
0.0767613
-0.164024
-0.295317
0.281475
-0.264639
0.230105
-0.125292
0.212673
0.191651
-0.00329951
0.19081
0.291675
0.118127
-0.282153
-0.100908
-0.205682
-0.26448
-0.241541
-0.0983285
0.230069
-0.0974301
-0.0806696
0.127458
-0.221506
-0.147688
-0.283583
-0.287678
0.241395
0.248158
-0.0194549
0.289857
0.0126072
0.111815
0.290263
-0.0184336
0.144133
0.220985
0.16476
0.0596055
0.112578
-0.135785
-0.0519741
0.105071
0.283019
-0.0297137
-0.288266
-0.227226
9.41728e-06
-0.225272
-0.0310932
-0.0663745
-0.0284075
0.186818
-0.23509
0.0535479
-0.266407
-0.217974
0.0571285
0.27671
-0.278967
-0.264161
0.265725
0.0352299
0.150115
0.256156
-0.279781
-0.0099602
0.174172
0.188541
-0.252473
-0.0114723
-0.247057
-0.000180034
-0.196507
-0.263436
0.265285
-0.187488
-0.195961
-0.0293597
-0.113405
0.0735051
0.202707
0.1592
-0.0396202
0.263253
-0.0834095
-0.00968385
-0.252722
0.273584
-0.0266878
-0.228099
-0.288266
-0.0626837
0.106815
0.153914
-0.110756
0.125904
-0.156136
-0.235877
0.0167339
-0.105713
0.063185
0.0719168
0.194188
0.164208
0.104159
0.160753
0.270346
0.210924
-0.165401
-0.147208
-0.0142987
-0.265863
-0.288176
0.245068
-0.30074
-0.0711725
-0.0616696
-0.252102
-0.10002
0.205483
-0.182554
-0.0909677
-0.156133
0.22178
-0.233034
0.0323566
0.0589305
-0.0892467
0.102846
-0.225491
0.110415
-0.139625
0.140948
0.000870786
-0.278461
-0.0593611
-0.132925
0.292916
-0.142873
0.00290093
-0.153953
0.142831
0.0396683
-0.14289
0.0845417
0.037966
0.0872384
-0.277276
0.0812425
0.287217
0.233168
0.210184
-0.102023
-0.228286
0.132575
-0.0306389
0.11001
-0.113404
0.18519
-0.0870371
-0.0421722
-0.0143894
0.0684631
-0.209516
0.291453
0.0880935
0.0405343
-0.139334
0.0808048
0.19672
0.159063
0.223448
0.0327697
-0.104775
-0.212056
-0.18183
0.231553
0.177394
-0.158662
0.0171017
0.160321
-0.22894
-0.0783012
-0.239595
-0.154394
-0.248487
0.0275331
0.253518
-0.0629878
-0.093784
-0.135361
0.19108
0.191285
0.236631
0.287269
0.188789
0.0232516
0.0216174
-0.251119
-0.19738
-0.0844699
0.200441
-0.271912
0.246062
-0.203429
-0.180427
-0.229356
-0.271439
0.288786
-0.0939504
0.0493158
0.151631
-0.0153201
0.270646
0.213014
0.131072
-0.277713
-0.0573185
0.0879803
-0.0359531
0.14769
0.249133
-0.143873
0.0404805
0.187087
-0.162811
-0.0761005
-0.0960981
0.160602
-0.0309019
0.00621682
-0.226915
-0.129234
0.0390052
-0.275982
-0.0276505
0.156134
-0.211737
0.000359851
0.148083
-0.00253551
-0.256191
0.0029034
0.281142
-0.291509
-0.0883256
0.106728
-0.260558
0.149536
-0.112772
-0.000591192
-0.00191133
-0.155054
0.139837
-0.265198
-0.269099
0.281135
-0.0345219
-0.0645217
0.14015
0.238567
0.24604
0.205904
-0.190968
-0.0223202
0.231277
0.0705993
-0.161821
-0.286063
-0.228437
0.2781
0.00428219
-0.18557
-0.0239975
-0.0136159
-0.176458
0.188822
-0.204463
-0.138872
0.0414391
-0.0189348
0.152708
-0.266833
0.129614
-0.00482677
-0.231493
0.152827
-0.0186173
0.0312978
-0.207015
-0.185837
-0.0287157
-0.265679
-0.283523
0.0780957
0.0154972
0.252081
-0.158646
0.150816
0.263006
-0.0803061
0.132949
-0.0355738
0.027081
-0.191258
0.251811
0.157245
0.300316
-0.253476
-0.282143
0.0388776
0.030311
0.173044
0.0776562
-0.143956
-0.123067
0.150059
-0.287974
0.153908
-0.116178
-0.191472
0.270041
0.143348
-0.158527
0.288725
-0.0788251
0.151583
0.234681
0.060092
0.00424479
0.194362
0.277576
-0.174215
-0.133424
0.0125937
-0.0609554
-0.174002
-0.131698
-0.0681826
-0.128739
-0.120227
0.267965
0.203412
-0.240206
0.0450266
-0.237548
-0.0679993
-0.111377
-0.226579
-0.211205
0.0698176
-0.118433
-0.247334
-0.0854342
0.0132949
-0.255669
0.134978
-0.13557
0.279705
-0.0970747
0.164996
0.182369
-0.120451
0.295199
-0.247637
0.189888
-0.0697758
-0.124682
-0.246841
0.158993
0.0440926
-0.0637017
0.126426
-0.0521028
-0.00187388
-0.131256
0.00104528
0.236674
0.0615692
0.0728799
-0.279826
-0.172781
0.259096
-0.226649
0.0502095
-0.0297616
-0.181011
-0.11621
0.140504
-0.20198
0.0889587
0.00871263
0.278795
0.271953
0.00137391
-0.27105
0.162833
0.231167
-0.0971289
0.225432
0.0852677
0.248565
-0.135819
-0.0858646
-0.112551
0.163175
0.0819727
0.192188
0.0909859
-0.152638
-0.0256522
0.115073
-0.0248839
-0.069351
0.184179
-0.276165
0.203468
0.297047
-0.0924077
0.0382321
-0.207047
0.29442
-0.25142
-0.227084
0.264195
0.0524943
-0.195522
0.126535
-0.0153502
0.00417058
0.0517291
-0.230174
-0.0475216
0.2085
-0.009603
0.144915
0.0719826
-0.225492
0.0356979
-0.131297
-0.0783397
-0.289133
0.27774
0.20124
-0.061698
0.160689
0.228088
-0.160655
0.158813
-0.167535
0.186067
0.254918
-0.167865
0.23617
-0.272337
-0.193171
-0.0103667
-0.170976
0.232781
0.270852
0.138615
-0.0152562
-0.257443
-0.208929
-0.101996
0.0310824
0.237377
0.27055
0.112659
-0.024172
-0.158217
-0.266196
-0.00810651
-0.178321
0.231957
0.231112
0.282463
0.16209
-0.227534
0.136186
0.295817
0.255461
0.0950731
-0.165103
0.192962
0.120216
-0.0619299
-0.117682
0.252586
-0.133688
-0.147135
0.0878527
0.156632
-0.105787
0.181599
-0.24632
0.228872
0.118664
-0.27532
0.044194
-0.204976
-0.135054
0.0736122
0.0841434
-0.0111663
0.00940266
0.0142151
-0.032473
-0.131724
0.0854377
-0.195433
-0.136318
0.041814
0.199881
-0.00208294
-0.0664231
0.0214505
0.229557
0.110577
-0.0275161
-0.20119
0.264885
-0.240692
0.250376
-0.135125
0.24063
-0.295238
-0.202876
0.0574292
-0.269968
0.140619
0.15284
-0.101765
-0.0856109
-0.058493
0.182107
0.221904
0.25475
-0.157155
-0.2078
0.0436522
-0.048033
-0.0425756
-0.215252
-0.146799
0.250883
0.0164131
0.173209
0.183248
-0.167866
-0.157009
0.279795
-0.196393
-0.0984039
0.234122
-0.0383667
-0.154896
0.241596
0.0568524
0.198868
0.269326
-0.106219
0.0532821
-0.140118
0.110304
0.299668
-0.256117
0.0392211
0.253694
-0.109568
0.126731
-0.00474016
0.145317
-0.218839
0.0812196
0.2964
-0.263259
-0.194772
0.168661
0.216483
-0.062747
-0.290007
0.201303
0.0412271
-0.0855449
0.136438
-0.296731
0.0592693
0.0726147
0.0640301
-0.0446039
0.0438108
0.259701
-0.2867
0.207493
0.0737923
-0.288923
0.249987
-0.194507
0.260774
-0.159072
0.231336
-0.0430006
0.287307
-0.285116
-0.251084
0.286798
-0.2464
-0.146955
0.153043
0.268637
0.0858265
0.164154
0.171176
-0.176975
-0.217469
0.0047327
-0.173969
0.137612
-0.221202
0.188603
-0.203957
0.124063
0.147536
-0.195183
0.0303045
-0.0825382
-0.181726
-0.0196676
0.0256317
-0.220466
0.130783
-0.0428891
0.0413751
0.117329
-0.0232046
0.0839144
0.0957718
0.027838
0.237046
-0.049057
-0.000223488
0.02254
-0.184115
-0.122931
0.142797
-0.100848
0.18215
0.268925
-0.265643
0.259815
0.162302
-0.173839
0.0805097
0.00787958
-0.0649299
-0.178877
0.223437
0.0477663
0.10154
-0.0432413
0.133465
-0.0735654
0.217781
-0.124083
-0.25888
-0.113298
0.2563
0.129397
0.219043
0.186731
-0.214382
-0.0791244
-0.0928524
-0.0971148
0.0953787
-0.250164
0.0918537
-0.0303476
-0.276839
0.126697
-0.0628254
0.186687
0.254416
-0.285296
-0.114285
-0.112756
-0.16864
-0.184823
0.241323
0.228556
0.072345
0.0732994
-0.144727
-0.0220044
0.245986
-0.107638
0.167553
0.20182
-0.272091
0.0925812
0.0882264
-0.189033
-0.283289
0.293413
0.0073415
0.098589
-0.257775
-0.199864
-0.224471
-0.227392
0.230964
0.014619
0.250059
0.178903
0.0316959
-0.161315
-0.225519
0.163953
-0.0401373
-0.282948
0.0894765
-0.270295
0.0907728
0.252714
0.0141825
0.0288783
-0.154602
-0.115634
-0.0685609
-0.126968
0.271897
-0.292694
-0.0161453
0.280148
-0.295408
0.287075
0.0858391
-0.248792
-0.206018
0.172854
-0.180316
-0.284673
-0.121517
-0.228998
0.202891
0.202908
-0.0797559
0.275135
0.0660538
0.172027
0.280534
-0.147035
0.202373
0.0616637
-0.196103
-0.0922379
-0.193373
-0.0567455
0.0843878
0.0293661
0.118328
0.0634397
0.0462358
-0.197656
0.0544183
0.0502454
-0.2214
-0.163947
0.089963
-0.131602
-0.294635
0.219413
-0.109718
-0.123088
0.299949
-0.209671
-0.224826
-0.0921983
-0.254081
0.143136
-0.209626
-0.265403
-0.295415
0.283464
0.0971738
-0.191102
-0.106481
0.198774
0.0544868
0.288495
-0.0767095
-0.126126
0.0476857
0.268079
-0.0355046
-0.206923
0.0167186
0.0456271
-0.0679591
-0.179495
0.225249
-0.0584109
-0.25844
-0.185871
0.1094
-0.269364
-0.115664
0.183101
-0.0613252
-0.0635568
0.0368668
0.0260604
-0.0176714
0.0317549
0.00201496
-0.213302
0.141576
0.20421
0.287298
-0.103597
0.184335
-0.0953378
0.0666988
-0.0685431
-0.118206
-0.261022
0.026104
0.200389
0.089556
0.266598
-0.286436
0.0108724
-0.1181
-0.244116
0.112782
-0.303288
-0.222081
-0.292963
0.188442
0.0267651
-0.0517142
-0.0753531
-0.254831
0.227073
0.267714
0.0514416
-0.294717
0.100861
-0.0537728
0.283365
0.297043
-0.169188
-0.0954012
0.0590039
0.0579954
0.0810745
0.102472
-0.21184
-0.0214491
-0.114036
-0.253958
-0.00727849
0.200642
-0.0677201
0.0402042
0.0132404
-0.0577398
0.117182
0.020985
-0.166654
-0.159766
0.267371
0.0650657
-0.116816
0.199969
0.0222038
0.231781
0.204651
-0.180882
-0.113525
0.199334
-0.192072
0.0122819
-0.197012
0.177411
-0.226673
0.173711
-0.0254296
-0.144553
-0.144046
0.157258
-0.101216
0.144331
0.0577234
0.133101
-0.120896
-0.223451
-0.231453
0.295576
0.0976885
-0.100407
-0.163792
0.0614187
0.252071
0.0238616
-0.033885
-0.0247553
-0.0441533
-0.123021
0.0936771
0.142911
-0.226055
0.214072
-0.152622
-0.132893
0.085884
-0.0796892
-0.253538
-0.23233
0.0737082
-0.0958708
0.235774
0.276096
-0.246496
-0.00217148
0.111802
-0.0704461
0.0650447
0.18042
-0.0773885
-0.141717
-0.220496
0.0537332
0.228588
-0.268027
-0.221549
-0.107851
0.0102172
0.0294293
0.0654238
-0.194612
-0.134339
0.123325
-0.283907
0.01561
-0.290145
0.0977285
0.237197
-0.249038
0.170173
0.00355611
-0.0475972
0.105368
-0.0147709
0.00686197
-0.206134
-0.206356
0.240808
0.16594
0.27099
-0.142598
-0.273022
-0.257954
0.214163
0.252629
-0.226004
0.289495
-0.157989
0.0736507
0.0194095
0.201591
0.179236
0.187494
0.0386094
0.189646
-0.09112
0.0402265
-0.0186981
-0.157632
0.0916421
-0.132894
0.157893
-0.258549
0.251698
-0.162831
0.0534229
-0.243962
-0.0714052
-0.019099
0.221047
-0.106622
0.132662
0.245756
-0.0689341
0.0444084
0.196792
0.0123003
0.0391275
-0.266118
-0.223696
-0.234488
0.233704
0.256553
0.24166
-0.037729
0.13938
-0.140565
-0.290556
-0.169619
0.00111459
0.0939925
-0.01523
-0.147936
0.148936
-0.0727377
-0.00946991
-0.0991617
-0.0150684
0.218807
0.186681
-0.0991258
-0.18785
0.0214965
-0.14348
0.048744
-0.224465
-0.251283
-0.255036
0.109261
-0.218762
-0.181822
0.172591
-0.295309
-0.233367
0.130087
-0.0299956
0.217088
0.279222
-0.020385
-0.259489
-0.0126163
-0.228256
0.0159307
0.135773
0.213003
0.252488
-0.180193
-0.185411
-0.0568951
-0.259161
-0.302285
0.155688
-0.141189
0.0264466
0.298185
0.19812
0.108327
-0.262617
0.240583
-0.0871331
-0.187134
-0.230246
-0.21091
-0.186358
-0.15697
0.211854
0.0819091
-0.24438
0.192678
-0.233677
-0.201109
-0.121478
-0.168295
0.118729
-0.297359
-0.253286
0.0699066
-0.174377
-0.131925
-0.283545
-0.12774
-0.135848
0.165122
0.0281616
0.197183
0.165298
-0.0741222
0.000816577
0.206974
-0.125087
0.215084
-0.279126
-0.0566573
-0.29073
-0.165187
0.0890058
0.221357
0.219889
0.144607
0.1188
0.291166
0.239431
0.291039
-0.182658
0.0653739
0.298988
-0.131547
-0.168156
-0.176723
0.0397498
-0.147526
-0.000674213
0.207867
-0.284962
-0.280048
0.106763
0.183186
-0.0501206
-0.196316
0.089131
0.117539
-0.278157
0.106314
-0.238522
-0.273437
0.240319
0.144735
0.24516
0.16582
-0.00480907
0.0644435
0.156358
-0.0656038
0.0651173
0.281481
0.300571
0.0620398
-0.150362
-0.163453
0.192157
0.187174
-0.0212946
-0.112939
0.0884818
-0.0103831
-0.0810205
-0.104813
-0.11329
0.16138
0.00154768
0.265298
-0.0157198
0.0161382
0.0719033
0.0493062
0.0461793
0.0200137
-0.105745
-0.00044253
-0.106117
0.186426
-0.219449
-0.254637
-0.178146
0.139315
-0.281436
-0.179966
-0.0953988
-0.139251
-0.0460402
-0.204354
-0.252789
0.239097
-0.012633
0.144329
-0.0612411
0.203928
-0.254657
0.12013
0.063513
0.0421138
0.0883024
-0.236836
-0.23033
-0.14428
0.0926014
0.112945
0.181173
0.298686
-0.184872
-0.232047
0.180705
-0.110998
-0.194152
-0.294879
-0.279953
-0.176188
-0.177547
-0.0657641
-0.00987626
0.075176
0.0228582
0.044179
0.00934564
-0.290662
-0.117391
0.237946
0.209806
-0.0681095
0.0621053
-0.0143748
0.279849
-0.154085
0.0370024
-0.260398
0.011726
-0.179215
0.151279
-0.107911
-0.181064
0.268164
-0.037497
-0.302838
-0.149947
0.0694538
-0.291253
-0.120774
0.201941
-0.17337
0.0970571
-0.107981
0.200497
-0.182686
0.235365
-0.0970106
-0.177685
-0.1649
-0.156852
-0.25584
0.0591263
0.212583
0.0164558
0.0370078
-0.245711
-0.248995
0.071365
0.0672111
-0.123046
-0.0709249
0.266889
-0.00679408
-0.100983
-0.0703011
-0.00941034
0.0456506
0.297759
-0.000481931
0.218381
0.192066
0.119699
0.0204824
-0.194818
0.00606846
0.133525
-0.259742
0.219274
0.272534
-0.135553
-0.230886
-0.284023
0.223507
0.263739
0.0247746
-0.0584788
-0.274744
0.0654452
-0.274387
0.0940181
0.24077
-0.0480651
0.0534816
-0.0687992
0.136499
0.273047
0.23004
-0.114862
0.276256
-0.0659347
-0.195735
0.168948
-0.25805
0.119728
0.268532
0.0545501
-0.0394696
-0.300436
-0.0246169
-0.0709165
-0.134042
0.027613
-0.0582579
-0.21879
-0.00768436
0.267802
0.0342775
0.0282314
0.0305042
0.0527284
-0.176808
-0.0292636
0.299118
0.158313
0.200169
0.134734
0.138008
0.140843
-0.272267
0.11758
-0.238533
-0.178466
-0.00653475
-0.192416
0.254739
-0.0397247
0.16968
-0.0813095
-0.0403642
-0.157026
0.150177
0.135793
0.176791
-0.218144
0.218692
-0.128688
-0.248685
-0.0545608
0.190815
0.0655623
0.299485
-0.297301
-0.262108
0.287693
0.170968
0.247818
0.133562
0.0112231
0.0816147
0.143559
-0.173279
0.15729
0.27076
0.111764
0.2568
0.215983
-0.234141
0.128845
-0.164521
0.0462871
0.256705
0.27668
-0.130337
0.138603
-0.235372
-0.218022
-0.29486
-0.18613
0.026927
0.206573
0.177244
0.0134774
0.208456
0.231928
-0.00201413
0.0844105
0.178036
-0.178123
-0.208919
-0.0326251
0.262619
-0.0740821
-0.193178
0.231711
-0.260002
-0.240627
0.160498
-0.178962
0.173939
0.288518
0.167004
0.147148
0.267794
-0.280708
-0.0197508
-0.274889
-0.193639
-0.0199828
-0.166099
0.129475
-0.112506
-0.285087
-0.166269
-0.194728
0.235394
0.132918
0.187739
0.110117
0.25368
0.273319
-0.24113
0.225549
-0.0923604
-0.131403
0.156663
-0.0432041
-0.0712277
0.0184717
0.0724802
-0.179746
-0.0051764
-0.074737
0.260584
-0.0377512
-0.0478536
-0.0497947
-0.0159944
0.0621287
0.2486
0.126029
-0.102035
-0.159705
0.142954
0.0311656
-0.0662992
0.0808716
-0.144162
-0.188691
-0.106222
-0.193281
-0.200309
-0.0484759
-0.266847
0.00399758
0.125054
0.182789
0.253557
-0.245953
-0.104247
0.0157958
-0.137247
0.193153
0.249665
-0.173551
-0.144448
-0.0946491
0.0803576
0.141802
0.268338
0.0253982
-0.0384685
-0.140093
0.16054
-0.201764
0.185629
-0.204101
0.175506
-0.257738
-0.0886088
-0.241452
-0.147119
0.0063045
0.010258
-0.116494
-0.294737
-0.172142
-0.230381
0.254109
-0.124896
-0.0319737
-0.0267577
0.0374881
-0.13811
-0.0774137
0.1633
0.015584
0.128609
-0.0535831
-0.140129
0.0970085
0.266302
0.121309
0.256802
0.130628
0.22166
0.140669
0.225631
0.0946612
0.181328
-0.162335
0.151187
-0.266543
0.142735
-0.135608
-0.0824882
0.14815
-0.00990387
-0.0104794
0.101622
0.165742
0.256307
-0.227193
-0.0988696
-0.181381
-0.00384222
-0.232784
0.135309
-0.176841
0.0100055
0.292931
0.22194
-0.0247002
0.114553
0.178679
-0.193705
0.03597
0.0199952
-0.268533
-0.171758
-0.0998847
-0.129828
0.281253
-0.0642556
-0.288351
-0.158537
0.153948
0.15951
0.131491
-0.155206
-0.0418539
-0.00399115
-0.196407
0.0320362
0.200146
-0.0798365
-0.270491
0.264442
-0.244041
-0.148274
-0.0264255
-0.259757
-0.221126
0.249663
0.164742
0.252332
-0.24128
-0.10217
-0.0234819
-0.214235
0.0218102
0.176278
-0.0451128
0.0120739
-0.193185
-0.0304106
0.156059
0.267721
-0.172756
-0.0162427
-0.188578
0.0839953
0.27984
-0.0833218
-0.180947
0.180097
0.132902
-0.15778
0.141432
0.183306
-0.00128395
-0.183178
0.23467
0.0758815
-0.232516
0.0995533
0.0237697
-0.177461
0.296065
0.304191
-0.0862023
0.0227403
0.166939
0.167213
-0.268691
0.281176
-0.160437
0.180061
0.249525
-0.0396937
-0.136533
-0.241685
-0.256774
-0.159468
-0.0269763
-0.132678
-0.279207
-0.196321
0.00271973
0.168308
0.291407
-0.295256
0.278845
0.223528
0.0731212
-0.250603
0.025581
-0.200981
-0.131971
0.0164758
-0.206339
0.0795368
-0.256047
0.259742
-0.0508942
-0.225727
0.244948
0.086357
0.257678
0.190973
-0.254543
-0.183823
0.255643
-0.209321
-0.0374939
-0.0741564
-0.0516717
-0.0152344
0.0294024
0.249368
-0.145072
0.0102471
0.249364
-0.162957
-0.064265
0.0276413
-0.12003
0.257261
0.125111
0.0577
-0.0253977
0.210536
-0.16052
0.0139231
0.177756
0.0735651
0.0798605
0.133001
-0.140576
0.0366549
0.0362748
-0.0842888
0.164979
-0.0272682
0.00839278
-0.157796
0.194412
0.248231
0.0984042
-0.0754219
0.215248
0.259904
0.222708
0.151629
-0.199722
-0.14836
-0.124397
-0.0244165
-0.168971
-0.290731
-0.250556
0.0970553
0.233011
-0.137282
-0.188569
0.109096
0.246451
0.205574
-0.0481865
-0.170075
-0.0510735
0.267503
0.0438013
-0.187501
-0.0667054
-0.25581
-0.0522908
-0.152805
0.304418
-0.242287
0.0625093
0.213159
-0.268391
-0.0121988
0.0724575
-0.173017
0.16468
0.248913
0.116031
0.299511
0.254035
0.152243
0.0783976
0.194366
-0.265715
0.189574
0.00126059
0.288168
0.116425
0.251523
-0.179886
-0.241033
0.204441
0.145892
-0.127814
-0.136081
0.210772
0.10939
-0.00114376
0.189336
0.172595
-0.246807
0.0950138
0.202933
0.0388783
-0.142543
-0.286207
-0.0978837
-0.172269
0.130835
-0.104574
-0.22252
-0.000988756
0.293271
0.288769
0.0290599
0.196272
-0.00861264
0.0324505
0.00353831
-0.0681655
0.134365
0.0543247
-0.151373
0.00651824
0.22976
-0.00112925
-0.0928416
0.0503214
0.295224
-0.195607
-0.0683753
-0.24402
0.210169
-0.181766
0.107761
-0.214791
-0.15241
-0.28678
-0.105591
-0.293836
-0.0832325
-0.0213314
0.00633465
-0.105253
-0.0372828
-0.253468
-0.21841
0.245149
0.0885963
0.0816004
-0.112304
-0.0667712
-0.152024
0.0277205
0.246224
-0.224949
-0.260827
-0.137103
0.126561
-0.258325
-0.0362012
-0.24692
-0.201577
-0.12532
-0.128023
0.200045
-0.0410616
0.032054
0.222322
0.151323
0.0347114
-0.160391
-0.160088
-0.263848
0.0380716
0.0966024
-0.206829
0.116069
0.0498588
0.186385
-0.100652
0.234024
-0.185964
0.0568209
-0.0298927
-0.237299
0.121867
0.00431764
-0.0704338
-0.0454337
0.0474103
0.192783
0.00135805
0.137356
-0.229478
0.177657
0.0438897
0.0255571
-0.0943538
-0.0434691
-0.117174
0.230774
0.0883271
0.016705
0.269564
-0.178008
-0.19004
-0.23857
0.252955
0.160634
0.24733
-0.146321
0.102502
-0.229907
0.209921
-0.229698
-0.163352
0.0366602
0.0871428
0.0590383
0.282686
-0.171323
-0.0535497
-0.0113025
0.280901
0.0165023
-0.128308
0.0213343
-0.257633
0.0697379
0.28239
-0.0823545
0.00343573
0.078382
0.239459
-0.0249492
0.201038
-0.243647
0.0457989
0.148359
0.224384
-0.0100762
-0.293575
0.029087
0.0548137
0.209396
0.104637
0.183089
-0.0536822
-0.108667
-0.0600402
-0.0661561
0.0290563
0.184917
0.226724
0.00660307
-0.0951139
-0.209519
-0.273522
-0.051707
0.161417
-0.282621
0.171178
-0.139742
0.0873682
0.108813
0.14056
-0.00902885
0.160315
-0.118459
-0.160181
0.0828901
0.167763
-0.156539
-0.188158
-0.0775988
-0.245731
0.217092
-0.190077
-0.00406763
-0.194053
0.0498605
0.228346
0.133577
-0.0703905
0.148765
-0.159965
0.141261
0.24375
-0.129419
-0.210027
0.104034
-0.115849
0.256656
0.270775
0.265927
0.0649266
0.110555
-0.0428109
-0.0742464
0.29482
0.0939559
-0.289784
0.167951
0.243791
-0.176179
-0.207211
0.295129
-0.262177
-0.101181
-0.00802336
-0.160826
0.245148
-0.0805956
0.271849
-0.115036
-0.231677
-0.184358
-0.278066
-0.2873
-0.0167545
-0.18796
0.114554
0.166796
-0.233403
0.0803539
0.133642
0.120426
-0.107373
-0.203813
-0.243222
-0.110646
0.203429
-0.232293
-0.246097
0.121628
-0.101789
-0.147092
0.116138
-0.0792312
0.04733
-0.188956
0.0677202
-0.00951021
0.0228031
0.0350184
0.182268
0.0934622
0.155385
0.191573
0.10931
-0.161624
-0.296661
-0.082804
-0.283656
-0.238791
-0.291972
0.140907
0.204315
-0.0918479
0.236805
0.265934
0.0794414
0.127151
-0.25428
0.141109
-0.0463961
-0.0743958
0.292714
-0.210584
0.159406
0.0403246
-0.104165
-0.065869
-0.259676
0.218567
0.270709
0.214918
0.020722
0.114931
0.118375
-0.164695
0.256454
0.126321
0.0517877
0.285743
0.204312
0.0573693
0.110829
0.100384
0.260664
0.0471489
0.0666021
0.0415536
-0.124779
0.095299
-0.103486
0.137112
-0.272796
-0.11151
0.21878
0.17579
0.236635
-0.195425
-0.208596
0.266338
-0.278859
-0.244591
0.17958
0.0450934
0.192202
-0.000505313
0.184442
0.157049
-0.172239
-0.0546759
0.125245
-0.268852
0.299807
-0.0567945
0.136008
0.261365
0.290338
-0.0992407
0.00281145
-0.122702
-0.28891
0.197209
-0.28916
-0.2663
-0.213773
0.222104
0.209366
-0.284807
-0.269653
-0.291914
0.28507
-0.241989
-0.228158
0.174381
0.108616
0.250825
-0.118109
-0.00711308
0.106037
0.0129544
0.226289
-0.0667041
0.04631
0.220539
0.1801
-0.107202
0.181439
0.184756
0.100199
-0.114281
-0.243271
0.10836
-0.214579
-0.237191
0.142676
-0.127223
0.291495
0.0591106
-0.115467
-0.280522
0.0646221
-0.131912
-0.22038
0.136024
-0.255461
0.18889
0.0909147
-0.0753969
-0.123145
-0.101414
0.23908
-0.195492
0.134077
-0.00896315
-0.270636
0.0157008
0.181982
0.208795
-0.105168
-0.0229205
-0.206525
-0.0475138
-0.215282
-0.116835
0.0213049
0.237452
0.0556645
0.0130454
-0.0065881
0.236659
0.0307914
-0.245206
-0.189705
0.113912
0.188617
-0.14529
-0.00234069
-0.0222414
0.0778228
0.177269
0.179116
0.0179117
0.281335
0.00831166
-0.293873
-0.287893
-0.277026
0.186349
0.218711
-0.0800774
-0.133716
-0.277241
0.172194
-0.0440813
-0.0973003
-0.105198
-0.110443
0.25422
0.204011
0.179768
0.190207
-0.0600481
0.237048
-0.293792
-0.247835
0.12728
-0.145497
0.0511683
-0.195406
0.233516
-0.0680717
0.290129
-0.053215
-0.0885982
-0.000298241
-0.0389084
-0.0730486
0.0246188
-0.153373
-0.148378
0.249495
0.017356
-0.136316
0.123334
0.268893
0.0704644
-0.283459
-0.142268
0.0211744
0.224321
-0.266815
-0.0827637
-0.138504
0.274107
-0.0880029
-0.0884718
0.101782
0.0636374
0.268768
0.213774
-0.00841156
-0.104062
0.205574
0.245737
0.109009
-0.103378
-0.0967598
-0.26563
0.222951
0.0469055
-0.119376
0.172424
-0.236994
0.0477019
-0.00951363
-0.26299
-0.189048
0.00615667
-0.106836
0.131518
-0.0685649
-0.0773119
-0.260994
0.0954793
-0.0974535
-0.0462297
-0.293833
-0.292075
-0.282261
0.27461
0.220065
0.0173258
-0.134481
0.118952
-0.0407775
0.276492
-0.280998
0.168064
-0.29268
0.24466
-0.0751259
-0.106391
0.118581
-0.0102204
0.241774
-0.190314
0.0199818
-0.245562
0.111154
0.20946
0.185026
-0.259092
-0.162229
0.224006
0.136267
0.0376027
-0.123507
0.141288
0.0436987
-0.104638
0.115877
-0.0467842
0.207424
0.28258
-0.213588
-0.131852
0.256937
-0.196274
-0.262985
0.26213
-0.255533
-0.0430483
-0.140156
0.161908
0.237879
-0.201437
0.273663
-0.0289627
-0.150046
0.0803995
-0.120993
-0.266543
0.129474
0.0139422
0.257867
-0.0339926
-0.24745
-0.17821
-0.195656
0.0850939
0.017065
0.218884
-0.246372
-0.0757849
0.203819
-0.163944
0.0870019
0.156102
-0.0687504
0.126295
0.131182
-0.0245491
-0.225542
0.292315
-0.159654
-0.280424
-0.215124
-0.193626
-0.0156606
-0.0651445
0.187504
0.158558
-0.0361889
0.0136666
-0.128472
-0.0835415
0.28047
-0.0825076
0.0348156
-0.210084
-0.292401
-0.241253
-0.295879
-0.24958
-0.0185817
0.209484
-0.115709
-0.237016
0.0683095
0.112046
0.186192
-0.0998773
-0.201185
0.257898
-0.117492
-0.0678729
0.282033
-0.0295326
0.0490251
-0.0361752
0.206166
-0.0610792
-0.17412
-0.126236
0.259077
0.00142382
0.0848245
0.232949
0.219557
-0.180617
-0.275939
0.217985
-0.130157
-0.273443
0.270676
0.150777
0.232882
-0.14763
0.212741
0.00680017
0.269511
0.0991587
0.196223
-0.239976
0.0599925
-0.204646
-0.00212978
0.0347764
0.0631052
-0.257878
-0.309146
-0.0361975
-0.022856
-0.169408
0.128593
-0.0752731
0.122505
-0.0790294
-0.121446
0.0281381
0.0328533
-0.1025
-0.0493815
0.219778
-0.0809798
-0.0803129
0.0701123
-0.138237
0.0555203
-0.0210411
0.153828
0.026122
-0.230936
0.067079
0.0820824
0.134347
0.149241
-0.230018
-0.13646
-0.101251
-0.18258
-0.129041
0.158392
0.0904903
0.00222165
-0.00177456
-0.279459
-0.191563
0.207813
-0.10798
0.142839
-0.0595124
0.0801908
-0.210073
-0.143797
-0.296571
-0.0043233
0.230409
-0.145508
-0.253216
-0.0883271
-0.28755
0.0821668
-0.027707
0.0625975
-0.134918
-0.187188
-0.0887173
-0.0720003
-0.0211892
0.108107
0.0467361
0.155614
-0.0167828
-0.16957
-0.158626
0.269446
-0.143989
-0.040887
0.193893
0.0427776
-0.191285
-0.155026
-0.172442
-0.0975593
0.00976748
-0.160117
0.194512
-0.0783448
-0.0068384
0.243387
0.132006
-0.00412631
0.0114869
-0.195755
-0.238512
0.172588
-0.0866733
-0.0350533
-0.197422
0.197242
-0.217457
0.149693
0.0443107
0.0461979
0.281728
0.186274
0.0206067
-0.163856
-0.147533
-0.0891401
0.181236
-0.0410543
0.0497566
-0.294643
0.152988
-0.244935
-0.166196
0.0394021
-0.0205216
0.111094
-0.0153178
-0.190614
-0.200569
-0.298221
-0.0831349
-0.145046
0.179216
0.129319
0.120269
0.288102
0.0243505
0.19044
0.13691
-0.237363
-0.0653049
0.117913
0.249702
0.254437
0.253344
-0.19456
-0.134583
0.127165
0.0671703
0.219662
0.131047
-0.0816804
0.272106
0.26881
0.259477
-0.0431386
0.0794911
-0.0568076
0.067347
0.182067
-0.0546752
0.286269
-0.260456
-0.174905
0.119778
0.158206
-0.189271
-0.157943
0.0470346
0.247791
-0.0894408
0.27916
0.066772
-0.136899
0.239347
0.015922
-0.0303114
-0.195752
-0.15467
-0.269725
-0.274999
0.282563
-0.0481307
0.295621
0.251768
-0.093149
-0.047885
0.0311866
0.146817
-0.282044
-0.0891531
-0.208865
-0.29693
-0.049503
-0.0837859
0.120179
-0.187666
0.0288383
0.262473
0.160402
-0.0225776
-0.126647
0.140273
-0.256145
0.0329947
0.0810003
0.0594714
-0.297707
0.180647
0.209042
-0.266019
0.207097
0.181288
-0.019946
0.210982
0.13052
0.186014
-0.127846
-0.13149
0.0411514
-0.122459
0.0829354
0.145363
-0.117656
-0.270532
-0.259082
-0.283764
-0.149498
0.072127
0.269947
-0.302777
-0.246759
-0.160353
0.135298
-0.207814
0.191618
-0.0770912
0.167404
0.186711
-0.182424
0.059111
0.224618
-0.277088
-0.0481214
-0.0828599
0.238287
-0.202615
-0.193984
-0.200986
-0.0360742
0.147346
-0.0263953
-0.25821
-0.0111553
0.17164
-0.218208
0.0331896
0.181965
-0.0710947
-0.181697
0.149167
-0.067897
-0.133796
-0.29358
-0.233219
-0.0301489
0.202083
-0.0118992
-0.173062
0.0767311
0.114746
0.19898
0.00368585
0.131453
-0.149244
0.234866
0.0740213
-0.0493716
-0.26188
0.162222
0.201678
0.185686
-0.151177
0.255769
-0.133629
-0.285595
-0.278996
0.205484
0.186069
-0.0578954
-0.281196
0.0366624
0.167627
-0.124141
0.0409361
0.251266
0.145419
-0.0589453
-0.0611178
0.285909
-0.268502
-0.237315
0.18152
0.0440436
0.197654
-0.251831
-0.0312134
-0.0414089
-0.0132055
0.00569869
-0.166951
-0.0917668
-0.111224
-0.0274187
-0.134639
0.0570085
-0.00960895
-0.108048
-0.0355926
-0.122981
0.13667
-0.0256854
0.219227
0.00951491
0.161764
-0.0380663
-0.0404524
0.0170893
0.201778
0.200954
0.0113956
0.228836
0.257866
-0.094688
-0.0302608
0.148476
-0.0482844
0.231348
-0.193666
0.249871
-0.065487
-0.0606691
-0.137171
0.117635
0.22027
0.0295475
-0.125318
-0.0951608
0.206852
0.135395
0.0882124
0.0538361
-0.184145
0.000184837
-0.240719
0.278526
0.266823
0.0180955
-0.00169604
0.176405
-0.0832624
-0.287665
0.103418
-0.125799
-0.0893707
-0.232956
-0.276852
0.166802
0.29721
-0.163483
0.12125
-0.0623019
0.0817913
0.285063
-0.251246
-0.00571969
0.00165657
-0.0779358
0.201168
-0.0847362
-0.23552
-0.0167855
0.277826
-0.123531
0.28106
-0.25927
-0.146091
0.249754
0.0608845
0.153004
0.120958
0.272044
0.160401
-0.0803228
-0.149318
-0.218997
-0.0103462
-0.124502
0.250124
-0.00796644
0.0130113
0.0727801
0.211406
-0.206422
0.0487602
0.265746
0.0835228
-0.241134
-0.109453
-0.00996077
-0.0220114
-0.0404266
0.270532
-0.0484053
0.133538
0.251789
-0.0108361
0.286748
0.198235
-0.252257
0.140396
0.0177925
-0.278978
0.00337043
0.240605
-0.126383
0.0808807
-0.0771996
0.053261
0.0310688
0.20971
-0.237548
-0.203018
0.12868
-0.148153
0.147275
0.0968693
0.242305
0.207788
0.296224
-0.0716778
-0.110777
-0.0486415
-0.100393
0.140536
-0.212429
-0.145536
-0.169827
-0.222081
-0.246384
-0.124764
0.217725
0.0721105
-0.104542
-0.0794316
0.0117037
0.07305
-0.295847
0.235024
-0.17483
0.0340731
0.148172
-0.11352
0.132644
-0.0240765
0.0424302
-0.0201777
-0.223943
-0.0144699
-0.112875
-0.230632
0.210967
0.0786704
0.0236476
-0.188678
-0.0827355
0.110942
-0.0303383
0.0487528
0.189978
0.0229656
0.221781
0.104329
-0.20502
-0.180098
-0.272447
0.10437
0.192336
-0.27211
0.0409504
-0.285327
0.0600294
-0.112747
-0.0982973
-0.108583
0.161759
0.243373
0.174682
0.237009
-0.0707619
-0.238101
-0.290281
-0.156923
0.142924
0.0326389
-0.0433625
-0.238581
-0.152267
0.223573
0.106255
-0.264947
-0.0529974
0.0386068
0.141926
0.0413637
0.144855
0.171719
-0.153309
0.0434719
0.200003
0.192238
0.0602696
-0.0395263
-0.228458
0.259012
0.158222
0.235739
0.197916
0.0239165
0.171033
-0.167517
0.0892259
0.182427
-0.0280789
-0.0700153
-0.0823177
0.228487
-0.0108759
0.0736195
0.153966
-0.199572
0.108069
-0.202097
0.125953
-0.0500798
0.135143
-0.0256521
-0.174388
0.284833
-0.278489
-0.282507
0.163103
0.0853287
-0.0073151
0.236908
0.0394744
-0.158504
0.177594
-0.0538709
0.172457
0.0504696
0.0804333
-0.0377662
-0.0604543
-0.246751
0.195382
0.156732
0.279686
-0.110737
-0.0655862
0.12632
-0.0117534
-0.260771
0.230367
-0.174474
-0.0093182
0.062827
0.0996115
0.11575
0.0441038
0.126122
0.139581
-0.0882457
-0.102586
-0.161143
-0.144611
0.242232
-0.0216386
-0.268729
-0.11981
-0.147221
0.0830516
0.258377
0.109195
-0.284987
-0.296393
0.00439233
0.182633
0.28634
0.193073
-0.180305
0.115127
-0.111016
-0.133751
0.0371444
0.012512
0.151901
-0.194526
-0.191189
-0.0256122
0.145478
0.234469
-0.173564
-0.232347
-0.163138
-0.0431187
-0.0848037
-0.215775
0.230575
-0.0474145
-0.0365459
-0.215877
-0.270291
-0.0878731
0.196266
-0.250695
-0.0861652
-0.0918793
0.229446
-0.0903614
-0.195829
-0.255844
-0.280584
0.00449288
-0.0889657
0.0612688
-0.279241
-0.228671
0.166165
-0.17298
0.0400667
0.00700756
-0.234582
0.159487
0.0788727
-0.0922755
-0.189571
0.300729
-0.0103414
-0.261032
-0.0588247
0.234264
-0.177861
-0.0215454
-0.138856
-0.273799
0.0216793
0.0710684
-0.0693783
-0.0450204
0.277292
0.0412151
0.00921417
0.291411
-0.251303
0.217429
0.053602
-0.245632
0.281528
-0.0822275
-0.113611
0.0203477
0.236358
-0.0388937
-0.114963
0.0175793
0.170931
-0.0119416
0.00844555
-0.159235
0.0254032
0.252129
-0.214557
0.160049
-0.0731637
-0.0435358
0.176129
0.241599
-0.266892
-0.190979
-0.0960616
-0.287778
0.153925
0.209517
-0.303344
0.197546
0.123757
0.0604568
0.26422
0.103128
0.279849
-0.144202
-0.17041
0.213789
0.114267
-0.0106322
-0.0687385
-0.0294678
0.284496
0.230327
0.123192
0.0152688
0.193055
0.2232
-0.126973
-0.182342
-0.128896
-0.23911
-0.240722
-0.105391
-0.129832
-0.0367758
-0.110715
-0.288076
-0.139815
-0.0920445
0.214633
0.267958
0.272514
0.181751
0.0868028
0.236683
-0.275181
0.209986
0.156817
0.142473
-0.0911615
-0.213827
-0.177788
-0.100574
-0.293001
0.242566
0.207683
0.205656
0.150915
-0.203091
-0.286768
-0.274922
-0.156063
-0.242259
-0.0851483
0.00465725
0.0263802
0.110719
0.0214494
0.179464
-0.283898
-0.060614
0.151671
0.277203
-0.194455
-0.0559184
0.21383
-0.169869
-0.160176
0.0770986
0.266064
0.0553541
0.15459
-0.208175
0.245163
0.150585
-0.264271
0.160845
0.0659114
0.171048
0.249371
0.0691672
0.209747
-0.198541
0.1246
-0.188077
0.101618
-0.154604
0.231005
-0.167305
-0.27796
0.246002
0.0653482
0.181488
0.226458
0.183636
-0.184131
0.152075
-0.282669
-0.0340392
-0.0746606
0.291682
-0.275579
-0.224505
-0.234315
0.26731
0.228064
-0.197166
0.110947
-0.0201483
0.273945
0.0649055
-0.252555
0.174368
0.145226
0.182299
0.304574
-0.0444302
-0.260407
0.230559
0.0694078
-0.236902
0.172034
-0.15647
0.239569
0.106224
-0.284005
-0.234968
-0.0480023
-0.276366
0.0358875
0.167412
-0.291486
0.0469675
0.239189
-0.203904
-0.00417621
0.168319
-0.107823
-0.182463
-0.13145
-0.130583
0.17528
-0.0712596
-0.246704
0.0131579
-0.190579
-0.261342
0.262372
-0.161193
0.272865
0.0359231
-0.102491
0.147538
0.17665
-0.163173
-0.0607576
0.17632
-0.0964221
0.193678
0.21733
0.244853
0.0614058
0.220128
-0.018813
0.00326292
-0.289798
0.287168
-0.118958
-0.103674
-0.192915
0.047692
0.0680292
0.262517
0.271082
0.117127
-0.0177833
-0.222643
0.165625
-0.0467025
-0.0806819
0.136485
0.295714
0.111346
-0.0262051
0.150674
0.247522
0.217
0.0409035
-0.136031
0.111479
-0.0352466
-0.205055
-0.136014
-0.11189
0.0816623
0.177383
-0.099111
0.0757286
-0.240194
0.0900935
0.178188
0.105599
-0.129022
0.154651
0.0679783
0.289273
-0.15802
0.147814
0.155272
0.090714
-0.255156
-0.00875301
0.0704246
0.164284
0.257525
-0.0676197
0.114929
0.185325
0.282455
0.279612
-0.0148688
-0.0615718
-0.227443
0.150874
0.122108
0.160391
0.0267522
-0.28247
-0.067454
0.0786707
0.109725
-0.18615
-0.119264
0.280781
0.257865
0.243315
0.265532
-0.203111
0.085649
0.112764
0.180312
0.145446
-0.202558
-0.0417736
0.00795214
-0.23919
0.196652
-0.169032
0.237185
0.180391
-0.194866
-0.0796388
-0.182851
-0.117827
-0.22817
0.239219
-0.25253
0.0983118
0.248189
-0.0144544
-0.122215
0.0555169
0.0939301
0.0567904
0.0440729
0.0528762
0.00696155
0.00554559
0.149202
-0.205481
-0.178252
0.0298624
0.240093
-0.0736513
0.286795
-0.0467399
-0.0156755
0.183036
0.0832312
-0.080483
0.0629978
0.197014
0.134835
0.18049
-0.217894
0.212662
0.112724
-0.170573
0.00768624
0.0612815
0.106815
0.188343
-0.172677
-0.0941142
-0.0560653
0.167959
0.25266
0.250552
-0.127261
0.0947065
-0.255342
-0.00852885
-0.176563
0.281131
0.215841
-0.185408
-0.0677747
-0.0975349
-0.29988
-0.28556
0.123684
0.0638641
0.211623
-0.0385975
-0.0567049
0.290622
-0.124051
-0.241002
-0.182043
0.181426
0.119234
0.235626
0.0723513
0.252131
-0.168167
-0.277918
0.111953
-0.215222
0.269698
0.283367
0.18578
-0.281098
-0.0202698
-0.288659
-0.293509
-0.0950257
-0.176623
-0.055533
0.107933
-0.173924
-0.0407644
-0.0705875
0.187706
-0.127583
0.186352
-0.1646
-0.131428
-0.237729
-0.103404
-0.00803171
0.245168
-0.280759
-0.0791318
0.0223712
0.263723
0.051372
0.042568
0.0782328
0.149982
0.0163416
0.058269
0.0254648
0.0320831
-0.256466
0.0397872
0.0382062
-0.0574832
0.166414
0.278892
-0.255904
0.290917
-0.0639698
-0.0280486
0.18111
0.114904
-0.134855
-0.285155
0.277101
-0.0727987
-0.0951994
-0.0330758
-0.132935
-0.080224
0.184649
0.197318
-0.11108
-0.0518175
-0.0595825
0.266016
-0.20931
0.251358
0.028012
0.10904
-0.0141591
0.0728794
-0.151892
-0.27436
-0.284094
-0.289928
-0.296388
-0.237018
-0.293656
-0.0584924
0.038905
0.182768
-0.251503
0.198251
0.195002
-0.275509
-0.17434
-0.202215
-0.0114181
0.00643668
0.0186055
-0.118771
-0.102084
0.208229
0.124271
0.135931
0.171708
0.212759
0.084307
-0.0993235
0.0247079
-0.228402
0.275204
0.173511
-0.2026
0.29199
0.187452
-0.201327
-0.246691
0.192481
0.0400751
0.08798
0.0719889
0.0901645
-0.0025363
-0.0378031
0.114035
0.124075
0.0644826
-0.190331
-0.174473
-0.214518
-0.00721363
0.0196756
0.286434
-0.187259
-0.153903
0.161463
-0.277712
0.235529
-0.234811
0.0448494
-0.290869
-0.261781
-0.0810359
-0.19881
-0.277057
-0.190705
-0.0983677
-0.222209
-0.296396
0.23954
0.167034
0.0714865
0.0287188
-0.139188
-0.26456
-0.15288
0.282289
0.101082
-0.0441907
-0.193766
0.179654
0.245085
0.122631
0.168092
-0.240491
0.275687
0.0335385
-0.218655
0.208847
0.0995273
0.124233
0.214691
0.127178
-0.258103
-0.285474
0.152864
-0.145599
-0.0801553
0.233808
-0.146353
-0.144437
0.103415
0.224304
0.189049
0.265275
0.262562
-0.264096
0.247325
0.0626574
-0.0080411
-0.242901
-0.0539283
-0.0634229
0.182153
-0.18672
-0.00426502
0.154802
0.145147
0.0689278
0.063824
-0.0605989
-0.105795
-0.0240975
-0.229391
-0.0578563
-0.0063241
0.220828
0.0892617
0.210858
0.156311
0.255454
-0.239518
-0.0400427
0.171765
0.248602
-0.0829253
0.135357
0.287985
-0.126362
-0.102095
-0.0220896
-0.0701313
0.149364
0.210946
-0.186833
0.261235
-0.0929215
0.260665
0.105196
0.276891
0.0202443
-0.260789
-0.121255
0.296443
-0.186225
0.124628
-0.011261
-0.262338
-0.080885
-0.108021
0.202129
-0.13778
-0.0503601
-0.140144
-0.26119
-0.0809114
0.0854811
0.166483
-0.109408
0.253122
-0.225293
0.175363
-0.119377
0.215102
0.0869915
-0.0105546
0.166139
0.29417
-0.0545838
-0.0285432
0.272842
0.274056
0.0200186
-0.151189
0.262552
0.135778
0.264675
-0.0525715
0.164728
-0.126148
0.136761
0.0771829
0.0448935
-0.196747
0.239576
0.0809402
0.0120671
0.0161379
-0.0426979
0.190542
-0.029038
0.032624
0.0635838
0.154449
-0.0509257
-0.15442
-0.157806
-0.177852
-0.151785
0.0940238
0.100988
-0.184437
0.0541647
-0.185799
-0.038473
0.0137367
0.246102
-0.0772381
0.25675
0.134226
0.0984528
0.105713
-0.0973891
-0.152453
0.198343
-0.161148
0.22357
-0.0968681
0.142688
-0.117024
-0.20117
-0.174936
0.213014
0.167261
0.275391
-0.133445
-0.283717
-0.182869
-0.00680546
-0.138413
0.209499
-0.213282
-0.0269101
-0.0300166
-0.0884845
0.231822
0.282389
-0.134806
-0.145165
0.247166
0.288823
0.25612
0.0503288
-0.112731
-0.206772
-0.054197
0.012776
-0.279549
0.148668
-0.132314
-0.0955575
0.248285
-0.00958081
-0.183825
0.115928
-0.0377802
-0.015264
0.141721
0.0781267
0.265842
0.303532
-0.0121051
-0.2416
-0.0276277
0.252279
-0.0337575
-0.0993858
0.235657
0.127104
0.0536094
0.181421
0.112886
0.00846239
-0.0681403
0.293205
0.100366
0.181695
0.0120682
0.12399
0.0258326
0.17246
-0.27246
-0.0233549
-0.137376
-0.161667
-0.206343
0.121428
0.118292
0.230674
-0.0913997
0.0818794
0.230156
0.193969
0.144022
-0.0996366
0.15288
-0.191107
0.101923
0.0893494
0.242566
-0.142514
-0.0262661
0.0542874
0.162898
0.205618
0.0516415
-0.0430824
0.0855422
-0.240854
-0.220642
-0.187498
0.231836
-0.191662
0.0861575
-0.204973
-0.0550592
0.185857
0.216212
-0.239671
0.114601
-0.179981
0.146944
0.0469882
-0.286655
-0.00830959
0.247382
0.16434
0.0999405
0.0513366
-0.0447309
0.0416412
0.204774
0.229084
-0.207357
0.0675098
0.132194
0.136306
-0.270477
-0.0810049
0.19156
-0.187659
0.0289566
0.122002
-0.0836409
-0.179745
0.216596
0.163766
-0.294365
0.13139
0.222348
0.118359
0.246665
0.0724526
-0.141587
0.258462
-0.235921
-0.191382
0.130749
0.163389
0.157343
-0.216159
-0.0970442
0.0666459
-0.287512
-0.00628387
-0.168275
0.148494
-0.170416
-0.143082
-0.233777
-0.277467
-0.0304732
0.098826
0.146434
0.19069
0.218379
0.0600028
0.0522563
0.219669
-0.111159
-0.0289528
0.0365726
-0.165403
-0.250246
0.200423
-0.198895
-0.187703
-0.290477
0.229583
0.274357
0.167611
-0.290979
-0.120164
-0.0646743
-0.279652
0.17548
0.0661761
0.165684
-0.293735
0.227013
0.23532
-0.270857
-0.102276
0.0317376
0.173095
-0.215914
-0.0517153
-0.0673133
0.134802
-0.131704
0.120708
-0.184777
0.205077
0.258781
-0.138403
0.10375
-0.241743
-0.0283359
0.111919
0.287213
-0.0475283
-0.025644
0.297064
0.119869
0.21648
-0.281429
0.000211766
-0.0214346
0.195868
0.0105696
-0.0938777
0.12207
0.0316595
0.109587
-0.149968
-0.101068
0.191652
0.0990027
0.137384
0.0272437
0.269725
-0.038428
0.138383
0.173917
-0.0785072
-0.301014
-0.0158807
-0.0186351
-0.028257
-0.209952
-0.030984
0.212573
0.0707676
-0.0384916
0.0397628
-0.00640113
-0.016299
-0.260094
0.259052
-0.128482
0.0505615
-0.117957
0.300158
-0.221252
0.283579
-0.148522
-0.0105526
0.173626
0.256618
-0.168165
-0.0957471
0.228119
0.0955135
-0.256802
0.0961188
-0.287115
-0.253962
-0.210049
-0.0109098
0.0176231
-0.121565
0.269777
-0.0623814
0.256709
-0.0773539
0.270005
-0.058257
0.210792
-0.284465
-0.0875325
-0.213211
0.0564179
0.101678
-0.216721
0.135345
0.0840084
-0.0650624
-0.179436
-0.0374127
-0.110113
-0.0473537
0.15782
-0.185012
-0.260735
0.203966
0.224954
-0.241962
0.252042
-0.283542
0.048633
-0.0194944
-0.0977015
0.00568688
0.214954
-0.150218
0.237199
0.188223
0.0956171
0.139161
0.204809
-0.285704
0.23355
-0.0338898
0.107529
-0.28243
-0.197018
-0.115239
-0.0490431
-0.0723443
0.135767
0.139544
0.175583
0.0095998
0.258079
0.208547
-0.0791782
0.184542
0.267094
-0.127904
0.192146
0.0165171
0.157968
-0.211752
-0.275272
0.072846
-0.0590379
0.260424
-0.0413619
-0.264512
0.103979
-0.129858
-0.258925
0.0410477
0.132179
0.150033
0.0522058
0.229199
-0.262301
-0.299419
-0.14008
0.175794
0.138868
-0.267155
-0.118033
0.0996366
0.240832
0.0925214
-0.0238748
0.210894
0.266221
-0.130855
-0.0786228
0.129211
-0.0433741
-0.0516038
-0.10306
0.199206
-0.0970982
0.153283
0.234605
-0.289507
-0.275016
0.267111
0.0488572
0.154857
0.125993
-0.19396
0.0816655
0.156031
-0.196092
0.240893
0.03444
0.249654
0.270853
0.217556
0.0471259
0.214459
0.00861607
-0.272165
0.121221
-0.0157247
-0.0978504
-0.250422
-0.188651
0.160471
-0.00261891
0.00901765
0.0520202
0.201534
-0.140567
-0.0180062
0.208615
-0.119949
-0.0470854
-0.0420712
-0.265967
-0.225797
0.0558916
0.121699
0.239901
0.161334
0.0615308
-0.0364965
0.105483
0.0349462
-0.115228
-0.154181
-0.0461932
0.192899
-0.12598
-0.220519
-0.122884
0.0765272
-0.176435
-0.00898749
-0.0626346
0.120011
0.29752
0.288309
0.0260869
-0.139376
-0.0281572
-0.0730349
0.0412044
0.228403
0.181468
0.076086
-0.295878
-0.0614834
-0.0998296
0.241909
-0.204874
0.269678
-0.0922605
0.200484
0.00631665
0.0928353
-0.251817
0.257695
-0.00886557
-0.0712449
-0.260355
0.167404
0.294463
-0.137289
-0.14247
-0.0619105
0.290401
-0.144878
-0.075155
0.0104088
0.0111267
0.2006
0.232566
-0.247388
0.126068
0.123801
0.130283
0.132618
-0.24049
-0.265816
0.0712958
-0.147546
-0.296131
0.276815
-0.249805
0.00911941
0.0717131
-0.193213
-0.0288881
-0.238895
0.0280923
0.00356439
0.228845
0.0206655
0.169281
-0.210644
0.257679
0.158316
-0.0585378
-0.117075
-0.138669
0.250118
-0.214783
-0.201645
-0.294584
0.206971
0.213594
0.141665
0.0394562
0.271307
0.176954
-0.192047
-0.174666
0.188903
-0.214148
-0.116761
-0.104684
0.16407
-0.0186385
0.163489
0.220378
-0.295253
-0.133539
0.155485
0.0293904
-0.263092
0.243159
-0.00993477
0.192823
-0.113032
0.174405
-0.243876
-0.159011
0.253231
-0.142769
-0.151644
0.160675
-0.227086
0.289114
-0.0998186
-0.25348
0.167837
0.00835351
-0.129274
0.0526615
0.0980005
0.0502398
0.244138
-0.0393531
-0.270439
0.107062
-0.115227
-0.263353
0.274083
-0.258319
0.0653697
-0.286983
0.285424
-0.244478
0.207654
-0.128274
0.229436
0.265109
0.00967727
0.18285
-0.180567
0.159879
0.0466833
-0.107049
0.148836
0.244447
-0.0603873
0.0178192
-0.0473831
0.11058
-0.231549
-0.246472
-0.140155
-0.28683
0.0140893
-0.108941
0.121499
0.198356
-0.0719446
0.0966547
0.238808
0.292256
0.110138
0.224715
-0.252057
0.0164386
-0.205924
0.275423
-0.0190901
0.10472
0.160401
0.102007
-0.0350039
-0.095258
0.293021
-0.185502
-0.152561
-0.0694077
0.133141
0.100686
-0.25898
0.199832
0.15252
-0.0946934
0.214317
-0.134811
0.0963198
0.0346706
-0.234676
-0.275455
-0.168696
-0.294374
-0.283889
0.242584
0.22885
-0.234647
-0.0424544
-0.279912
-0.261871
0.239746
0.126156
0.199769
0.0401784
-0.20619
-0.197327
0.0328014
-0.0881575
-0.0473293
0.267076
-0.262946
-0.243235
-0.287455
0.237208
0.208126
-0.0859981
0.159866
-0.224407
-0.291799
-0.109558
-0.161811
-0.265669
0.0222612
-0.158792
-0.250603
-0.0338024
-0.230955
-0.183635
0.221763
-0.202137
-0.144782
0.166336
0.223385
-0.237699
-0.0887252
-0.283735
-0.133554
0.242653
-0.0696049
0.119308
0.206056
-0.0309042
0.173119
0.221524
-0.0873216
0.0847293
-0.168924
-0.229871
0.160741
-0.155409
-0.0451237
0.2999
-0.125844
0.282475
-0.160885
-0.0735373
-0.0493975
-0.0885291
0.0417856
-0.128862
0.0148231
0.197627
-0.261041
-0.0683575
0.255068
-0.0493709
-0.0457272
-0.179087
-0.1084
0.17996
0.239737
-0.201399
-0.152481
0.113867
-0.280846
0.0585034
-0.103799
-0.146572
0.121527
-0.247193
-0.00494726
-0.219762
-0.247734
0.167946
-0.240438
-0.100411
-0.204771
0.0092886
0.112692
0.138901
0.183311
-0.173224
0.0359112
0.224642
0.0603196
-0.000339998
-0.130729
-0.289708
0.118512
0.046215
0.190539
0.0628247
0.149779
-0.262556
-0.131804
0.176888
0.0893747
0.0664637
-0.26858
-0.0798082
0.132695
0.0123422
0.0033902
0.198971
-0.117385
0.0622272
-0.229387
-0.00805579
-0.219564
0.186677
-0.186694
0.247171
-0.287234
0.147923
0.159101
0.0685966
-0.135122
-0.264348
0.10011
0.277911
0.0993658
-0.0246038
0.0382483
-0.0472074
0.0167635
0.217352
-0.16803
-0.17379
0.00120191
-0.144872
0.041264
-0.177692
0.161247
-0.255194
-0.277294
-0.238591
0.112973
-0.200731
0.0429033
0.181927
0.299964
0.150812
0.134434
-0.29076
0.02484
-0.000694538
0.0896807
0.187127
0.0348915
-0.127982
0.150091
-0.161908
0.155255
-0.113044
0.091463
-0.121211
-0.167595
0.22841
0.00572228
0.122183
-0.233623
-0.262045
0.238179
0.244731
-0.203111
0.250784
0.301157
0.192017
-0.247726
0.03085
0.0686597
-0.247299
-0.112946
-0.0982506
-0.252919
0.199589
0.215282
0.133887
0.0837994
-0.0513947
-0.28455
-0.0552915
0.112512
0.169184
0.14985
-0.0991788
-0.233935
0.264736
-0.186406
0.0558217
0.0739799
-0.113281
0.115812
0.0179441
-0.175313
0.209171
-0.0217992
-0.176941
0.107775
0.038529
0.159138
-0.112775
0.0738735
-0.247679
0.100805
0.129038
0.256471
0.00851178
-0.0202838
0.0450349
0.263486
-0.00300127
0.28291
0.0646591
-0.121729
0.123181
0.253803
-0.0525876
0.0828912
-0.228792
-0.287438
-0.134834
-0.0464535
0.13466
0.180053
0.0886999
0.0501172
-0.14137
0.214648
-0.148414
0.19404
0.0758605
0.0408975
-0.0293409
0.122019
-0.15846
-0.191567
0.0859203
0.147145
0.086374
-0.166802
0.116981
-0.219932
-0.18215
-0.123125
-0.0368647
0.236986
-0.164114
0.214944
0.0214949
-0.0931844
0.22555
0.194806
0.165974
0.0623195
0.0659504
-0.0509198
-0.189055
0.22959
-0.135467
-0.0364765
0.120849
0.234395
-0.291158
-0.207796
0.0594152
-0.151131
-0.102266
-0.160183
0.300775
0.277085
-0.0332002
0.112343
-0.241412
0.0811734
0.288215
0.0228675
0.0294441
-0.174436
-0.0621399
-0.246684
0.0366623
-0.130699
0.242807
-0.0988814
0.231613
0.0131397
0.158042
-0.261047
-0.062289
-0.279785
0.00186831
-0.231023
0.259174
0.00742869
-0.156633
0.0177936
0.159352
0.0482363
0.162477
0.165864
0.0310596
-0.168191
-0.0421943
0.0983883
0.223761
-0.0481433
-0.191245
-0.0671801
0.0839341
0.0538881
-0.0132132
-0.185131
0.206026
-0.0625535
0.0181744
0.139113
0.237524
-0.111319
0.178913
-0.110527
-0.0932138
-0.110145
-0.0596374
-0.126922
0.188784
0.103088
0.20168
0.0532881
-0.13579
0.0513361
-0.100213
0.204331
0.19054
0.158371
-0.0145854
0.107691
-0.16998
0.107822
-0.251908
0.207598
-0.13415
0.0449823
-0.272997
-0.224152
0.27596
0.0590576
0.20607
0.226086
0.253935
0.0846642
-0.184359
-0.146518
0.285312
0.0782422
0.0240185
0.162982
-0.120527
-0.0721543
-0.0878996
0.045013
0.278983
0.10937
-0.0718123
0.181286
-0.0145495
0.227094
-0.0138211
0.103054
0.016123
0.0408864
0.00437541
0.167227
-0.220809
0.0258611
0.232433
-0.252308
-0.209539
0.162131
0.276282
-0.256492
-0.0508249
-0.199267
-0.0876839
-0.0746072
0.175684
0.23811
-0.205241
-0.2395
-0.13179
0.00595991
0.0975667
-0.148373
-0.174166
-0.252895
-0.269249
0.112245
0.271759
0.0137794
-0.0914991
-0.0111615
-0.252416
0.211656
-0.141895
-0.15929
-0.0547723
-0.207486
-0.0999141
0.0484392
0.260299
-0.111367
0.0858886
-0.0940981
0.00517323
0.297846
0.129763
-0.111677
0.23287
0.231474
-0.0572687
-0.208493
-0.0641777
-0.243223
-0.0624908
0.0730454
-0.195739
-0.0295031
-0.121039
-0.230607
0.281911
0.0762066
0.0577214
-0.258487
-0.0159674
0.21601
-0.116254
0.236504
-0.288076
0.070567
-0.0212893
0.263841
0.266
-0.232977
-0.135432
-0.0318402
-0.237555
0.295785
0.143493
0.296372
0.219775
-0.213716
-0.210266
-0.140248
-0.149962
0.0235392
0.220658
-0.0425826
0.296059
-0.203845
0.0168913
0.28119
0.170893
-0.221055
-0.272386
-0.132027
0.291626
-0.103038
-0.205998
-0.293354
0.274215
0.0856045
0.269004
0.244695
0.159882
-0.165566
-0.0838576
0.227402
-0.162299
-0.240074
0.212041
-0.24217
-0.152249
0.300817
-0.0875559
-0.0117445
0.0207056
-0.16507
0.23971
0.0158476
-0.0721918
-0.0418519
5.20363e-05
-0.194112
0.0284103
0.0132485
-0.0388745
0.0222239
0.220355
0.050026
0.0331856
0.19063
-0.16461
0.00144298
0.138741
0.29928
0.127069
-0.245178
0.228463
0.25919
-0.19097
0.128378
-0.278443
-0.0406249
0.128689
-0.0871359
0.240217
-0.1453
0.0401115
0.17553
0.167723
0.275589
-0.157169
-0.121108
-0.232255
0.187787
0.187574
0.0268763
-0.0851325
0.108885
-0.217827
0.246063
0.0153289
-0.0646489
-0.0533109
-0.149418
-0.0842616
-0.230632
-0.0945953
-0.147263
-0.255973
0.0152194
0.283198
-0.245566
0.263265
0.122818
-0.0402546
0.206651
0.273212
-0.276613
0.0875252
0.149168
0.293154
0.235415
-0.284268
-0.248669
0.123189
0.204295
0.0732575
-0.260718
0.0206884
0.180533
0.290957
-0.266761
-0.198784
-0.0777684
-0.118221
0.0100491
0.00357183
0.0964853
0.157491
0.0440612
-0.199656
0.140668
0.0848825
-0.240757
-0.0326985
-0.246392
0.269122
-0.0718351
-0.240815
0.0691181
-0.224863
-0.250675
0.00409237
-0.208971
-0.19405
-0.148546
-0.303535
0.197486
-0.11592
0.0310628
0.0602518
-0.134083
0.0519053
0.146809
0.0907288
0.249691
-0.133063
-0.212266
0.039864
-0.264919
0.127887
0.146388
0.183605
-0.0800506
0.218388
-0.166529
-0.0220847
0.200117
0.0651506
0.0407902
-0.0440519
0.148744
0.099006
0.267705
0.237384
0.197119
-0.190719
0.241711
0.0843634
-0.0172098
-0.0203185
-0.156012
0.15476
-0.261901
0.299672
-0.0644175
0.289464
-0.134741
0.0317421
0.0361968
-0.0967355
-0.130675
-0.115486
-0.221063
0.0899573
-0.199133
-0.0904727
-0.237205
0.299905
0.285746
0.109083
-0.0410369
0.129079
-0.0940055
-0.0653839
0.0654933
-0.193602
0.0398465
0.0196998
0.189783
-0.269976
0.300705
-0.265911
0.179573
-0.268356
-0.262281
-0.175967
-0.27937
-0.100306
0.156638
0.0657741
0.102834
-0.273793
0.246397
0.174723
0.108259
-0.251589
-0.204947
0.179656
-0.256565
-0.224785
-0.0222518
0.00591544
0.198278
0.176927
0.238502
-0.0357963
0.280171
-0.0283304
0.281079
0.181391
0.0016441
0.280392
0.215368
-0.113054
-0.280367
0.25929
0.00936711
-0.253142
-0.140254
-0.12534
0.106797
0.25781
-0.106927
0.0522186
0.135256
-0.282921
0.100335
0.231945
0.192818
0.146468
-0.294109
-0.124978
-0.150489
0.201868
-0.244728
-0.213005
-0.127496
-0.264197
0.0676496
-0.140214
0.220463
-0.225181
-0.162425
0.138035
-0.0324713
-0.143306
0.0930706
0.285388
-0.100059
0.251464
-0.144138
-0.299265
0.205022
0.0597064
0.0505964
0.048157
0.0756583
-0.149078
-0.0203934
-0.0338529
0.294776
-0.020102
0.14001
-0.151348
-0.114991
0.192833
-0.0625758
0.0563528
0.229883
-0.296709
0.212398
0.150387
-0.222419
-0.247927
-0.0161558
0.0446408
-0.0943559
-0.222393
0.0272559
0.105092
-0.274239
0.180664
0.107096
0.234697
-0.0547879
-0.143957
-0.0191396
-0.281714
0.0077741
0.258473
-0.0196481
0.00147738
-0.0624777
-0.180823
0.152539
0.124388
-0.287028
-0.213803
-0.12227
0.24684
-0.209873
-0.204519
0.0947341
-0.130601
-0.153599
-0.219902
0.212926
0.0538189
-0.140369
-0.0602657
-0.144713
-0.114627
-0.178828
0.265577
-0.184699
0.0622539
-0.183687
0.0969839
0.0787404
0.123356
0.0502872
-0.237272
-0.170507
0.291959
-0.111068
0.280901
0.110348
-0.101728
-0.23746
0.293768
-0.157808
-0.138663
-0.213401
0.241969
0.0258848
-0.0747428
-0.287059
-0.0584227
0.275861
-0.129376
0.1727
-0.159173
0.0493123
0.293388
-0.200502
0.167255
0.0600121
-0.077372
-0.0354408
-0.152309
-0.257325
-0.289309
-0.0945926
-0.136109
-0.300199
0.0933191
-0.153019
0.117473
0.283985
-0.0780798
0.111635
-0.175332
0.0766033
0.17882
-0.237386
-0.187298
-0.186152
-0.217439
0.0424256
-0.212064
-0.0423123
-0.0791194
-0.0734446
-0.29161
-0.0758163
0.0247341
0.177949
0.282005
0.2446
-0.164056
-0.17963
0.288788
-0.148827
0.02738
-0.136175
-0.142274
-0.172521
0.0180001
0.274231
-0.198727
0.230881
0.0697331
-0.0759585
0.00793831
-0.0455874
-0.00514941
0.113231
0.0802309
0.0740295
-0.14676
0.173188
-0.270915
0.0758309
-0.196779
-0.263169
0.290702
0.121272
0.210422
0.268612
0.0712986
-0.245084
-0.203851
0.0627026
-0.0904104
0.130296
0.223804
0.0684594
0.234105
-0.0585406
0.0325354
-0.258404
-0.133282
-0.188838
-0.0279058
0.18101
0.0778202
0.271893
-0.00749709
-0.149476
0.0441042
0.1509
-0.284252
0.0766138
-0.0771122
-0.186513
0.108861
-0.0935995
0.240723
0.0229119
-0.128727
0.0142381
0.0747591
-0.0256646
-0.228003
0.278741
-0.204435
-0.297172
0.0477435
-0.260693
-0.0568383
-0.212176
-0.214631
0.106302
-0.105551
0.0546916
-0.0111376
0.266457
0.0318093
0.283941
-0.186266
-0.221313
0.131348
-0.171956
0.147048
-0.256707
-0.057745
-0.0387548
-0.0434457
-0.113245
0.280199
0.126558
0.197291
0.0547921
-0.200843
0.272819
0.0400015
-0.110071
0.278183
-0.214567
-0.0703078
-0.0883597
-0.131242
0.0122871
-0.280399
0.0634988
-0.224221
0.0152138
0.0308327
0.107886
-0.00118068
0.141629
0.181939
-0.182647
0.266803
0.028929
-0.134374
-0.0829199
0.290155
0.127756
0.0981398
0.265567
-0.0412201
-0.00371979
0.0263751
0.0580465
-0.0269176
-0.235709
0.245686
-0.0518876
-0.151042
-0.118477
0.165846
0.0152186
0.195091
0.188136
-0.218083
0.266713
-0.100014
0.0976711
0.0751959
0.190013
-0.057965
-0.05096
-0.284379
-0.0841975
0.285155
-0.10994
0.14087
0.263936
-0.287555
-0.0740895
0.235725
-0.0336582
0.228455
-0.0426396
-0.272649
-0.0959067
0.0177237
0.273742
0.148008
0.16752
-0.14896
0.00437582
-0.122673
-0.262542
-0.104775
-0.0429644
-0.293499
0.0935413
-0.237762
0.0745208
-0.00839343
0.00612858
-0.269537
0.0104076
0.226119
-0.291018
0.19605
0.0546217
0.276277
0.203378
0.285078
0.215734
-0.123253
0.216761
-0.137975
-0.107497
-0.178062
0.1933
-0.132287
0.264896
0.0515701
0.0183644
-0.0234341
0.23275
0.0591877
0.17636
-0.109435
0.0733819
-0.0273642
-0.0468311
-0.155871
0.259965
0.261353
-0.118025
-0.0349214
0.189763
-0.112547
-0.133972
-0.0457646
-0.132569
-0.233207
-0.0614276
-0.223781
-0.0609274
-0.141661
-0.0536759
0.135586
-0.0284443
-0.153816
-0.291527
-0.0599462
0.196418
0.0224193
0.210303
0.132428
-0.214123
0.0866674
-0.28087
0.152544
-0.249339
-0.0278523
-0.290178
-0.28401
-0.0635913
-0.109997
-0.0214617
-0.164781
0.0856753
0.13591
0.0864659
0.246457
0.208038
-0.276363
-0.269791
-0.152923
-0.119449
-0.0228269
0.286832
0.154735
0.120421
0.289475
-0.211308
0.0201248
0.0102782
-0.299308
-0.145259
0.100824
0.0893175
-0.1308
-0.0390716
0.148924
0.148622
-0.0338106
0.147881
-0.196558
0.160274
-0.173365
-0.0693787
-0.0682161
0.270225
-0.284835
-0.123256
0.177017
-0.250078
-0.0888858
-0.261909
-0.0735381
0.200248
-0.282922
-0.216287
0.0212584
-0.287103
-0.120374
-0.258082
0.033263
-0.114888
-0.107156
-0.167576
0.269798
0.0602413
0.0910951
0.120576
-0.0794063
-0.236884
-0.0317467
0.0189113
0.219054
0.104487
0.244667
-0.145663
0.0703515
0.273087
0.0315179
-0.0452699
-0.276004
0.244181
-0.0145507
-0.0568964
0.14971
0.00716814
0.0274184
-0.133744
0.0204101
0.21857
-0.0863229
-0.246085
-0.200978
0.097645
-0.118958
-0.232449
-0.135249
0.279396
0.182835
0.0822341
-0.267773
-0.145343
-0.208331
0.246698
0.256766
-0.259541
-0.200423
0.0212387
-0.292409
0.142764
0.275342
-0.269695
0.0864251
-0.0338309
-0.0194266
-0.0544496
0.27207
-0.283569
0.112448
0.00494419
0.224675
-0.282868
0.0509297
-0.286518
0.120436
0.244783
-0.21327
0.285543
0.220947
0.271528
0.0601159
0.256781
-0.176692
0.157235
0.212082
-0.215823
0.19744
-0.281583
0.106877
0.214682
0.152241
0.0902945
0.246171
-0.0565318
-0.242381
-0.0785885
0.180442
-0.265806
-0.0721404
-0.0086803
0.0401462
-0.147366
0.0158137
-0.201327
-0.132517
-0.167247
-0.258848
-0.0417834
-0.187137
0.262084
-0.0683164
0.177623
0.229663
0.0571409
0.0269281
0.138106
0.134547
-0.0672329
0.157407
-0.0619283
-0.155457
0.00815887
-0.27097
-0.214803
0.255442
-0.215675
0.0098249
0.135528
-0.178404
0.241821
-0.172585
0.160686
-0.206033
0.136322
0.254183
-0.04258
0.264504
0.298025
0.219655
-0.2181
0.268916
-0.147148
0.2593
0.196875
0.205062
-0.00793069
0.0268891
0.041585
0.225941
-0.12125
0.281648
-0.231018
0.187568
-0.288667
-0.140619
0.144873
-0.200766
0.172196
-0.0210097
-0.0846637
0.109978
0.104303
-0.225111
0.19766
-0.0558151
-0.271283
-0.130212
