0.479631
-0.244745
0.706244
0.175499
-0.604714
0.0317076
0.327156
-0.203717
-0.283619
-0.0390574
0.196604
0.488082
0.242677
-0.697842
-0.454459
-0.613825
-0.161026
-0.601297
0.756937
0.075298
0.240872
0.298589
0.136904
0.621287
0.326751
0.28493
-0.540765
0.612132
-0.690606
0.335906
-0.187946
0.566389
-0.684579
-0.257304
-0.0331353
-0.512749
0.549802
-0.482595
0.0559841
-0.507434
0.256241
-0.52061
0.755701
-0.275202
-0.444544
-0.473069
-0.114705
0.16336
-0.298666
-0.133012
-0.535201
0.716485
-0.608976
0.377963
0.564173
0.492039
-0.112345
-0.751398
0.329297
-0.0285937
0.359253
-0.633599
-0.236917
0.449218
-0.114217
0.506657
0.708734
-0.343107
-0.7494
-0.00695289
-0.072925
0.278832
0.24235
-0.0923229
-0.770849
0.57248
0.209865
-0.111468
-0.0389089
0.685367
0.526942
0.198677
0.627196
0.700922
-0.19585
0.414466
0.414508
0.467618
0.441136
-0.0306989
-0.336643
0.0254437
0.109522
0.20132
-0.29998
0.769224
-0.0729695
-0.366414
-0.346495
-0.0422582
0.399174
0.356357
-0.538763
-0.132736
-0.508527
-0.534891
-0.335053
0.475968
0.128375
0.401315
0.386651
-0.115702
-0.174868
0.240307
-0.194782
0.407947
-0.116903
-0.554781
0.100009
-0.450958
0.187304
0.536162
0.348165
-0.478336
-0.0370518
-0.726467
-0.48324
0.669344
-0.318585
-0.0535306
-0.149875
-0.692237
-0.470385
0.0851634
-0.0517876
-0.203802
0.325246
0.387548
-0.502795
-0.321135
0.0141677
0.658709
0.337928
0.616953
0.120709
-0.631283
0.24885
-0.767346
-0.411012
-0.426165
-0.444912
0.550768
-0.663727
0.678337
-0.701535
0.0743744
0.725951
-0.409905
-0.0311339
-0.366631
0.308264
0.593773
-0.286768
0.617153
-0.0943503
0.436257
-0.362507
-0.544485
0.0497543
-0.0906341
-0.0910017
-0.710413
-0.207024
-0.527365
0.68085
0.691384
-0.38443
0.156953
0.698326
-0.0216663
0.504212
-0.521278
-0.244899
0.614463
-0.618597
-0.171704
-0.0858613
-0.667013
0.19313
0.657817
-0.259113
-0.269778
0.477597
0.231098
-0.427954
-0.395936
-0.1085
-0.0148309
-0.162631
0.715303
0.66651
0.52097
-0.769414
-0.314969
0.768825
0.685871
-0.398043
-0.389282
0.0658381
-0.474731
0.364619
-0.202968
-0.222082
-0.654875
-0.362923
-0.0650719
-0.0516463
0.325496
0.0423122
-0.633194
0.208871
0.557898
-0.128176
-0.0883742
0.0115376
0.2175
0.293261
0.680711
-0.573281
-0.643848
0.62066
-0.680002
0.653429
0.625501
-0.220464
0.64753
0.536563
0.156304
-0.516163
-0.170895
0.454003
0.62311
0.399496
-0.539401
0.743755
-0.737555
0.169275
-0.0829073
0.362685
-0.563366
0.0584494
-0.202859
0.768972
0.705222
0.483407
0.00720907
0.155422
0.0027051
-0.0867395
0.348946
0.133298
-0.242974
0.443543
0.0124831
-0.391918
-0.550471
-0.113899
-0.62959
0.380224
0.144132
-0.0260052
0.0614041
-0.0045856
-0.401325
0.296677
-0.0390479
-0.364584
-0.310772
0.651979
0.773462
-0.0981616
-0.0624413
-0.20364
-0.103444
-0.132226
-0.494945
0.677993
-0.758409
0.28596
-0.183087
0.367265
-0.362174
0.346138
0.0382042
0.428154
0.728177
0.259595
-0.460073
-0.675672
-0.134652
0.459421
0.0724534
0.701325
-0.322588
0.443713
0.221166
0.412961
-0.688952
0.687349
0.289492
-0.692334
-0.184603
-0.546462
-0.121749
0.48523
0.0954602
0.157517
0.388321
0.111725
-0.334749
-0.569308
-0.296842
0.0821653
0.549399
0.514247
-0.26406
0.5033
8.99216e-05
0.0517171
0.603177
0.64037
-0.263397
-0.0990079
0.566977
0.188446
-0.427321
0.0127718
-0.170348
-0.345832
-0.075656
-0.655398
-0.25988
0.517137
-0.429536
0.389133
0.226411
0.441055
-0.227659
-0.159532
-0.221714
0.212203
0.0436098
0.256573
-0.480424
-0.181987
-0.00409798
0.0306316
-0.452158
0.771341
-0.692711
-0.624754
0.636938
-0.181674
0.0506944
0.429408
-0.768176
0.39796
-0.330108
-0.165475
-0.722807
0.373251
-0.0461993
-0.21026
0.112963
0.29724
-0.593311
-0.431871
-0.0353754
-0.0462034
0.183433
0.517465
-0.608182
-0.547359
-0.000524903
-0.318381
0.0463672
0.769507
0.490661
0.368157
0.769174
0.573765
0.51683
0.629749
-0.38368
-0.20697
0.284515
-0.376822
-0.583331
0.729097
0.231274
-0.524842
0.324602
-0.590393
0.0385967
-0.333359
0.47744
0.216035
0.0110519
-0.329804
-0.603463
-0.580387
-0.587272
-0.438098
-0.353877
0.186689
0.0218318
0.466005
0.182512
-0.260927
0.058458
0.175301
-0.462883
-0.199143
0.0309794
-0.071391
0.368738
-0.458683
0.326776
0.560124
-0.50379
-0.216523
-0.744156
0.602494
-0.0329374
0.0668866
-0.511431
-0.328754
-0.490796
0.275444
0.113676
-0.322738
0.469842
0.301155
0.0134614
-0.658428
-0.28756
-0.739382
0.581683
0.667285
-0.228025
-0.134415
0.0736691
0.085355
0.439286
-0.672931
-0.759802
0.0354701
-0.356874
0.340974
-0.179126
-0.0867042
-0.650022
-0.14877
-0.262968
0.0912842
0.692262
0.0031941
0.535703
-0.574684
-0.494644
-0.123974
-0.123374
0.749403
-0.597031
0.66462
-0.683833
-0.109588
0.699948
0.672412
-0.214709
-0.298699
-0.236422
0.631282
0.558654
-0.57076
0.731499
0.572747
0.239177
-0.400405
0.139412
-0.71454
0.287582
0.263792
-0.0888803
-0.749988
-0.420556
-0.171299
0.0282238
-0.659716
0.0266561
0.307487
-0.00744019
0.679485
0.281441
0.169081
0.569378
0.372399
-0.715222
0.495118
0.270276
-0.155328
-0.580436
-0.749485
-0.300484
0.752011
-0.531703
-0.341913
0.549363
0.478559
0.0324659
-0.0833593
0.537367
-0.456007
-0.594768
-0.326839
-0.430968
-0.240689
0.276446
0.372624
-0.122391
-0.469897
-0.0999419
0.641515
-0.563405
-0.589994
0.034854
-0.770927
0.556389
0.0948962
0.49889
0.0531883
0.714471
0.693316
0.0870556
-0.357786
0.672539
0.325103
0.0713046
0.448293
0.0271352
-0.671235
-0.409232
-0.210703
-0.352205
-0.228957
0.237618
-0.00876847
0.30484
-0.260524
-0.412437
-0.592353
0.0457431
0.265124
-0.732069
0.253166
0.452857
0.0808743
0.255983
0.232931
-0.598855
-0.0182511
-0.48789
-0.657675
-0.0990637
0.373962
-0.242601
-0.207412
-0.077215
0.60445
-0.522858
0.726304
0.706381
-0.160332
-0.258018
-0.418375
0.384577
0.753307
0.347142
-0.085809
-0.281752
0.709411
0.0939689
0.538178
0.199737
0.140427
0.0142037
-0.124288
-0.553405
-0.503043
-0.664522
-0.37566
0.254649
-0.377043
-0.258517
-0.618735
0.771612
0.273332
-0.0455619
-0.0775714
0.102049
0.202701
-0.125679
0.035867
-0.7345
0.388976
0.392958
0.425475
0.367514
-0.0347104
-0.435009
-0.689175
-0.100078
0.433711
0.621808
-0.669318
-0.200365
-0.136745
-0.0252367
0.0209821
0.134906
0.085677
0.419206
-0.386116
0.483679
-0.613734
-0.23043
0.480951
0.433873
0.498628
-0.372452
-0.239944
-0.0746758
0.2745
0.576211
-0.0320502
-0.112112
0.191546
-0.38164
-0.517782
-0.618131
-0.0424934
-0.432389
0.0557829
-0.383332
-0.58533
0.155695
0.188227
0.0509684
-0.642231
-0.562051
-0.589211
0.217735
0.6311
-0.200494
-0.0720982
-0.757187
0.343125
-0.366049
0.450983
0.0671281
0.0358859
-0.561288
0.771213
-0.462555
-0.762253
-0.0423123
0.200125
0.204448
0.352686
0.456409
0.358384
-0.464143
-0.7503
-0.36029
-0.0723236
-0.561376
0.57012
-0.656656
0.269079
0.702501
-0.444428
0.447889
0.145897
-0.588692
-0.526515
-0.701207
-0.57225
0.592211
-0.29226
0.653445
-0.115101
0.517881
-0.68248
-0.121996
-0.712159
-0.670894
0.615175
0.252451
0.306775
0.193521
-0.0642286
-0.109333
0.503386
-0.0389268
0.305879
-0.343429
0.174758
0.10094
-0.22541
-0.33555
0.0334254
0.101469
-0.659765
-0.597429
0.287696
-0.41348
-0.526055
0.491423
-0.593311
-0.0430736
0.369835
0.0658274
-0.300144
0.461719
0.718471
-0.246025
0.565457
0.558129
-0.766209
0.0962008
-0.0248781
-0.053032
0.763184
-0.297455
0.6811
0.29383
0.133834
0.0811329
-0.379315
0.683026
0.520137
0.424236
0.0032238
0.634192
0.597016
-0.470375
-0.550985
-0.703132
-0.756439
-0.369871
0.0294484
0.386605
0.469262
0.503444
0.0729388
0.413295
-0.517156
-0.135975
0.196573
-0.508297
0.736701
-0.60501
0.211453
0.72471
-0.127399
0.118633
0.24467
-0.767077
-0.574623
0.640414
0.690373
0.720254
0.289793
-0.0723764
0.577193
0.114327
0.227603
-0.745097
0.187993
0.245317
-0.340958
-0.557366
-0.143221
-0.646871
0.720606
0.704429
0.540819
-0.570881
-0.206089
-0.0382789
-0.309368
-0.242328
0.130625
0.680561
-0.292799
-0.768254
0.0266514
0.725035
-0.763582
0.224816
0.590191
0.701048
0.171025
0.10554
-0.14561
-0.0228547
-0.553483
-0.691371
0.00686398
0.406726
0.328371
0.44
0.624309
-0.589908
0.566861
0.570059
-0.659724
0.333322
0.774031
-0.0911253
-0.47949
-0.30517
0.435971
0.426599
-0.39871
-0.627924
0.431222
0.401705
-0.678246
0.442924
-0.146119
0.686689
0.369826
-0.749307
0.0174917
-0.549724
0.00234845
0.237474
-0.466643
-0.766702
-0.130007
0.637859
0.447006
-0.281792
-0.728263
0.240629
-0.483877
-0.613097
-0.200998
-0.484495
0.0701946
0.094299
-0.0150473
-0.265138
-0.259934
0.362349
-0.120498
-0.595263
-0.00926311
-0.0239807
0.620788
0.618114
-0.111853
0.215168
0.642694
0.680078
0.439611
-0.129031
0.142921
0.747725
-0.119538
-0.760428
0.609354
-0.448577
-0.266073
0.656332
0.567114
0.0239999
-0.733208
-0.409433
0.313924
0.111314
0.459772
-0.475884
0.62116
-0.568391
0.657775
-0.273526
-0.392477
-0.123353
0.477983
-0.546809
-0.281344
-0.408424
0.443911
-0.413239
-0.503217
0.109084
0.232213
0.414876
0.0822873
-0.662701
0.431367
-0.0833813
-0.334604
-0.613886
-0.202796
-0.542713
0.184981
-0.161192
-0.176884
-0.274542
0.725806
-0.49119
0.0240779
0.572374
-0.28525
-0.0906747
-0.473231
0.0955383
0.559522
-0.769252
0.325756
-0.500149
-0.406191
-0.00333972
-0.135493
-0.133588
-0.668861
-0.677837
-0.493985
0.187969
-0.565891
0.708502
-0.670845
-0.127814
-0.67906
-0.0970383
0.104472
0.281191
0.51608
0.701559
-0.767977
0.467137
-0.564815
0.0303164
0.264813
-0.0755492
0.7141
0.564291
-0.747814
0.498579
0.568373
0.347318
-0.774504
-0.613476
-0.429993
-0.135196
0.0261706
-0.324025
-0.0384082
0.3067
0.638517
0.169492
0.240572
0.742909
-0.73022
0.336172
-0.129556
0.145639
-0.156615
-0.388023
0.0731599
-0.151048
-0.696066
0.283267
0.654003
0.343245
-0.56682
0.593516
0.132889
-0.544366
0.316615
-0.0739742
0.579676
0.318055
0.0862173
-0.624099
-0.591531
-0.662431
-0.173833
0.144575
0.418788
-0.310013
-0.460407
-0.115373
-0.341667
-0.418191
-0.553794
0.303828
0.50221
0.0634421
0.689618
-0.198293
0.687656
0.767611
-0.690222
0.566766
0.336113
-0.482489
0.385868
-0.305437
-0.25221
-0.0710599
0.39597
-0.446474
-0.526458
-0.294986
-0.297069
-0.343609
-0.182617
0.303577
0.575661
-0.537598
0.768502
-0.659182
0.121567
-0.347744
-0.302915
0.342207
0.736031
-0.574749
-0.367622
0.643205
0.000146756
-0.455689
0.637142
0.0852699
-0.663197
0.199968
0.378075
0.497761
0.669156
-0.648865
-0.348061
0.288554
-0.323433
-0.0997573
0.768435
0.155035
0.330958
-0.186258
-0.314275
0.1304
0.0486788
-0.321072
0.245669
-0.604362
0.106221
0.717469
0.51245
0.0620741
-0.637278
-0.629314
-0.069717
0.143554
-0.311151
-0.203162
-0.544546
-0.200683
0.76971
0.606195
-0.478269
0.663645
0.732376
-0.0516056
0.177909
-0.36314
0.621014
0.173808
0.567617
0.177251
0.760093
-0.520878
-0.466154
0.0338527
-0.0676411
0.55376
0.204079
-0.735793
0.497053
-0.0575501
0.100991
0.639896
0.0831146
-0.739809
0.00791945
0.547551
-0.169626
0.240255
-0.425834
-0.175625
0.0704618
-0.129686
-0.285548
0.028935
0.593552
0.667615
0.440248
0.441178
0.0723773
0.233398
-0.154868
0.0476114
0.486093
0.153769
-0.690855
-0.355761
-0.0685733
0.288793
-0.315977
-0.345571
-0.542676
0.559411
-0.48035
0.318194
0.587706
0.304603
0.0921179
-0.352276
-0.232199
0.442238
0.247985
0.612158
-0.462801
0.736712
-0.133702
-0.64353
0.630036
-0.467325
0.572166
-0.0783441
0.53722
-0.357563
0.745481
0.25152
0.568602
-0.716552
0.672543
-0.274687
0.345935
-0.418526
0.15442
0.577966
-0.633381
0.448669
0.121378
0.734509
-0.0195426
-0.561419
-0.391929
0.520163
0.654827
0.628854
0.356532
-0.580371
0.592981
-0.551222
-0.449223
0.448397
-0.243991
-0.651549
-0.404275
-0.477603
-0.237271
-0.434943
0.550303
-0.43617
-0.375946
0.443686
0.0590193
0.747198
-0.744078
-0.559599
0.549785
-0.602573
0.66241
-0.103134
-0.643037
-0.135281
0.111302
-0.260783
-0.391203
-0.0080363
-0.40534
0.739941
0.185393
-0.587801
-0.586
0.510829
0.635478
-0.0550435
0.633474
-0.543433
0.24171
-0.376573
-0.204701
0.017927
-0.0439022
0.200458
-0.308485
-0.759097
0.171739
-0.279148
-0.546055
-0.0550262
-0.108768
-0.659127
0.616068
0.0225657
-0.0195289
-0.0471518
0.535414
0.36308
0.719216
-0.641147
0.329159
0.128844
-0.456584
0.518893
-0.132813
-0.59536
-0.311618
-0.274131
-0.364341
0.705034
0.123985
0.209429
-0.0560936
-0.694544
-0.366805
0.414815
-0.678229
0.578098
-0.641025
-0.450072
-0.250081
0.0250415
-0.334446
-0.408248
-0.727694
0.421063
0.318997
0.582927
0.0102214
0.265182
0.713674
-0.436381
-0.378981
-0.515729
-0.69044
0.261764
-0.339581
-0.228428
0.762328
0.0705994
-0.297653
0.111504
-0.494377
0.424662
0.189319
-0.0850111
0.0623338
0.287687
-0.280453
0.196396
0.612298
0.242577
-0.554648
-0.496926
0.60869
-0.507608
0.698811
0.153249
-0.699383
-0.0650098
-0.361042
-0.761156
0.274434
0.0411835
-0.503608
0.357982
-0.473767
-0.0674803
-0.64274
-0.486734
-0.771695
-0.165713
0.399362
-0.490842
-0.51549
-0.182945
0.204638
0.319909
-0.668869
0.690752
-0.258378
0.715803
0.15846
-0.0370267
-0.553605
-0.00490768
0.230729
-0.628926
-0.626648
0.305658
0.0802224
-0.209838
0.324049
-0.418429
0.603707
0.587216
0.714435
-0.644563
-0.252787
-0.703903
-0.359136
-0.249582
-0.0940586
-0.733958
0.0345539
0.16493
-0.14224
-0.542114
-0.289871
-0.0367453
-0.625995
0.230202
-0.0942907
0.308358
-0.581605
0.125528
-0.472136
0.423678
0.270102
-0.324672
-0.0456192
-0.424698
0.239863
-0.500359
-0.0704846
0.0669339
-0.685176
-0.129048
0.196321
-0.161953
-0.0584468
0.611866
0.364404
0.622538
0.65264
-0.375576
0.0129462
-0.26402
-0.143219
0.499778
0.47411
0.00397708
-0.0444085
-0.39298
-0.461137
0.146111
0.504431
-0.157216
-0.202718
0.000362411
0.291958
0.525994
0.349873
-0.242872
-0.748803
-0.494501
0.59706
-0.660137
0.149933
0.0226243
-0.0458051
-0.684697
-0.141965
-0.455596
0.714291
-0.262596
-0.0569025
-0.0473657
0.247128
0.574209
-0.322582
-0.0545115
-0.192505
0.407648
0.324493
0.116587
-0.219433
0.0555597
0.735956
0.35179
-0.721438
0.252536
0.103486
0.403034
-0.764631
0.128749
0.683285
0.609521
0.241196
0.0565632
-0.144485
-0.570566
0.150546
0.486274
-0.255371
0.0909774
-0.549555
0.461757
-0.732683
0.471171
0.260664
-0.280935
-0.357726
-0.708576
-0.648558
0.741815
0.184901
-0.0952676
0.0211101
0.149071
-0.516365
0.0728468
-0.374533
0.361042
-0.298198
-0.364376
-0.284166
-0.389178
-0.529459
0.735382
0.442985
0.0999729
-0.614438
-0.176187
-0.185473
-0.0978072
0.685979
0.04053
-0.409491
0.726571
-0.263903
0.625234
-0.329585
0.153113
0.691546
-0.203627
0.120477
0.103657
0.477867
-0.638479
-0.524193
0.737585
0.212173
-0.125201
0.32214
0.688706
0.285861
-0.736599
-0.474365
0.530974
0.773485
0.744853
-0.147014
-0.612875
-0.209981
0.446709
0.0638894
-0.297595
-0.287373
0.427731
-0.34743
0.221169
0.278402
0.0975953
-0.400088
0.195889
0.668978
0.494079
-0.477522
0.370963
0.633121
-0.223853
0.333275
0.0689735
0.423713
-0.119402
-0.0141716
-0.0639546
-0.0814591
0.286097
-0.308249
-0.082323
0.255929
0.32371
0.0742947
-0.727721
-0.00489901
-0.634456
-0.25212
0.482027
0.567892
0.175245
-0.0694498
0.0724111
-0.500795
0.305917
-0.506458
-0.605637
0.0251286
-0.208081
0.537442
-0.117484
0.338811
0.102686
0.729087
-0.013089
0.754827
-0.0602132
0.698784
-0.100811
-0.550145
-0.384334
0.59082
0.480446
0.713728
-0.106901
0.525278
-0.0651322
0.0322471
-0.499668
-0.35685
-0.173922
0.450301
0.348518
0.672917
0.724034
-0.120434
-0.608238
-0.656145
0.679352
-0.0416601
0.659574
-0.208015
-0.47549
-0.0152638
-0.259983
0.287449
-0.0349072
0.45536
0.210466
0.636944
0.680736
0.601119
0.453407
0.386677
0.540066
-0.428284
0.138727
-0.296404
0.379018
0.413956
0.1176
-0.569258
0.0887824
-0.307803
-0.670788
0.0381674
0.346808
-0.50408
0.156743
0.2517
0.228722
0.0417942
-0.734893
0.202582
-0.289599
-0.08375
0.0152464
-0.000522998
-0.205916
-0.202448
-0.0577084
-0.241261
-0.271075
-0.178906
0.205115
0.239028
-0.0494308
-0.045487
-0.174296
-0.194008
-0.186658
0.166727
-0.117656
0.152296
-0.260168
-0.0951059
-0.127274
0.195008
0.0373313
0.215008
-0.0218442
-0.196184
-0.0605314
0.00418422
-0.286039
-0.0212111
0.193291
0.0433413
0.253832
-0.282251
0.121331
-0.102911
-0.240952
0.169427
0.0125173
0.249711
0.0923702
0.265501
-0.0857617
0.216789
-0.232719
0.0459854
0.0914371
-0.0683899
-0.103944
0.147766
0.160949
0.0776211
0.0285504
-0.133103
-0.00835617
-0.265415
-0.000928441
0.24473
0.013693
0.0124033
-0.0845755
-0.0890688
-0.262483
-0.142298
-0.087994
0.178537
0.0260048
-0.00541043
0.0394459
-0.244035
-0.0458398
-0.152676
-0.279628
0.186172
-0.230551
-0.221822
-0.0691184
0.15543
0.0347801
0.125168
-0.0128565
-0.11392
-0.106864
-0.280819
0.0610758
0.199601
-0.267627
-0.206321
0.134533
0.0462352
0.0735373
-0.249747
0.265168
0.126364
-0.126864
-0.114196
0.0128759
0.226594
0.179699
-0.250093
0.283329
-0.16495
-0.113959
-0.300198
-0.28099
-0.0535768
-0.213213
-0.0540427
-0.202363
0.116604
-0.225557
0.0933942
-0.293452
-0.0309065
0.115605
0.0973911
-0.127826
0.152142
0.160698
0.292495
-0.101084
-0.0518356
-0.263634
-0.12974
-0.208741
-0.0879834
0.041106
0.0927464
-0.12395
-0.0671877
0.156471
-0.185521
0.0821813
-0.260248
-0.170761
0.0798477
-0.0204731
-0.0812719
-0.271492
0.0965917
-0.25791
-0.193461
-0.112607
-0.25901
0.0657329
0.298962
0.124633
0.235099
0.143409
-0.0212754
0.22997
-0.25792
0.215057
0.26984
-0.0961403
-0.298892
-0.119026
0.254926
0.0996786
0.0430368
-0.117751
-0.0349818
0.129637
0.233904
-0.0097615
0.283651
0.0164167
0.257991
-0.110339
0.0641989
0.048346
-0.0608709
0.176708
0.244088
-0.0338444
-0.055867
0.222205
-0.21683
-0.119629
0.0995098
0.0624235
-0.177702
0.140805
-0.0333739
-0.205867
-0.273213
-0.00771157
-0.0115423
0.291355
-0.204896
-0.305722
-0.142687
0.0558693
0.153487
-0.171186
-0.265289
0.130378
0.167141
-0.278564
-0.268089
-0.0710396
0.0852289
-0.0408027
-0.201994
0.026213
0.226204
0.0439361
-0.0319477
-0.287575
0.224593
-0.238282
0.0737591
-0.254281
0.199312
-0.243837
-0.170131
0.241194
0.0490128
0.105985
0.232142
0.14254
0.111685
-0.1908
-0.113644
-0.0387785
-0.0541511
-0.0636836
-0.208165
-0.198444
-0.0446133
-0.171106
0.0346133
-0.25459
0.087554
0.134861
0.0695117
0.0129181
-0.120362
-0.25947
0.0167425
-0.190781
-0.19782
-0.199372
-0.148466
0.304465
-0.145372
-0.0112595
0.233967
0.203191
-0.208406
0.168546
0.0421004
0.194853
0.276961
0.234917
-0.137083
-0.081673
-0.135258
-0.0430242
0.0215027
0.127795
0.0822481
-0.241785
0.159582
-0.133241
0.187977
-0.0631095
0.176829
-0.234076
-0.0304134
-0.0936813
-0.128522
0.0701645
0.00219689
0.029997
0.067004
0.157914
-0.291082
-8.60984e-06
0.0564622
-0.195449
-0.134121
-0.19661
-0.292373
-0.155099
-0.258006
-0.135221
0.0641214
-0.0873303
0.124312
-0.214348
-0.27062
-0.0940793
-0.157442
0.194415
0.0795748
-0.263206
-0.17006
-0.0351116
-0.193843
0.0967767
0.168348
-0.0142683
-0.131836
-0.124913
-0.289794
0.238935
-0.266355
-0.271086
-0.0619165
0.0961602
-0.165178
0.107287
0.198164
-0.161132
0.252403
0.242936
0.00607236
0.00991708
-0.150825
-0.172706
0.0978336
-0.127775
0.0473682
0.238287
-0.210289
-0.172342
0.280341
-0.0981471
0.0766401
-0.208647
0.298897
-0.0437031
0.0588629
-0.124324
0.135972
0.0589016
-0.193715
0.167684
0.109212
0.0486532
-0.0300807
0.251644
-0.135699
-0.136647
-0.219466
-0.198545
-0.196462
0.0884936
0.123227
-0.0700735
0.230465
-0.0860273
0.134878
-0.0292596
-0.139333
0.205796
0.0971558
-0.153966
-0.199426
-0.11445
-0.0838041
-0.2043
0.12922
0.282481
-0.0314868
-0.0345292
0.0609285
0.0608421
-0.171881
-0.117324
-0.186175
0.100321
-0.165365
-0.0390144
0.272782
-0.09773
0.0692709
-0.225931
0.294015
-0.117855
0.0367093
0.227741
0.104642
-0.14847
-0.109451
0.265561
-0.248354
0.295676
-0.193198
-0.137537
-0.118011
0.0142404
-0.0652928
-0.273777
0.00692082
0.207406
-0.00046496
-0.238558
-0.0115935
0.144376
-0.0563725
0.104567
-0.0464274
0.0668764
-0.233518
-0.075316
0.261777
0.138694
-0.000136423
0.256619
-0.27971
-0.272377
0.179492
0.126582
-0.113875
-0.222578
0.0798135
-0.0511046
-0.208611
0.183943
0.110976
-0.0460542
-0.0981197
-0.265293
0.0128579
0.213165
0.257607
0.256443
0.262142
-0.0613238
0.143996
-0.0628707
-0.233447
-0.217657
0.302884
-0.189191
0.0187491
0.244915
0.250288
-0.291425
0.20732
0.255133
-0.284066
0.0878001
0.121494
-0.0762487
0.173477
-0.107551
0.164949
0.236932
-0.213571
-0.0555674
-0.0876434
-0.0192972
-0.0117016
0.205781
-0.100617
-0.0706836
0.191922
-0.0994173
0.194456
0.0521433
0.121027
0.266101
0.0843889
0.0913343
-0.232644
-0.15383
0.0730728
0.284719
-0.189088
0.00877462
0.253377
-0.152278
-0.181815
0.0561482
0.0580226
-0.304597
0.225789
-0.0852791
0.251921
-0.290283
0.136332
-0.118518
0.0094781
-0.161264
-0.213423
0.194899
0.0898249
0.296481
-0.182006
-0.0303586
0.0187719
0.243735
-0.0756024
-0.176402
0.0778723
-0.046611
-0.0392632
-0.13532
-0.048591
0.0567877
0.181487
-0.0807769
0.218074
0.298631
0.275055
-0.0198599
0.301288
0.221906
0.192584
0.263674
0.237103
0.0481772
-0.153092
-0.0568344
0.188213
-0.0569286
-0.156729
-0.0364611
-0.0687174
-0.0366438
0.245405
0.24259
-0.0839049
-0.151127
-0.200834
0.25777
0.118498
0.00462801
-0.179548
-0.251712
-0.219824
-0.264111
-0.0241809
0.291158
-0.275847
-0.0484648
-0.0359479
-0.271737
-0.13334
-0.123123
0.272933
-0.208802
0.213463
-0.169045
0.0524924
0.111929
0.0564664
0.20003
-0.224043
-0.290771
-0.125888
-0.268512
0.267337
0.0980408
-0.123882
-0.274545
0.062792
0.299746
0.0636254
0.222531
-0.258339
0.116361
0.241965
0.0200674
0.134607
0.261262
0.258789
-0.194887
0.291778
-0.161166
-0.0219376
0.263321
-0.0756511
-0.0914525
-0.208021
0.277428
-0.291249
0.186276
0.184085
-0.201971
0.186307
-0.244951
-0.191498
0.137264
0.156455
-0.00732619
0.164217
-0.0838238
-0.0236362
-0.0461287
-0.186972
0.0453733
-0.206125
-0.241144
-0.253923
0.196561
-0.27489
-0.28182
-0.283473
0.295694
-0.168274
0.000563418
0.261019
0.0665966
0.206003
-0.245899
0.0428785
0.218877
0.22371
-0.0777574
-0.278103
0.0975015
-0.0198412
-0.15572
-0.0693304
-0.178024
0.163388
-0.161411
0.027808
-0.151713
0.058857
0.127739
0.183564
0.123326
0.193193
0.24338
0.0472807
0.174011
0.24039
0.0657265
0.237863
-0.231517
-0.247687
0.131456
0.167375
0.255761
0.212356
-0.123046
0.151302
0.133083
0.11455
0.211092
-0.0605969
-0.204777
-0.252389
0.15983
-0.10663
0.198105
0.271645
0.233613
-0.279018
0.024654
0.0566783
0.223079
-0.166872
-0.0371479
0.159584
0.180441
-0.128366
0.0818995
-0.0834754
-0.203615
0.172916
0.00231235
0.206582
-0.0320392
-0.0645253
0.135442
0.138349
-0.243339
-0.0207064
-0.030473
0.254842
0.237508
0.0670935
-0.274528
0.092102
0.261755
0.185633
0.0633709
0.203144
0.261595
-0.195354
-0.0148737
0.184285
-0.0910406
0.24469
-5.57731e-06
-0.198448
-0.173578
-0.211164
0.0448186
-0.161918
0.196918
-0.264271
-0.191694
-0.0695839
-0.0793068
0.243293
-0.206086
0.0623698
-0.0532867
0.0629318
0.0492181
-0.149854
-0.18289
0.0787812
0.235837
-0.220591
-0.00666012
0.00305807
0.274736
-0.0500945
0.0894366
-0.0511963
-0.174371
-0.276421
-0.122546
0.134678
-0.163072
-0.0207034
0.229813
0.202741
0.162962
0.174253
0.206024
0.245683
-0.187155
-0.122342
0.223075
-0.0835022
0.195325
-0.143175
0.256921
0.00776036
-0.00560705
-0.213753
-0.229014
-0.0494766
-0.125579
0.0658257
0.235631
-0.144688
-0.288105
0.0325089
0.0832516
-0.151925
0.0642312
0.279319
0.274058
0.201051
-0.0234396
0.210752
0.0840442
-0.208215
0.0946688
-0.00329445
-0.246517
0.202974
0.153491
0.268154
-0.193919
0.0873289
-0.174389
-0.243342
-0.183725
0.160598
-0.146973
-0.131579
-0.200232
0.0496774
0.21536
-0.267827
0.191004
0.232325
0.0507653
-0.01695
-0.2055
-0.196995
-0.0393805
-0.234832
-0.297696
0.185679
0.276102
0.0713289
-0.300625
0.0800859
-0.222445
-0.233326
-0.0352541
0.234313
-0.266471
0.0645555
0.046982
-0.122681
0.122926
0.138831
-0.296146
0.296485
0.30026
-0.207761
0.0218149
0.225076
-0.177871
-0.0929517
0.1832
0.176822
0.18717
0.264153
0.292017
-0.16341
-0.273945
0.289882
-0.261146
-0.296079
0.0668191
-0.25955
0.0690284
0.157385
-0.211301
-0.267636
0.0719977
-0.168441
0.0903025
-0.18704
-0.0203325
-0.0696455
0.25328
-0.00879919
-0.0770251
0.249445
0.0923349
0.233506
0.18883
0.197563
-0.131691
0.0609912
0.0808371
-0.304101
0.0365049
0.0814398
-0.134381
0.064629
0.0395619
-0.0972655
0.0789524
-0.174
-0.0638262
-0.154752
0.259016
0.0304159
-0.138412
0.0554704
0.167238
0.262175
0.166055
-0.146095
-0.110874
0.140609
0.154844
0.104842
0.0909443
-0.0563581
0.0454847
-0.0246068
-0.150232
0.188807
-0.253552
0.233957
0.208616
0.0750325
0.00497808
-0.211221
-0.175846
-0.231576
-0.0351952
0.187497
-0.125656
0.216387
-0.255364
-0.150086
-0.0489751
-0.0849868
0.181766
-0.175555
-0.110763
0.0473817
-0.0213255
0.0613515
-0.10842
-0.166666
-0.134019
0.268194
0.0646473
0.231723
-0.0381633
0.205536
0.112033
-0.00517608
0.154498
0.0342213
-0.253447
-0.169124
0.111636
-0.122796
-0.119125
-0.21478
-0.225984
0.060473
-0.29569
-0.186507
0.201989
-0.0382259
0.0243842
0.0924417
0.0777144
0.210274
-0.1468
-0.249576
-0.0193404
0.035415
-0.118718
0.162842
0.00101443
0.254428
0.103701
0.232223
0.145761
-0.107273
-0.0564732
-0.00324018
0.241504
-0.00620792
0.0826858
0.0450172
0.132349
-0.27
0.121371
0.227077
0.0586102
0.147509
-0.248593
-0.0313905
-0.216524
0.0692062
-0.233716
0.185363
-0.0390928
-0.0787745
0.236877
0.269451
0.233061
-0.195536
0.137259
-0.0523625
-0.250143
-0.099846
-0.104628
0.195628
0.132226
0.125691
-0.135611
0.0529839
-0.198768
-0.30766
-0.197213
0.242016
-0.278783
0.248184
0.175218
0.0784126
0.0876866
0.236509
-0.264749
0.163671
0.0106146
-0.206512
0.0144306
0.27816
0.0180082
-0.0495324
0.232121
-0.0407763
0.0456691
0.0305541
0.205966
0.0926661
0.27108
-0.188222
-0.00852526
0.103064
0.225453
0.169494
-0.158459
-0.277911
0.173868
-0.0397762
0.264658
0.186787
-0.102695
0.162384
-0.0400311
0.251137
0.0829694
-0.00150559
0.114854
-0.215448
0.111018
-0.15081
-0.238349
-0.177103
0.102118
0.299873
0.0777461
-0.145405
0.0556581
-0.0136437
0.240073
0.0249433
0.0896129
-0.0597975
-0.182989
0.0108837
-0.198224
-0.0311093
0.0257454
0.274367
0.216519
-0.00241622
0.174822
-0.198499
-0.137858
-0.165927
-0.250286
0.242762
0.129587
0.159108
-0.278634
-0.0540441
-0.286488
-0.224345
0.0657293
0.108375
-0.22008
-0.150807
0.273441
0.148118
0.137903
0.1993
-0.132569
-0.0735911
-0.173064
-0.0153916
0.236867
-0.0849729
0.257721
-0.0231594
-0.0811654
0.179023
0.270253
-0.19853
0.294011
-0.159173
-0.0823743
-0.279202
-0.222243
-0.252429
0.201549
-0.201706
-0.0166168
0.20906
-0.134854
-0.25683
0.00579068
-0.0191628
-0.111125
-0.0205914
-0.18754
-0.274471
-0.115091
-0.0344153
-0.044162
0.0184046
0.257929
-0.11349
0.259097
0.22976
0.150476
-0.121294
0.0941365
0.122157
-0.0364382
0.0693954
0.258597
0.17132
0.110349
-0.272665
0.204929
0.0101954
-0.170084
-0.094395
-0.0779318
0.0114726
-0.0540088
0.243724
0.280754
0.140218
-0.073965
-0.213348
0.162952
0.115121
0.0526016
-0.19061
-0.165126
0.00858854
-0.00945144
-0.20688
-0.0752421
-0.162435
-0.0299379
-0.278524
0.258927
0.236602
0.108267
0.210922
0.110398
-0.085241
0.239498
0.0199478
0.219584
-0.220046
0.236898
-0.156377
0.0774692
-0.114925
-0.21401
0.068924
-0.28131
0.0165103
0.155602
0.180242
-0.174732
-0.101114
0.286453
-0.0367712
0.214135
-0.00697673
0.0582518
-0.158137
0.112984
-0.260865
-0.124874
0.073903
0.253594
0.261967
-0.0140804
0.0657153
-0.118433
-0.079292
-0.195951
-0.199602
0.00132336
-0.265921
-0.056735
-0.209394
-0.0969431
0.0503366
0.151233
-0.0653354
-0.240484
0.00492981
-0.19643
-0.113885
0.212819
-0.213633
0.148037
0.140131
0.0683755
-0.0976435
0.287545
-0.111839
-0.0635275
-0.153656
0.245977
-0.103557
-0.182073
-0.060864
0.265328
-0.0192125
0.185645
-0.232889
0.101071
-0.127037
-0.217883
-0.252427
-0.0305757
-0.0113795
0.0836667
-0.17562
0.215288
0.139616
0.141769
-0.277996
-0.264597
0.0639498
-0.180855
0.17759
-0.0914927
0.193748
-0.209374
-0.108987
-0.215031
0.022339
0.042659
-0.25299
0.217679
0.155067
-0.00305773
0.179461
-0.152835
-0.122176
0.236364
0.245793
0.0518939
-0.281974
0.279668
-0.273491
0.0215981
0.0698076
-0.153525
-0.0784606
-0.0964689
0.297394
-0.0479224
-0.0665611
0.0812602
0.047836
-0.185631
0.265962
-0.0303819
-0.106963
-0.140435
0.0337417
0.228312
0.205805
0.0895364
0.14321
0.0549743
-0.215484
0.0280792
0.19738
-0.0368263
-0.0238965
0.138341
-0.288132
-0.021782
0.134508
-0.255486
0.294883
-0.115442
-0.0967896
-0.0832659
0.101689
-0.0981129
0.158649
-0.260279
0.267161
-0.0703731
-0.151048
0.231226
0.203105
0.0615561
-0.204309
-0.0633979
-0.0129301
0.310744
-0.275059
-0.176951
0.0626019
-0.201053
0.144596
-0.0485421
0.0767656
-0.189796
-0.198037
0.0917765
0.101912
0.207523
0.142895
0.0887327
-0.187624
-0.25592
-0.290975
0.222649
-0.062333
0.165787
0.250091
-0.105117
-0.18128
-0.180491
-0.174816
-0.296766
0.166267
-0.0668376
-0.0550561
-0.160152
-0.0789195
-0.0238628
-0.0371998
0.267108
0.070784
-0.186602
-0.0758675
-0.148817
-0.0758604
0.0150567
0.249116
-0.273806
-0.0572813
0.0839869
0.126871
0.057843
0.116656
0.129909
0.00767433
-0.240964
0.0215498
-0.0440216
-0.061708
0.138004
0.0287646
0.0916802
0.111908
-0.0800212
0.252628
-0.211769
0.0587552
-0.0621686
0.0388065
-0.30349
-0.11907
-0.178837
-0.179749
0.126497
-0.0419602
0.0317681
-0.16564
-0.098361
0.0909536
0.0827791
0.281135
-0.0723669
-0.165478
0.0877829
-0.246238
0.109433
0.145867
0.0860866
-0.266062
-0.213186
-0.104788
0.0511058
0.164123
-0.276689
0.243763
0.123583
-0.227821
-0.0139058
-0.222187
0.141688
0.014188
-0.0496757
0.225775
0.132379
-0.200486
-0.0964192
-0.122217
-0.122908
0.115186
0.253131
0.302105
0.0947282
-0.123978
-0.176427
-0.116905
-0.103399
0.232547
-0.257102
0.267025
0.273269
-0.151926
-0.119557
0.0278307
0.297223
-0.134944
-0.0177356
0.158757
-0.0723339
-0.291874
0.188642
-0.241804
0.00483886
-0.129347
-0.289452
-0.215067
-0.0654491
-0.0944239
0.0165919
0.146892
-0.288632
-0.0169725
0.144051
0.107161
0.152607
0.265881
-0.294436
-0.230755
0.195002
-0.253699
-0.261348
0.165572
-0.12936
-0.109163
-0.0952727
-0.13089
0.0507139
0.204386
0.294464
-0.296161
0.213747
0.201808
-0.23074
-0.0774825
-0.221134
-0.232841
0.0683522
0.00626309
-0.0335571
-0.228444
-0.133285
-0.0212553
0.0648742
-0.292738
-0.211047
-0.111553
0.269758
-0.202214
-0.020198
0.176559
-0.173829
0.0197473
0.0460981
0.0101563
0.210007
0.24463
0.154612
-0.0416646
0.142784
0.169005
-0.0283397
0.0637184
0.0833925
0.0415135
0.29223
0.152901
0.11138
0.0644227
-0.137198
-0.214725
0.137616
0.0213231
0.062892
-0.101827
0.0446683
0.153319
0.107922
0.00021127
0.248186
-0.201531
-0.126896
-0.216642
0.112346
0.20753
0.0855976
0.0170235
0.150225
-0.0414397
0.279991
0.0124482
-0.179811
-0.0486802
-0.213808
0.184677
0.297749
-0.23058
0.035311
0.104484
0.125999
0.188131
0.186095
-0.0340821
-0.076708
-0.0499068
0.167008
0.244891
-0.188246
-0.0191307
-0.0523997
-0.250781
0.0553385
0.12823
-0.167039
-0.130722
0.0440831
0.217625
0.179718
-0.0980482
-0.125551
0.155255
0.21679
-0.0125147
-0.192611
0.29316
-0.13059
-0.196726
-0.211983
0.188636
0.199822
0.210801
0.0881114
0.0885827
-0.125023
-0.290772
-0.257019
-0.232356
0.239536
-0.136909
0.0255094
-0.101543
-0.108156
-0.212115
-0.266605
0.0227533
-0.0380068
0.0724507
-0.0607288
-0.161861
0.272829
0.11476
0.309452
0.182042
-0.201782
-0.190125
0.169294
-0.0264559
-0.0864085
0.246536
-0.12504
-0.177937
0.150391
0.274949
0.218832
-0.250412
0.292396
0.258688
-0.201513
0.249508
-0.161245
0.13543
-0.159647
0.0147004
0.21819
-0.12461
-0.25586
-0.119567
0.23984
-0.0376796
0.0161077
0.195627
-0.179032
0.00548251
0.0910448
-0.0947269
0.119195
-0.0412685
0.188936
-0.262003
-0.0855695
-0.23263
-0.149631
-0.220822
-0.253972
-0.24554
-0.183344
-0.272142
-0.287702
-0.0765573
0.265356
-0.179479
-0.234746
-0.200685
0.148275
0.268429
-0.0215462
0.188378
-0.156906
-0.0863171
-0.128416
0.159198
-0.18533
-0.0243748
-0.128583
0.204715
0.19344
0.286408
-0.13928
0.0723781
-0.287985
0.0770329
0.131004
-0.144941
0.151325
0.174298
-0.0942532
0.271147
0.202551
-0.0677649
-0.126699
0.151648
0.0562328
-0.0493966
0.264862
-0.116142
-0.0714153
-0.0553779
-0.19316
0.0621294
0.165085
-0.0484867
-0.0561785
0.26068
0.254981
0.125425
0.150838
0.156009
0.10089
-0.282542
-0.0796124
0.129811
0.101578
-0.235785
0.242869
-0.0765366
0.23862
-0.133146
-0.0919544
0.137083
0.104028
0.113938
-0.00815294
-0.160391
-0.222066
-0.0322381
0.0522848
0.0166852
0.211345
0.135263
-0.212064
0.111506
-0.168101
0.0476278
0.0394084
-0.220337
-0.144261
-0.114185
0.208888
0.248982
-0.0888299
-0.159192
0.0315287
-0.251161
-0.108506
0.00966202
-0.0374514
-0.174316
0.166156
0.203858
0.278932
-0.0403691
0.0182016
-0.0374446
0.118376
0.0786578
0.232757
-0.140819
-0.198395
0.138703
-0.275228
-0.0997204
-0.100807
-0.113076
0.21455
0.264155
-0.0704787
-0.221706
-0.153293
-0.151297
-0.277643
0.0748228
-0.000484322
0.0455376
0.0957822
0.19467
-0.252713
-0.233427
-0.276473
0.215451
0.264408
0.286334
-0.118964
-0.0178966
-0.0452602
0.299034
-0.222518
-0.106693
-0.123997
-0.121476
-0.250333
-0.0953289
0.06197
-0.0304157
0.0573315
-0.0143371
-0.0786336
0.303263
0.035452
0.0690969
-0.138393
0.0512158
-0.154437
0.156596
-0.212323
0.235186
0.0537317
-0.160159
-0.300211
0.0817931
-0.249903
0.271649
0.0680089
-0.0646045
-0.0512888
-0.27215
-0.0606633
0.0308042
-0.0951236
0.11243
0.20746
-0.0339292
-0.280673
-0.0233581
0.226987
0.0846102
0.25613
-0.152826
0.0863721
-0.00263487
0.218385
0.248472
-0.255983
-0.243338
0.10579
-0.174955
0.29207
-0.149738
-0.0213229
0.303226
0.234724
0.0219181
0.26696
0.0136685
0.263864
-0.0869898
0.0348986
-0.102612
0.236051
0.253257
-0.287871
0.142794
-0.0781724
-0.267613
-0.1908
-0.148199
0.119964
-0.242951
-0.00253369
-0.0964388
0.061189
-0.0814153
-0.151612
0.101461
-0.0257294
0.254462
0.235749
-0.034502
-0.186648
-0.0948316
-0.0404467
-0.235247
0.225808
-0.0728814
0.0741784
0.197215
0.135704
-0.191928
-0.213083
0.076802
-0.239532
-0.195243
-0.0891013
-0.0200215
-0.160033
0.0235597
0.125879
0.256531
0.0843439
-0.177664
-0.140085
-0.165548
0.0381323
2.93131e-05
0.248841
-0.291278
-0.0451088
0.172687
-0.00145419
0.0736
-0.216644
0.241986
0.138301
-0.283249
-0.140284
-0.0928053
0.200823
-0.276705
-0.00368286
0.303595
0.0905527
0.107088
-0.202381
-0.296468
-0.241385
-0.0616196
0.0331141
0.175091
-0.120089
-0.199521
-0.288528
0.0412255
-0.0329313
0.0625732
-0.231229
-0.115866
0.0743986
0.0207112
-0.231652
-0.220078
-0.212895
-0.176954
-0.289502
0.244829
-0.15103
-0.110334
-0.176922
-0.243651
-0.103229
0.154598
-0.249032
0.286368
-0.0724367
-0.140908
0.282907
-0.00304454
0.0909473
0.0166933
-0.115962
0.285861
0.137329
-0.0951642
0.0301041
-0.213835
0.265596
0.0663901
-0.00900618
0.0293262
-0.238295
0.0471961
0.10479
-0.136191
0.183966
0.119247
-0.21163
-0.237576
-0.293417
-0.0840564
-0.214498
-0.0801697
-0.231607
-0.166103
-0.114245
-0.00988286
0.00601746
-0.109338
0.291916
-0.206124
0.217028
-0.109693
-0.232238
0.0488579
0.08751
0.0892242
0.13888
0.0462974
-0.143875
-0.183778
-0.212568
-0.072166
0.162828
0.194142
0.0955631
0.0543791
0.00957089
0.163816
0.109706
0.0206351
-0.22363
0.213002
0.227213
-0.143858
-0.252106
-0.177002
0.133869
0.0557896
0.0234714
0.142825
0.164118
-0.0805925
-0.273
0.221155
0.265701
0.107548
0.00781355
0.109083
-0.124198
0.154498
0.222661
-0.0494322
-0.203271
0.0844986
-0.148814
0.162793
-0.159217
0.153919
0.0510846
0.249899
-0.117762
0.141009
0.158465
-0.187042
0.264752
0.213501
-0.053381
0.123314
-0.0213089
0.259973
-0.0471477
-0.157303
-0.122415
-0.00604977
-0.243244
-0.147798
-0.202333
0.0617866
0.263502
-0.0308085
-0.0859807
0.187747
0.240443
-0.00138006
-0.0222704
-0.221308
-0.114093
0.119141
0.263594
0.234459
0.0728675
-0.156332
0.0501515
-0.0740818
-0.0451203
0.0162839
-0.162788
0.192911
-0.1634
0.110849
0.156121
0.103641
0.24702
-0.269161
-0.223098
0.300132
-0.108448
-0.113035
0.05591
-0.160297
0.16603
0.272722
-0.268727
0.0953043
-0.0282996
-0.00122006
0.18649
0.149277
-0.185405
0.140143
0.0714246
0.181482
0.28659
-0.179676
-0.196811
-0.0489643
0.137719
-0.0597094
-0.153932
0.276018
-0.242249
-0.293701
0.064701
-0.294262
-0.260433
0.150713
-0.29902
-0.0850032
-0.255859
0.0625377
0.0671832
0.203772
0.0339879
0.0891545
-0.000136008
0.288576
-0.209997
-0.114186
0.150249
-0.0890498
-0.287935
-0.0802718
-0.199841
-0.284039
0.0342459
-0.0984247
-0.0479799
-0.134599
0.125752
0.122478
-0.155126
0.187469
0.12696
0.199867
0.199164
0.158763
0.0536298
0.197133
-0.21414
0.10611
-0.031667
0.145873
0.00783695
0.285584
-0.0570838
-0.292705
0.297192
0.0260686
-0.104195
0.134953
0.238704
-0.0885231
-0.242515
-0.269171
-0.0817367
0.0894936
-0.0707813
0.184585
0.258003
-0.217364
-0.00602123
-0.195148
0.289324
-0.186594
-0.29075
0.178849
0.271428
0.0698624
0.0825293
-0.250404
-0.134384
-0.253884
0.211628
0.168844
-0.262758
-0.15874
0.182977
-0.267079
0.171674
-0.232231
0.154487
0.121426
-0.0164082
0.224498
0.158476
0.20373
0.00353762
-0.197294
0.0853689
-0.0426112
-0.117001
-0.22702
0.0582246
-0.139952
-0.114733
0.0688068
-0.243406
-0.167056
-0.169116
0.128148
-0.102313
0.00911808
0.175657
-0.205424
-0.137653
0.241831
-0.0650829
-0.217413
0.239321
-0.180858
-0.186336
0.116648
0.234777
0.109571
0.0341301
0.0873142
-0.0117882
-0.246412
0.197333
-0.213805
0.00642638
-0.240485
-0.148749
-0.216457
-0.0979554
0.0456577
0.152903
-0.0240151
0.186123
0.275092
-0.209324
-0.192896
-0.0103779
0.273777
-0.0750232
0.159018
0.218346
0.182259
0.244814
0.187646
0.284962
-0.247098
-0.013067
0.210782
0.158167
-0.266172
-0.00730133
-0.16121
-0.227452
-0.131837
-0.0336413
0.0689114
-0.0544
0.086645
0.137818
0.156867
-0.146583
0.000867857
-0.170398
-0.249864
-0.0357139
-0.0704335
-0.138677
0.233423
-0.0798083
0.0747811
0.108875
-0.146039
-0.0620293
0.0261016
-0.2492
-0.10473
0.10125
0.0244007
-0.18844
-0.0587055
0.0590016
0.136741
0.106988
0.129666
0.281817
-0.25378
-0.0869612
-0.0742095
0.1634
-0.242545
-0.214471
-0.290653
0.0370398
-0.079446
-0.248796
0.300301
0.153129
-0.0916721
0.237088
-0.219778
0.279186
0.0638371
-0.0750061
-0.109596
-0.208281
-0.0250866
0.0942442
0.15891
-0.278722
0.211244
-0.159666
0.047015
0.0229695
0.215335
-0.10861
-0.000613671
0.28322
0.139042
0.197159
0.152517
0.177543
0.289409
0.146351
-0.0775044
-0.0884415
0.228432
-0.110992
-0.254575
-0.183358
-0.151475
-0.163116
-0.202656
0.194473
0.0896151
-0.00724848
0.274532
-0.228037
-0.194226
0.178148
-0.204525
-0.284912
0.277205
0.158647
0.0736556
0.235166
-0.22414
-0.272075
0.2118
0.200385
0.230845
0.0578283
0.0704189
0.219252
-0.0902225
0.256874
-0.130454
-0.17468
-0.12125
-0.0896663
-0.0403431
0.0114257
0.0722679
0.0623282
-0.0813673
-0.136467
-0.237116
-0.0827963
-0.0752967
-0.138633
-0.238888
0.021493
-0.126494
-0.236296
-0.114296
0.19904
0.326054
-0.0581908
0.252139
0.209916
-0.151845
0.176146
-0.0492869
0.204871
0.115125
0.183061
0.164955
0.258936
-0.286388
-0.266037
-0.129322
-0.0347877
0.0511886
0.236427
-0.282236
0.261684
-0.202061
-0.21853
-0.137659
0.0335369
-0.0496452
-0.0652164
-0.246627
0.142396
0.00475667
-0.07253
0.0574702
-0.000332558
0.176468
-0.00470819
-0.0853697
-0.29062
-0.127775
0.188923
0.205328
0.292981
0.0826984
0.068566
0.239299
0.0831708
0.101923
-0.194856
-0.246967
-0.150201
-0.247405
-0.231501
-0.186858
-0.150308
-0.145886
-0.0149748
0.180356
0.0925861
0.209001
0.239426
-0.0653384
-0.0816084
-0.139364
0.294065
0.222293
-0.261185
-0.00899481
-0.160933
-0.25609
0.164416
-0.268098
0.243997
0.143836
0.102235
0.00981721
0.0874627
-0.112129
-0.165114
0.210799
-0.0547405
-0.0274646
0.254557
0.0276258
0.09499
-0.203801
0.177565
-0.223644
0.27114
-0.0252833
0.28844
0.204683
0.225131
-0.0880104
-0.228983
0.209513
-0.153277
-0.200658
-0.0975409
-0.021382
-0.15349
-0.23088
0.00379598
-0.208869
0.205112
-0.186547
0.112991
-0.00277715
0.00151861
0.238035
-0.103628
0.257602
-0.0907942
-0.160044
-0.0199844
-0.287697
-0.0626935
-0.148062
-0.212219
-0.0913625
0.129201
-0.226537
-0.183487
0.0414375
-0.0140389
-0.120998
-0.0466298
0.120442
-0.0177018
0.159105
-0.204029
0.117448
0.223796
0.108289
0.212875
0.140135
0.228469
0.0336727
-0.182637
-0.0736312
-0.0445137
0.0201059
-0.124543
0.175421
0.177602
0.154562
0.196305
-0.208529
-0.2714
0.273137
-0.000108884
0.146276
-0.247842
0.117271
-0.110918
0.0321646
0.29395
0.141385
-0.144398
-0.0125882
0.00308658
-0.0357654
-0.197638
-0.0815707
-0.251944
-0.261285
-0.255698
0.275367
0.0488383
-0.13467
-0.0926315
-0.277736
0.184743
0.0770585
0.20148
0.0426016
-0.03026
0.0947983
0.140425
-0.01617
0.0731564
-0.154271
-0.152409
0.125548
0.273589
0.0029218
-0.12579
0.259841
-0.149994
0.0340776
-0.0685294
0.149787
0.285603
0.036392
-0.233382
-0.239126
0.0447102
-0.194049
-0.256035
-0.191581
-0.0177056
-0.0466427
-0.171204
-0.143823
-0.256303
-0.291328
0.203064
0.0107376
0.134338
0.0338988
0.287618
-0.0971649
0.182553
-0.169951
-0.270625
0.136524
0.133616
-0.0958331
0.0871457
0.277978
0.244512
-0.274869
0.134752
0.239619
0.057172
0.206385
-0.293441
-0.188316
-0.284039
-0.244727
-0.0841258
-0.00822859
0.00527026
0.0379145
0.152287
0.0639315
0.0506787
0.0526712
-0.226852
-0.116674
-0.211368
-0.258487
0.0747056
0.271496
-0.110073
0.101546
0.0982412
0.297279
-0.2948
-0.104917
0.270631
0.252248
-0.0702749
0.125318
0.193689
0.276968
0.0160612
0.207162
-0.20424
0.0207205
0.250272
0.00501658
-0.280658
-0.0273077
-0.239501
0.181479
-0.27924
0.10245
-0.0734512
-0.209302
0.280192
0.0107856
-0.149486
0.05626
-0.0233776
0.0127521
-0.147456
-0.235673
0.0279214
-0.150966
-0.00613404
0.0138213
-0.181879
0.197467
-0.168176
-0.271641
0.176118
0.14001
0.230624
0.274237
-0.128591
0.185357
-0.0188081
-0.103461
-0.141627
0.0358111
-0.248753
-0.123719
-0.165728
-0.0302642
-0.0396226
-0.178763
0.283416
0.124112
0.172737
-0.0446024
-0.172853
-0.262039
0.0378388
0.152985
-0.104623
-0.285341
-0.145501
0.0223788
0.206386
-0.0309543
0.0409833
0.0895318
-0.194047
-0.0318501
0.0744785
-0.031088
-0.151179
-0.245352
0.154918
-0.000752129
0.0869211
0.199867
0.171169
0.226874
-0.134481
-0.162032
-0.249778
-0.164992
0.250467
0.248293
0.0843618
-0.218045
0.26505
-0.179362
0.238143
-0.120427
-0.180526
-0.224223
0.202727
-0.259022
0.0382086
-0.0658686
0.143561
0.168976
0.19907
-0.0889146
-0.178285
-0.243313
-0.0281156
0.284998
0.0450836
-0.247981
0.159647
-0.10342
0.277238
-0.255524
0.0452748
-0.259515
-0.108879
0.0168146
0.279069
0.268456
0.0814513
0.233946
-0.227906
0.0173742
-0.19304
-0.0745868
0.0985855
-0.286902
-0.0147387
-0.141935
-0.0625935
-0.174705
-0.285485
-0.178569
0.0212958
-0.16035
-0.119358
-0.295526
-0.204648
0.217898
-0.242163
0.283949
-0.186639
-0.24173
-0.296053
0.177303
-0.193958
-0.125972
-0.123049
-0.235576
-0.150533
0.221731
-0.285279
-0.0743731
-0.0418594
-0.179502
0.181978
-0.225171
-0.180184
-0.138742
-0.0904982
0.0740857
-0.0220177
-0.0704161
0.188388
-0.27822
0.0576055
-0.214708
-0.282694
0.138778
0.284121
-0.217202
0.111458
-0.175984
-0.164937
0.114683
-0.297621
-0.0699082
0.302518
-0.124775
-0.000836665
-0.145964
-0.168609
0.00574876
0.0988908
0.0991592
0.135417
-0.0235938
0.160959
0.252709
0.139063
-0.226817
0.0130834
-0.180642
-0.0100843
-0.0870423
-0.172145
-0.270973
-0.0311047
-0.158064
0.172938
-0.038276
-0.0640918
-0.0253102
0.0846401
0.0686845
-0.212013
0.0796518
0.294916
-0.206543
0.26808
-0.00737956
-0.0530225
-0.203823
0.302614
-0.253046
0.196589
0.119906
0.0217407
0.0542505
0.0829275
-0.13529
0.135028
-0.195011
-0.0171776
-0.175567
0.00185592
0.111049
-0.138516
0.279971
0.261244
-0.270947
-0.0669006
-0.0998579
0.000410046
-0.27782
0.260784
0.0923643
0.0994637
0.25255
0.191004
0.0661376
-0.0550929
-0.161736
0.167189
-0.0543497
-0.116716
0.0591334
-0.221418
0.206971
-0.173791
0.166412
-0.226452
0.259637
0.261465
0.0533376
-0.216687
-0.0425957
-0.137471
-0.0593981
-0.0604687
-0.17658
-0.0359103
0.174691
0.0224245
0.269159
0.190598
-0.0215266
0.0650752
-0.0026423
-0.0636751
-0.0465048
-0.237095
0.182139
0.0784933
0.229234
-0.174767
0.264529
-0.00952289
-0.0962022
0.172035
0.117508
-0.231277
0.24395
0.0801452
-0.274914
-0.00606701
0.170508
-0.00978994
0.156859
-0.184151
0.220456
0.270746
0.0795078
0.106074
0.00279794
0.0528039
-0.00458638
0.283501
-0.18718
0.282666
-0.0679808
0.0642865
-0.237588
-0.208021
-0.145288
0.294147
-0.0670499
-0.190382
-0.0154081
0.13775
0.288599
-0.191458
0.205076
0.220891
0.184348
0.224343
-0.09668
0.0571731
-0.081541
-0.226019
0.156787
-0.154199
-0.249627
-0.0535698
0.242375
0.0503866
0.290265
-0.0640939
0.0367457
-0.201665
-0.0725886
0.242186
0.169604
-0.00563279
-0.260719
-0.287207
-0.0211689
-0.0361368
-0.175009
0.253311
-0.18307
-0.202438
-0.231708
-0.276009
-0.278978
0.262716
0.253694
-0.0671355
0.00672693
-0.13102
-0.0038655
-0.113205
0.0163891
0.043987
0.122213
-0.0470385
-0.214621
0.109644
0.197218
0.117324
0.221868
-0.172308
0.0532327
0.0665733
0.118828
0.106747
0.0900925
-0.21226
-0.228637
0.210454
-0.24085
-0.105228
-0.297231
-0.167984
-0.082338
-0.283775
-0.208166
-0.13414
-0.0564831
0.106796
0.0362919
0.23257
0.287029
-0.248014
-0.0306232
0.112781
0.0125947
0.0516414
-0.0757014
-0.0924259
-0.139413
-0.154824
0.0407141
0.220209
0.216215
-0.146269
0.0312289
0.0127898
-0.0532576
0.100386
-0.0715081
0.00666545
-0.295435
-0.0812636
0.141183
-0.0784072
-0.0657149
0.221718
0.0869554
0.179316
0.034628
-0.176048
0.102985
0.0160363
-0.112632
-0.222327
-0.166674
0.194752
0.131073
0.0474166
-0.208544
0.30082
0.200093
0.133896
0.211295
0.121392
0.291752
-0.0614852
-0.168909
-0.0636832
-0.24815
0.0616248
0.256897
-0.247928
0.276129
0.0773795
-0.0304977
-0.0916741
0.016368
-0.242263
-0.214544
-0.254651
-0.115628
0.190807
0.0590897
0.0547425
0.268622
0.199826
-0.0498356
0.100772
-0.0458304
0.0566912
0.0869008
-0.142598
-0.100713
0.0107952
0.276896
-0.110005
0.244768
-0.183622
0.13006
-0.296229
0.162304
0.0809059
-0.238502
0.137903
-0.13643
0.0281603
-0.253963
0.177438
0.0914946
-0.170408
0.219425
0.282091
-0.277225
-0.0101534
0.0474329
0.297832
-0.117122
0.302787
0.09612
0.136769
0.0630411
-0.114166
0.28949
0.260999
0.193955
0.266846
-0.142859
0.141086
-0.223391
0.290237
0.141819
0.247571
0.0729308
0.197759
0.0552429
0.235571
-0.075387
0.127615
0.114056
-0.276765
0.225204
0.0335787
-0.299255
0.284149
-0.288372
0.0453711
0.265764
-0.0912671
0.0510501
0.0554035
-0.25953
-0.181776
0.243403
-0.266846
-0.24834
0.154023
-0.285168
-0.0735649
-0.0132539
-0.212756
-0.0871637
-0.169777
-0.269122
0.273728
-0.244877
0.0918074
0.229669
-0.0150525
-0.081862
0.0449696
-0.0100282
-0.139172
-0.230031
-0.00711705
-0.14328
-0.190225
-0.259967
-0.205012
0.0186743
0.0916424
0.158617
0.0593439
0.199086
0.0808056
0.102468
0.259536
-0.0554953
0.105909
-0.112735
0.235102
0.18413
0.0849928
-0.23579
0.179472
0.0860665
-0.180629
-0.00393087
0.018907
0.0690738
0.202814
-0.244564
-0.241169
-0.219636
-0.156191
0.0495644
-0.0962495
-0.0611225
0.107118
0.0136763
0.249738
-0.115282
-0.141906
0.0144019
-0.217116
0.269314
-0.189013
-0.258742
-0.0886366
0.210966
-0.0716951
-0.161126
0.0898499
-0.275281
-0.0946899
-0.0165512
0.108515
0.00815988
0.281622
-0.168533
-0.219074
0.18248
-0.11696
-0.171905
0.24425
0.0135828
0.190941
-0.129821
0.264812
-0.0119868
0.15325
0.221277
0.209578
-0.275077
-0.0671074
0.239431
0.309185
0.0396118
0.291927
-0.0841088
-0.0572366
-0.0794821
0.050525
-0.263227
-0.0606215
0.266421
0.0216019
-0.248029
-0.0414631
0.0141762
-0.122177
0.0427215
-0.141844
0.0609761
0.175178
-0.172109
-0.224482
0.0686926
-0.00394949
-0.255093
-0.228527
-0.139341
0.257895
0.24589
-0.103782
-0.102257
0.164542
-0.147257
0.223691
0.164905
0.065989
-0.167427
-0.192199
-0.179739
-0.111687
0.0402513
-0.21876
0.21578
0.100695
0.061401
-0.112141
0.274802
-0.216989
0.0969803
0.0398018
0.269538
0.230579
0.092553
0.0333521
-0.0842777
0.157946
0.100149
0.0917837
0.106993
0.0195745
0.232588
0.302429
-0.093015
-0.162583
0.204516
-0.224739
0.212447
-0.220968
-0.105493
-0.266588
-0.0271201
0.222542
-0.191841
-0.107718
0.0237006
0.148553
0.104454
0.0050337
0.229014
-0.092331
-0.262247
0.199291
-0.155031
0.147718
-0.083432
0.0702408
0.0040568
-0.281044
-0.153893
-0.183945
0.0498239
-0.192363
-0.195917
0.221948
-0.0404866
-0.285763
-0.2542
-0.126328
-0.218682
-0.0761218
-0.1096
0.0886862
-0.161921
0.00944799
0.277729
0.18332
-0.135313
0.0792789
-0.140974
-0.20688
0.279993
-0.0923217
0.287401
-0.173739
-0.24301
-0.0639761
0.194988
0.0596497
-0.0411276
-0.258276
0.16461
0.268468
-0.151824
0.267472
0.222598
0.0943746
0.261829
0.252406
0.268377
-0.239567
-0.110996
-0.148988
0.156939
0.0412219
0.173203
0.128894
-0.0790022
-0.239811
-0.119612
0.0754982
-0.147238
-0.131136
0.266747
-0.155857
0.00144194
-0.272138
0.0684047
-0.10445
0.0731375
-0.309718
-0.0672381
-0.0581435
0.278931
0.0944502
-0.0923417
0.212651
-0.107447
-0.116094
0.1642
-0.14155
-0.0430394
-0.242544
0.0125815
-0.196855
0.0855467
-0.102136
0.212492
0.283057
-0.06278
-0.188858
0.0479085
0.0821385
-0.0143879
0.0256255
0.217272
0.297047
0.0509544
-0.0161583
-0.106631
-0.169466
-0.0112585
0.132267
0.0692604
-0.0348139
-0.0785795
0.277856
-0.129253
0.105341
-0.141888
-0.267188
0.255316
0.110102
-0.209969
-0.0207092
0.220383
0.168367
0.180624
0.135475
0.12289
-0.15004
0.238412
-0.112507
0.189276
-0.0585482
0.221355
0.115912
-0.0702342
-0.0326359
-0.19234
0.123855
0.106518
0.0972657
-0.0395248
-0.128533
-0.244877
0.154356
-0.142649
-0.0744408
-0.0129271
-0.0150556
-0.0279163
-0.0603705
-0.18218
0.0439372
0.230678
-0.272313
-0.0880918
0.12009
0.14493
-0.253204
0.227171
0.0949828
-0.0608518
0.10468
-0.29245
-0.149661
-0.0733112
-0.0745609
0.106193
0.0573122
-0.257477
-0.0757791
-0.146387
-0.0152681
0.112298
-0.0948032
-0.141221
0.247602
0.129599
0.12512
-0.0269203
-0.195665
-0.216896
0.0716082
0.138571
0.300338
0.0880473
-0.235358
0.11334
-0.0574323
-0.182399
0.0112379
-0.301392
0.0597419
-0.154002
-0.275413
0.201831
0.0660819
-0.0361914
0.0399176
-0.168268
-0.00215277
0.271182
-0.0351225
0.285885
0.0815664
0.16917
-0.166826
0.041392
0.00179029
0.263084
-0.298551
0.105049
-0.269062
0.0726613
-0.0399806
-0.266413
-0.14451
0.0192295
0.134975
0.0918181
0.150245
-0.144221
0.133803
-0.128171
-0.00155973
0.158043
-0.166804
-0.203323
-0.185798
0.133127
-0.0893271
0.114779
0.128538
0.169351
0.110511
-0.108326
0.0600819
0.249695
0.245806
-0.254498
0.221239
0.256347
0.163236
0.202157
0.027943
-0.173375
0.274375
0.195408
0.160852
0.0826515
0.00271613
-0.0103449
0.233184
-0.151316
0.175029
-0.05602
-0.284983
0.291285
0.0257142
-0.177503
0.109553
0.234668
0.204024
-0.0100095
0.136272
0.0355303
0.145982
-0.117561
0.00499677
0.117269
-0.0807177
-0.0778702
0.0529745
-0.238106
-0.145346
-0.209377
-0.114083
-0.170623
0.287686
-0.294747
0.215227
-0.00408415
-0.0410291
0.150692
0.136302
-0.136689
-0.17872
0.136407
-0.164554
0.148177
0.25618
0.285492
0.0819498
0.193751
-0.0706212
-0.108203
-0.0269364
-0.217975
0.0735362
0.259568
0.203605
0.289688
-0.128823
-0.0288346
-0.247848
0.024859
0.0575123
-0.0719081
0.142569
0.0452724
-0.0711948
0.0610044
-0.262214
0.208965
-0.0685015
0.167117
-0.22841
0.036351
-0.00297079
-0.11142
-0.117686
-0.0439745
-0.138647
0.243181
-0.153089
0.0869174
-0.113629
0.120199
0.181952
0.287575
0.049774
0.087343
0.217976
0.264052
-0.246859
0.288376
-0.0472529
0.123628
-0.0798046
-0.18897
-0.144201
0.144091
0.165542
-0.0690661
0.0273686
-0.19413
-0.211508
0.119016
0.122433
0.0675402
-0.292066
-0.270385
-0.261353
-0.164001
-0.29419
-0.124732
0.260931
-0.120568
0.275657
0.143466
-0.168641
0.0631981
-0.0701635
-0.232224
0.00433513
-0.0145696
-0.248029
0.255693
-0.187717
-0.0259289
-0.209883
-0.0476263
-0.176568
0.215493
0.134352
0.167056
-0.242601
0.221629
-0.0210539
0.191054
-0.00838757
-0.0590183
0.245682
0.0067057
0.152777
0.232129
0.187216
0.112403
-0.192283
0.16969
-0.041122
-0.0770647
-0.0516748
0.189467
-0.0176554
0.242065
-0.122874
0.0485528
0.20892
-0.037896
-0.287469
0.300332
0.214218
-0.172593
0.245301
0.0678468
0.293135
-0.298121
-0.0139486
-0.0258742
0.19357
0.276151
0.262775
0.114993
-0.0129289
0.114835
0.0340364
-0.123897
-0.057484
0.130936
-0.242082
0.188042
-0.247344
0.00254037
0.0770397
0.033268
-0.0584958
0.256586
-0.227944
-0.136888
-0.107275
-0.19439
-0.148948
-0.187707
-0.0780637
-0.197001
0.19302
-0.084713
-0.20399
-0.137785
0.197513
0.289405
-0.12408
0.174722
0.107305
0.149797
-0.0213181
-0.172445
-0.282385
0.202098
0.270434
-0.226503
0.0920471
-0.284177
0.0839501
-0.153216
0.0612499
-0.283651
-0.201524
0.119191
-0.147712
-0.0138581
0.236957
0.00804676
0.113167
-0.15042
0.107003
-0.00224743
0.0802293
0.185945
0.184826
-0.0356803
0.193489
-0.266466
-0.139017
-0.00664769
0.203424
0.104706
0.119641
0.220255
0.00701968
0.095538
-0.287701
-0.191519
0.121385
0.0828728
-0.0453175
-0.118961
0.0707009
0.0493786
-0.273176
0.214207
-0.23648
0.222766
-0.0752372
0.173012
-0.203177
-0.264892
-0.121873
0.160136
0.241895
-0.214753
-0.165846
0.131834
-0.159188
-0.0264139
-0.176042
-0.261468
-0.227358
0.256885
0.263041
0.0775094
0.0487893
0.263232
0.178675
-0.142454
0.031536
-0.157922
0.0343899
-0.187191
0.207994
0.0315026
-0.254714
0.263159
-0.025659
-0.0314002
0.157893
0.0817818
0.00343453
-0.26233
-0.0723243
-0.0597649
-0.138113
0.081013
-0.22466
-0.0433938
-0.238554
-0.105742
-0.00416383
-0.185077
-0.155749
-0.0314531
0.210251
0.188349
-0.0673137
0.0899202
-0.227754
0.254535
0.224255
0.0733965
-0.240623
0.122583
-0.176453
-0.200982
0.0937362
0.108453
0.0510894
-0.0435249
-0.125853
-0.238651
0.000757638
0.116122
0.00769791
0.154936
-0.103611
0.0980574
-0.220468
-0.0715313
0.277201
0.111644
0.0467164
-0.190784
-0.22363
-0.0379601
-0.294523
0.0143539
-0.244013
-0.240594
-0.0363982
0.275403
0.132319
0.0221041
0.126865
0.26967
0.126637
-0.0517558
0.0643528
-0.128048
0.187423
0.22372
-0.0523676
-0.103563
0.0307882
0.254317
-0.276324
0.224001
0.0380786
-0.168546
-0.127888
-0.000857302
0.24709
0.229573
0.123292
-0.276491
-0.106742
0.127362
0.00652181
-0.0543252
0.190667
0.274539
-0.0682569
0.0318458
0.00579249
-0.243408
0.0014984
-0.176787
0.00206938
-0.233738
0.000891051
-0.121588
0.293156
0.249928
0.0932295
0.0240538
0.210954
0.131734
-0.0425409
-0.0571218
0.243187
0.134435
0.246497
0.204977
0.0592789
0.0688093
0.212446
0.250648
-0.0859721
-0.0868801
-0.0966225
-0.191267
-0.0976236
0.144317
0.138194
0.184929
0.200575
-0.163177
-0.286678
-0.0970668
-0.100881
0.0118141
0.105968
-0.107681
-0.0335122
-0.0998683
0.216263
-0.138196
-0.294482
-0.134654
0.109085
0.251613
0.281264
0.0333259
0.148383
0.0589908
-0.192495
0.0682737
-0.00806294
0.027602
0.297959
0.206596
0.135833
-0.103649
0.0722754
-0.0543956
-0.215745
-0.0293825
0.0931969
-0.216964
0.180033
0.293008
0.0969556
-0.0190612
-0.11945
-0.246559
0.157995
-0.20915
-0.073708
0.166518
-0.0319421
-0.266576
0.130891
-0.0323995
0.0834011
-0.0135575
-0.279821
0.197728
-0.23412
0.0174115
-0.0775741
-0.255069
-0.0625481
-0.264181
-0.0626025
0.294822
0.00740074
0.00868986
-0.0438677
-0.212485
0.10254
-0.15935
-0.209613
-0.0993102
0.107276
-0.0195686
-0.0337329
-0.0290844
0.0784043
0.195464
-0.159171
-0.253771
0.214541
0.279921
0.0146206
0.00790259
-0.0525526
0.00122732
-0.0937554
0.0124685
-0.242202
0.078373
0.0697513
-0.0289713
0.189744
0.30284
-0.0253819
-0.145961
-0.00850036
0.222698
-0.0371104
-0.20189
-0.197487
0.0680708
-0.00101548
0.180116
-0.287211
0.272629
-0.145446
0.0903376
0.160026
-0.0149959
0.127211
0.120206
3.46677e-05
-0.126654
-0.231001
0.218653
0.163032
-0.0384273
-0.0846654
0.197366
-0.183356
0.287736
-0.136946
0.24897
0.268818
0.12082
-0.146611
-0.0370323
0.065551
0.0531976
0.0842055
0.138213
-0.165536
-0.220318
0.0280484
-0.167614
-0.223196
0.191578
0.217438
0.230666
-0.121437
0.084881
0.00440074
0.158949
0.178616
0.0958488
0.0662582
0.0666632
-0.224587
-0.318216
-0.0559121
-0.0900123
-0.30376
0.112647
-0.160599
0.285756
-0.0607462
-0.0584688
-0.0381307
-0.282593
-0.236802
-0.280542
0.152133
-0.152005
-0.184055
-0.0939801
-0.0327608
-0.127572
-0.209451
-0.114686
-0.196534
-0.0127514
0.22671
0.119928
-0.153114
0.110309
-0.0755222
0.228538
-0.157332
0.0144381
0.24409
0.0694873
0.209141
0.246265
-0.12812
-0.24295
0.227029
0.105191
0.0384968
-0.124012
0.117749
0.0717721
-0.0802571
-0.00375236
0.209232
0.0296022
0.185029
-0.11734
0.203418
0.281793
0.0717921
-0.286379
-0.0278026
-0.00223587
0.12821
0.112556
-0.177225
-0.234574
0.0323725
-0.0524637
0.0736846
-0.0238099
-0.274669
-0.00747387
-0.0642064
-0.121662
0.0469605
-0.140405
0.290995
-0.214797
0.035056
0.113652
0.161633
0.251868
-0.213134
0.0610778
-0.0322297
0.281501
0.246284
-0.106243
0.267299
0.0234882
-0.112062
-0.0648388
-0.270367
-0.268603
-0.253133
-0.154974
-0.207089
0.084169
0.103471
0.162514
-0.238091
0.125408
-0.147433
-0.0221384
-0.282921
0.205648
0.120507
-0.297585
0.285647
-0.135901
0.115764
0.136855
-0.189401
0.198976
-0.0834745
0.0850351
0.17296
-0.134452
0.272786
0.141223
0.196956
-0.137847
-0.226939
0.231384
-0.108802
-0.183315
-0.219138
-0.00826177
0.196032
0.18063
-0.147628
0.247802
0.0073489
-0.0024354
-0.0756237
0.012842
-0.0980013
-0.26187
0.0091446
-0.106308
-0.0877799
-0.165289
-0.262837
0.000158139
-0.262166
-0.0566043
-0.219304
0.220457
0.12243
-0.232556
0.055267
0.0125422
-0.0839728
0.122259
-0.0259075
0.117498
0.252312
0.00868706
-0.180541
0.137145
-0.100626
-0.0496282
0.0732549
0.206803
0.274772
0.311304
-0.0766022
-0.1352
-0.245275
0.233949
0.0505361
-0.0698905
-0.2377
0.0922879
0.228838
-0.207361
-0.261145
-0.261519
-0.292149
0.170787
-0.21669
0.0694383
-0.0913764
0.00376009
-0.11458
0.163161
-0.174498
-0.147586
-0.135732
-0.0783455
0.274953
0.0742198
0.165463
0.0225164
-0.00647293
0.147947
0.0328809
0.230852
-0.268075
0.0798747
0.158812
0.0795789
-0.294014
0.217308
-0.109353
0.266794
-0.284114
-0.0587855
0.282455
-0.294255
-0.191781
-0.251654
0.0748765
0.00616848
0.0488386
0.272505
-0.17208
0.145447
-0.180925
0.0239088
-0.211541
-0.238083
-0.192791
0.273706
0.127456
0.0953111
0.129937
-0.128227
0.0143873
0.147359
0.256
-0.138815
-0.0703385
0.273646
-0.226055
0.11061
0.227066
-0.215863
-0.259736
0.204076
-0.197017
-0.142097
0.25309
0.184716
0.145042
0.00193469
0.168638
0.295612
-0.136233
0.258942
0.0162091
-0.0263817
-0.238953
0.130296
-0.0434948
0.176341
-0.0762557
-0.238394
-0.225145
0.228382
0.218255
-0.317295
-0.195859
-0.154393
0.278103
-0.127846
0.266062
0.212365
-0.030026
0.281049
0.120021
0.0765662
-0.158317
0.0593336
-0.0468588
0.292752
-0.227564
-0.176553
0.267716
-0.0527489
-0.214126
0.0190883
0.220993
-0.163612
-0.164146
-0.142594
-0.276587
0.0563209
-0.0727351
-0.210284
0.00633154
-0.154993
-0.222782
0.0963573
0.00328694
-0.232311
0.265325
-0.0480395
0.25368
-0.0754342
-0.0551906
0.0834479
0.293559
0.0934086
-0.150328
-0.0513332
0.067064
-0.0619654
0.0518514
0.0678993
0.175761
0.152789
-0.225911
0.0844924
0.289729
-0.102128
0.240084
-0.276401
0.267924
-0.140614
-0.206078
-0.0452115
0.0343315
-0.12005
-0.255011
-0.275292
-0.0652753
-0.28181
-0.0151993
-0.074336
-0.0547095
0.223523
0.300174
-0.0594969
0.0177405
-0.161248
0.18117
-0.207309
0.0629201
-0.0717406
0.152085
-0.0654933
-0.214269
0.196499
-0.290872
-0.2376
-0.175439
0.251411
-0.23933
-0.217169
-0.160067
-0.0989466
0.028341
0.17956
0.0418097
0.0864941
0.186364
-0.290499
0.115291
-0.139601
-0.0618215
-0.245806
-0.229133
-0.06801
0.00179247
0.103144
0.0850252
-0.161191
0.178628
-0.14369
0.0934004
0.0375463
0.0827533
0.169971
-0.0391055
0.0904849
0.22193
0.102143
0.0639005
-0.270889
0.196618
0.196419
-0.098847
-0.0687339
0.0959596
0.284845
-0.260831
-0.0419234
0.276163
0.144635
0.101624
-0.102694
0.188571
0.185976
0.134945
-0.146064
0.0360033
-0.0946868
0.0280363
-0.112925
0.0554899
-0.188121
0.235706
-0.1377
0.290337
-0.0951028
0.243123
0.234712
-0.297222
0.0088713
0.247438
0.193747
-0.10253
-0.139067
-0.160793
0.264734
-0.128571
-0.153389
-0.0577298
-0.173549
0.29818
-0.256516
0.0295096
0.195292
0.248702
-0.129079
-0.267138
-0.0515996
0.0915445
0.0573157
0.145681
-0.153072
0.178009
0.0737463
-0.00784606
0.163961
0.279411
-0.0628828
0.0962924
0.281837
0.251696
0.0600564
0.175564
-0.133013
0.23905
-0.2898
-0.158971
-0.20697
-0.149479
0.0744886
-0.105218
-0.126914
0.114825
0.23337
-0.308588
0.0705816
-0.177914
-0.250355
-0.275221
0.203987
0.099514
0.164468
-0.258214
-0.0178518
-0.0697861
0.0303869
-0.165838
-0.073956
0.251905
0.225153
-0.111874
0.243411
-0.0171291
-0.218763
-0.230899
-0.074692
-0.228909
-0.0479761
-0.00828816
-0.0633306
-0.273514
0.186078
0.0847907
0.13875
0.116818
0.0883529
-0.0821502
0.245746
0.147506
-0.0544741
0.1652
-0.0651053
-0.19931
0.212654
0.225364
0.0509579
-0.057903
-0.260431
0.273125
-0.0977004
0.283636
-0.113715
-0.194173
-0.0426685
-0.0373917
-0.102937
0.181774
0.0634833
0.121794
-0.127931
-0.275362
0.142624
-0.233451
0.0829139
-0.0222741
0.193523
-0.115718
0.184044
0.144023
-0.272595
-0.149191
-0.00461964
-0.0297767
-0.0471851
-0.126171
-0.10621
0.28717
0.107917
-0.0782735
0.272014
0.300914
-0.0919348
-0.143043
-0.18484
0.162042
0.131532
0.00587589
0.0398329
-0.106239
-0.17428
0.21211
-0.101619
0.262091
0.28045
0.304096
-0.0729235
0.177024
-0.114713
-0.176322
0.0356232
-0.0800545
-0.0611121
-0.287915
0.202096
0.184958
-0.0886949
-0.226483
0.196234
-0.296892
0.00358697
0.150718
-0.282565
0.196887
-0.295574
-0.188331
0.072904
0.138383
0.120381
-0.184312
-0.270404
0.246274
-0.267926
-0.0959765
0.214793
-0.257385
-0.090304
-0.164333
0.191267
0.106304
-0.0287218
-0.0651137
-0.29051
0.245075
-0.0620126
0.224691
0.137878
0.140966
-0.283885
0.013124
0.15986
0.00631482
-0.126991
0.185391
-0.0702181
-0.129709
0.274777
0.302011
-0.29133
0.118372
-0.187163
-0.268363
0.0377387
-0.151852
-0.0589232
-0.0273323
-0.136992
0.167039
0.124029
-0.229717
-0.0516485
-0.187487
-0.0396586
0.000122307
-0.258347
0.226065
-0.0722118
0.160997
0.0605985
-0.0555328
-0.139157
-0.0547049
0.263782
0.0252771
-0.201663
-0.116051
0.219654
-0.204254
-0.123332
0.208109
0.202454
-0.00361746
0.236152
-0.0323261
0.144372
-0.124322
0.242471
-0.293245
-0.259366
0.0606541
-0.236139
0.007193
0.156117
0.0424659
-0.294284
0.180103
-0.0281635
-0.0682088
0.0229656
-0.260768
0.175913
0.193902
-0.031135
0.137452
-0.0889584
0.0857072
-0.270727
-0.169979
0.159132
-0.0933591
-0.261277
0.0691438
0.198698
0.270456
-0.256019
0.0512756
-0.168372
0.282959
0.0558496
-0.110821
0.0426397
0.122869
0.194659
-0.0837988
-0.138843
0.205864
-0.22473
0.139967
-0.173183
0.108293
0.169775
-0.279314
-0.00425778
-0.154766
0.15555
0.224963
0.215944
0.183634
-0.243649
0.0766345
-0.207495
-0.205205
-0.157562
0.283231
-0.250198
-0.119539
0.0314498
-0.0997799
-0.156681
-0.216493
0.0964704
0.189983
0.205395
-0.0113919
-0.220238
-0.221346
-0.10733
-0.141529
0.207514
0.023368
0.267671
0.0855953
0.048168
-0.0268142
0.222866
-0.105591
-0.102297
0.130862
-0.216054
-0.0486666
-0.086018
-0.13363
0.0279511
0.0417051
-0.142925
0.0912231
0.21866
0.192112
0.285229
-0.218
0.290527
0.0843454
0.274906
0.204274
-0.228049
-0.243345
0.283934
-0.0479292
-0.07495
0.190819
0.277907
-0.109888
-0.0231784
0.0203422
0.165998
-0.0947173
0.218895
-0.236546
-0.257946
-0.295639
0.00201807
-0.0476723
-0.12512
-0.25163
0.279007
0.029679
0.128449
0.229763
-0.0840231
0.120983
-0.265953
-0.0832986
-0.0825476
0.268724
-0.174819
-0.0203178
-0.270655
-0.211819
0.239608
-0.0422694
0.29567
0.21408
0.138785
-0.0332031
-0.054557
0.0184429
0.168003
-0.138769
0.0713356
0.194194
-0.157891
-0.198335
-0.152891
0.0175788
-0.176113
-0.169344
-0.245648
0.265876
-0.24586
-0.0375334
0.0963052
-0.234712
0.205348
-0.282605
-0.258212
-0.294585
-0.00696409
-0.224975
-0.178618
-0.070166
0.0324306
-0.205977
-0.158484
-0.126121
0.059299
0.0773907
0.176467
-0.0556002
0.231778
-0.0517266
-0.162972
-0.194071
0.0184326
-0.0115388
0.146166
0.158518
0.118953
0.187083
0.126693
0.179087
-0.140335
-0.0962895
0.234612
-0.242148
-0.0608961
0.263563
-0.232705
0.230769
-0.263673
-0.116033
-0.151861
0.0544109
-0.0148821
-0.00714145
0.218611
-0.252964
-0.225097
0.100444
-0.0120926
-0.283475
-0.253133
0.131786
-0.180066
0.0796881
-0.186196
0.259239
-0.0599967
0.230982
0.139581
-0.234999
0.111619
-0.280297
-0.0203369
0.0396603
-0.216586
0.17649
0.00987906
-0.144272
0.135001
0.0215801
0.0328721
0.27215
-0.206237
-0.291167
-0.0561571
-0.271361
-0.237599
0.0309816
0.120444
0.0467326
0.038922
0.167925
-0.141733
0.181508
-0.0427841
-0.00136973
0.1284
0.201479
-0.0799103
-0.0129248
0.231465
-0.280559
0.00323028
-0.0874195
0.0677934
0.0725163
-0.197162
-0.229852
0.23402
0.213491
0.0748682
-0.0490008
0.176599
0.215059
-0.0382211
-0.154245
0.212965
0.00834598
0.169235
0.0529708
-0.237706
-0.0786104
-0.0990742
-0.0545558
-0.211785
0.163725
0.215034
0.239654
0.0377851
-0.164808
-0.101129
-0.0154129
-0.145921
0.201126
0.208599
0.22205
0.0129021
-0.290135
0.29992
-0.0900568
0.225131
0.1197
0.17464
0.117622
-0.00469093
-0.163451
0.25277
-0.0692841
0.165949
0.118317
0.263667
0.23524
-0.235754
-0.12213
-0.122055
-0.129172
-0.260273
-0.193698
-0.19004
0.08114
-0.0502028
0.0282875
-0.234548
0.114126
-0.0569746
0.263796
0.0376879
0.237267
0.271585
0.0365598
-0.143238
0.199823
-0.165396
-0.26362
0.0152877
0.141752
-0.121134
-0.0247965
-0.230331
-0.262288
-0.187987
-0.257533
0.284316
-0.131461
-0.0769378
-0.142245
0.0439854
-0.0397792
-0.0411838
0.159691
-0.253228
0.208712
-0.124182
-0.188357
0.0163648
0.105856
-0.224253
-0.249547
0.0566147
-0.24909
0.0950832
0.218942
0.251175
0.229572
0.257692
-0.0298776
0.0544284
-0.154085
0.237099
0.126726
-0.114567
-0.25433
0.189894
-0.131939
-0.0829885
-0.18705
0.0221256
0.258704
0.0712933
0.280721
0.103342
0.125794
0.18887
0.288438
0.228003
-0.0924527
0.0846622
-0.292866
-0.0414021
-0.129569
-0.244699
-0.246842
-0.214731
0.30358
0.268401
-0.25236
-0.0386467
0.0426891
-0.115762
-0.0984967
-0.11405
0.0755066
-0.0572597
-0.21653
0.228595
0.177935
-0.105953
-0.0501865
0.126481
0.262394
-0.0741571
-0.0644534
0.078887
-0.195788
-0.0808209
0.0110325
0.00974826
-0.267673
0.0133642
0.264462
-0.105289
0.0673106
-0.283492
-0.0238378
0.0636398
0.292711
0.0185407
-0.272715
0.0369713
0.201174
-0.0713627
0.226898
-0.0307657
0.175581
-0.29378
-0.0988659
0.0465573
-0.116451
0.144055
-0.118642
-0.14493
-0.237817
0.101052
0.23401
-0.126454
-0.265185
-0.058441
0.182084
-0.232311
0.257316
0.139531
-0.0484292
0.0210529
0.163988
0.2339
-0.214205
0.155768
-0.0379853
-0.181192
-0.105048
-0.139575
0.0401911
-0.197666
0.123421
-0.0704559
-0.18573
-0.274043
0.277182
-0.00406968
0.177854
-0.154837
0.146506
0.243971
0.259675
0.0879668
-0.167931
0.28074
-0.26926
0.293595
-0.25815
0.28094
0.15582
-0.00341796
-0.00264496
0.00291264
-0.058983
0.0747192
-0.136665
0.194883
0.197649
0.0439978
-0.249576
-0.0602954
0.151135
0.192462
0.166241
0.263713
0.230215
0.14617
-0.0339931
0.107241
0.27535
-0.18649
0.0611306
0.240406
0.195287
0.169554
0.228994
0.224494
0.177154
0.275276
0.201824
0.026722
-0.0119328
-0.0908991
-0.280212
0.237927
0.300921
-0.10908
0.139008
0.198338
0.224165
0.209614
-0.156449
0.0713316
0.104536
-0.292617
0.0340032
0.0318971
0.146279
-0.302463
-0.138677
0.125733
-0.194259
0.196147
0.0790906
-0.274351
0.0896291
-0.000721958
0.226674
-0.0234645
-0.0342776
0.144409
0.271915
0.255766
-0.242606
-0.285106
0.189896
-0.23015
-0.114887
0.0314196
0.204576
-0.18518
-0.0602772
-0.214301
0.207261
-0.268589
-0.204849
-0.0554157
0.0773045
0.23684
-0.0541223
0.19189
0.0441199
0.02328
0.139443
-0.162982
0.0554542
-0.0752068
0.13008
0.00240992
0.175782
-0.194635
-0.152546
0.166309
-0.232641
-0.0812665
0.161688
0.265717
-0.0433007
-0.209916
-0.0105353
-0.0931252
-0.119318
0.240993
-0.0172917
-0.212198
0.261638
0.0725059
0.0273596
0.0246649
0.021053
0.245382
-0.0424556
-0.227279
0.0391981
-0.233039
-0.0739407
-0.199075
-0.0244855
-0.248647
0.0990628
-0.162231
-0.15686
0.245462
0.285416
-0.097027
-0.13836
0.195685
-0.14638
0.112974
0.225766
0.163575
-0.276803
-0.17446
0.0825414
-0.0177581
-0.0752929
0.0488036
-0.236805
0.258584
-0.2318
0.0673081
0.236609
0.0158098
0.132474
-0.0317425
0.0756179
-0.257855
0.0656874
-0.26345
-0.219085
-0.112828
-0.135034
-0.0786301
-0.159854
-0.141487
0.124073
0.000106733
-0.273128
0.283547
-0.158025
0.270035
0.172328
-0.168491
-0.214037
-0.0468776
0.127247
0.020439
0.279134
0.196703
-0.0154936
-0.268452
-0.0376622
-0.0819571
0.0683463
-0.205364
0.18042
-0.14368
-0.146851
-0.0559224
-0.12103
-0.0796714
0.128955
0.0419935
0.144518
0.234601
0.218636
-0.0263093
-0.0137888
0.240205
-0.0293902
0.123922
0.222432
-0.158405
0.251198
-0.293986
0.0688307
0.0719831
0.0296197
0.0324574
-0.0469485
-0.295786
0.0802208
0.193478
-0.105192
-0.114666
0.289781
-0.205272
0.0119851
-0.173417
0.0495973
0.173901
0.0638687
-0.129657
-0.0793234
-0.107631
-0.137299
-0.15951
0.180289
0.13566
-0.228078
-0.156794
-0.0536362
0.292996
-0.0209539
-0.10058
-0.301226
-0.265718
0.245834
0.0331433
0.0805275
-0.083342
0.0551458
-0.129426
-0.176792
0.263542
0.0410797
-0.184392
-0.236446
-0.267845
-0.0523244
0.115686
0.209006
-0.303689
-0.301539
-0.166892
-0.104717
-0.140008
-0.0294685
-0.231239
-0.299245
0.0525101
-0.0797817
-0.0383807
0.0440775
0.192009
0.152535
0.0431892
0.227183
0.109692
-0.224236
0.0161166
-0.259458
0.105968
0.193574
-0.124693
0.086628
-0.0755092
-0.0356509
0.133987
-0.0290172
0.222129
-0.0405856
-0.133099
0.209271
-0.0358947
0.00518451
-0.167575
0.132285
0.269867
-0.113659
0.127535
0.0136471
0.0997913
-0.228767
-0.23477
-0.0161458
0.229802
0.112988
-0.0700654
0.0360777
0.190295
0.226855
0.0778286
0.00386563
0.103431
0.219353
-0.206334
-0.261269
-0.0948961
0.237571
-0.00667822
-0.179055
-0.103699
0.158055
-0.27085
0.165552
-0.139321
-0.152226
0.0110625
-0.169797
0.0474533
-0.175718
0.143876
-0.164447
-0.0977963
0.212987
0.136264
-0.152237
0.0208308
-0.242479
0.175832
-0.0920091
0.26223
-0.0589997
0.218752
0.0676816
-0.115488
0.283119
0.0859412
0.0806033
0.237665
-0.206939
0.192187
-0.174422
0.255014
0.251281
-0.288046
-0.190383
-0.192188
-0.00247113
-0.0671755
0.155586
0.119148
-0.222034
-0.302338
-0.274056
0.282543
0.134263
-0.141453
0.00406153
0.183891
-0.266249
0.185425
0.157666
-0.00737533
0.10974
-0.067447
0.178044
0.106033
-0.27753
-0.0282495
0.0345369
-0.186751
-0.156211
0.162158
-0.225126
-0.164274
0.191455
-0.107997
-0.0752633
-0.114751
0.112678
-0.201607
-0.305295
0.197419
-0.211871
-0.280119
0.170746
0.206268
-0.132725
-0.0986139
0.0951809
-0.0902706
-0.202934
-0.0434887
0.185598
0.215319
0.163667
0.0682544
0.00677793
0.180983
-0.259408
-0.263808
0.279768
-0.101676
0.225507
-0.220252
0.0314286
0.115496
-0.0454448
0.248914
-0.314779
-0.225696
-0.219543
-0.293676
0.272111
-0.189758
-0.251937
0.139003
-0.255886
-0.0663759
-0.272672
0.144196
0.139278
-0.188404
-0.20902
0.051497
-0.291477
0.236025
-0.162133
0.0158194
0.1374
-0.12228
0.0550647
0.139349
0.0868275
-0.00546774
0.208177
-0.183084
-0.183073
-0.14165
-0.234517
-0.184252
-0.0860745
-0.181253
-0.16615
-0.121648
-0.0655778
-0.122222
-0.281529
-0.0246861
0.111306
-0.25327
-0.175535
-0.0343627
-0.143811
-0.078232
-0.272271
-0.13297
-0.124577
-0.123262
0.181449
-0.28765
0.0479947
-0.0611511
0.151712
-0.154276
0.227476
0.0516422
-0.043864
-0.267489
0.221303
0.00853263
-0.154591
-0.186286
0.126735
-0.00777321
-0.0048252
-0.242604
0.159862
0.0250712
0.0347159
-0.0321059
0.0939128
0.16109
0.236407
0.231435
-0.225166
0.254345
-0.215009
-0.0550706
-0.152575
0.269467
-0.042027
0.211651
-0.0758761
-0.186145
-0.243289
-0.161318
0.166603
-0.00074188
-0.131437
0.0757556
-0.289505
0.00725645
0.196165
0.146014
0.306585
-0.0958416
0.212544
0.157315
0.229548
-0.0718864
-0.164283
0.0178046
-0.187335
-0.222775
-0.0711857
-0.12012
-0.266098
0.0223539
0.131011
-0.126993
0.00908239
-0.203386
-0.228187
0.223262
-0.0986893
-0.186696
-0.247851
-0.225576
0.114323
-0.0673894
0.140271
0.138536
0.254027
0.0408854
-0.00686568
0.25168
0.257832
-0.0976638
0.108479
0.182017
0.140814
0.224344
-0.113316
0.238464
0.292623
0.117178
-0.18436
-0.273526
-0.144319
0.247463
-0.105532
0.165949
-0.261367
-0.0308624
0.0851285
-0.0551917
0.0806606
0.147615
0.0102388
-0.109593
-0.216628
-0.130963
-0.26845
-0.261686
0.205
0.0121841
0.28276
0.160739
0.23665
0.0838234
0.0422054
0.0484252
0.035402
0.238289
-0.0501977
0.0277005
0.0416501
0.107439
0.0337961
0.196648
0.0552618
0.22739
0.0609979
0.0867896
-0.101455
-0.139756
-0.255338
0.301068
-0.30917
0.0404358
-0.12741
-0.220843
0.178364
-0.0821107
-0.166821
0.087313
0.230325
-0.19172
-0.0261504
0.14748
0.197443
0.306432
-0.0903267
-0.07085
0.221744
0.174902
0.215778
-0.0408976
-0.00855828
-0.0224653
-0.119763
-0.257634
-0.117007
0.218577
0.136423
0.105018
-0.229229
0.171239
0.0955703
-0.21713
-0.0858745
0.252385
-0.138781
-0.175047
-0.139215
-0.0163927
0.247392
-0.206935
0.0864816
-0.119815
0.234908
-0.0177838
-0.110767
-0.165658
0.202002
-0.214074
-0.268013
0.12497
0.0584245
0.0283512
-0.201161
0.219468
0.08475
-0.00535756
0.140223
-0.0800217
-0.194328
0.20991
-0.214755
0.17252
0.281271
0.00309709
0.12937
-0.165477
0.117615
0.293893
0.111038
0.0448349
-0.216255
-0.102947
0.231434
-0.279096
0.164477
-0.181923
-0.135402
0.0737684
-0.0911191
-0.105277
-0.0960404
0.27177
0.230217
-0.0186881
0.20023
0.00347392
0.31254
0.0356852
0.227893
-0.204107
-0.0598722
-0.278044
0.26835
-0.0727673
0.0336668
0.106335
0.0619414
-0.156412
0.084827
-0.118374
0.193797
0.167213
0.074579
0.119818
0.188463
-0.043244
0.236578
-0.239856
-0.277341
-0.159363
-0.048605
-0.0800321
-0.194137
-0.124048
0.21495
-0.30387
0.172562
0.20305
0.0333516
0.102349
-0.285547
0.272535
0.137242
0.2809
-0.0896906
-0.138136
0.0897582
0.28673
-0.00892749
-0.126148
-0.138458
-0.106755
-0.26003
0.242901
-0.296723
0.234369
-0.106211
0.240324
0.277544
-0.0911851
-0.220829
-0.0690888
0.13073
-0.104776
0.104712
0.0431828
-0.104716
-0.0108122
-0.056068
0.242195
-0.210111
-0.0436909
0.217387
0.225585
-0.066485
-0.172567
-0.22853
-0.286417
-0.182537
0.0689892
-0.116607
-0.0125186
0.27575
-0.0771916
-0.0806602
0.279478
-0.141537
0.114884
0.211802
-0.164828
-0.279118
-0.304499
0.0539277
0.145703
-0.108543
-0.13555
-0.10683
0.0929819
0.128171
0.148677
0.0298352
0.222445
-0.208479
-0.0392423
0.177226
0.0231222
0.0884736
0.217724
0.0298448
0.2803
0.011545
0.21154
-0.113477
-0.0068849
-0.163019
0.0917644
-0.0485475
-0.0171146
-0.06655
-0.112057
0.114924
-0.0419726
-0.109718
-0.101931
-0.211177
0.060197
0.0236324
-0.034373
-0.151925
-0.121723
-0.178747
0.190597
-0.170792
-0.111269
-0.132047
0.263933
0.215628
0.26978
0.195245
-0.0410324
0.21223
-0.0946972
-0.11759
-0.244173
0.171399
0.004031
0.203381
-0.199482
0.275007
-0.167475
-0.00349357
0.092018
0.0959306
0.180528
0.282089
0.177511
-0.0621479
0.0112332
-0.155018
0.130593
0.206968
-0.0201428
0.0584235
0.299648
0.148836
0.204659
0.234958
0.0898652
0.182945
0.120664
-0.253895
0.0445856
-0.286434
-0.083154
0.144133
0.187706
0.201831
0.0419418
-0.280628
0.207013
0.160962
0.0271617
0.020285
-0.0520355
-0.0911429
-0.00254274
-0.188022
0.166131
-0.277956
-0.0473311
-0.00720602
0.206955
0.217779
-0.275451
0.192614
0.0877501
0.241416
0.121422
-0.124601
0.11804
-0.0385808
-0.0683686
-0.122689
-0.0164741
0.141012
-0.238362
-0.130329
0.0848596
0.0641857
-0.1162
-0.0211316
-0.050063
0.229496
0.29005
0.199063
-0.165747
-0.0212207
-0.302526
0.299538
0.0100152
-0.0328192
-0.0193686
-0.0822468
-0.107442
0.00983416
-0.185872
0.277617
-0.0595163
0.2355
-0.150572
-0.24804
-0.0868697
0.0940056
-0.0333283
0.201006
-0.0580043
-0.00676098
-0.223048
-0.26826
-0.213517
-0.025112
0.00132688
0.0114731
-0.100809
-0.0218063
-0.0843853
0.020429
0.268138
-0.0887317
0.000893231
0.00300721
0.183699
0.288197
0.201191
-0.225946
0.00418534
-0.295209
-0.253626
0.256933
0.249501
-0.0921001
-0.264311
-0.136328
-0.302794
-0.00862874
-0.237523
-0.0557306
0.278015
-0.167076
-0.0346112
-0.215806
0.0947022
0.264472
0.091174
0.296823
-0.0551868
-0.293914
0.0314037
-0.0745621
-0.0590507
-0.267033
0.19497
-0.163934
-0.266222
0.10399
-0.0882838
0.0413673
0.100451
-0.0362663
0.000199161
0.0453521
0.175616
0.024622
0.206241
0.174306
-0.285092
0.265162
-0.161986
-0.318506
-0.220831
0.0939123
-0.227388
0.187701
0.0470347
0.167822
0.185983
-0.270958
0.171769
-0.089121
-0.0830139
-0.159111
-0.0757435
-0.172034
-0.0271262
-0.0473363
0.236092
0.172808
-0.300105
0.0353674
-0.158779
-0.00563798
-0.199655
0.294962
-0.297337
0.301451
0.168562
-0.26618
0.26779
-0.29272
-0.265232
-0.247303
0.0937233
-0.176437
0.250118
-0.140141
0.312959
0.126531
-0.140016
0.201999
-0.233166
0.108236
-0.258695
-0.0280713
0.228033
0.00394517
0.233092
0.151871
-0.127953
0.205696
-0.099277
-0.0144245
-0.0520038
-0.0275412
-0.000296023
-0.0600613
-0.029427
-0.138168
-0.00292618
-0.0561601
-0.13091
0.0417773
-0.0087982
0.269292
0.169958
-0.0763261
-0.170954
0.167942
-0.250493
0.00204748
0.0670845
-0.222759
-0.16941
0.0769875
0.0736694
-0.264114
-0.215021
-0.00254397
0.19906
-0.0596954
-0.0725139
-0.206582
0.228477
0.163586
0.0764591
-0.0786169
-0.176753
-0.256779
0.0855235
0.109008
-0.0231414
0.256393
-0.15525
0.256518
0.232185
-0.291093
-0.114018
-0.227191
0.172141
-0.0403233
0.0760466
-0.073539
0.0378141
0.190105
-0.283981
-0.18962
0.220841
-0.228059
0.114845
0.145429
0.0289168
-0.256745
0.248802
-0.0549708
0.214843
0.00168806
0.190539
-0.277379
0.0577707
-0.0872991
0.148458
-0.264264
-0.0874807
0.287687
0.287024
-0.143145
-0.278417
-0.139184
-0.0855872
0.187873
0.11094
0.27284
-0.209209
-0.128889
0.182095
-0.186462
-0.0239067
0.10425
-0.102555
-0.193218
-0.0414821
0.211534
-0.160904
-0.107376
-0.132331
-0.256874
0.198514
-0.259019
-0.202904
-0.0400608
-0.0137888
0.218024
0.00229673
0.204857
0.206468
-0.0127184
-0.259241
0.191124
0.157727
-0.0535732
0.0807556
-0.0121689
-0.0675707
0.196708
0.140705
-0.170955
-0.285886
-0.169254
0.233642
-0.0887051
-0.0781986
-0.119328
-0.170222
0.0434684
0.0708886
-0.00208549
0.109966
-0.0360497
0.0360572
0.186155
0.263357
-0.272385
0.100777
-0.053756
0.226097
0.0117382
0.232553
0.261858
-0.0743278
0.0923095
-0.0896626
-0.286657
-0.223229
0.144599
0.21155
0.226651
0.257433
0.224928
-0.246433
0.183079
-0.160561
-0.0279256
-0.238657
-0.0209786
-0.277613
0.133165
0.276996
0.132457
-0.192149
0.0229809
-0.0016148
-0.234981
0.0472988
-0.211341
0.00483176
-0.027249
0.122554
-0.0627256
-0.0635321
-0.255792
-0.2651
0.143706
-0.242687
-0.191557
-0.0101191
0.275588
-0.263382
-0.0617068
0.19462
-0.204385
-0.173951
-0.264996
0.0706953
-0.104072
0.00477156
0.0898128
-0.271853
-0.00643026
-0.0804515
-0.161843
-0.289039
0.224523
-0.0935904
0.0579821
-0.28001
0.203146
-0.27351
0.140721
-0.149306
-0.0305645
0.18278
-0.12501
-0.188835
0.237616
-0.010633
0.106056
0.208311
0.0245187
-0.241762
0.10725
0.114838
-0.11661
0.141859
-0.117785
0.0711749
-0.140437
0.266995
0.087259
0.144182
-0.108848
0.232195
0.156672
-0.19665
-0.168715
-0.0816286
-0.168537
-0.26374
-0.05697
0.273965
-0.119973
0.208047
0.159297
0.0592884
-0.269964
0.0996133
-0.251667
0.130492
0.0100765
0.0631491
0.18163
-0.188788
-0.113895
-0.239648
0.255415
0.0692388
0.131742
-0.187099
0.0418036
-0.0707225
0.256866
0.226878
-0.140447
0.119376
-0.275732
-0.00847489
-0.26441
-0.133587
0.0310675
-0.0125839
-0.155676
0.201353
-0.102836
0.285362
-0.0378494
-0.0897596
0.106417
0.00315421
-0.245136
-0.195795
-0.23092
0.243565
-0.0780477
-0.0544563
-0.303348
-0.115362
-0.276369
0.137876
0.00211111
0.0572724
-0.212774
-0.0564729
-0.0372012
-0.0803536
-0.239211
0.00995263
0.225888
-0.204815
0.169358
-0.0282808
0.0543566
-0.274381
-0.156743
0.244448
-0.298635
0.0884996
-0.128305
0.11428
-0.204845
-0.0704975
0.210441
-0.13202
-0.129832
-0.139508
0.102767
-0.111818
0.0187078
0.131412
-0.282378
-0.248863
-0.119162
-0.200322
-0.0264556
0.14937
0.041469
0.0295247
-0.117822
-0.035182
0.124921
-0.219358
0.195757
-0.114391
-0.213403
-0.275758
-0.15887
-0.189526
0.10656
0.0304944
0.201309
0.217507
0.258028
0.139691
-0.234908
-0.181684
0.278717
0.184275
0.0165874
0.0126069
0.0031826
0.0328877
0.0115558
0.190162
0.133302
0.288549
0.0585817
-0.143305
0.0290487
0.247936
0.110373
-0.1463
-0.273111
0.000547032
0.0429554
-0.202319
0.0287324
0.198802
-0.0728672
-0.166814
-0.0802545
-0.159225
-0.267308
-0.112103
0.265195
-0.179691
0.0118449
0.253451
0.293608
-0.268044
-0.0413381
-0.00579049
0.0719828
0.275685
-0.113975
-0.0780188
0.267745
0.255544
0.0721712
-0.0291183
0.204762
-0.122205
0.133391
0.228033
0.182715
-0.126748
-0.229865
-0.0940425
-0.228209
-0.0283763
0.0331638
-0.0132624
0.0845357
0.0780582
0.166848
0.0720989
0.176708
-0.126383
0.0236487
0.175739
-0.0899164
0.290887
-0.135237
0.284977
0.255952
0.0514
-0.0882588
0.240306
0.00264648
0.257691
-0.0758696
-0.0865048
-0.157368
-0.254036
-0.145947
-0.26913
-0.0694447
-0.121208
-0.0650324
-0.0229317
0.146729
0.255521
0.258286
-0.0376046
0.045563
0.139104
-0.261441
-0.0658817
-0.278516
0.0870008
-0.195667
-0.0728396
0.0617265
-0.0313059
-0.0869316
0.0407595
-0.282427
0.107101
-0.0236615
0.0281645
0.0792118
0.190588
0.247406
0.238799
0.241739
-0.20321
0.273379
-0.131663
-0.00800449
-0.0908195
0.152635
-0.147838
-0.120347
0.119786
0.11866
0.225484
-0.0525286
0.155445
-0.145491
-0.0448534
-0.0633408
-0.0396474
0.180712
-0.294228
0.21157
-0.206255
0.0496461
0.247529
0.198634
-0.280326
-0.0392012
-0.0171853
0.201852
-0.0706426
-0.0876443
0.149646
0.00276982
-0.103556
-0.279778
-0.296939
0.0969838
0.169722
-0.142577
0.289953
-0.0174491
0.277976
0.219806
0.238639
0.127649
-0.232112
-0.103112
-0.225886
0.0259203
-0.233541
-0.212498
-0.0572288
-0.125519
0.138059
-0.11983
-0.224962
0.153716
0.148444
0.049762
0.0553373
-0.23226
0.276379
-0.0957318
0.0725425
-0.134086
-0.0714142
0.0776845
0.267949
-0.20112
0.220833
0.243351
0.0851834
0.198141
0.164917
0.0264808
0.0303644
0.230735
0.213597
0.105264
-0.0483981
-0.302864
0.193049
0.202242
-0.127512
0.0227863
-0.217106
-0.055826
-0.130101
0.239093
0.304062
0.224933
0.297014
0.274324
-0.14638
0.0740351
-0.159227
0.0687741
-0.157029
-0.186823
0.168236
-0.22122
-0.233349
-0.0474187
0.275132
0.232923
0.278004
0.00246677
0.165931
0.19915
-0.193223
-0.179965
0.196457
0.294398
-0.290843
-0.232593
0.0175093
-0.192768
0.0127949
0.180349
-0.268694
0.0213098
0.11513
-0.26461
-0.0305202
0.262798
0.113137
0.0976588
0.0291794
0.261604
0.249787
-0.104934
-0.271445
-0.292253
0.146815
-0.294374
0.240863
0.121073
0.0174927
0.0877796
0.025181
0.108693
0.2351
-0.0864023
0.112315
0.233206
0.000912246
-0.169784
-0.246613
0.300566
-0.271829
-0.180228
0.0134012
0.137942
-0.154042
-0.299677
0.109379
0.264367
0.121365
-0.194406
0.212637
0.0677234
0.0276404
0.267089
0.0787204
-0.139929
0.268253
0.0268996
0.284798
-0.0133754
-0.183083
-0.00361548
-0.168748
-0.264602
0.179717
0.242385
0.302873
-0.10617
-0.220547
-0.225871
-0.11378
-0.20317
-0.158127
0.215821
0.234679
-0.00479955
0.202168
0.0342511
-0.0538754
0.0340846
0.172778
-0.109863
-0.200882
-0.131402
-0.176571
0.19268
0.0399212
-0.200228
-0.107563
0.00415921
0.0888713
0.00215364
0.290126
0.204376
0.0434579
0.199248
0.144337
0.0249739
-0.201436
0.221879
0.0680193
-0.00907702
-0.271144
0.216987
-0.103979
0.276442
-0.0908928
-0.191123
0.00304074
0.15192
0.14961
-0.11967
-0.286177
0.229003
0.0159747
-0.126905
0.126661
-0.235052
-0.020411
-0.313942
0.0535014
-0.27006
0.039467
0.0368502
0.247896
-0.239973
-0.0431208
0.0902896
0.0903215
0.0315827
0.0385211
-0.122377
-0.259698
0.0273845
-0.212994
-0.0584524
0.0160629
-0.0276456
0.0363861
-0.275394
-0.170476
-0.128714
-0.142179
-0.146413
-0.192244
0.22849
0.0251986
0.199324
0.254996
0.258109
0.245232
0.0173542
-0.29154
-0.0205804
-0.226657
0.256049
0.0283677
0.0136532
0.0672242
-0.188277
-0.253299
-0.212857
-0.0203242
-0.234046
0.130244
0.0678001
-0.0051715
-0.164427
-0.258663
-0.271619
-0.170649
-0.113104
-0.110546
0.0364786
0.0322881
0.00646853
-0.0534978
-0.264908
-0.0705957
-0.129636
-0.292253
-0.132366
0.211473
-0.293772
0.141953
0.291863
0.287102
-0.126031
-0.0259978
0.0460746
0.00181994
0.016811
0.130706
0.288993
0.0938182
-0.0430656
0.0559288
-0.213866
0.102268
0.094757
-0.187824
0.256095
0.267773
-0.00647685
-0.0178961
-0.00300567
0.293146
0.218778
0.0320107
-0.0811807
-0.190093
0.0317861
0.0784937
-0.257197
0.0514255
-0.0614861
-0.306821
0.0488548
0.108829
-0.0503169
-0.218003
-0.195798
0.299199
0.20626
-0.197688
0.0904233
-0.120612
0.150525
0.173579
0.272702
-0.0482539
0.297698
0.232005
-0.0914881
-0.0282166
-0.0815824
0.207138
-0.030783
-0.151959
-0.0393592
0.159199
-0.0355385
0.293635
-0.0348781
0.00729076
0.03856
0.190536
0.00803034
-0.204297
-0.0040014
0.270621
-0.146652
0.0946943
0.267794
-0.218877
0.199642
0.0505745
-0.0688136
0.0504582
-0.0859516
-0.0649923
0.299165
-0.0882311
-0.140977
-0.0814605
0.199123
0.0734928
-0.168563
-0.133263
0.221262
0.0633013
-0.237519
-0.114554
0.0298278
0.0159652
0.187328
-0.2182
-0.0934698
-0.113445
-0.13743
0.221771
-0.136063
0.0218755
-0.00667451
-0.160189
0.0973334
-0.100741
0.191958
-0.259796
0.259476
-0.176972
-0.0224755
0.250536
0.0351991
0.122931
-0.13324
-0.0630796
-0.0928781
-0.0205264
0.106475
-0.170167
-0.252492
0.15299
0.0186194
0.086399
-0.129118
-0.0941309
0.16364
0.0774447
0.0855422
-0.270736
-0.0191937
0.255951
0.0345596
-0.290647
-0.230284
-0.169207
-0.0789863
0.293341
-0.10562
-0.124684
-0.215388
0.147807
-0.174824
0.146716
-0.0292237
0.00144426
-0.220544
0.193925
0.286192
0.177025
-0.293579
-0.251755
0.0493193
0.023985
0.086884
0.220799
0.237408
-0.0140788
0.0129376
0.0344877
-0.0178571
-0.298574
-0.0142874
-0.279753
-0.2677
0.0521056
-0.132867
-0.0475653
0.0356242
0.0332369
0.114157
0.101493
-0.122017
0.220982
-0.00197421
0.183155
-0.0558146
0.0351982
0.0730052
-0.0525999
-0.0628566
0.0805532
-0.020443
0.270002
-0.206135
-0.200993
0.187128
-0.266497
0.0874968
-0.0951431
0.0318444
-0.227018
-0.0855503
0.270163
-0.194043
-0.060507
0.0534627
-0.0201917
0.170125
-0.221031
-0.282544
-0.0014229
0.214977
-0.0987447
-0.056513
-0.121131
-0.225278
0.217756
0.214049
0.13678
-0.145505
-0.13725
-0.0921371
0.128288
-0.167977
0.0049745
0.226745
-0.272763
0.0254339
0.00119601
-0.0684797
-0.241816
0.081064
0.142854
-0.245624
0.194139
-0.226231
0.0957853
-0.130968
0.245799
0.170277
-0.117839
-0.0679068
0.0710907
0.0834389
0.19685
0.238248
0.174904
0.0936169
0.17747
0.0259749
0.26266
-0.270165
0.207515
0.0814687
-0.12776
-0.0824671
0.0183284
-0.10127
0.2429
-0.284112
0.123041
-0.300166
0.087376
-0.0276431
-0.24147
-0.016643
0.0341336
0.171536
0.155036
-0.0122523
0.0247453
-0.261416
0.216311
-0.215164
0.119784
0.111531
-0.25866
-0.00965201
-0.0957778
0.206773
0.304574
-0.124059
0.258989
0.209998
0.240136
-0.210589
-0.166324
-0.0348848
0.00248203
-0.228541
-0.0169392
-0.181109
-0.218197
-0.224239
0.071494
-0.158628
0.0752177
-0.183152
0.289957
-0.0709168
0.0912849
0.00634115
-0.0266678
0.0217401
0.113965
-0.218446
-0.173964
0.153039
0.0914913
0.0373527
0.0660811
0.0889557
0.196661
-0.00643083
0.000699403
0.15503
0.114638
0.11911
-0.186639
-0.193195
0.202652
0.104168
-0.0777254
0.285152
0.187106
-0.298415
-0.176111
-0.0407054
-0.184979
-0.17881
0.188133
0.207567
0.140018
-0.143191
-0.0806119
-0.0462302
-0.0467094
0.0425085
-0.194494
-0.257049
-0.223339
0.171242
0.13054
0.273574
-0.121172
-0.171583
0.137255
0.283994
0.258591
0.251995
-0.212677
0.15235
0.0598255
0.0164601
0.143003
-0.0543421
0.0172318
0.263918
0.203764
0.133857
-0.212185
0.094897
0.0326811
0.229071
0.250065
0.256206
-0.116868
-0.0942204
-0.00316981
-0.0109843
-0.0541053
0.075822
-0.135762
-0.21996
0.0612159
0.0448437
-0.0916737
-0.112668
0.029994
-0.131072
-0.155517
0.125897
-0.283553
0.196169
-0.162973
0.170094
-0.147775
0.15455
0.132489
-0.244638
-0.0120474
0.223355
0.149514
-0.274061
0.149341
0.100234
0.284263
-0.273048
-0.294022
-0.012338
0.0181162
-0.0478653
-0.233441
0.176803
0.0327767
0.116956
-0.0698013
0.239216
-0.292255
0.255653
-0.195383
-0.142335
0.0788846
-0.169363
-0.240396
0.219401
0.295225
-0.0968198
0.077705
0.128073
-0.0388542
-0.23804
0.041349
-0.186897
-0.209382
-0.10679
0.217043
-0.22591
-0.0799119
0.221114
0.0620492
0.234692
-0.121276
0.121363
0.117305
0.208365
-0.063995
-0.255241
0.149719
-0.0513975
0.297826
0.26506
0.0999083
0.0745897
-0.21255
0.164523
-0.00203604
-0.200912
-0.248401
-0.230159
0.214327
0.00402528
-0.165567
-0.0404398
0.150009
-0.0921794
0.158598
0.0503926
0.00357255
-0.237454
-0.0328046
-0.249147
-0.284747
0.148971
0.168717
0.116675
0.0571912
-0.18667
0.169108
-0.094755
0.069176
0.177228
-0.140189
-0.136973
-0.044672
-0.0256143
-0.269682
0.24951
0.0491407
-0.215179
-0.258814
-0.0239301
0.104633
-0.141234
0.227422
-0.0561776
0.0792291
0.0838682
0.28777
-0.229239
0.154107
-0.0565626
-0.173076
0.175393
-0.208666
0.30745
0.0171873
0.149253
-0.188826
-0.116992
-0.241478
0.179896
-0.244713
-0.0551075
-0.267248
0.000736536
0.197555
-0.234134
-0.0395738
-0.0536015
-0.154654
-0.0122907
0.23705
0.252075
0.13924
0.152094
-0.0961386
-0.0811381
-0.0661404
-0.122896
-0.00608126
-0.187944
0.138918
0.121622
0.284702
0.233902
0.10919
-0.00802779
0.0821797
0.229987
0.172667
0.142577
0.109427
0.231345
-0.222119
0.152509
-0.0543661
0.276245
0.214572
0.204551
-0.0554222
-0.235477
-0.104382
-0.151292
-0.281751
-0.258731
-0.266119
-0.106372
-0.0512954
-0.0160658
0.100328
0.248518
0.0768069
-0.0413671
0.0601494
0.0764214
-0.13779
-0.126886
-0.228965
0.252473
-0.19199
0.239021
0.104112
0.206027
0.198201
0.192032
0.0587183
-0.176279
0.15517
-0.0473456
-0.256246
-0.207738
0.0359549
-0.0729149
-0.0552511
0.0384016
-0.0475497
-0.0478514
0.257319
0.207428
0.234902
0.0402001
0.139916
0.0112119
0.278436
-0.090227
-0.221094
-0.155732
0.0846455
-0.153509
-0.191961
0.16867
-0.199564
0.19928
0.0853217
0.278963
0.0950873
-0.151536
-0.175205
-0.0462606
0.10693
-0.145813
0.0340484
-0.163551
0.100982
0.280487
0.180172
-0.261367
-0.0750801
0.14714
0.24335
-0.126717
-0.107799
0.074006
0.193195
-0.146544
0.277002
0.272203
0.00937601
0.0602864
-0.163179
0.102689
-0.0531618
-0.0510277
0.0260891
-0.276456
-0.0591325
-0.18281
-0.138022
0.0622167
0.0685883
0.264175
0.218808
-0.194925
-0.201881
-0.000519588
-0.213732
0.271109
0.0342498
0.0295337
0.103294
-0.0239685
0.202054
0.277944
-0.238193
0.0869279
-0.174326
-0.242037
0.0688757
0.141503
0.119011
0.217334
-0.0420184
-0.245139
-0.134552
0.278187
-0.212146
0.0964625
-0.19722
-0.0502406
-0.135842
0.168209
-0.0867145
-0.217191
0.274715
0.0162005
0.0873478
-0.24417
-0.0206434
-0.18251
0.0818483
-0.214745
0.102177
-0.00667699
-0.253428
0.163283
-0.214775
-0.110002
0.221539
0.153692
-0.267478
0.0478256
0.0782862
-0.0199424
0.0977612
0.227807
-0.0359906
0.192539
0.0295728
0.0596173
-0.161042
0.184137
-0.0775018
0.0411846
0.28858
-0.10522
-0.235663
0.0691069
-0.0442255
0.0496429
0.184595
-0.255587
0.127634
-0.0136576
0.0219997
0.195484
-0.148527
0.0985595
-0.22308
-0.232463
-0.0444619
-0.191663
0.109005
-0.276957
0.08978
-0.0824406
0.246644
-0.265536
-0.189287
-0.0204922
0.100446
-0.0506396
-0.127977
-0.271988
-0.296948
-0.145399
-0.0780085
-0.2284
0.225483
0.170322
0.116285
0.111315
0.203063
-0.0483965
-0.206399
-0.0770336
-0.160276
-0.0554801
-0.280594
-0.0840227
0.0159259
-0.0300715
0.0255137
-0.16841
-0.00935894
-0.182156
0.0547375
-0.0678946
-0.117666
0.153838
0.222198
0.248282
-0.189728
-0.213205
0.254441
-0.192949
-0.0498399
-0.0656701
-0.122719
-0.140647
-0.207305
0.291593
0.273958
0.294884
-0.0535275
-0.218948
-0.0845749
0.100154
-0.00217698
-0.0460283
-0.292281
-0.270974
0.179292
0.0483726
-0.138922
-0.0974002
0.148672
0.2158
0.173563
-0.283218
0.0792902
0.0518107
0.282599
0.198159
0.149149
0.270537
0.276699
-0.229076
-0.106222
-0.102658
-0.0164072
-0.010496
-0.118626
-0.0636256
0.00621957
0.111556
0.0290294
0.198529
-0.0823225
-0.224539
-0.166356
-0.108391
-0.206596
-0.236842
0.231951
-0.0274631
-0.00353366
0.0650691
-0.118196
-0.215506
0.107331
0.261393
0.144587
0.0628956
0.148329
-0.0253564
0.0523187
0.154242
0.1044
0.247012
-0.276686
-0.27355
-0.0528615
-0.0931732
-0.00493561
0.225024
-0.299251
-0.269906
0.122729
-0.095637
-0.218742
0.258384
0.0997386
-0.117095
0.298122
0.0311919
0.15125
-0.0557176
-0.189344
-0.255728
0.0283136
0.202184
-0.281281
-0.105369
-0.0168859
0.163597
0.163472
-0.255472
0.0340633
-0.0557254
0.305135
0.026991
-0.0474018
-0.07829
0.219845
0.263004
-0.125221
0.234152
0.299306
0.266218
-0.18628
-0.232265
0.224015
0.212725
-0.050153
0.231503
-0.025317
-0.206501
-0.130732
0.0403664
-0.122926
0.182589
-0.0299566
-0.160074
-0.229129
0.239256
-0.238947
0.206412
0.272082
0.0690015
-0.184314
0.28135
-0.213504
0.0823093
-0.0983183
-0.276927
0.0552145
0.0742677
0.258049
0.0521118
0.0512539
-0.201748
0.128834
0.00372935
-0.287768
-0.211835
-0.11702
-0.0143081
-0.126342
0.086395
-0.214881
-0.000732609
-0.0150428
0.0237925
0.171647
0.0371523
0.0304594
0.20289
-0.0667922
0.0337389
-0.0654857
0.0640204
-0.00454822
0.041911
-0.149621
0.196452
0.0231573
0.206711
-0.0247138
0.0292763
-0.0574496
-0.276936
0.0953893
-0.245835
0.0191109
0.102583
-0.184534
0.20055
-0.202801
-0.0241292
-0.0114195
-0.132895
0.278767
0.259617
0.225773
0.136908
-0.00498804
-0.0546159
0.0201287
0.237902
0.260102
0.253096
0.00668652
-0.0295128
-0.0285439
0.16452
-0.12773
-0.283912
0.0781044
0.158964
0.0082816
-0.276138
0.180292
-0.209106
-0.216145
-0.118484
0.206776
-0.108938
-0.211742
0.294665
0.173045
0.0654647
-0.141006
0.134274
0.0372657
-0.213794
-0.0221872
-0.264864
0.021202
0.294703
0.273177
-0.0183868
0.247365
-0.011268
0.243677
-0.0779223
-0.156337
-0.171415
-0.0584779
0.21959
0.277041
0.257192
0.239363
0.167568
-0.244962
-0.279696
-0.242482
0.258428
-0.0868815
-0.158779
0.249403
-0.20786
0.221015
-0.18787
0.226394
-0.0450367
-0.10228
-0.0917336
-0.0198016
0.223726
-0.104635
-0.0456696
-0.107633
-0.140416
0.239045
-0.152454
0.0829155
-0.209437
-0.0391381
-0.272552
-0.290902
-0.0560863
0.282329
0.248801
-0.177433
-0.263976
0.26507
-0.130138
0.281541
-0.101658
0.0219448
0.23058
-0.0243268
-0.0641407
-0.250419
-0.0904508
0.174933
-0.0704619
0.115213
-0.140698
-0.157172
-0.281528
0.117388
0.0331597
-0.120209
0.0551378
0.179472
0.259759
0.143103
-0.153995
0.283838
0.150534
0.0933591
0.261966
0.114725
0.207206
0.285042
0.0825852
-0.224397
0.269525
0.278482
0.111496
0.208805
-0.0441914
-0.273011
0.250106
0.172552
0.181439
-0.111305
-0.0255803
-0.2362
0.0223149
-0.00688703
0.187678
-0.252724
0.173278
-0.0640435
0.237269
0.139806
-0.222228
-0.205798
0.121942
0.237535
0.170638
0.0697396
0.0249222
0.0901404
0.0716407
-0.178786
0.17542
0.0399376
-0.18597
-0.0419336
-0.0465365
0.0496393
-0.0132095
-0.101846
-0.0996983
-0.106953
0.0606911
0.17518
-0.052961
-0.204076
-0.114242
-0.163194
-0.148706
-0.260514
0.10402
-0.206604
0.171968
0.177074
-0.100398
-0.0167596
0.119942
-0.258978
-0.240691
-0.119616
0.134045
0.128971
0.00608486
0.0148131
-0.109482
0.0781622
0.273762
0.123109
-0.180031
-0.0281073
-0.270312
0.0149781
0.176084
0.0953772
-0.0936477
-0.164101
0.200506
0.0566316
-0.0115656
-0.258575
0.10461
-0.214208
-0.154862
-0.0295422
0.260586
0.00157047
0.256472
0.0808697
0.0519893
-0.280694
0.239358
-0.106859
0.151181
-0.0721259
0.201148
-0.264926
-0.291149
0.178629
0.151174
-0.171898
-0.152617
0.189909
0.150675
-0.262972
-0.00123626
-0.255394
-0.119645
-0.124734
0.101845
0.156433
-0.0576112
-0.0964591
0.248237
0.0808284
0.172155
0.224874
-0.222593
0.131511
0.000333485
0.134264
0.160603
-0.0587047
-0.277431
-0.00742677
0.164971
0.220143
0.05606
0.169062
0.0944204
-0.0945822
0.296551
0.244018
-0.173401
0.143368
0.268901
0.0947298
0.178326
-0.145675
0.268107
-0.0391969
-0.301024
-0.0940755
0.194236
0.262827
0.29525
0.0494878
0.185154
-0.211069
-0.105757
-0.0914019
0.221588
-0.223361
0.106783
0.244917
0.072163
-0.011532
0.157349
-0.189572
-0.135759
-0.0568607
0.0279117
-0.139416
-0.0922578
0.10694
-0.306176
-0.0998086
-0.11211
0.19268
0.0435552
-0.136594
-0.129727
0.0537249
0.0669594
-0.246207
0.0267627
0.0922504
0.103517
-0.0886276
0.137555
0.295288
0.0965512
0.0611761
-0.250165
-0.0917368
0.0024906
0.113309
0.201542
-0.136551
0.222749
-0.241661
0.133501
-0.0684471
-0.0797006
-0.254132
-0.260268
-0.0759786
-0.0532533
-0.0705912
-0.190322
0.299277
0.0941035
-0.0159142
0.0510977
-0.129958
0.0341999
-0.205091
0.204951
-0.150345
-0.00623804
0.0643632
-0.177372
-0.221145
-0.161447
-0.0969345
-0.00183331
0.107067
-0.293017
-0.107158
0.272965
0.216914
-0.0499614
0.102179
-0.139476
0.177508
0.147272
-0.102399
-0.1974
-0.183333
0.119241
-0.0903789
-0.216007
-0.106329
0.170045
0.174217
0.0547897
-0.0897672
0.250607
-0.0469879
0.0659643
-0.0479912
-0.288218
0.186461
0.0308749
-0.169525
-0.180078
-0.266447
0.259191
-0.210163
-0.0872607
0.230195
-0.259301
0.160845
0.0325618
-0.127075
0.0423788
-0.123277
0.080312
0.142699
-0.0286286
-0.0962991
-0.253525
0.0631677
0.0945594
0.262526
-0.0894585
-0.142416
-0.0945036
-0.132192
0.108554
0.249335
0.102585
0.127283
0.154034
-0.186343
0.258587
0.245272
-0.134028
0.195431
-0.243192
0.0862045
0.106243
-0.210324
-0.0576615
-0.16333
-0.0316801
0.287117
0.010295
-0.261374
0.135499
0.282997
-0.0605923
0.197362
0.0485515
-0.262251
0.157145
0.269574
-0.114713
-0.252853
-0.172535
0.296599
-0.300746
0.227392
0.128624
0.166717
-0.252039
0.0834102
0.124039
-0.0900734
-0.0125149
0.176148
0.274727
-0.196636
0.270651
-0.0881859
-0.0633692
-0.0682583
-0.0911246
0.244813
-0.0317433
-0.254072
0.231556
0.212614
0.247511
-0.0152866
0.246411
0.0968242
-0.0404385
-0.175087
0.152728
0.0750878
-0.180073
0.151944
0.0140807
0.254581
0.0169285
0.0577418
0.0304123
-0.152349
0.257163
-0.278156
-0.275486
0.234565
-0.180112
0.284101
-0.141782
0.0387662
-0.0789662
0.0546146
0.00622487
0.19708
0.108369
-0.0612003
0.105742
0.0606031
0.215889
0.0506872
-0.131928
-0.119351
0.177564
-0.28416
0.248157
-0.293173
0.169438
-0.0454276
0.249298
-0.106981
-0.299138
-0.00369538
0.0173295
0.270641
0.00775227
0.0559193
0.210535
0.126246
0.0320552
-0.229782
-0.121671
0.25776
0.132632
0.18381
0.148807
-0.0550334
-0.184138
-0.049863
0.298762
-0.259239
0.292944
-0.142677
-0.0981073
0.173272
-0.126684
-0.141519
0.174476
-0.259975
0.117152
0.132666
-0.0722121
0.130263
-0.17404
0.252405
0.10423
0.13595
0.00838503
0.0135181
-0.0313558
-0.26412
0.0861623
0.149419
0.28333
-0.0851987
0.0329343
0.147698
0.146929
0.158726
-0.208289
0.153587
0.180131
-0.232549
-0.280205
-0.217937
0.253727
-0.113226
-0.0607269
0.123017
-0.0653764
-0.2464
-0.0214149
0.181828
0.183717
0.0876805
0.121795
-0.0104383
-0.0795602
-0.190827
0.300628
0.189155
-0.145767
0.0898687
0.0456642
-0.159164
0.30341
-0.232174
0.273117
0.138484
0.199118
-0.247439
0.00738517
0.0794579
-0.172755
0.04703
0.180846
-0.215147
0.233923
-0.181535
0.230183
-0.142356
-0.122841
-0.113566
-0.256068
-0.250529
0.291034
0.146268
0.0273018
-0.0759452
0.266118
0.0417553
-0.194869
-0.158781
-0.179866
0.153713
-0.0245195
-0.171851
0.199533
-0.0610218
0.289791
0.0986433
0.0153263
-0.0101406
-0.107485
0.142
-0.263688
-0.238216
0.230422
0.247178
-0.120952
0.175981
-0.17501
0.0488365
-0.226915
-0.144589
0.105707
-0.242597
-0.29476
-0.153833
-0.0245556
0.268058
0.190584
0.079957
-0.207747
-0.288255
-0.085567
0.0613869
-0.179938
-0.179533
-0.285192
-0.176124
0.224845
0.0260708
0.111655
-0.172466
-0.1228
0.160579
-0.137097
-0.165704
0.108942
0.00952266
-0.29486
0.242823
-0.183062
-0.235673
-0.201643
0.211888
-0.163059
-0.210668
-0.240001
0.109876
-0.228927
0.25074
-0.106755
-0.157002
0.272163
0.110631
0.216103
-0.207733
0.238883
0.235294
-0.0954746
0.153851
-0.0380439
-0.249062
0.276878
0.144191
0.191932
-0.15149
0.293461
0.00950976
0.189131
0.266863
-0.0666658
0.297393
-0.239593
0.0476277
0.201547
-0.111338
0.136417
0.252304
0.294879
0.221958
0.207135
-0.102017
-0.202809
0.170243
0.277977
-0.288182
0.267671
0.21778
0.243437
-0.0906441
0.0468458
-0.101595
-0.0766165
0.0463101
-0.246526
-0.17583
0.177681
-0.272737
0.139154
0.0796561
0.299488
-0.224685
0.0847097
-0.249884
0.110898
-0.0106873
-0.0547916
-0.0212896
-0.0543165
-0.0692422
-0.101865
-0.150179
0.105885
-0.0169085
-0.276556
0.099558
-0.00737008
0.287908
0.0210124
-0.0572985
-0.118455
-0.206072
0.155637
0.112575
0.133259
0.206516
0.240871
0.0205496
0.233562
0.062531
-0.219042
0.22804
0.13178
0.184159
0.255252
-0.00447186
-0.154634
-0.0697408
0.280185
0.11747
0.135217
-0.163342
0.250641
-0.0443891
0.135448
0.280336
-0.245046
-0.176193
0.270338
0.0572827
0.0770339
-0.141515
0.167973
-0.0702479
0.253657
-0.0152257
-0.140612
0.203234
-0.286205
-0.239398
-0.0389584
-0.201416
0.285995
-0.213115
0.272513
0.283616
0.0777958
-0.184466
-0.12287
0.0216737
0.23056
-0.256444
0.181098
0.177147
-0.0497302
0.0254395
0.16527
0.0159849
0.147311
0.142089
-0.229701
-0.0684237
0.302302
0.212395
0.164647
0.257296
-0.0818674
-0.310417
0.159184
-0.0933042
-0.244983
-0.167403
0.0218809
-0.228543
-0.0935919
-0.0121958
-0.252829
-0.300505
0.120387
-0.086189
0.0461162
0.0295788
-0.0833697
-0.0736092
-0.0706982
0.211156
0.243304
-0.21299
-0.0921435
0.108407
0.243713
-0.0269769
-0.257639
0.242251
-0.106904
0.201123
0.204047
0.102482
0.204865
0.0627073
-0.292815
0.278745
0.18434
0.0125981
-0.252146
-0.18711
0.285451
-0.208827
-0.175321
0.0884997
0.0190542
0.162959
-0.170013
0.254359
-0.179825
0.0622685
0.157097
-0.25327
0.15082
-0.240699
0.176561
0.104853
0.0381162
0.191747
0.0554953
0.228504
0.108489
-0.0545291
0.0302562
0.0162434
-0.282513
0.0222943
-0.0136303
0.196878
-0.233754
0.0244478
-0.297223
-0.263758
0.119439
-0.174512
0.135159
-0.162342
-0.30594
0.269
-0.227144
-0.191689
0.010962
0.22246
-0.141325
-0.124713
0.304577
-0.266504
0.282436
0.040665
0.201893
0.0121427
-0.037847
0.0404459
0.260935
0.284678
-0.255372
0.276027
0.0228188
0.050042
0.169245
0.0783631
-0.227947
0.179
0.11432
0.189921
-0.280214
-0.0425404
-0.274416
