-0.417461
0.346115
0.770351
-0.184263
-0.229237
0.239512
0.258415
-0.103926
-0.188034
-0.207392
-0.422122
0.694791
0.436419
0.716525
0.31757
-0.00428204
-0.225617
0.335782
0.319322
0.103953
-0.191334
-0.654361
0.0505867
0.289198
0.567531
-0.489867
-0.538858
-0.701612
0.526688
-0.717191
0.0606722
-0.0076658
0.403559
0.0600625
-0.0774586
-0.603068
-0.475792
-0.590669
0.067707
0.109176
-0.0249757
0.421304
0.0289896
-0.362461
0.363086
-0.428206
0.742613
-0.00597411
0.680094
0.287919
0.241062
-0.287473
0.407928
-0.482656
-0.773275
0.201434
-0.197804
-0.537707
0.274592
-0.445776
-0.480398
-0.439351
-0.336978
0
0.392122
0.362401
-0.680149
0.688113
0.545888
0.164166
0.0227043
-0.252617
-0.189261
-0.723308
0.159808
-0.600678
-0.37709
0.127729
-0.464187
-0.00758225
-0.358408
0.552393
0.0143417
-0.72609
-0.70564
0.016478
0.250251
-0.128837
0.253067
-0.249239
0.199568
0.547458
0.0861884
0.637131
0.470014
0.00506454
0.224524
0.56402
-0.379841
-0.00218057
-0.0454755
0.414981
0.518683
0.539601
0.466657
-0.0966277
0.71341
-0.68521
-0.743245
-0.525
-0.38223
0.0142981
-0.748879
0.40617
-0.276996
-0.678611
-0.350351
0.747318
-0.0339216
0.677501
-0.27592
-0.609488
0.450902
0.584568
-0.74709
0.146291
-0.486458
0
-0.0632849
-0.0935215
-0.525732
0.66579
-0.453003
0.76699
0.430838
-0.761134
-0.103974
0.37009
-0.671982
-0.072769
0.619767
-0.279549
0.374453
-0.00557739
-0.646106
-0.678427
0.740502
-0.222147
-0.70578
-0.0683153
-0.318708
-0.207499
0.0966715
-0.642312
-0.397615
0.124158
0.278499
-0.109417
-0.397982
0.0337072
0.571631
-0.149946
-0.667848
-0.655936
-0.156762
0.53774
-0.642698
0.514021
0.133555
-0.540245
-0.332862
-0.0214392
-0.0454223
-0.733095
-0.150411
0.0231083
-0.636506
-0.183807
0.635068
-0.568145
0.522157
-0.457872
-0.0007961
-0.155899
-0.325772
0.37642
0.742723
0.727438
-0.507593
-0.429899
-0.606383
-0.021992
0.195609
-0.500384
-0.592247
-0.734961
-0.737046
-0.46089
0.553907
0.17079
-0.226582
-0.553798
-0.62531
0.502567
-0.512335
-0.00105641
-0.189296
0.0190833
0.589293
-0.32826
-0.167724
0.336585
-0.0115194
0.606482
-0.594018
0.437414
0.208245
-0.625845
0.390366
0.475326
-0.281203
0.558527
0.539122
-0.00090901
-0.715977
0.721052
0.72845
-0.678052
-0.514361
0.507449
0.267438
0.0334563
0.72821
0.416698
-0.238661
-0.558699
-0.358977
0.346678
-0.158613
0.017174
-0.756098
0.448729
0.56666
0.00644405
0.280339
0.747664
-0.330584
-0.286035
-0.652995
-0.714697
-0.58539
-0.159504
0.618358
0.728304
-0.244981
-0.00239128
0.674708
-0.29145
0.773628
-0.613824
-0.558472
0.266303
0.194197
-0.604877
-0.0915541
0.730034
-0.388981
0.32402
0.302118
0.227013
0.554278
0.00295971
-0.0993779
0.34618
-0.447165
-0.59329
0.319556
-0.00327654
-0.104887
0.441286
0.0567353
0.0841073
-0.492724
-0.0995644
0.0377955
0.0369019
-0.197205
-0.00746942
0.520137
-0.198617
0.0989008
0.736734
-0.706675
-0.481792
-0.642808
-0.0237445
-0.526275
-0.257294
-0.474363
0.550381
0.744324
-0.694651
0.0961889
-0.00288763
0.426588
0.423285
0.0516016
-0.0282595
-0.354568
0.721063
-0.3615
0.476601
0.0305844
-0.0796284
-0.397625
-0.706234
0.731885
0.179794
0.00646801
-0.0048913
0.756458
-0.668725
0.438701
-0.725537
-0.37617
0.571378
0.0255599
-0.12834
-0.460865
0.326064
-0.352524
-0.491014
0.405901
0.518198
0.154146
-0.00321188
0.168026
-0.567474
-0.745864
0.586703
-0.620845
-0.331472
0.28862
0.182967
0.362648
0.666071
0.251119
0.320326
0.0712174
-0.517002
0.0234037
-0.00573501
-0.408862
-0.308009
0.098665
-0.0161516
-0.512641
-0.646605
0.630838
-0.200588
0.452771
-0.495024
0.0826741
0.084996
-0.751417
-0.537963
-0.631279
-0.00719732
-0.332451
-0.601699
0.00258115
-0.180352
-0.158992
-0.482968
-0.772253
-0.570495
-0.591564
0.253393
0.524484
0.254245
0.510903
-0.226736
-0.467653
0
0.235903
0.409925
0.0839187
0.494373
0.536961
-0.0571562
-0.480461
0.216411
0.222204
0.376596
-0.473113
0.245536
0.613111
-0.32992
-0.338698
-0.00835609
-0.157074
0.439342
0.0994415
0.457809
0.730253
0.102562
0.662056
-0.635676
-0.418875
0.412335
0.392861
-0.68246
-0.588793
0.69973
-0.583177
0.00254471
0.333718
0.275417
0.144963
0.0977782
-0.55548
0.436882
-0.461659
0.44139
0.0393677
-0.160627
-0.0876583
-0.122265
0.284342
0.34858
0.158291
0.0121859
0.0127418
-0.517447
0.586544
-0.031096
0.361161
0.473524
0.106795
0.716921
0.111867
-0.275341
-0.739573
0.297396
-0.350359
-0.548161
-0.0556173
0
0.50276
-0.687105
0.0804771
0.721998
0.52456
0.392772
0.388816
-0.21074
-0.542054
-0.473095
0.44136
0.516705
0.650184
-0.174869
0.643911
-0.0198905
0.0836552
0.454223
0.630459
-0.329307
0.153547
-0.0378926
-0.386609
-0.509524
0.461392
-0.351672
0.562453
-0.663696
-0.125304
-0.267686
-0.680025
0.0450495
-0.180168
0.174221
-0.449441
-0.430034
-0.206712
0.714101
0.133491
0.0258326
-0.533358
-0.199783
-0.231648
-0.65788
0.399745
-0.362425
0.00436851
0.0263033
-0.682074
-0.139217
0.153462
0.245792
0.59693
0.541755
0.511281
0.283435
-0.584803
0.299445
0.394086
0.0646185
-0.742806
0.488641
0.44233
-0.0225983
-0.111033
0.767063
0.195781
0.457239
0.706546
-0.445713
-0.291341
-0.601619
0.129017
0.251496
-0.484989
-0.245824
0.663669
0.294032
0.237671
0.0167867
-0.620471
-0.383167
0.227975
0.751008
-0.615735
-0.035113
0.259553
-0.425749
-0.510161
-0.121065
0.41365
-0.478368
-0.407077
0.081347
0.14759
0.00316005
0.0737634
-0.431819
-0.0607183
0.00637855
-0.102689
0.422207
0.179347
-0.748267
-0.100789
0.468771
-0.219453
-0.211793
-0.0118293
-0.756354
-0.230331
0.0215522
-0.36451
0.772316
0.118267
-0.205967
-0.0375547
-0.396606
0.143088
0.226789
0.256815
-0.217783
0.522896
0.624382
0.638124
-0.104125
0.106345
0.00121443
0.239009
-0.729357
0.718313
-0.637924
0.467449
0.122885
-0.611477
-0.408069
-0.182988
-0.0563572
0.154703
0.579772
-0.0381316
0.698966
-0.0525711
-0.00238184
0.696537
-0.708426
-0.608709
-0.115833
-0.330613
0.30922
-0.663578
0.700836
-0.683238
0.633942
0.550589
0.729539
-0.24478
-0.117678
-0.10745
-0.00438436
-0.0721396
-0.163452
-0.643881
-0.379622
0.733742
-0.48066
-0.0130117
-0.223943
0.237455
-0.632755
-0.41887
-0.575182
-0.708366
0.303151
0.571328
-0.00249598
0.369134
0.737577
-0.127638
-0.736309
0.272071
-0.0164428
0.739077
0.363456
-0.157161
0.515152
0.318379
0.372703
-0.377117
-0.563678
0.367071
-0.00610259
0.0473351
0.498244
0.719966
0.00613761
-0.756888
-0.0668402
0.556783
0.254908
0.0747648
-0.63674
0.454517
0.14107
0.440874
0.25118
0.12914
-0.00528521
0.214725
-0.771679
0.0732303
-0.288681
-0.0132027
0.0388486
-0.700085
0.602935
-0.221364
0.393169
0.200922
0.176463
0.604025
-0.20659
-0.272971
-0.00615494
-0.481127
-0.323419
0.654058
-0.468003
0.383295
0.440037
0.562527
-0.31885
0.576069
0.243608
0.596352
0.243216
-0.279975
-0.0493223
-0.495609
-0.00251455
-0.0476746
0.353044
-0.35478
0.711778
-0.383366
-0.27983
0.54
0.170191
-0.661392
-0.0336058
-0.427997
0.717305
0.534344
0.0735959
-0.180685
0
0.519997
-0.297344
-0.415843
0.125706
-0.633413
-0.625669
0.581536
0.718579
0.392328
0.40281
0.187345
-0.662273
-0.421145
0.466213
-0.727996
-0.00739318
0.0449519
-0.306661
0.241826
0.434354
0.187102
0.00846462
-0.169805
0.300587
0.749011
0.177427
0.24296
0.508995
-0.523372
-0.71241
0.560467
0.00125218
-0.235933
-0.629765
0.125717
-0.0934872
-0.479909
-0.0693043
-0.150685
0.686707
-0.440581
-0.738155
-0.750142
-0.087209
0.502964
-0.703247
-0.556178
0.00874869
-0.236179
0.460892
-0.566299
0.724963
-0.304431
0.0390794
0.250188
-0.329768
-0.557821
-0.281508
-0.594868
-0.306634
-0.219526
0.740089
-0.309271
0
-0.662911
0.590163
-0.550443
-0.36963
-0.253893
0.0736901
-0.457284
0.0800854
0.110212
-0.432283
0.767273
-0.161433
-0.360913
-0.563474
0.38594
-0.0392926
0.672879
0.594246
0.126532
-0.406853
-0.141422
-0.39757
0.0381949
0.0752193
0.0952446
0.218117
0.543072
0.650409
0.183601
-0.540764
0.195083
0.0508809
-0.725886
0.419104
0.700273
-0.205106
-0.28115
-0.531304
0.649217
0.60397
-0.18876
0.641787
-0.331676
0.224853
-0.696428
-0.720401
-0.373029
0.0265211
0.648249
0.528847
-0.430751
-0.268181
-0.643422
0.382614
0.581621
0.226494
-0.174018
0.350277
0.102248
-0.764931
0.584087
-0.477317
0.304418
-0.0135458
0.717056
0.229568
-0.347103
-0.338333
0.473003
-0.472834
-0.508827
-0.490531
-0.60557
-0.0660564
0.508917
-0.52744
-0.0119189
-0.638684
-0.551366
0.00874565
0.664163
-0.207637
0.368648
-0.753435
-0.59927
0.175685
0.247393
0.00149785
-0.248511
-0.425194
0.0113558
-0.439086
-0.127953
-0.458831
-0.581067
0.00188663
0.54541
-0.154146
0.25073
0.244627
0.147942
0.516198
0.528734
0.316832
-0.324394
0.262861
0.563984
0.438204
0.398745
-0.761952
-0.474803
0.0226709
-0.194594
0.667701
0.309731
-0.0186894
0.0689787
-0.217966
0.757473
0.594915
0.131506
-0.0059148
-0.618779
-0.771125
0.309809
-0.425228
-0.182166
0.00877985
0.195487
-0.706531
-0.449114
-0.430596
0.584403
-0.695382
0.660892
-0.514758
0.34214
0.45017
0.698005
-0.0337684
0.46282
-0.551361
-0.519817
0.00212749
-0.657685
0.564559
0.249151
0.185757
-0.428347
0.232024
0.00637136
0.477593
-0.548589
0.162269
0.480913
0.535876
0.511691
-0.47584
-0.157704
-0.00727978
-0.407572
0.167314
0.2767
-0.597439
0.24667
0.162741
-0.337582
-0.185928
-0.161639
-0.414227
0.554899
-0.473464
-0.191006
-0.739503
-0.205151
-0.00768548
0.599308
-0.730406
-0.662716
-0.60365
0.276277
0.118328
0.648455
0.502376
-0.493949
0.354738
0.263715
-0.756869
0.653484
-0.668598
-0.0494925
-0.00836144
0.274035
-0.546534
-0.352508
-0.25484
0.390384
0.0855549
0.334171
-0.546401
0.445443
0.11474
-0.245298
-0.51995
0.149737
0.324082
0.180535
-0.00339361
0.369001
0.294248
0.144475
-0.130421
-0.362045
0.0197476
-0.402728
-0.082937
-0.401165
0.636154
-0.0654576
-0.521846
0.742083
0.659639
-0.275663
-0.00422729
-0.661192
0.151133
0.759048
0.500518
-0.539388
0.321846
0.7291
0.679118
-0.339871
-0.290154
-0.616021
0.585292
-0.740714
0.339025
-0.214413
-0.000205579
-0.143298
0.705539
-0.502319
0.267385
-0.0497882
-0.129934
-0.590477
0.324225
-0.268438
0.118578
0.577124
-0.300934
0.00354189
-0.473168
0.714703
0
0.447561
0.701313
-0.157564
0.681063
0.247537
-0.201712
0.585437
0.683604
0.282947
0.743387
0.49457
0.316661
0.307821
-0.494522
-0.0555578
-0.00711061
-0.56327
0.217942
0.431127
0.160412
-0.687535
0.615929
-0.28972
-0.181209
-0.0404383
-0.486826
0.292071
0.737896
-0.185129
0.232164
0.0792283
0.000673233
0.159247
0.695648
-0.602512
-0.366546
-0.2796
0.755119
-0.458667
-0.771833
0.724516
-0.738879
0.319421
0.2576
-0.458508
-0.510404
0.422052
0.00634067
0.480844
0.0783652
0.688692
0.568301
-0.0791481
-0.375542
-0.388336
0.655216
-0.0872481
0.678119
0.618962
0.50205
0.135533
-0.0764705
0.7654
0
-0.154515
-0.613551
-0.0733119
0.340386
-0.632591
0.242347
0.34324
-0.682775
0.27841
-0.111697
0.349337
0.594318
0.152513
-0.00316613
-0.427866
0.00874565
-0.698423
-0.514903
-0.348005
-0.00265009
-0.115367
0.0377564
-0.121974
0.571827
-0.0585804
-0.277751
0.299234
-0.697753
0.420397
0.290159
-0.403432
0.00188663
0.451018
0.297033
0.606631
0.593977
-0.23452
0.174943
0.685571
-0.730625
-0.711029
0.260096
0.638503
0.215934
-0.517764
-0.563969
-0.700118
0.0226709
-0.303444
-0.273575
0.329828
0.355746
0.538743
-0.566659
0.153213
-0.294665
-0.069861
-0.322002
-0.217968
-0.424049
0.742715
0.153192
-0.158105
0.00877985
-0.323595
-0.327096
0.238731
0.217294
0.622806
0.149066
0.261354
0.686136
-0.365333
0.125019
0.127472
-0.108599
0.335592
0.201993
0.224314
0.00212749
0.702922
-0.219979
0.387834
0.466821
-0.0122512
-0.233294
-0.602394
0.692585
0.219227
-0.045748
-0.505999
0.187408
-0.667176
0.110457
-0.167667
-0.00727978
0.558386
-0.704112
-0.773755
0.407168
0.219611
0.261928
0.318883
0.628648
-0.387663
-0.328352
-0.254593
0.722483
0.648207
0.744342
0.754459
-0.00768548
-0.250223
0.368261
0.26868
0.511669
-0.640063
0.441095
0.429835
0.35381
-0.379365
0.698538
-0.233416
-0.271862
0.0344015
0.373486
0.28672
-0.00836144
0.444111
0.287465
-0.549208
-0.110714
-0.225288
0.544193
-0.256514
0.161506
-0.558832
0.263479
0.109369
-0.685209
0.233207
0.0892347
0.665885
-0.00339361
-0.317866
0.159576
0.495123
-0.182634
-0.173481
0.150201
-0.603568
0.221925
0.074364
-0.0626819
0.724839
-0.665973
-0.463814
0.236953
-0.0731149
-0.00422729
-0.249915
0.152688
-0.13071
0.298879
-0.078084
0.387702
-0.31401
0.137634
-0.123545
0.570113
0.22697
-0.664855
-0.115273
0.118231
-0.681989
-0.000205579
-0.496316
0.587181
-0.615631
0.105285
-0.0370961
-0.445007
-0.447294
-0.737561
0.266963
-0.497106
-0.629004
0.577703
0.514459
0.072505
0.558031
0
-0.549787
-0.347066
0.563358
0.146827
-0.733605
-0.524647
-0.490199
-0.0827642
-0.729292
0.511186
0.0272143
-0.0699538
-0.145333
0.119757
-0.502867
-0.00711061
-0.0664985
-0.342516
-0.537127
0.669987
-0.0125691
-0.208663
0.706855
-0.521951
0.0679524
-0.696336
-0.719036
-0.1918
0.150716
0.613643
0.0725879
0.000673233
-0.504856
-0.134142
-0.25651
-0.469405
0.114352
0.0323948
0.223495
0.157173
-0.232959
-0.522577
-0.687966
0.397274
0.371687
-0.416424
-0.243777
0.00634067
0.0139012
-0.00578857
-0.574647
0.774242
0.559833
-0.642145
-0.522568
-0.146375
-0.563886
-0.467119
0.436492
0.361398
-0.628173
-0.265528
-0.0377022
0
0.370003
0.485204
-0.0547732
-0.293401
-0.258614
-0.604192
0.637302
0.284428
-0.352026
0.724338
-0.092433
-0.754631
-0.466882
0.438214
-0.450227
0.321742
-0.342596
-0.256067
0.324571
-0.554181
-0.120828
0.572844
0.07298
0.0910589
-0.666865
-0.266392
-0.320829
-0.521124
0.242301
0.416254
-0.109119
-0.161611
0.128282
0.616542
0.317161
0.639128
-0.766029
0.183261
0.150345
-0.343187
0.131896
-0.715186
-0.323825
0.440658
0.497713
0.000612951
-0.0115064
-0.619026
0.526065
-0.46355
-0.401755
-0.369217
-0.66623
0.444402
0.498092
-0.560123
-0.596913
-0.596186
-0.307787
0.420167
0.594765
0.35792
-0.515623
-0.0536266
0.195434
0.575995
-0.183259
0.204805
-0.0125176
0.741474
0.634608
-0.653758
-0.74785
-0.465469
0.562425
0.523791
0.309303
-0.223882
0.679074
0.0591387
0.0847084
-0.491459
0.462901
0.192604
0.726231
0.191282
0.407626
-0.646953
0.367006
-0.674038
0.546955
0.187608
0.458498
-0.743725
-0.639498
-0.121239
0.610643
-0.049459
-0.693772
-0.177477
-0.0843557
0.714052
-0.055921
-0.0583726
-0.526221
-0.267089
-0.309572
0.558034
0.283928
-0.404869
-0.157104
-0.404736
-0.127218
-0.464532
0.562162
-0.180565
0.498932
0.197741
-0.0536998
0.0927521
0.297975
-0.280803
-0.49353
-0.0176542
-0.24977
-0.358623
0.635896
-0.414347
0.366837
0.716315
0.18519
-0.493615
0.656507
-0.645878
0.222418
-0.643628
-0.138113
0.686968
0.689493
-0.629001
-0.492561
-0.24216
-0.259157
0.15492
0.0663056
-0.470221
0.751027
-0.209287
0.502535
-0.0765169
0.657297
0.0264132
0.417249
-0.611469
-0.765561
-0.607415
-0.195721
0.644835
-0.24718
-0.60525
0.587584
0.714105
-0.325886
0.468028
-0.708255
0.671903
0.600219
-0.0723834
0.583186
0.516253
0.0727094
-0.683484
-0.500313
0.588212
0.24665
0.340487
-0.655735
0.218523
-0.641455
0.623739
-0.629675
-0.761454
-0.124929
0.56167
-0.597655
-0.117658
0.729508
-0.0194911
-0.247327
-0.292225
0.149113
-0.434388
-0.352963
0.599136
-0.738622
-0.290058
0.49716
0.637496
0.411584
0.306118
0.378668
-0.290637
0.397637
0.65285
-0.477035
-0.130281
0.218878
-0.358678
-0.683294
0.347004
-0.51032
-0.534693
0.362041
0.136671
-0.747106
0.53735
-0.755617
0.755611
-0.257342
-0.229201
-0.311038
0.666665
0.110604
0.108117
0.491786
0.143266
0.594215
0.214311
0.00679491
0.229203
-0.254228
-0.38807
0.714569
-0.631981
-0.508978
-0.537572
0.0121864
0.484663
-0.122345
0.104455
0.059033
0.14343
0.340641
-0.355346
-0.498702
0.367597
-0.591578
-0.480535
0.347959
-0.0727609
0.0643752
-0.737094
-0.18045
-0.599421
0.146116
-0.463592
0.122406
-0.015065
0.204624
-0.167091
-0.221969
-0.194239
-0.0188758
-0.245693
-0.143931
0.075062
-0.152441
0.162752
-0.0311473
0.0957809
-0.0956832
0.292038
-0.155215
-0.252325
-0.148176
-0.039575
0.172739
-0.0814442
0.0669425
0.0112158
0.19918
-0.204828
0.0326047
-0.176753
-0.150092
-0.207661
-0.0442219
0.285597
0.076545
-0.157008
-0.19397
0.149252
-0.0476958
0.052726
0.201941
0.121181
-0.118782
-0.26173
-0.0276943
0.142831
0.130102
0.171361
0.132619
0.290693
0.233238
0.294905
-0.0540377
0.104666
-0.0760799
-0.28501
-0.189344
-0.186167
-0.196884
0.169397
-0.0475703
-0.0263985
0.221842
0.19287
-0.0456692
0.0104256
-0.260103
0.0802821
-0.140813
-0.00830767
-0.144402
-0.254316
-0.192282
0.0376342
-0.214871
0.0874367
-0.12036
0.224515
-0.0185608
-0.268591
0.211347
-0.100953
-0.295865
-0.148407
0.301821
-0.0777032
-0.123629
-0.184416
0.0297303
-0.0258779
0.262893
0.268041
0.248551
0.186055
0.172849
-0.1017
-0.107971
0.20497
0.289106
0.0553423
-0.0954418
-0.152148
0.0914243
-4.07817e-05
-6.6779e-05
-4.73994e-05
1.43502e-38
-0.00033818
-0.000554409
-0.00115105
-3.7915e-39
0.000393548
0.000554742
0.000412565
-0.000251363
0.000216516
-5.93747e-05
0.000189879
-0.000120097
4.66692e-05
-2.87355e-06
-6.53172e-05
-6.15684e-05
-2.45601e-05
-0.000118718
-5.5926e-05
-1.53848e-05
-0.000352203
-0.000591797
-0.00116261
1.76766e-05
0.000226181
0.000993698
0.000411136
-0.000271036
0.000183562
-3.43905e-05
0.000222342
-9.50081e-06
-3.67165e-05
-4.74388e-05
-4.33269e-05
-5.61507e-05
-3.87119e-05
-8.52481e-05
-5.12046e-06
-1.35023e-05
-0.000355906
-0.000607174
-0.00120245
-1.92398e-05
-0.000136909
0.00080316
0.000513226
-5.8307e-05
0.000157576
5.00232e-05
0.000245422
7.5721e-05
2.3159e-05
-8.86965e-05
-6.18047e-05
-9.12237e-05
-1.08703e-05
-6.53221e-05
-2.9417e-05
-2.00082e-05
-0.000368368
-0.000625199
-0.00124328
-7.1191e-06
0.00012483
-2.50571e-05
0.000247381
7.5721e-05
-5.24954e-07
-6.81156e-05
-9.90269e-05
-9.12477e-05
-4.42409e-05
-5.33038e-05
-4.70782e-05
-2.18196e-41
-0.000374749
-0.000610989
-0.00123686
-1.31832e-05
-0.162426
-0.167688
-0.275922
-0.019724
-0.257751
-0.0911078
0.17769
0.240748
-0.163307
0.063793
0.063529
-0.181744
-0.156486
-0.0447076
-0.228995
0.291516
0.292621
-0.000149775
-0.00034195
-0.00026897
1.93045e-38
-0.00226599
-0.00476481
-0.00765397
-4.39383e-39
0.000552746
0.00232856
0.00212004
-0.000949437
0.00116808
-0.000267328
0.000704339
-0.000373699
0.000334797
-0.000267238
-0.000220682
-0.000373897
-0.000123242
-0.000388328
-0.000372089
-1.85354e-05
-0.00233326
-0.00487504
-0.00767029
2.47771e-05
2.10485e-05
0.00338499
0.00216853
-0.00101999
0.00108692
-0.000156412
0.000991765
-3.47194e-05
6.22926e-05
-0.000250258
-0.000208154
-0.000338554
-0.000334107
-0.000377408
-1.31864e-05
-1.63665e-05
-0.00228957
-0.00493303
-0.00788314
-2.76293e-05
-0.00110263
0.00325448
0.00252626
-0.000450896
0.000858126
0.000108104
0.00103222
0.000452197
0.000295792
-0.000456379
-0.000332698
-0.000517775
-0.000184899
-0.000298409
-8.78822e-05
-1.93915e-05
-0.00230398
-0.0050006
-0.00802558
-5.69783e-06
0.000806773
1.43422e-05
0.00103792
0.000452197
0.000275107
-0.000428848
-0.000368347
-0.000517802
-0.000213785
-0.000293038
-0.000102291
-7.16223e-39
-0.00231353
-0.00498147
-0.00801911
-1.73167e-05
0.120994
-0.0446908
0.110004
0.0746986
-0.245349
0.208267
-0.0152994
0.205872
-0.215443
-0.0167505
0.255397
-0.209551
0.330981
0.210384
0.200276
0.161313
-0.206571
-0.000180164
-0.000412081
-0.000329737
0
-0.00246581
-0.00473886
-0.00787964
0
0.000891159
0.00285339
0.00239386
-0.0011172
0.00136718
-0.000290021
0.000788577
-0.000428625
0.000307106
-0.000325565
-0.000294987
-0.000426556
-0.000167761
-0.000420816
-0.000474883
0
-0.00253574
-0.00487816
-0.00790196
0
0.000279097
0.00385056
0.00251353
-0.00121104
0.00124495
-0.000126894
0.00115813
-1.19573e-05
-1.18166e-05
-0.000201673
-0.000280639
-0.000395543
-0.000430717
-0.000441459
-6.50183e-05
0
-0.00246669
-0.00496731
-0.00816192
0
-0.000910309
0.00379333
0.00294963
-0.000582528
0.000916331
0.000134356
0.00116075
0.00053899
0.000328972
-0.000526399
-0.000428841
-0.000610463
-0.000237793
-0.000363676
-0.000114518
0
-0.00247414
-0.00505679
-0.00832356
0
0.000916331
0.000134356
0.00116075
0.00053899
0.000328972
-0.000526399
-0.000428841
-0.000610463
-0.000237793
-0.000363676
-0.000114518
0
-0.00247414
-0.00505679
-0.00832356
0
-0.0205898
-0.204417
0.27639
0.133171
-0.0568575
-0.0995861
0.0647754
-0.104432
0.252899
0.0544323
0.146018
-0.0283241
0.0152399
0.115512
-0.236941
-0.0733924
0.122956
8.18332e-40
1.15608e-39
1.12314e-39
2.37213e-39
8.84275e-41
1.27e-39
5.13601e-40
1.16826e-40
-2.31016e-39
-3.95615e-40
8.19149e-40
5.44979e-40
8.86075e-40
-4.2352e-40
4.97154e-40
1.83761e-40
2.5614e-06
2.85269e-06
-4.72375e-07
4.10204e-40
4.2652e-07
-6.20257e-06
7.89332e-08
-1.56529e-06
4.79278e-07
-1.39144e-06
1.9354e-07
-1.21685e-08
-9.65e-07
1.71021e-05
-5.4035e-07
-1.77215e-39
1.17249e-06
-3.19403e-06
-1.57944e-06
1.54569e-39
1.81888e-06
-6.30437e-06
1.84545e-06
7.3241e-28
2.58345e-06
-2.67976e-06
-2.40162e-07
-8.12564e-07
-7.44846e-07
-2.10684e-06
-1.03017e-06
-1.26904e-06
1.67442e-07
1.30878e-05
1.04115e-06
8.49345e-40
3.31915e-06
3.09942e-06
1.81878e-09
6.38379e-32
6.97239e-07
-2.40806e-06
2.2297e-06
-3.404e-29
-2.02637e-07
6.99158e-08
-2.86835e-06
-5.94793e-07
6.80787e-07
-1.8821e-06
3.13545e-06
-4.88034e-07
-2.37054e-06
-1.01104e-05
8.94477e-07
-7.34855e-41
-1.69649e-06
1.10368e-07
-1.63686e-06
-3.18479e-09
-9.39459e-07
-7.52161e-07
-4.62405e-06
5.34265e-40
-2.7185e-06
-1.15121e-06
9.03842e-07
-6.90521e-07
0.191361
-0.235867
0.189263
0.0386824
-0.135804
0.229302
0.048059
-0.126828
0.252201
-0.239719
0.0447586
-0.170759
0.0156807
0.290577
-0.274109
0.0648687
0.0842209
-2.37975e-05
-4.16029e-05
-3.30691e-05
4.48994e-39
-5.58985e-05
0.000145942
-5.27713e-05
-2.6085e-39
0.000101932
0.00028004
0.000216667
-0.000163242
0.000124478
3.3935e-05
8.72937e-05
-2.50696e-05
8.09904e-06
7.21201e-07
-7.06441e-06
-4.83219e-05
-3.84777e-05
-5.83772e-05
-4.26031e-05
-9.47126e-07
-6.41658e-05
0.000119613
-6.62799e-05
1.45905e-06
5.11108e-05
0.000404952
0.000225796
-0.00019062
9.29005e-05
3.59371e-05
0.000118666
-7.31685e-06
-2.3505e-05
-2.21128e-05
-1.9855e-05
-3.70567e-05
-4.28227e-05
-5.32187e-05
-2.19324e-05
-2.23733e-06
-6.93134e-05
0.000107033
-9.48386e-05
-4.02916e-06
-0.000129273
0.000390948
0.000254161
-0.000112553
7.97173e-05
5.71587e-05
0.000123994
2.65981e-05
1.94903e-05
-2.06109e-05
-5.15031e-05
-4.5732e-05
-2.44322e-05
-4.45125e-05
-2.71372e-05
-4.19209e-06
-8.5176e-05
9.01116e-05
-0.000126652
-3.50214e-07
7.01246e-05
4.28691e-05
0.000126195
2.65981e-05
9.1149e-06
-9.53034e-06
-5.65494e-05
-4.57392e-05
-3.55179e-05
-4.36821e-05
-2.71566e-05
1.65767e-09
-8.48297e-05
9.74346e-05
-0.000126129
-4.42369e-07
-0.272412
0.0606183
-0.0612958
0.262449
0.160962
-0.271177
-0.247182
0.0082322
-0.0533585
-0.0208805
-0.112763
0.221653
0.0696126
-0.151055
-0.19884
-0.107154
0.214854
-4.20879e-05
-7.2432e-05
-2.58148e-05
8.37849e-40
-0.000739624
-0.00152475
-0.00249255
-6.65961e-40
1.06984e-05
0.000703572
0.000585316
-5.48447e-05
0.000313299
-0.000215252
3.82736e-05
-0.000184381
8.44109e-05
-4.9359e-05
-3.0279e-05
-0.000146333
-3.68635e-05
-0.000100765
-5.58869e-05
-2.86041e-08
-0.000757058
-0.00153195
-0.00249501
4.97251e-07
1.64743e-06
0.000959845
0.000654076
-0.000103065
0.000292971
-0.000147174
9.29914e-05
-2.54354e-05
4.78525e-05
-4.43617e-05
-8.60458e-05
-0.000116801
-0.000118963
-0.000102557
2.58518e-05
-1.11873e-06
-0.000743602
-0.00152658
-0.00255468
-1.0109e-06
-0.000191621
0.000923305
0.00079343
3.09044e-05
0.000299942
-5.52507e-05
0.000114636
7.97653e-05
0.000101867
-0.000144052
-0.000107185
-0.000163847
-5.36277e-05
-8.97389e-05
-1.76303e-05
-1.04998e-06
-0.00076447
-0.00153591
-0.00259179
-5.16969e-07
0.000298246
-5.69357e-05
0.000114027
7.97653e-05
0.00010029
-0.000140707
-0.000107702
-0.000163849
-5.53419e-05
-8.87306e-05
-1.65624e-05
3.44551e-41
-0.000765339
-0.00153305
-0.00259145
1.94745e-07
0.0817767
0.19082
-0.0799572
0.0360376
-0.153498
-0.108547
-0.0936928
0.147714
-0.293052
-0.0346148
-0.102626
0.273337
0.270987
0.0340661
0.119011
-0.144569
-0.130316
-1.57088e-05
-2.50269e-05
-1.221e-05
-3.43263e-39
-0.00027149
-0.000740951
-0.001076
7.33585e-40
1.86752e-05
0.000155962
0.000116845
-8.32506e-06
9.50061e-05
-1.30819e-05
8.96401e-06
-1.958e-05
1.76035e-05
-7.89071e-06
1.94723e-06
-4.80712e-05
-1.25063e-05
-1.65361e-05
-1.92084e-05
1.69094e-06
-0.000277399
-0.000740333
-0.00107105
-8.01577e-07
4.6328e-05
0.000190056
0.000131408
-3.08309e-05
7.98523e-05
-2.08224e-07
3.62612e-05
-3.4867e-06
2.08229e-05
6.00932e-06
-2.19507e-05
-4.10108e-05
-4.30238e-05
-2.0838e-05
1.06188e-05
1.19807e-06
-0.000269312
-0.000731699
-0.00108179
3.82168e-06
-9.5494e-07
0.000203394
0.000161024
-3.87059e-06
7.81709e-05
1.59732e-05
3.7637e-05
3.36499e-05
2.62378e-05
-1.59852e-05
-3.35488e-05
-4.62588e-05
-2.2878e-05
-2.27475e-05
-8.04729e-06
8.07193e-07
-0.000274011
-0.00073486
-0.00109307
6.34769e-08
8.35135e-05
3.37523e-05
3.56591e-05
3.36499e-05
2.85792e-05
-2.0852e-05
-2.82008e-05
-4.62548e-05
-2.22008e-05
-2.20684e-05
-4.45551e-06
-4.70972e-40
-0.000271248
-0.000736811
-0.00109118
1.29403e-06
-0.00805392
0.0681318
0.0214098
0.0803562
0.16138
0.0132855
0.174853
-0.181558
0.205992
-0.0254414
-0.124427
-0.194306
0.0212143
0.219139
-0.189046
0.107849
-0.018505
3.39261e-05
5.06675e-05
3.65757e-05
5.19913e-40
0.000256664
0.000264087
0.000665532
-8.53685e-41
-0.0002011
-0.00045443
-0.000339332
0.000152249
-0.000180739
4.16353e-05
-8.59304e-05
7.12238e-05
-2.70751e-05
2.75525e-05
4.38119e-05
6.49055e-05
4.01151e-05
6.4694e-05
5.62462e-05
-4.04449e-07
0.000265832
0.000281987
0.000672973
-7.00998e-07
-0.000153078
-0.000569787
-0.000362832
0.000187517
-0.000154377
1.34178e-05
-0.000123184
1.21497e-05
1.77789e-05
2.54038e-05
4.9967e-05
5.62468e-05
6.88047e-05
5.91278e-05
1.0697e-05
3.3084e-07
0.000264753
0.000289771
0.000712318
4.39312e-07
5.20996e-05
-0.000551915
-0.00042754
7.29848e-05
-0.000129928
-2.2669e-05
-0.00011828
-5.41405e-05
-3.00499e-05
6.00426e-05
7.61298e-05
8.18579e-05
3.73903e-05
5.31584e-05
1.94793e-05
2.31653e-07
0.000276629
0.000302193
0.000742118
-9.89434e-08
-0.000131449
-2.45798e-05
-0.000117479
-5.41405e-05
-3.05632e-05
6.01415e-05
7.51759e-05
8.18575e-05
3.73595e-05
5.31112e-05
1.88113e-05
3.84663e-40
0.000276204
0.000302569
0.000741847
1.97276e-07
0.0223373
0.263406
-0.0431546
-0.123778
-0.0113584
0.113665
-0.17999
-0.278117
-0.103498
0.186949
0.126088
0.198202
-0.0285202
0.116244
0.153051
-0.036066
-0.23342
-8.46882e-06
-7.80389e-06
-2.96223e-07
-8.54635e-40
-4.42901e-05
2.38777e-05
-3.15129e-05
4.92796e-40
-1.42399e-05
0.000105571
4.12023e-05
7.56767e-06
2.56369e-05
-3.58651e-05
-6.26404e-06
-2.88341e-05
8.28909e-06
-1.1098e-05
-1.33376e-06
-1.41383e-05
-9.86019e-06
-9.90777e-06
-3.31335e-06
3.15814e-07
-4.54668e-05
2.45578e-05
-3.52237e-05
4.59452e-08
-9.38826e-06
0.000117559
6.09181e-05
8.22206e-06
2.16244e-05
-2.32007e-05
-2.71575e-06
-9.10247e-06
5.28513e-06
-9.97357e-06
-1.3377e-05
-1.21361e-05
-1.44904e-05
-8.62417e-06
1.72405e-06
3.96936e-07
-4.50867e-05
2.30608e-05
-4.29733e-05
8.68643e-07
-9.10889e-06
0.000114059
6.8689e-05
1.96703e-05
2.25092e-05
-2.04046e-05
-3.75048e-06
-6.60546e-06
6.52642e-06
-1.90639e-05
-1.45688e-05
-1.61536e-05
-4.65196e-06
-7.80456e-06
1.09628e-06
5.32585e-07
-4.79193e-05
2.42063e-05
-4.98324e-05
1.9586e-07
2.49847e-05
-1.66621e-05
-3.75127e-06
-6.60546e-06
9.25438e-06
-2.19753e-05
-1.46151e-05
-1.61521e-05
-4.03035e-06
-6.85526e-06
1.24664e-06
-1.76102e-10
-4.66071e-05
2.2604e-05
-4.91203e-05
7.65008e-08
0.0710577
-0.177018
-0.0242292
0.145207
0.0267913
0.174208
0.0964014
-0.229874
0.280929
-0.152224
-0.0702857
-0.154904
-0.256811
-0.281549
0.0451156
0.285422
0.293477
6.88746e-06
8.68461e-06
3.78315e-06
2.23889e-39
6.22456e-05
0.000116609
0.000247137
-2.74272e-40
-6.66022e-05
-6.20871e-05
-7.43261e-05
2.3765e-05
-3.73321e-05
4.535e-06
-1.99505e-05
2.27811e-05
6.25862e-07
1.65072e-06
2.92142e-06
1.57876e-05
8.73355e-06
1.07046e-05
5.92712e-06
-2.24856e-06
6.50104e-05
0.00011946
0.000247027
-2.70609e-07
-5.2278e-05
-8.7678e-05
-7.84932e-05
3.31645e-05
-2.2042e-05
-1.03509e-05
-2.65481e-05
-2.1445e-06
9.1204e-06
3.01113e-06
1.05451e-05
7.41776e-06
1.44454e-05
1.06314e-05
7.45379e-07
-4.62384e-07
6.57678e-05
0.000114204
0.000253655
-1.49984e-06
1.83439e-05
-8.79429e-05
-9.36044e-05
3.75271e-07
-2.15465e-05
-3.33978e-06
-2.91882e-05
-1.09231e-05
-5.13493e-06
1.27418e-05
1.81365e-05
1.86412e-05
1.59967e-06
1.29038e-05
2.75829e-06
-3.27979e-07
7.34406e-05
0.000112379
0.000262372
6.58903e-08
-2.80273e-05
-1.11768e-05
-2.7628e-05
-1.09231e-05
-6.55799e-06
1.47968e-05
1.5213e-05
1.86391e-05
1.99768e-06
1.17691e-05
2.13408e-06
3.1211e-40
6.99896e-05
0.00011275
0.00025955
-9.17881e-07
0.249029
0.225382
0.171021
-0.143155
-0.198041
-0.203
-0.140285
0.108667
0.202799
0.0879407
0.0014983
0.161294
0.0206473
0.261287
0.0663266
0.220147
-0.0435118
-1.34183e-05
-2.71667e-05
-2.60998e-05
-7.78996e-40
-8.03688e-05
6.69387e-05
-6.27326e-05
3.33117e-40
0.000152982
0.000274354
0.000188988
-0.000112871
8.24367e-05
-2.80634e-05
5.2939e-05
-5.44355e-05
5.60467e-07
-1.73321e-05
-2.79012e-05
-2.79789e-05
-1.90707e-05
-2.98984e-05
-3.77099e-05
2.93239e-07
-8.32095e-05
5.78431e-05
-6.83304e-05
-1.59273e-07
0.000111587
0.000324493
0.000196383
-0.000111653
6.85452e-05
-1.67445e-05
6.83897e-05
-1.77788e-05
-2.84509e-05
-1.00144e-05
-2.61415e-05
-2.58607e-05
-3.09953e-05
-3.09626e-05
-1.27822e-05
5.133e-07
-8.20233e-05
4.90157e-05
-8.96319e-05
5.21567e-07
6.92762e-06
0.000307721
0.000228626
-4.47797e-05
4.46938e-05
-5.82668e-06
6.36365e-05
1.93099e-05
-2.51068e-06
-2.82494e-05
-3.915e-05
-3.42696e-05
-1.77903e-05
-2.4045e-05
-1.0469e-05
5.13905e-07
-8.56074e-05
4.28551e-05
-0.000106479
-1.05209e-07
4.67489e-05
-3.20773e-06
6.34563e-05
1.93099e-05
-1.45807e-06
-2.98378e-05
-3.83634e-05
-3.42685e-05
-1.72006e-05
-2.39221e-05
-1.02815e-05
-4.75997e-33
-8.53286e-05
4.20479e-05
-0.000106337
6.9658e-08
0.131939
-0.29285
-0.179598
0.0226937
0.128952
-0.169345
-0.136253
-0.132357
0.0427411
0.0875102
0.129742
0.289627
0.0908084
-0.286518
0.242983
-0.136773
-0.131052
5.6158e-06
8.71341e-06
2.7271e-06
2.41348e-40
8.44215e-05
0.000167803
0.000313588
-3.13891e-42
-3.26351e-05
-8.62565e-05
-8.27595e-05
1.9501e-05
-3.26773e-05
2.17051e-05
-7.52142e-06
1.46447e-05
-4.04922e-06
4.11291e-07
6.71196e-06
1.82855e-05
5.2292e-06
1.57976e-05
5.60958e-06
-4.15827e-07
8.62098e-05
0.000169607
0.000313051
-4.0846e-07
-2.7594e-05
-0.000128397
-9.04696e-05
2.25878e-05
-2.77337e-05
1.30731e-05
-1.32287e-05
-4.63764e-06
2.98901e-06
3.16703e-06
1.29513e-05
1.01273e-05
1.41898e-05
1.50134e-05
-1.53768e-06
1.5435e-07
8.51475e-05
0.00016958
0.000319636
5.8708e-08
1.8211e-05
-0.000121264
-0.000112062
1.3796e-06
-3.31272e-05
3.10197e-06
-1.47917e-05
-1.23747e-05
-7.82165e-06
1.23707e-05
1.52001e-05
1.90288e-05
4.42628e-06
1.23679e-05
5.47105e-06
8.86371e-08
8.80008e-05
0.000170995
0.000325328
9.73234e-08
-3.3735e-05
1.58544e-06
-1.4491e-05
-1.23747e-05
-8.26767e-06
1.28822e-05
1.53345e-05
1.90286e-05
5.13363e-06
1.13701e-05
5.48888e-06
2.42587e-11
8.72354e-05
0.000170998
0.000324524
-1.13402e-07
-0.0203508
-0.0122576
-0.299209
-0.0511681
-0.21203
0.00117111
-0.051127
0.212224
0.172432
0.00977302
-0.289456
-0.0713504
-0.00304552
-0.0206994
0.159355
0.15255
-0.106146
-1.45317e-06
7.94874e-07
-1.5189e-06
-8.83423e-40
7.3599e-05
0.000237899
0.000323216
2.97718e-40
3.96705e-05
-4.70157e-06
-1.25577e-05
-1.51803e-05
-6.74976e-06
7.65833e-07
9.51026e-06
-7.03943e-06
-8.71454e-06
-3.95116e-06
-4.42416e-06
7.61965e-06
-2.97585e-06
2.6507e-06
-2.37125e-06
9.6561e-07
7.41132e-05
0.000234757
0.000318915
-2.93006e-07
1.2328e-05
-1.70324e-05
-1.05217e-05
-1.16722e-05
-8.65279e-06
3.36208e-06
6.14523e-06
-3.57427e-06
-1.50202e-05
1.5865e-06
-7.60592e-07
4.8498e-06
4.42499e-06
2.88309e-06
-3.90139e-06
4.89227e-07
7.1275e-05
0.000231734
0.000317402
9.50567e-07
-5.98123e-07
-1.72831e-05
-1.80024e-05
-5.25084e-06
-1.38588e-05
-7.52279e-06
5.69785e-06
-5.87816e-06
-5.27423e-06
1.91608e-06
-5.28976e-07
5.78333e-06
3.00792e-06
8.39375e-07
3.16791e-06
8.18309e-07
6.94362e-05
0.000232326
0.000315811
4.22589e-07
-1.17453e-05
-3.71787e-06
5.56822e-06
-5.87816e-06
-3.66547e-06
2.68501e-07
4.51853e-07
5.78468e-06
3.96638e-06
7.07261e-07
3.51251e-06
-2.3359e-29
7.08472e-05
0.000230773
0.000315902
4.99341e-07
0.187529
-0.228608
-0.193472
-0.0145876
-0.114192
-0.279927
-0.272716
0.257855
-0.257797
-0.185613
0.135827
0.271344
0.267062
0.256677
-0.093432
0.196757
0.00437806
1.07561e-05
1.54411e-05
8.19218e-06
-4.17042e-40
9.95654e-05
0.000183389
0.000306962
-5.2623e-41
-6.18065e-05
-0.000131393
-8.63161e-05
5.2192e-05
-6.03997e-05
1.70527e-05
-3.8018e-05
2.11882e-05
-1.23059e-05
9.20471e-06
1.27525e-05
2.29466e-05
9.12379e-06
1.96759e-05
1.43208e-05
8.31968e-07
0.000101842
0.000189897
0.000310277
-6.80851e-07
-3.97763e-05
-0.000181569
-9.07205e-05
5.78024e-05
-5.66217e-05
2.39716e-06
-5.0555e-05
1.44929e-06
3.44759e-07
1.01693e-05
1.35095e-05
1.88527e-05
1.88822e-05
1.90242e-05
-8.5309e-07
4.65879e-07
0.00010029
0.000193848
0.000323171
3.76116e-07
2.40906e-05
-0.000175655
-0.000116302
2.15823e-05
-4.71275e-05
-8.28112e-06
-5.21074e-05
-2.04589e-05
-1.46075e-05
2.13795e-05
2.09615e-05
2.54135e-05
9.09656e-06
1.415e-05
3.75771e-06
6.67611e-07
0.000102609
0.000198076
0.000333021
4.71911e-07
-4.58656e-05
-6.70587e-06
-5.24522e-05
-2.04589e-05
-1.491e-05
2.14602e-05
2.27296e-05
2.54136e-05
1.01498e-05
1.34166e-05
4.60897e-06
-9.53808e-11
0.000102707
0.000198134
0.000332695
5.91086e-07
-0.0990605
-0.185295
-0.0305767
-0.0070134
0.0191023
-0.0692409
-0.213248
0.101605
-0.0338457
-0.149971
0.15121
0.0347943
0.260425
0.044548
-0.0573338
0.255876
-0.126803
4.60075e-06
1.51942e-05
1.13495e-05
2.07461e-40
9.59615e-05
0.000203042
0.000310644
1.16784e-41
1.78176e-05
-0.000103358
-7.21571e-05
3.21067e-05
-4.12933e-05
7.49011e-06
-3.14609e-05
1.39171e-05
-1.35257e-05
1.50947e-05
4.96529e-06
1.33502e-05
4.91722e-06
1.05416e-05
1.49069e-05
-3.12629e-07
9.8292e-05
0.000206379
0.000312538
2.02551e-07
3.59839e-05
-0.000132733
-7.49768e-05
2.83473e-05
-4.22563e-05
7.29127e-06
-4.21546e-05
1.78987e-06
-3.67356e-06
5.14652e-06
6.29795e-06
1.39459e-05
1.40433e-05
1.36545e-05
1.34536e-06
-1.16614e-07
9.35587e-05
0.000208528
0.000322127
-1.29792e-07
6.58734e-05
-0.000135083
-8.11655e-05
1.48003e-05
-3.21798e-05
5.46545e-07
-4.40374e-05
-1.53358e-05
-8.87066e-06
1.82963e-05
1.37067e-05
1.74831e-05
6.49933e-06
1.02303e-05
2.2904e-06
-1.08754e-07
9.28159e-05
0.000210364
0.000328936
-6.89086e-08
-3.27552e-05
-3.05139e-07
-4.38143e-05
-1.53358e-05
-8.73098e-06
1.8417e-05
1.31977e-05
1.74829e-05
6.27025e-06
1.039e-05
2.01827e-06
-7.71495e-30
9.24553e-05
0.000210296
0.000328855
-1.68322e-07
-0.269775
-0.19951
-0.155139
-0.190469
-0.266501
-0.216493
-0.0223036
-0.0347719
0.109791
-0.254191
0.0306176
0.00318489
-0.0466687
0.188989
-0.219256
0.207143
0.00189696
-2.39471e-06
-5.36676e-06
-5.70005e-06
-3.19915e-40
-2.28826e-05
-4.08351e-05
-6.46851e-05
1.57448e-40
1.54997e-05
3.89932e-05
1.98005e-05
-1.39464e-05
1.76112e-05
1.58022e-06
1.26059e-05
-3.09162e-06
3.19407e-06
-5.84152e-06
-4.07824e-06
-4.64434e-06
-2.72143e-06
-2.29319e-06
-7.39641e-06
2.45597e-07
-2.35677e-05
-4.28826e-05
-6.50019e-05
-3.69168e-07
8.36008e-06
3.92029e-05
2.12388e-05
-1.44751e-05
1.75093e-05
9.86738e-07
1.63652e-05
-1.78275e-06
8.30125e-07
-6.89427e-07
-2.62435e-06
-5.05998e-06
-5.51295e-06
-4.17418e-06
-1.58828e-06
2.65223e-07
-2.21298e-05
-4.46655e-05
-6.83262e-05
3.52338e-07
1.62426e-06
4.07293e-05
2.15482e-05
-1.07767e-05
1.17049e-05
2.43298e-06
1.54006e-05
6.23205e-06
3.10719e-06
-4.10179e-06
-4.39847e-06
-6.04311e-06
-4.28043e-06
-3.04778e-06
-9.64334e-07
3.79542e-07
-2.14068e-05
-4.63594e-05
-7.00724e-05
4.06109e-08
1.2363e-05
3.76391e-06
1.51896e-05
6.23205e-06
3.4704e-06
-4.85403e-06
-3.76611e-06
-6.04278e-06
-3.52781e-06
-3.25486e-06
-4.9101e-07
-2.14847e-11
-2.14212e-05
-4.65896e-05
-7.0205e-05
2.4346e-07
0.00198217
0.0477531
-0.276028
-0.113294
-0.266103
-0.255512
0.122502
-0.254691
-0.29715
-0.100956
0.181494
-0.166676
0.0977312
-0.1469
-0.232517
-0.276129
0.102614
2.18545e-06
8.52268e-06
5.63982e-06
-5.47808e-40
5.46932e-05
9.7234e-05
0.000153771
8.54049e-41
-5.32593e-06
-6.42205e-05
-5.35351e-05
1.36309e-05
-2.7887e-05
1.06945e-05
-9.94285e-06
1.23132e-05
-9.54172e-06
6.31142e-06
3.95466e-06
1.20448e-05
4.87932e-06
1.02512e-05
9.15746e-06
4.91874e-07
5.65751e-05
9.96631e-05
0.000155762
-3.55012e-08
-3.05024e-07
-8.52115e-05
-5.6861e-05
1.99078e-05
-2.65589e-05
4.89369e-06
-1.74195e-05
5.41993e-06
-5.35247e-06
6.97194e-06
5.54828e-06
1.13236e-05
1.01845e-05
1.08369e-05
8.49292e-07
1.60361e-07
5.6175e-05
0.000101752
0.000161706
3.79361e-07
1.6409e-05
-8.17559e-05
-6.55796e-05
9.73893e-06
-2.03043e-05
-4.23986e-06
-1.78484e-05
-8.38934e-06
-8.10667e-06
1.28336e-05
9.09604e-06
1.42384e-05
6.15063e-06
8.33632e-06
2.03304e-06
1.5534e-07
5.64996e-05
0.000103601
0.000165205
7.76097e-08
-1.86581e-05
-1.94143e-06
-1.85221e-05
-8.38934e-06
-7.61631e-06
1.23273e-05
1.0282e-05
1.42389e-05
6.28953e-06
8.40483e-06
2.39892e-06
-1.02225e-40
5.71434e-05
0.000103417
0.000165516
3.25849e-07
0.00880289
-0.215315
-0.0968375
-0.235499
0.0508883
0.0768425
-0.286902
-0.132878
-0.0695155
0.163669
-0.182519
0.201222
-0.119909
-0.200696
0.17925
0.0178647
-0.112418
4.60519e-06
7.41913e-06
6.70151e-06
-6.908e-40
4.24156e-05
3.41339e-05
9.27247e-05
1.29658e-40
-2.47972e-05
-8.27311e-05
-5.53858e-05
2.37602e-05
-2.76854e-05
1.30508e-05
-1.62911e-05
1.86012e-05
-3.96846e-06
5.01965e-06
5.65179e-06
1.0903e-05
6.25384e-06
1.03768e-05
9.5898e-06
4.66503e-07
4.3016e-05
3.68496e-05
9.51783e-05
2.15034e-07
-1.82559e-05
-0.0001032
-5.81173e-05
2.40975e-05
-2.60619e-05
9.44157e-06
-1.90341e-05
5.68909e-06
2.83648e-06
6.07651e-06
7.20303e-06
9.64769e-06
1.02331e-05
1.08165e-05
1.98719e-06
9.65386e-08
4.25274e-05
3.96135e-05
0.000102738
2.61757e-07
2.93626e-06
-9.85137e-05
-6.73834e-05
8.97718e-06
-2.0335e-05
1.83338e-06
-1.94106e-05
-6.52999e-06
-2.80668e-06
1.33946e-05
1.09672e-05
1.25513e-05
6.04516e-06
7.0723e-06
2.57983e-06
2.7935e-09
4.22033e-05
4.1883e-05
0.00010719
1.98316e-08
-1.85585e-05
4.35447e-06
-2.0116e-05
-6.52999e-06
-2.10531e-06
1.28579e-05
1.18236e-05
1.25519e-05
6.13889e-06
7.21654e-06
2.52445e-06
-3.5538e-10
4.32852e-05
4.16287e-05
0.000107757
5.26367e-08
-0.282353
0.210575
-0.152353
0.11627
-0.154277
-0.175502
0.0253642
-0.206978
-0.0969873
-0.0594356
-0.134742
0.147362
0.231279
-0.0585705
0.207865
-0.0844067
-0.298668
6.19162e-06
8.60962e-06
5.5356e-06
0
6.46141e-05
9.22786e-05
0.000196586
0
-2.72651e-05
-9.85395e-05
-6.17848e-05
1.93172e-05
-3.46338e-05
1.53871e-05
-1.31313e-05
1.9161e-05
-3.88548e-06
4.18384e-06
7.64968e-06
1.34563e-05
6.54488e-06
1.1718e-05
8.46015e-06
0
6.57656e-05
9.45327e-05
0.00019803
0
-2.34623e-05
-0.000119021
-7.00583e-05
2.1198e-05
-3.09128e-05
1.17e-05
-1.47393e-05
2.53305e-06
4.46885e-06
3.09113e-06
1.04669e-05
1.02882e-05
1.27935e-05
1.10436e-05
1.12824e-07
0
6.45435e-05
9.59485e-05
0.000205659
0
6.92652e-06
-0.000114351
-8.28347e-05
1.9208e-06
-3.16541e-05
3.02538e-06
-1.48904e-05
-6.73479e-06
-4.46167e-06
1.16495e-05
1.41767e-05
1.39857e-05
5.99831e-06
9.25319e-06
3.24731e-06
0
6.64984e-05
9.79394e-05
0.000211303
0
-3.16541e-05
3.02538e-06
-1.48904e-05
-6.73479e-06
-4.46167e-06
1.16495e-05
1.41767e-05
1.39857e-05
5.99831e-06
9.25319e-06
3.24731e-06
0
6.64984e-05
9.79394e-05
0.000211303
0
-0.276109
-0.0326528
-0.0615738
0.28169
0.137526
-0.0755205
-0.00847144
0.0473144
-0.149868
-0.0755548
-0.0591436
-0.0262173
-0.019017
0.130326
0.226904
0.0298023
0.215198
2.13029e-39
3.26362e-39
2.30858e-39
5.78293e-39
4.19267e-40
2.24754e-39
1.07424e-39
-7.35057e-40
-5.28671e-39
-5.08009e-40
1.35691e-39
9.6668e-40
1.56275e-39
-1.29757e-39
9.77176e-40
6.88429e-40
8.48737e-06
5.14908e-06
-2.95568e-07
2.66084e-39
1.6838e-06
-1.12315e-05
6.06005e-07
-7.04928e-06
1.62026e-06
-2.51909e-06
3.7109e-07
1.94316e-06
-1.66279e-06
4.38447e-05
-1.7677e-06
-4.09164e-39
6.39169e-06
-5.25842e-06
-3.52156e-06
3.17519e-39
5.47725e-06
-1.88931e-05
3.42989e-06
1.63801e-27
8.98181e-06
-4.01303e-06
-7.70639e-07
-4.15151e-06
-3.47606e-06
-6.39961e-06
-8.26335e-07
-4.23465e-06
-1.07273e-06
3.00991e-05
2.51988e-06
2.10323e-39
7.11591e-06
7.6354e-06
6.31024e-07
1.9637e-31
9.22938e-08
-6.45657e-06
5.19109e-06
-1.21447e-28
-7.28387e-07
2.75396e-07
-5.11381e-06
-2.72863e-06
1.24863e-06
-7.36472e-06
3.52076e-06
-7.64963e-07
-5.53373e-06
-1.57675e-05
4.19224e-06
4.86422e-40
-5.70829e-06
6.74834e-07
-6.58663e-06
-6.51738e-09
-3.10988e-06
-7.13942e-07
-8.76696e-06
1.23134e-39
-5.20003e-06
-2.88457e-06
1.87897e-06
-3.04056e-06
0.155607
-0.29153
0.132964
-0.205171
0.0644877
0.229417
0.0439292
0.0512381
-0.116092
-0.077461
-0.230181
0.18032
-0.0801633
-0.0366831
-0.0464811
0.273345
0.290743
-5.29651e-05
-8.44277e-05
-7.30151e-05
1.45236e-38
-0.000293652
-9.22929e-05
-0.000591435
-4.11707e-39
0.000408029
0.000714656
0.000543129
-0.000325448
0.0002737
-5.98676e-05
0.000198133
-0.000112795
5.72845e-05
-5.56822e-05
-9.22701e-05
-8.44252e-05
-4.44907e-05
-0.000155807
-9.63873e-05
-1.38627e-05
-0.000305613
-0.000142817
-0.000609802
1.63892e-05
0.000234405
0.00119893
0.000557229
-0.000349346
0.000249719
-3.91932e-05
0.000243169
-1.38678e-05
-4.10554e-05
-7.91997e-05
-6.39802e-05
-7.39736e-05
-6.41511e-05
-0.000114937
-2.74316e-05
-1.1514e-05
-0.000310542
-0.000170805
-0.000663138
-2.00644e-05
-0.000157828
0.000962316
0.000674394
-0.0001461
0.000199175
4.69868e-05
0.000241642
9.41552e-05
4.21382e-05
-0.000109721
-9.91717e-05
-0.000118345
-4.42428e-05
-8.98843e-05
-3.99514e-05
-1.79233e-05
-0.000322723
-0.000202219
-0.000714876
-3.34412e-06
0.000168302
-2.86777e-05
0.000245259
9.41552e-05
2.8672e-05
-9.04518e-05
-0.000125487
-0.000118365
-7.03036e-05
-8.1319e-05
-4.86868e-05
-8.30768e-39
-0.000330473
-0.000188172
-0.000709383
-9.2952e-06
-0.178347
0.0869558
0.0960502
0.00382136
-0.170973
0.209061
0.134651
0.197289
-0.281135
0.01079
0.211888
-0.149555
0.0500645
-0.036936
-0.161185
0.100199
-0.203848
-0.00013922
-0.000304515
-0.000249084
1.7875e-38
-0.00206013
-0.00427311
-0.00695596
-3.53643e-39
0.000569596
0.00218808
0.00189682
-0.000803836
0.00107039
-0.000228495
0.000599998
-0.000293882
0.00025861
-0.0002225
-0.000204403
-0.000339332
-0.000118506
-0.000362013
-0.000328454
-1.49904e-05
-0.00210802
-0.00438818
-0.00698208
2.44569e-05
0.00011897
0.00318712
0.00198377
-0.000872339
0.000980833
-0.000118984
0.000849965
5.71225e-05
1.1703e-05
-0.000205705
-0.000204515
-0.000295686
-0.000288912
-0.000364333
-2.83258e-05
-1.23649e-05
-0.00206102
-0.00445783
-0.00717365
-2.85019e-05
-0.000729035
0.00303295
0.00232382
-0.000420445
0.000790155
0.000143859
0.00087978
0.000441867
0.000267348
-0.000430205
-0.00031633
-0.000465303
-0.000181289
-0.000295788
-9.63317e-05
-1.57248e-05
-0.00205549
-0.00452356
-0.00729574
-5.28835e-06
0.000748829
6.08405e-05
0.000889029
0.000441867
0.000254936
-0.000409058
-0.000358425
-0.000465326
-0.000210256
-0.000287339
-0.000114181
-3.0066e-39
-0.00206338
-0.00450997
-0.00728787
-1.63621e-05
-0.182063
-0.0814107
0.0321736
-0.191947
-0.0402267
0.206467
-0.214927
-0.114818
-0.0975012
-0.121256
-0.26323
0.201103
0.0420219
-0.0639616
-0.204564
-0.162931
0.11309
-0.000191631
-0.000448651
-0.000340081
0
-0.00265544
-0.00527594
-0.00866141
0
0.000351788
0.00298296
0.00242605
-0.000974094
0.0013662
-0.000239706
0.000838006
-0.000377696
0.000333288
-0.000254519
-0.000286599
-0.000432395
-0.000166007
-0.000421887
-0.000462446
0
-0.00273937
-0.00542193
-0.00867997
0
-0.000208999
0.00396303
0.00249773
-0.00118041
0.00123808
-5.33334e-05
0.00121958
2.05414e-05
-7.82756e-06
-0.000127829
-0.000261244
-0.000393011
-0.000440733
-0.000451762
-7.39235e-05
0
-0.00268414
-0.00550469
-0.00894138
0
-0.00148897
0.00390906
0.00287123
-0.000540509
0.000930894
0.000202238
0.00119349
0.000536958
0.000272989
-0.000461059
-0.000396808
-0.000606744
-0.000210982
-0.000361732
-0.000136887
0
-0.00268608
-0.00559713
-0.00910136
0
0.000930894
0.000202238
0.00119349
0.000536958
0.000272989
-0.000461059
-0.000396808
-0.000606744
-0.000210982
-0.000361732
-0.000136887
0
-0.00268608
-0.00559713
-0.00910136
0
-0.290109
0.207867
-0.0961577
0.144005
0.299164
0.0953672
-0.106555
-0.249573
-0.181848
0.00509946
0.0851924
0.136924
0.0173917
-0.220025
0.0279905
0.178074
-0.169252
8.29689e-40
1.25103e-39
7.43301e-40
1.54151e-39
2.8672e-41
1.34067e-39
5.75984e-40
5.02755e-40
-1.90125e-39
-2.28311e-40
3.01474e-40
5.91986e-40
6.46035e-40
-6.54572e-40
8.15861e-40
3.04348e-40
4.33292e-08
2.79391e-06
-9.06556e-07
1.28601e-40
-7.45631e-07
-4.97815e-06
7.5432e-07
-1.75998e-06
3.45759e-07
-1.15906e-06
-1.11321e-07
-3.57882e-07
-9.15441e-07
9.78535e-06
-2.8838e-07
-1.22277e-39
1.20772e-06
-2.64509e-06
-2.1363e-06
1.57261e-39
-1.34041e-07
-6.62601e-06
1.49773e-06
5.47934e-28
1.89096e-06
-2.25295e-06
8.63794e-08
-5.85221e-07
-6.02493e-07
-2.19319e-06
-9.46311e-07
-6.99392e-07
9.36514e-07
8.55834e-06
2.64067e-06
4.48603e-40
1.85688e-06
1.64847e-06
-6.49183e-07
6.51965e-32
1.0163e-07
-3.66897e-07
1.94984e-06
-1.7701e-28
-4.34985e-07
-5.29393e-07
-1.19556e-06
-1.38379e-07
6.6942e-07
-8.82143e-07
2.85077e-06
-9.30787e-07
-2.12533e-06
-5.83549e-06
-8.92861e-07
4.32427e-41
-1.4751e-06
-3.45852e-07
-1.79819e-06
-2.23226e-09
-1.24707e-06
7.56345e-08
-2.63735e-06
8.34363e-40
-1.93303e-06
-9.35223e-07
1.28517e-06
-7.71396e-07
-0.15854
0.198546
0.00201857
-0.182625
0.14887
0.153635
-0.242957
0.181923
0.0731259
-0.136231
0.279144
-0.291121
-0.217648
-0.0379106
-0.169748
0.214499
-0.233818
-3.15271e-05
-4.12607e-05
-3.18024e-05
2.32497e-39
-5.64842e-05
0.000136311
-1.23635e-05
-2.57776e-39
-6.59041e-05
0.000294764
0.000149489
-0.000128405
0.000153939
3.5858e-05
7.52098e-05
-1.57948e-05
2.66852e-05
1.28885e-07
4.70472e-06
-4.46299e-05
-4.67493e-05
-4.95674e-05
-3.67722e-05
5.96842e-07
-6.99488e-05
0.000113368
-2.41105e-05
2.25549e-06
-8.55016e-05
0.000375027
0.000186605
-0.000181193
0.000114103
4.76115e-05
0.000122231
-1.42572e-05
4.30642e-06
-9.15623e-06
-1.97238e-05
-3.95966e-05
-5.80873e-05
-4.37125e-05
-1.47946e-05
-1.35344e-06
-7.14471e-05
0.000109967
-4.68182e-05
-3.81529e-06
-0.00021898
0.000376175
0.000191022
-0.00011577
0.00010043
6.80297e-05
0.000116623
2.45564e-05
3.47878e-05
-2.32044e-05
-4.84203e-05
-5.28719e-05
-3.15255e-05
-4.09756e-05
-2.11078e-05
-3.85423e-06
-8.89327e-05
9.38511e-05
-7.61664e-05
1.88655e-07
9.65557e-05
5.96799e-05
0.000117216
2.45564e-05
2.81103e-05
-1.53867e-05
-4.99996e-05
-5.28765e-05
-3.7958e-05
-3.90336e-05
-2.16726e-05
5.69753e-11
-8.67588e-05
0.000102575
-7.47527e-05
-8.41098e-09
0.146274
0.132679
0.258951
0.251821
-0.147848
-0.0585623
0.0215759
-0.0877702
-0.0138684
-0.264605
0.148741
-0.266402
-0.0224975
0.240324
-0.0361473
0.134496
-0.0611264
-1.28974e-05
-4.43339e-05
-6.12764e-06
-2.25864e-40
-0.00063664
-0.00163683
-0.00243149
-1.79484e-40
-3.29037e-05
0.000402551
0.000397101
1.628e-05
0.000184211
-0.000157146
5.42519e-06
-0.000115162
7.61969e-05
-2.40963e-05
-5.53753e-07
-0.000106662
-1.72517e-05
-6.25253e-05
-2.28695e-05
5.28272e-07
-0.000650347
-0.00163202
-0.00243134
1.14728e-06
-1.56433e-05
0.000601963
0.000433276
-1.07167e-05
0.000164772
-9.94466e-05
4.79181e-05
-8.91075e-06
6.05718e-05
-1.53411e-05
-5.10962e-05
-8.36348e-05
-8.09232e-05
-6.78701e-05
3.38985e-05
-7.10721e-07
-0.000638179
-0.00161954
-0.00246857
-4.64899e-07
-0.000101211
0.000571739
0.000518635
4.39273e-05
0.000199096
-3.21056e-05
7.3236e-05
5.90906e-05
8.53459e-05
-9.30255e-05
-6.31827e-05
-0.000115318
-3.19749e-05
-6.2375e-05
-1.11736e-05
-4.15193e-07
-0.000649009
-0.0016227
-0.00248973
-5.17578e-07
0.000199836
-2.80956e-05
7.02708e-05
5.90906e-05
8.59797e-05
-9.2842e-05
-6.35789e-05
-0.000115319
-3.35167e-05
-6.07123e-05
-1.1061e-05
1.97317e-41
-0.000647577
-0.00162169
-0.00248796
3.66957e-07
0.00975454
-0.224102
-0.0990425
-0.290955
-0.254104
-0.0495744
0.209233
-0.260752
0.201232
0.150974
-0.0704977
0.00574155
-0.0470546
0.272017
-0.181264
-0.130204
0.209779
-6.42134e-06
-1.49259e-05
-9.48662e-07
-2.41185e-39
-0.000235583
-0.000708761
-0.000962589
3.65988e-40
-9.82175e-05
7.0051e-05
4.85741e-05
1.94567e-05
6.48747e-05
5.06853e-06
-1.01188e-05
1.49886e-05
2.15439e-05
-9.85975e-07
6.75036e-06
-3.49526e-05
-2.04882e-06
-8.94702e-06
-4.35742e-06
2.06061e-06
-0.000239094
-0.000704402
-0.000955405
2.20263e-08
-4.49311e-05
9.5436e-05
4.94997e-05
-1.10857e-05
6.48535e-05
7.39379e-06
1.55342e-05
3.63145e-06
3.64662e-05
5.42805e-06
-9.03159e-06
-2.67431e-05
-2.82514e-05
-1.45697e-05
1.14254e-05
8.08266e-07
-0.000230076
-0.000695768
-0.000958197
1.80073e-06
-4.00801e-05
0.000109178
7.50112e-05
-8.33883e-06
6.36763e-05
2.82935e-05
1.2742e-05
2.47535e-05
2.73452e-05
-4.29952e-06
-1.79595e-05
-3.01283e-05
-1.48922e-05
-1.41403e-05
-7.4853e-06
4.9741e-07
-0.000231681
-0.000698718
-0.000963571
-2.11638e-07
6.84088e-05
4.00789e-05
1.15948e-05
2.47535e-05
2.8798e-05
-6.97998e-06
-1.45018e-05
-3.01259e-05
-1.50088e-05
-1.32329e-05
-6.0984e-06
-3.08909e-40
-0.000229003
-0.000699028
-0.000961756
9.42502e-07
0.0978265
-0.0793934
-0.204952
-0.0626436
-0.0921462
-0.2384
0.0716386
-0.225511
0.288398
-0.265642
-0.240286
0.274291
-0.0945664
-0.296975
0.258418
0.187499
0.196824
2.07832e-05
3.03896e-05
2.41777e-05
1.03171e-40
0.00015221
0.000113794
0.000396756
-3.11947e-40
-0.000153143
-0.000283418
-0.000214788
8.24602e-05
-0.000103982
1.9773e-05
-4.30912e-05
4.11432e-05
-5.18672e-06
1.13071e-05
2.50522e-05
3.803e-05
2.5684e-05
3.88518e-05
3.45809e-05
2.80531e-07
0.000157265
0.000123876
0.000399604
8.54142e-08
-0.000125975
-0.000353933
-0.000226727
0.000102615
-8.95112e-05
1.21027e-05
-5.69851e-05
-8.03022e-07
2.08261e-05
1.06114e-05
3.04831e-05
2.89159e-05
4.24041e-05
3.44885e-05
9.61996e-06
4.81706e-08
0.000157664
0.000130561
0.00042417
7.51446e-08
7.38241e-07
-0.00033634
-0.000263776
3.24358e-05
-7.52604e-05
-1.17504e-05
-5.87209e-05
-3.17233e-05
-5.45813e-06
3.11097e-05
4.69742e-05
4.33408e-05
2.15877e-05
3.21953e-05
1.53253e-05
-2.79885e-07
0.000163887
0.000137939
0.000441822
6.50493e-08
-7.511e-05
-1.13776e-05
-5.84398e-05
-3.17233e-05
-5.81402e-06
3.1744e-05
4.67968e-05
4.33406e-05
2.06681e-05
3.26297e-05
1.49726e-05
7.86086e-33
0.000164651
0.000138575
0.000442659
3.37913e-07
0.106893
0.243865
-0.295238
0.199869
0.276057
0.123264
-0.0610919
-0.164093
-0.204417
-0.099176
-0.201363
0.280861
0.0696136
0.0411376
0.0691167
0.173883
0.212395
-9.90809e-07
-5.07984e-06
3.97687e-06
1.95286e-40
-9.69816e-05
-0.000219993
-0.000324418
1.72462e-40
-5.45036e-05
6.00082e-05
4.10177e-05
3.25008e-05
1.74763e-05
-4.13774e-05
-1.46071e-05
-2.29566e-05
1.62931e-05
-8.29976e-06
3.75377e-06
-1.50429e-05
1.992e-07
-6.75638e-06
1.7972e-06
-4.82845e-08
-9.78889e-05
-0.000216467
-0.000325913
-9.38964e-07
-4.83225e-05
8.52814e-05
5.65817e-05
3.60371e-05
1.51882e-05
-2.90454e-05
-7.63467e-06
-5.56463e-06
1.71485e-05
-5.47614e-06
-8.61447e-06
-1.13978e-05
-9.21443e-06
-7.45584e-06
7.64599e-06
3.4145e-07
-9.64872e-05
-0.000215131
-0.0003305
3.32743e-07
-3.07451e-05
8.29494e-05
6.66722e-05
3.36961e-05
2.68094e-05
-1.95082e-05
-6.32256e-06
-3.56292e-06
1.65762e-05
-1.86441e-05
-5.47547e-06
-1.61027e-05
-2.18754e-06
-5.37117e-06
1.03342e-06
7.30808e-07
-9.6914e-05
-0.000212739
-0.000329764
4.78469e-08
2.57904e-05
-2.03438e-05
-5.80354e-06
-3.56292e-06
1.61824e-05
-1.96078e-05
-5.92072e-06
-1.61027e-05
-1.024e-06
-6.1115e-06
1.52123e-06
2.36085e-40
-9.77734e-05
-0.00021334
-0.000330618
1.57631e-07
0.0355931
-0.0543326
0.150399
-0.146136
0.118149
0.179199
-0.0249666
0.183929
-0.0205152
-0.083094
0.0961291
0.157058
0.273555
-0.138637
0.273328
-0.120091
-0.268844
2.33152e-06
4.65476e-06
-1.79283e-06
1.97623e-39
4.01316e-05
0.000116136
0.000137444
8.83715e-41
3.91979e-05
2.54241e-05
-1.18402e-05
-1.33823e-05
-1.14211e-05
-1.36102e-05
-4.75093e-07
-1.15456e-05
-7.37947e-06
1.7105e-05
-1.34569e-06
2.25877e-06
-1.20446e-06
-6.33559e-07
-1.58369e-06
-2.18011e-06
4.18714e-05
0.000118463
0.000138165
-1.06671e-06
4.62893e-05
2.43145e-05
-1.51219e-05
-6.28486e-06
-1.33559e-05
-2.11441e-05
-1.87793e-05
-5.7482e-06
-1.14761e-05
5.18253e-06
3.67932e-06
2.84077e-06
5.7e-06
1.50355e-06
-1.86915e-06
-3.88303e-07
3.81245e-05
0.000114279
0.000137971
-1.08405e-06
5.26738e-05
8.09237e-06
-7.01624e-06
3.43093e-06
-5.53898e-06
-1.40327e-05
-1.50766e-05
-5.8901e-06
-8.35729e-06
1.14153e-05
6.1938e-06
8.07782e-06
1.12457e-06
4.13221e-06
-2.44121e-06
4.39491e-07
4.06998e-05
0.000114555
0.000143662
5.39926e-08
-1.15655e-05
-2.21392e-05
-1.36795e-05
-5.8901e-06
-8.83329e-06
1.18574e-05
2.0775e-06
8.07637e-06
2.54203e-06
3.55842e-06
-2.3073e-06
5.01404e-40
3.81472e-05
0.000114496
0.000139853
-9.80622e-07
-0.0262369
0.264589
9.964e-05
-0.284979
0.284608
-0.0817999
0.181595
-0.197047
0.186105
0.299545
0.0635
0.0995562
-0.131312
-0.00378555
0.0183414
0.233252
-0.0278154
-1.30724e-05
-1.82885e-05
-2.18204e-05
-2.91651e-40
-1.07281e-05
0.000281694
0.000234926
4.2707e-40
0.000144266
0.000241994
0.000145032
-0.000100626
6.22716e-05
-2.19752e-05
3.14075e-05
-4.57807e-05
-1.30109e-05
-1.11147e-05
-2.61048e-05
-2.23529e-05
-1.9202e-05
-2.39529e-05
-3.07914e-05
-3.63692e-07
-1.15273e-05
0.000274283
0.00022879
-7.92437e-08
0.000131672
0.000262767
0.000150271
-0.000104775
5.5205e-05
-2.00119e-05
3.30602e-05
-1.95619e-05
-3.30467e-05
-1.29754e-05
-2.33647e-05
-1.95688e-05
-2.50069e-05
-2.34893e-05
-1.22538e-05
4.24871e-07
-1.33738e-05
0.000264932
0.00021148
4.80382e-07
5.55457e-05
0.000245451
0.00017574
-4.8758e-05
3.61262e-05
-1.02556e-05
2.76965e-05
7.88656e-06
-1.38416e-05
-1.87058e-05
-3.37201e-05
-2.24623e-05
-1.70285e-05
-1.7182e-05
-8.63736e-06
2.98839e-07
-1.62921e-05
0.000257781
0.000196465
-2.09148e-07
3.65616e-05
-9.54598e-06
2.79335e-05
7.88656e-06
-1.28146e-05
-2.0148e-05
-3.42024e-05
-2.24616e-05
-1.64301e-05
-1.69418e-05
-8.92993e-06
3.41006e-41
-1.68786e-05
0.00025678
0.000196412
-1.17232e-07
-0.242933
0.20665
0.208347
0.262947
0.162154
-0.242651
0.281881
0.104493
-0.209503
-0.238419
0.245529
-0.00934679
-0.051761
0.202137
-0.220956
0.171335
-0.00476891
-2.14881e-06
-1.68997e-06
-6.86413e-06
-9.33867e-41
4.67816e-05
0.000138271
0.00023036
-3.63469e-41
-1.85829e-05
-5.62207e-06
-4.21704e-05
-6.70772e-06
-2.46788e-06
1.69968e-05
9.7612e-06
7.79538e-06
-5.87567e-07
-3.32094e-06
9.73823e-07
8.93271e-06
-2.12802e-06
6.87223e-06
-5.23984e-06
8.32276e-08
4.66462e-05
0.000136895
0.000230435
-2.47886e-08
-2.29455e-05
-3.21653e-05
-4.2438e-05
-7.56023e-06
-3.57166e-06
1.26563e-05
1.13318e-05
-4.74822e-06
2.04374e-07
9.20926e-07
4.87153e-06
2.64127e-06
2.40264e-06
4.26381e-06
-5.15129e-06
9.75479e-08
4.76522e-05
0.000135867
0.000233208
3.85685e-08
-6.43203e-06
-2.26077e-05
-5.57425e-05
-1.2204e-05
-1.85785e-05
6.07308e-06
7.17616e-06
1.0881e-07
-5.32889e-06
2.76679e-06
2.81818e-06
6.35302e-06
-2.13736e-06
4.41447e-06
1.83489e-06
-1.4208e-07
5.03766e-05
0.000135318
0.000234579
1.82783e-08
-1.83797e-05
6.01841e-06
7.05974e-06
1.0881e-07
-5.58552e-06
3.19855e-06
3.37803e-06
6.35308e-06
-1.8214e-06
3.93556e-06
1.99002e-06
-3.61521e-29
5.04067e-05
0.000135475
0.000234451
-9.60699e-09
-0.00802263
-0.216871
0.0567403
0.0613005
0.0472412
-0.293963
-0.0286042
0.113689
0.136319
0.00586672
-0.257872
0.160831
0.174811
0.145569
0.213922
-0.247369
0.218678
3.38585e-06
1.44988e-06
-1.66306e-08
5.31092e-43
3.56758e-05
6.68414e-05
0.00012232
-1.62108e-40
4.16648e-06
-3.5292e-05
-1.90156e-05
-3.04839e-06
-1.45862e-05
1.4951e-06
5.25686e-06
-2.10213e-06
-3.0308e-06
-4.96395e-07
1.817e-06
6.67655e-06
3.94008e-06
5.1651e-06
2.22059e-07
3.77136e-07
3.68403e-05
6.60931e-05
0.000120092
-6.41992e-07
-1.26563e-05
-3.83472e-05
-2.02048e-05
5.91061e-06
-1.48115e-05
3.6161e-06
3.94956e-06
-1.74765e-06
-5.03746e-06
3.50853e-06
2.45053e-06
4.8173e-06
6.73095e-06
3.80398e-06
-1.48038e-06
1.81984e-07
3.54826e-05
6.6303e-05
0.000121251
1.34191e-07
-5.98113e-06
-3.52869e-05
-2.63571e-05
2.12909e-06
-1.55697e-05
-4.77234e-06
5.32619e-06
-4.16149e-06
-2.10267e-06
1.84103e-06
3.05007e-06
6.77113e-06
4.62281e-06
3.30832e-06
2.2024e-06
3.58193e-07
3.53988e-05
6.70913e-05
0.000122987
4.63823e-07
-1.56652e-05
-4.78257e-06
5.27588e-06
-4.16149e-06
-2.72317e-06
2.53717e-06
3.90989e-06
6.77112e-06
5.32682e-06
2.581e-06
3.02846e-06
4.23723e-11
3.53519e-05
6.73496e-05
0.000122481
3.87721e-07
-0.134854
0.0631402
-0.166436
-0.12745
-0.0563232
0.177997
-0.18155
-0.0685888
-0.173795
-0.030294
0.124816
0.277862
0.264181
-0.204547
0.140665
-0.0912926
-0.101882
3.18113e-06
8.81957e-06
6.81654e-06
-2.10646e-40
7.3302e-05
0.000192612
0.000267126
8.22576e-41
3.76011e-05
-5.02699e-05
-3.03341e-05
1.63499e-05
-2.52667e-05
-2.45531e-06
-2.22573e-05
6.1112e-07
-1.08127e-05
2.73613e-06
1.74419e-06
7.6862e-06
2.34034e-06
6.08801e-06
7.5769e-06
1.84355e-07
7.53218e-05
0.0001946
0.000267329
-5.32578e-07
4.0143e-05
-7.1469e-05
-2.94916e-05
1.65022e-05
-2.51259e-05
-3.66365e-06
-3.12417e-05
-1.5359e-06
-8.67867e-06
2.04695e-07
1.05426e-06
7.06916e-06
9.23312e-06
8.63562e-06
-3.20388e-07
6.33421e-07
7.13082e-05
0.000195509
0.000271209
5.92253e-07
4.74835e-05
-7.25719e-05
-3.34595e-05
1.16215e-05
-1.62532e-05
-9.24873e-06
-3.11918e-05
-1.27941e-05
-6.52184e-06
9.23312e-06
4.80059e-06
1.00567e-05
4.03635e-06
4.90023e-06
1.28458e-06
5.4929e-07
6.867e-05
0.000197721
0.000274719
2.42125e-07
-1.58079e-05
-8.3559e-06
-3.10788e-05
-1.27941e-05
-6.10481e-06
8.9575e-06
5.54828e-06
1.00572e-05
5.61624e-06
4.31661e-06
1.83955e-06
4.34038e-41
6.84171e-05
0.00019749
0.000274335
4.18984e-07
0.0917665
0.033312
-0.211951
0.101826
-0.273461
0.100595
0.139116
0.0440877
-0.0405976
0.0789749
0.290519
0.067565
0.155503
-0.0359651
0.203812
-0.0743811
-0.198947
2.75192e-06
1.04106e-05
5.84991e-06
-3.17545e-40
7.72411e-05
0.000196109
0.000276301
2.26788e-40
1.8719e-05
-5.89438e-05
-4.93629e-05
1.89986e-05
-3.37167e-05
3.17455e-06
-1.82815e-05
5.21902e-06
-1.16884e-05
9.44795e-06
3.99357e-07
1.10074e-05
3.18938e-06
7.94391e-06
8.07712e-06
1.04371e-07
7.89264e-05
0.000199299
0.000277915
1.66623e-08
2.70312e-05
-8.37323e-05
-5.07885e-05
2.19765e-05
-3.07385e-05
-2.04363e-07
-2.85446e-05
-3.36955e-07
-6.94415e-06
4.28323e-06
3.99538e-06
1.19505e-05
1.04293e-05
9.32421e-06
-9.96737e-07
1.02102e-07
7.64529e-05
0.000199444
0.000284197
3.42207e-07
4.61157e-05
-8.54256e-05
-5.50372e-05
1.26599e-05
-2.67522e-05
-6.78445e-06
-3.00183e-05
-1.35002e-05
-1.0676e-05
1.28616e-05
9.03661e-06
1.4898e-05
5.69293e-06
8.28041e-06
2.05602e-06
2.19174e-07
7.63662e-05
0.000202107
0.000288563
-7.76468e-08
-2.59515e-05
-5.90039e-06
-2.99203e-05
-1.35002e-05
-9.69114e-06
1.16376e-05
8.48118e-06
1.48986e-05
5.96207e-06
8.66081e-06
1.91966e-06
-1.49003e-29
7.65684e-05
0.000200905
0.000288728
-6.53223e-08
-0.220929
0.204899
-0.0249146
0.111356
0.0554461
-0.179566
-0.279219
0.138179
0.205961
0.0159818
-0.0069381
-0.27397
0.207862
0.205542
0.198079
0.0880854
0.0919603
5.43697e-06
2.66348e-06
-5.94213e-07
-4.57196e-40
1.96192e-05
2.30191e-05
6.09907e-05
2.97763e-40
-2.11317e-05
-2.59029e-05
-2.09519e-05
4.87837e-06
-1.71814e-05
1.14196e-05
-1.99166e-06
6.80926e-06
-4.01694e-06
-1.99198e-06
2.45198e-06
4.62136e-06
4.05463e-06
7.5301e-06
1.85438e-07
7.24012e-08
2.13643e-05
2.53327e-05
6.16504e-05
-2.21663e-07
-1.48827e-05
-4.72055e-05
-2.69119e-05
1.34829e-05
-1.23612e-05
2.92421e-06
-5.26322e-06
-2.19544e-06
8.05824e-09
2.91206e-06
4.5225e-06
3.61587e-06
5.46097e-06
4.97019e-06
-7.16483e-07
2.71359e-07
2.22245e-05
2.49291e-05
6.42841e-05
6.00531e-07
1.04902e-05
-4.6597e-05
-3.80762e-05
-2.33604e-06
-1.41229e-05
-2.34791e-06
-6.25678e-06
-5.52038e-06
-7.15861e-06
7.4077e-06
6.97688e-06
8.64538e-06
1.3754e-06
5.04366e-06
1.63158e-06
4.99454e-07
2.58491e-05
2.57395e-05
6.63674e-05
1.44636e-07
-1.29977e-05
-5.71203e-07
-6.51147e-06
-5.52038e-06
-5.81726e-06
6.33077e-06
7.69157e-06
8.64618e-06
2.59715e-06
5.03807e-06
1.68568e-06
-5.93282e-41
2.54838e-05
2.4745e-05
6.62616e-05
2.12401e-07
-0.0921263
0.188671
-0.186794
-0.111252
-0.168926
-0.0251261
-0.238695
0.122914
0.24617
0.0176768
0.045806
-0.287734
-0.194654
0.165316
-0.184468
-0.0835965
0.0399124
1.92379e-06
6.66511e-06
2.33428e-06
-6.1533e-40
5.69602e-05
0.000112963
0.00018422
2.70871e-40
-9.23039e-06
-6.85192e-05
-6.13677e-05
1.28782e-05
-2.66075e-05
2.40054e-05
-1.20961e-05
2.09819e-05
-9.44676e-06
6.58325e-06
2.44414e-06
1.40386e-05
1.96662e-06
9.34741e-06
6.20944e-06
3.08473e-07
5.8488e-05
0.000114511
0.000186219
1.47183e-07
-3.67598e-07
-9.79276e-05
-6.5732e-05
1.33083e-05
-2.62042e-05
1.94665e-05
-1.61716e-05
5.12732e-06
-2.28129e-06
5.49491e-06
7.63474e-06
1.04297e-05
1.01232e-05
9.21656e-06
-3.20682e-06
2.7734e-07
5.71704e-05
0.00011557
0.000193614
4.83226e-07
2.18267e-05
-9.38745e-05
-7.73833e-05
1.07515e-06
-2.78658e-05
1.00916e-05
-2.0205e-05
-6.31384e-06
-1.29341e-05
1.71014e-05
1.00807e-05
1.47932e-05
5.05758e-06
7.47856e-06
2.18497e-06
3.41019e-07
5.90248e-05
0.000117446
0.000197263
4.29434e-09
-2.61622e-05
1.32004e-05
-2.04408e-05
-6.31384e-06
-1.14238e-05
1.54956e-05
1.04428e-05
1.47941e-05
5.2803e-06
8.11602e-06
1.84358e-06
-2.28009e-29
5.9767e-05
0.000116353
0.000197779
1.91573e-07
-0.0813243
-0.0317544
0.162564
-0.215063
-0.0992697
-0.0314847
-0.140514
-0.239091
-0.173646
0.203611
0.159082
-0.299309
0.196842
0.00443555
-0.199397
-0.0931195
-0.269048
3.99092e-06
5.69918e-06
3.15499e-06
-6.0029e-40
2.94842e-05
2.29211e-05
7.53603e-05
1.79358e-40
-4.75155e-05
-6.59528e-05
-4.80508e-05
2.28274e-05
-2.45033e-05
1.23091e-05
-1.1992e-05
1.77438e-05
-3.69384e-06
2.13908e-06
4.03227e-06
1.13401e-05
6.28933e-06
1.06467e-05
6.03847e-06
3.59751e-07
3.03523e-05
2.51216e-05
7.75001e-05
5.85776e-08
-3.75707e-05
-9.20705e-05
-5.14061e-05
2.64997e-05
-2.05185e-05
5.73794e-06
-1.49239e-05
4.03355e-06
2.8536e-06
4.3727e-06
7.8803e-06
8.37316e-06
9.68822e-06
9.27838e-06
-2.05722e-09
2.15089e-07
3.13171e-05
2.6347e-05
8.43327e-05
4.35309e-07
-5.74356e-06
-8.36691e-05
-6.34763e-05
7.92965e-06
-2.0889e-05
9.78667e-08
-1.69878e-05
-6.95128e-06
-5.86816e-06
1.08907e-05
1.10147e-05
1.25203e-05
5.66373e-06
7.22713e-06
3.07775e-06
1.12159e-07
3.37092e-05
2.77778e-05
8.88897e-05
-2.6702e-08
-1.94807e-05
2.74298e-06
-1.75672e-05
-6.95128e-06
-5.19635e-06
1.0445e-05
1.22941e-05
1.25209e-05
6.20153e-06
7.16404e-06
3.18874e-06
-9.09231e-33
3.41627e-05
2.74083e-05
8.91618e-05
1.07149e-07
0.245972
0.160037
-0.206321
-0.252295
-0.236884
-0.280653
0.15316
0.133132
0.184531
-0.101982
0.0537132
-0.295052
0.0185403
0.210112
-0.216419
0.252757
0.0583428
3.45448e-06
7.6536e-06
2.91165e-06
0
7.34054e-05
0.000131314
0.000243501
0
-2.19814e-05
-9.18846e-05
-6.85921e-05
1.72386e-05
-2.8409e-05
2.24904e-05
-9.46619e-06
1.85789e-05
-5.78307e-06
3.32494e-06
7.30984e-06
1.50896e-05
4.86721e-06
1.19986e-05
6.3555e-06
0
7.44347e-05
0.000132945
0.00024478
0
-2.28224e-05
-0.000115716
-7.23894e-05
1.87687e-05
-2.56426e-05
1.79798e-05
-1.04037e-05
2.22537e-06
1.1262e-06
2.71157e-06
9.45733e-06
1.12036e-05
1.16033e-05
1.14432e-05
-1.34666e-06
0
7.31722e-05
0.000134295
0.000252527
0
5.40014e-06
-0.000108515
-8.81114e-05
5.12128e-07
-3.01117e-05
6.6086e-06
-1.16157e-05
-6.81006e-06
-7.28827e-06
1.0297e-05
1.21963e-05
1.45096e-05
4.79078e-06
9.83073e-06
3.41576e-06
0
7.51618e-05
0.000136851
0.000258451
0
-3.01117e-05
6.6086e-06
-1.16157e-05
-6.81006e-06
-7.28827e-06
1.0297e-05
1.21963e-05
1.45096e-05
4.79078e-06
9.83073e-06
3.41576e-06
0
7.51618e-05
0.000136851
0.000258451
0
0.153004
-0.249224
0.200503
0.179248
0.21638
-0.0299492
0.115014
-0.199069
-0.242118
-0.0666306
-0.225984
0.239253
0.203267
0.0204782
-0.180594
-0.289574
0.0226637
1.47397e-39
2.5416e-39
1.89085e-39
5.09213e-39
5.89498e-40
1.38687e-39
1.01146e-39
-9.34471e-40
-4.41862e-39
-6.97604e-40
1.70825e-39
2.57095e-40
1.52333e-39
-4.02924e-40
1.68611e-40
2.16729e-40
7.92125e-06
3.78581e-06
3.95853e-07
1.73806e-39
2.446e-06
-1.15603e-05
-6.92685e-07
-7.06915e-06
1.91025e-06
-3.60136e-06
7.14413e-07
2.55992e-06
-4.60613e-07
3.30831e-05
-1.27837e-06
-3.56853e-39
4.05465e-06
-4.72718e-06
-3.38827e-06
2.22507e-39
4.81664e-06
-1.25291e-05
2.7907e-06
1.39175e-27
7.40606e-06
-3.14308e-06
-1.26311e-06
-2.29099e-06
-2.32465e-06
-4.42762e-06
-2.42877e-07
-3.68822e-06
-1.73048e-06
2.81498e-05
4.99266e-07
1.95597e-39
5.47193e-06
6.02821e-06
1.36311e-06
1.59599e-31
-6.56773e-08
-5.79537e-06
2.68382e-06
6.61645e-29
-4.00902e-07
1.55262e-07
-4.62593e-06
-2.72853e-06
1.68567e-06
-6.18558e-06
2.93381e-06
8.24819e-08
-5.53264e-06
-1.36107e-05
3.63559e-06
2.51247e-40
-4.60429e-06
1.1363e-06
-3.9864e-06
-5.73139e-09
-1.85342e-06
-1.52512e-06
-5.92892e-06
-1.62789e-41
-5.19047e-06
-2.50207e-06
9.69709e-07
-2.48304e-06
-0.131076
-0.173043
-0.0681056
0.160011
-0.0816443
-0.204887
0.290451
0.282349
0.0557073
0.183809
-0.290585
-0.0993483
-0.0694835
0.062068
-0.186886
-0.188984
-0.219064
-5.23142e-05
-6.97885e-05
-6.22095e-05
1.4267e-38
-0.000275077
-0.000224396
-0.000667238
-5.89485e-39
0.000359506
0.000573332
0.000446892
-0.00029447
0.000256305
-3.36002e-05
0.000165085
-6.17463e-05
4.53626e-05
-4.39459e-05
-8.46439e-05
-5.99473e-05
-3.39695e-05
-0.000123763
-8.05296e-05
-1.93816e-05
-0.000282432
-0.000269338
-0.000683261
1.1783e-05
0.000192469
0.000943771
0.000460147
-0.000312472
0.000233327
-1.8022e-05
0.000209717
2.11122e-05
-4.98368e-05
-7.26523e-05
-5.15239e-05
-5.04425e-05
-5.26541e-05
-9.69114e-05
-2.57801e-05
-1.45211e-05
-0.00027963
-0.000290231
-0.000728989
-1.73328e-05
-0.000132356
0.000828107
0.000542754
-0.000147768
0.000203201
6.57535e-05
0.000210247
9.62852e-05
4.09011e-05
-0.000102617
-8.74809e-05
-9.20677e-05
-3.16743e-05
-7.34738e-05
-3.61046e-05
-1.74088e-05
-0.000291658
-0.000323295
-0.000762257
-4.92711e-06
0.000166226
-1.32207e-05
0.000213034
9.62852e-05
1.60205e-05
-7.69846e-05
-0.000105666
-9.20898e-05
-5.10109e-05
-7.37832e-05
-4.59957e-05
-7.72152e-40
-0.000304547
-0.000297834
-0.000762902
-8.94734e-06
0.170141
-0.18738
-0.0875403
0.251902
0.0314767
0.0626136
-0.145613
0.150343
-0.01488
-0.0878307
0.0263063
-0.284497
-0.15503
-0.175638
0.135172
-0.30168
-0.052501
-0.000124622
-0.000303635
-0.000208675
1.61534e-38
-0.00222911
-0.00498809
-0.00814005
-2.43237e-39
0.000712483
0.00196624
0.00178695
-0.000531646
0.00100828
-0.000230898
0.000601038
-0.000407397
0.000270426
-0.00018304
-0.000127139
-0.000337533
-0.000119751
-0.00034329
-0.000265517
-1.73248e-05
-0.00229409
-0.00507401
-0.00815322
3.32631e-05
0.000212319
0.00291161
0.0019352
-0.000616193
0.00087384
-0.000121403
0.00084155
-3.09969e-05
2.9109e-05
-0.000142306
-0.000183779
-0.000299873
-0.000266037
-0.000314095
-2.34922e-06
-8.52613e-06
-0.00227008
-0.00509735
-0.00833952
-2.06269e-05
-0.000939152
0.00279726
0.0022478
-0.000141209
0.000728204
6.49503e-05
0.00089753
0.000349979
0.00020227
-0.000371223
-0.00029065
-0.000443029
-0.00014393
-0.000254751
-7.15141e-05
-1.20378e-05
-0.00227019
-0.00511371
-0.00846665
-2.662e-06
0.000690292
-4.59978e-06
0.000901858
0.000349979
0.000205293
-0.000353731
-0.000321583
-0.000443047
-0.000175165
-0.000242578
-9.57955e-05
-9.8612e-39
-0.00228296
-0.00510305
-0.00845672
-1.26953e-05
-0.0228972
0.0570403
0.227042
-0.276283
0.0963939
-0.313163
-0.248385
-0.0347223
0.126466
-0.230293
0.0813213
-0.234737
0.17651
0.00264897
0.010767
-0.148048
0.233581
-0.00019284
-0.000347495
-0.000337846
0
-0.00222079
-0.00414175
-0.00670578
0
0.000464317
0.00274188
0.00225999
-0.00120186
0.00133072
-0.000233491
0.000747746
-0.000191325
0.000305458
-0.000289822
-0.000364497
-0.000332022
-0.000149777
-0.000389456
-0.000477666
0
-0.00225354
-0.00425864
-0.00673309
0
-9.85565e-05
0.00354927
0.00228582
-0.00132042
0.001253
-9.42214e-05
0.00110767
7.60934e-05
-3.04062e-05
-0.000215256
-0.000265575
-0.000301603
-0.000374357
-0.000423387
-7.13563e-05
0
-0.00216676
-0.00434365
-0.00695298
0
-0.000925894
0.00349556
0.00264966
-0.000789464
0.000903672
0.00021094
0.00100677
0.00052997
0.000286339
-0.00050497
-0.000392322
-0.000495748
-0.000207076
-0.000312821
-8.86772e-05
0
-0.00216402
-0.00444339
-0.0070727
0
0.000903672
0.00021094
0.00100677
0.00052997
0.000286339
-0.00050497
-0.000392322
-0.000495748
-0.000207076
-0.000312821
-8.86772e-05
0
-0.00216402
-0.00444339
-0.0070727
0
-0.0805257
0.0896659
0.282363
-0.226653
0.0533723
-0.207782
-0.0542358
-0.0899209
-0.221773
0.229568
-0.127425
0.205248
-0.158334
-0.044208
0.278932
0.29485
-0.160974
-2.97374e-40
2.859e-40
1.16383e-40
-3.94442e-40
-2.64875e-40
2.90251e-41
-3.37758e-40
-1.89708e-40
-1.67525e-40
5.32435e-40
-4.21146e-41
-4.66773e-42
7.34027e-40
1.83948e-40
-5.00987e-40
-6.81662e-40
-1.36093e-06
-5.41745e-07
8.39578e-08
-6.31897e-40
-3.84083e-07
1.88708e-06
1.15564e-06
9.94852e-07
-1.08122e-06
-2.73143e-06
-6.39529e-07
-2.13569e-08
3.42815e-07
-3.11623e-06
-1.31391e-06
-2.2381e-40
-8.48918e-07
3.19048e-07
-2.10722e-07
-4.09558e-41
-1.2407e-07
2.53927e-07
1.13297e-06
-2.38875e-28
-1.36307e-07
5.57961e-07
4.98799e-08
-3.48753e-07
8.89096e-07
1.18229e-06
8.91313e-07
-3.64472e-07
1.02361e-07
-1.80229e-06
-7.03399e-07
-5.19286e-40
-7.70614e-07
-3.05309e-07
-5.63977e-07
-2.32718e-32
2.16022e-06
-1.6443e-06
-4.25755e-07
7.83814e-29
5.16859e-07
-1.20751e-06
-8.57427e-07
-8.98713e-07
-9.84128e-07
-6.55932e-07
-6.40347e-07
-4.49492e-07
9.90095e-07
2.4314e-06
-2.3986e-06
3.92627e-40
1.34357e-07
-1.38736e-07
7.9259e-07
-1.04586e-09
-1.57394e-06
-9.01516e-07
-9.32246e-07
2.88076e-40
3.86781e-08
1.15645e-06
4.58877e-07
3.99526e-07
-0.00911085
-0.162282
0.0496176
-0.231465
-0.0708136
-0.0959875
-0.0125519
-0.120615
0.079128
0.126861
-0.238274
0.0465784
-0.192221
0.109179
-0.016113
0.275671
-0.263411
-1.29741e-05
-1.37285e-05
2.05347e-06
2.55331e-39
-5.03845e-05
-0.000186889
-0.000306239
-2.63757e-39
-0.000164664
1.754e-05
3.52701e-06
1.65908e-05
6.0373e-05
2.22224e-05
5.04943e-07
1.76936e-05
4.52343e-05
1.47787e-05
2.99221e-05
-2.20796e-05
-1.88575e-05
-2.22312e-05
5.33859e-06
4.91263e-07
-6.30388e-05
-0.000194117
-0.000308602
1.98324e-06
-0.000171844
8.65672e-05
4.39422e-05
-2.64279e-05
3.42381e-05
3.3339e-05
3.68472e-05
3.06087e-06
4.41414e-05
7.88717e-06
-2.79351e-06
-1.53793e-05
-2.58156e-05
-1.66313e-05
5.6887e-06
-2.31757e-06
-6.46717e-05
-0.000182536
-0.000311497
-4.09526e-06
-0.000220755
0.000101707
3.34087e-05
-2.34102e-05
6.18212e-05
4.5646e-05
4.29119e-05
9.13137e-06
5.61098e-05
-6.25699e-06
-1.73281e-05
-2.87968e-05
-9.01865e-06
-2.41681e-05
-1.10295e-05
-3.4015e-06
-8.13862e-05
-0.0001881
-0.000318312
3.91352e-07
5.6991e-05
3.73578e-05
4.21104e-05
9.13137e-06
4.57168e-05
3.91196e-06
-1.67679e-05
-2.88049e-05
-1.63403e-05
-2.45337e-05
-1.09356e-05
-4.18915e-10
-8.0137e-05
-0.000177903
-0.000317758
3.83652e-08
0.214376
0.173771
-0.131597
0.163433
-0.126494
0.226425
-0.125169
0.249049
-0.199918
0.226989
-0.0274934
-0.0813243
0.199858
0.053446
-0.111651
-0.15209
0.0630887
-1.96642e-05
-4.22047e-05
-8.47608e-06
6.91353e-40
-0.000573603
-0.00149752
-0.00223785
-5.28627e-40
8.2575e-05
0.000341301
0.000349042
-2.76147e-05
0.000188037
-0.000127675
5.26786e-06
-9.31161e-05
6.71588e-05
-1.12103e-05
1.34975e-06
-9.65329e-05
-2.41049e-05
-6.37044e-05
-2.26637e-05
7.20597e-08
-0.000585219
-0.00149555
-0.00223708
1.08802e-06
9.23501e-05
0.000532866
0.00038633
-5.10454e-05
0.000153772
-6.02783e-05
4.56492e-05
2.90725e-06
5.38708e-05
-1.07653e-05
-4.70437e-05
-7.62686e-05
-8.16503e-05
-6.46282e-05
2.73919e-05
-1.14228e-06
-0.000575844
-0.00148318
-0.00227174
-1.53347e-06
-1.14475e-07
0.000496494
0.000474987
1.59677e-05
0.000187957
-6.97286e-06
6.81742e-05
7.14992e-05
8.29728e-05
-7.90222e-05
-6.1105e-05
-0.000106113
-3.77828e-05
-5.99254e-05
-1.59555e-05
-9.85597e-07
-0.000587381
-0.00148804
-0.00229166
-5.09838e-07
0.00018647
-7.73366e-06
6.73395e-05
7.14992e-05
8.12256e-05
-7.72546e-05
-6.19068e-05
-0.000106114
-3.99933e-05
-5.9096e-05
-1.5676e-05
7.68472e-41
-0.000587175
-0.00148607
-0.00229084
9.76388e-08
0.000272335
-0.0179263
0.236559
0.23003
0.00153898
0.118152
0.0591196
-0.191357
-0.201019
-0.158164
0.121254
0.101903
-0.189449
0.143589
-0.258159
0.240739
-0.27784
-1.26104e-05
-1.85698e-05
-2.6968e-06
-2.4069e-39
-0.000244763
-0.000643773
-0.000949161
4.62829e-40
-1.03493e-05
0.000139014
9.97055e-05
-5.99466e-06
8.23681e-05
-1.6285e-05
1.75236e-05
-1.48981e-05
1.81247e-05
-6.11544e-06
1.16305e-06
-4.41908e-05
-6.38604e-06
-1.6452e-05
-8.39253e-06
2.5999e-06
-0.000248125
-0.000645136
-0.000946819
-7.08969e-07
1.46424e-05
0.000193105
9.99739e-05
-3.00889e-05
7.68449e-05
-4.49843e-07
4.32659e-05
-2.80213e-06
2.09143e-05
-4.47463e-07
-1.56687e-05
-3.36395e-05
-3.38221e-05
-2.21031e-05
1.27738e-05
1.25227e-06
-0.000240538
-0.00064021
-0.00095949
1.50929e-06
-2.93915e-05
0.000188919
0.000143624
-2.18349e-06
7.8025e-05
2.10402e-05
3.90562e-05
2.70331e-05
3.31225e-05
-1.82076e-05
-2.62851e-05
-3.98993e-05
-1.77648e-05
-2.09259e-05
-8.66523e-06
1.11995e-06
-0.000243532
-0.000646913
-0.000970514
-9.90058e-08
8.40769e-05
2.92581e-05
3.81069e-05
2.70331e-05
3.44298e-05
-2.10782e-05
-2.15203e-05
-3.98968e-05
-1.71263e-05
-2.06198e-05
-8.48702e-06
-2.88854e-40
-0.000241389
-0.000647872
-0.00096904
1.08836e-06
0.129727
0.159201
-0.173483
0.240069
-0.176264
0.178461
0.0111283
-0.106294
-0.0705483
0.0919167
-0.258817
0.0586666
0.139065
0.186941
-0.148784
0.0417203
0.0177762
2.41063e-05
3.66795e-05
2.99025e-05
5.67838e-40
0.000197577
0.00022795
0.000505033
-2.04562e-40
-9.87493e-05
-0.000326223
-0.000244148
9.51954e-05
-0.00013436
3.62768e-05
-4.64864e-05
4.81695e-05
-1.82855e-05
2.30608e-05
2.89021e-05
4.08663e-05
2.69524e-05
3.90452e-05
4.19606e-05
-2.54064e-07
0.000203729
0.000236361
0.000509152
5.88223e-07
-7.03158e-05
-0.000393197
-0.000260477
0.000112359
-0.000116797
2.22309e-05
-7.24708e-05
3.49507e-06
1.04839e-05
1.20093e-05
3.71101e-05
3.78492e-05
5.17744e-05
3.80627e-05
6.8456e-06
-5.128e-07
0.000199777
0.000241227
0.000537235
-4.59935e-07
4.3089e-05
-0.000382757
-0.000288849
4.42182e-05
-9.79413e-05
4.33465e-08
-6.9152e-05
-3.76641e-05
-1.70505e-05
4.38741e-05
4.98603e-05
5.41112e-05
2.69764e-05
3.38862e-05
1.18703e-05
-5.41876e-07
0.000205619
0.000249327
0.00055556
-5.42329e-07
-9.90539e-05
-1.69436e-06
-6.86041e-05
-3.76641e-05
-1.75051e-05
4.43634e-05
4.80211e-05
5.41104e-05
2.58861e-05
3.4665e-05
1.07174e-05
1.97947e-40
0.000206215
0.000249935
0.000556126
-2.92392e-07
0.0853154
0.259513
0.101902
0.107906
0.243692
0.28227
0.0613944
0.256046
-0.0527267
0.302206
0.11776
-0.282181
0.206609
0.139673
-0.260282
-0.031511
0.245671
-7.6348e-06
-1.5594e-05
-6.76668e-06
-7.20975e-40
-0.000136865
-0.00028
-0.000433743
2.33309e-40
-3.45114e-05
0.000138208
9.74743e-05
-1.15048e-05
4.61172e-05
-4.28014e-05
1.23179e-05
-3.06946e-05
1.84423e-05
-1.7082e-05
4.13462e-07
-2.75758e-05
-6.09627e-06
-1.34321e-05
-1.13385e-05
5.13981e-07
-0.000139596
-0.000279866
-0.00043509
-7.15675e-07
-3.98368e-05
0.000178429
0.000112994
-4.59375e-06
3.92856e-05
-2.69737e-05
2.63512e-05
-5.48097e-06
1.31776e-05
-9.27624e-06
-1.4002e-05
-2.29744e-05
-2.14335e-05
-1.6542e-05
4.71188e-06
3.15665e-07
-0.00013483
-0.000279335
-0.00044587
7.97961e-07
-5.6527e-05
0.000176438
0.000129735
1.13234e-05
3.93569e-05
-1.85882e-05
2.90643e-05
1.17146e-05
1.89388e-05
-3.00418e-05
-1.81398e-05
-2.93373e-05
-8.48664e-06
-1.37805e-05
-8.00914e-07
4.88175e-07
-0.000135234
-0.000279167
-0.000451486
1.91124e-07
4.0997e-05
-1.56056e-05
2.88042e-05
1.17146e-05
1.93687e-05
-3.13446e-05
-1.7209e-05
-2.93363e-05
-7.46651e-06
-1.40629e-05
-6.74843e-07
-4.87226e-33
-0.000135212
-0.000279652
-0.000451647
3.07508e-07
0.054754
0.205287
-0.107279
-0.215279
0.246462
0.0363721
-0.156173
0.185168
0.0144186
-0.0227435
0.102767
-0.00199381
-0.128492
0.215056
0.259164
-0.161134
0.120215
1.10271e-05
1.38107e-05
6.22967e-06
2.54604e-39
6.03433e-05
6.93454e-05
0.000142691
5.6329e-40
-1.37482e-05
-9.06821e-05
-7.86193e-05
2.98645e-05
-3.76499e-05
1.09379e-05
-2.14296e-05
1.19117e-05
-8.07996e-06
2.16005e-05
8.13858e-06
1.90865e-05
5.0699e-06
1.17096e-05
1.05683e-05
-3.19435e-06
6.2612e-05
7.56532e-05
0.00014367
-7.26361e-07
9.47187e-06
-0.000119942
-9.0532e-05
3.14067e-05
-3.56667e-05
-4.1382e-06
-3.87993e-05
-2.23826e-06
1.10252e-06
6.70295e-06
1.5411e-05
1.38544e-05
1.71676e-05
1.40679e-05
2.04822e-06
-1.29802e-07
5.72463e-05
7.07575e-05
0.000150015
-5.03336e-07
6.96924e-05
-0.000128529
-0.000103618
8.01927e-06
-2.77956e-05
-2.06199e-06
-3.65642e-05
-1.3595e-05
-1.58416e-05
2.53472e-05
2.77786e-05
2.33605e-05
4.90687e-06
1.57519e-05
4.03334e-06
5.32178e-07
6.57773e-05
7.29393e-05
0.000161587
-2.29055e-07
-3.52962e-05
-1.28997e-05
-3.41459e-05
-1.3595e-05
-1.43188e-05
2.34761e-05
2.313e-05
2.33592e-05
6.68059e-06
1.55947e-05
2.37552e-06
6.61737e-40
5.99505e-05
7.05728e-05
0.000157618
-1.70893e-06
0.0580853
0.0319135
-0.0520665
0.0260339
0.0384223
0.0797002
-0.255877
0.295875
-0.261382
-0.0682655
-0.112145
-0.103854
-0.0855194
-0.209283
-0.0556297
-0.141821
0.181175
-2.08824e-05
-3.28013e-05
-4.09065e-05
-8.42657e-41
-2.91643e-05
0.000340429
0.000268608
1.3486e-40
0.000127769
0.00036515
0.000199725
-0.000141859
9.83103e-05
-1.88491e-05
6.81506e-05
-6.07779e-05
-9.20563e-06
-2.10654e-05
-3.64733e-05
-2.6697e-05
-2.87332e-05
-3.19101e-05
-5.41474e-05
-9.92174e-08
-3.14029e-05
0.000326991
0.000260893
-1.82337e-07
0.000101914
0.000383329
0.000210819
-0.000138599
9.23354e-05
-2.62917e-05
7.05721e-05
-2.54389e-05
-3.86205e-05
-1.39735e-05
-2.77445e-05
-2.79011e-05
-3.79856e-05
-3.42669e-05
-2.33017e-05
-2.56402e-08
-2.8106e-05
0.000311805
0.000237123
4.93947e-08
1.7526e-05
0.000368812
0.000233025
-7.22718e-05
5.18578e-05
-7.4622e-06
6.46745e-05
1.62575e-05
-1.61837e-05
-3.31348e-05
-4.47455e-05
-3.24758e-05
-2.41845e-05
-2.219e-05
-1.15785e-05
1.07719e-08
-3.0863e-05
0.000300174
0.000216438
-2.93034e-07
5.18932e-05
-7.5342e-06
6.46343e-05
1.62575e-05
-1.632e-05
-3.33027e-05
-4.46881e-05
-3.24758e-05
-2.39474e-05
-2.24309e-05
-1.14894e-05
-1.07087e-41
-3.09673e-05
0.000300049
0.000216394
-1.73608e-07
-0.284058
0.178626
-0.265145
-0.0761092
0.0488883
-0.174875
0.0761103
0.23459
0.234942
-0.284935
-0.243933
-0.176979
0.208635
-0.138004
0.273311
0.124216
-0.231367
-2.17924e-06
7.24456e-07
-9.23347e-07
-4.39571e-40
4.47406e-05
0.000142806
0.000221682
1.79808e-40
2.271e-05
-1.13305e-05
-2.3134e-05
-1.1153e-05
-6.0995e-06
1.48851e-05
6.00967e-06
3.68803e-06
-5.16789e-06
-6.00575e-06
1.25416e-06
3.2597e-06
-1.86823e-06
5.1813e-06
-6.04986e-07
3.07473e-07
4.51453e-05
0.000141764
0.000219764
-9.43708e-08
1.8167e-05
-2.70509e-05
-2.80787e-05
-1.17501e-05
-4.01416e-06
1.50542e-05
8.03168e-06
-5.351e-06
-4.14706e-06
-2.99377e-06
1.05884e-06
2.6826e-07
4.79661e-07
4.63428e-06
-1.00703e-06
4.37505e-07
4.4251e-05
0.000140852
0.000219528
4.16985e-07
1.8707e-05
-2.37555e-05
-3.58448e-05
-1.24981e-05
-1.15573e-05
6.49745e-06
6.25629e-06
-2.4403e-06
-5.01532e-06
2.64154e-06
-8.60403e-07
4.2263e-06
-3.25566e-06
2.85752e-06
1.80249e-06
2.44735e-07
4.49417e-05
0.000140505
0.000217897
4.47693e-09
-1.07165e-05
8.19223e-06
6.24805e-06
-2.4403e-06
-4.47737e-06
1.69769e-06
-1.5001e-07
4.22691e-06
-2.92324e-06
2.83286e-06
1.5816e-06
-1.95136e-29
4.51999e-05
0.000139975
0.00021809
1.35194e-07
-0.280361
-0.21189
-0.0123208
-0.201705
0.246269
-0.143452
-0.173323
0.240816
-0.0926891
-0.11246
-0.217253
0.129394
0.00916253
0.0296058
-0.122521
-0.0362554
-0.121886
3.58353e-06
7.63943e-06
3.73208e-06
-3.99947e-40
7.14035e-05
0.000147122
0.000241935
1.7306e-41
-3.30725e-05
-6.90029e-05
-5.004e-05
1.18846e-05
-2.95294e-05
3.20945e-07
-4.83865e-06
7.07817e-06
-3.38589e-06
3.27995e-06
4.98205e-06
1.3575e-05
4.59001e-06
1.0393e-05
6.60935e-06
4.78366e-07
7.25092e-05
0.000148258
0.000240679
-6.00696e-07
-3.92532e-05
-8.93488e-05
-5.05211e-05
2.09593e-05
-2.55449e-05
-2.92317e-06
-1.36294e-05
3.20158e-06
-1.4072e-06
7.28366e-06
7.45405e-06
1.02988e-05
1.15903e-05
9.59735e-06
-5.77429e-07
8.96711e-08
7.26859e-05
0.000148804
0.000245211
4.49164e-07
-1.21933e-05
-8.47451e-05
-6.18965e-05
9.25888e-06
-2.3991e-05
-1.09165e-05
-9.851e-06
-7.97425e-06
-2.96543e-06
6.0904e-06
9.01153e-06
1.38639e-05
8.33322e-06
7.20682e-06
5.30149e-06
2.14152e-07
7.28904e-05
0.000151141
0.000248687
2.07784e-07
-2.30289e-05
-9.10635e-06
-1.03367e-05
-7.97425e-06
-2.96312e-06
5.82196e-06
1.03217e-05
1.38643e-05
8.67007e-06
6.9604e-06
6.02266e-06
9.99121e-34
7.35055e-05
0.000150913
0.000248814
3.02634e-07
0.001574
0.125076
0.142906
-0.115062
0.0628395
0.104579
0.0196371
0.147987
-0.176667
0.118706
-0.00244822
0.0967721
0.189499
0.110522
-0.126714
-0.116653
0.0156707
5.1356e-06
1.0671e-05
8.89164e-06
-5.6388e-40
6.35778e-05
0.000135939
0.000217088
1.11148e-40
-2.49625e-06
-7.54721e-05
-4.76165e-05
2.08403e-05
-3.0113e-05
6.06574e-06
-2.19797e-05
9.43124e-06
-1.08077e-05
5.05618e-06
4.30689e-06
7.69022e-06
4.54933e-06
1.01739e-05
1.00966e-05
5.94494e-07
6.58726e-05
0.000139149
0.000218024
-8.03032e-07
1.15715e-05
-0.000101829
-5.20058e-05
1.97162e-05
-2.82594e-05
5.73013e-06
-2.85405e-05
-8.96775e-07
-3.15271e-06
1.14646e-06
4.33812e-06
7.99794e-06
9.17457e-06
1.04707e-05
1.43685e-06
5.46694e-07
6.26755e-05
0.000141312
0.00022424
6.61661e-07
3.59734e-05
-9.85636e-05
-5.78844e-05
7.78259e-06
-2.19115e-05
-1.71339e-06
-3.01863e-05
-1.24363e-05
-5.32945e-06
1.15503e-05
7.94143e-06
1.21214e-05
3.99541e-06
7.34705e-06
2.11473e-06
6.99663e-07
6.16199e-05
0.000142298
0.000228739
2.17518e-07
-2.06443e-05
7.27909e-07
-3.05165e-05
-1.24363e-05
-5.12683e-06
1.07663e-05
9.07761e-06
1.21221e-05
4.91084e-06
7.01373e-06
3.14169e-06
1.62284e-41
6.18949e-05
0.000142175
0.00022863
5.77389e-07
0.285234
-0.168316
0.255853
0.276074
-0.140565
0.208975
-0.263084
0.0812204
0.130666
-0.257221
-0.155055
0.293801
0.137
-0.0795332
-0.0267508
0.16531
-0.155131
6.58413e-06
1.28777e-05
9.84258e-06
-2.74479e-40
6.49582e-05
0.00010163
0.000174374
-1.8521e-41
-1.11255e-05
-9.63625e-05
-7.32896e-05
3.86664e-05
-3.98797e-05
7.22348e-06
-3.16758e-05
1.26769e-05
-1.11336e-05
1.26104e-05
6.29364e-06
1.36445e-05
7.76871e-06
1.37702e-05
1.33784e-05
3.3103e-07
6.72065e-05
0.000106782
0.000176792
1.54801e-07
1.06938e-05
-0.000130296
-7.51614e-05
4.08246e-05
-3.85671e-05
-3.60898e-07
-4.41167e-05
2.32983e-06
-1.0958e-06
1.11852e-05
7.2049e-06
1.32133e-05
1.41469e-05
1.62289e-05
1.95242e-06
-2.41897e-08
6.53015e-05
0.000110847
0.000186677
7.13734e-10
4.5512e-05
-0.000130068
-8.48395e-05
2.27052e-05
-2.69144e-05
-7.53582e-06
-4.27501e-05
-1.63961e-05
-9.51179e-06
1.99676e-05
1.38888e-05
1.99983e-05
8.45315e-06
1.17647e-05
2.85532e-06
-8.3474e-08
6.53065e-05
0.000113446
0.000192628
8.2692e-08
-2.60431e-05
-6.79185e-06
-4.30525e-05
-1.63961e-05
-9.17005e-06
1.99451e-05
1.43027e-05
1.99986e-05
8.38974e-06
1.17693e-05
2.90079e-06
-8.1763e-33
6.55898e-05
0.000113306
0.000192741
3.92403e-09
-0.223361
-0.15006
0.244928
-0.102172
0.0953358
0.11346
0.0715331
-0.0591067
-0.190009
-0.0311794
-0.149188
0.117813
0.275198
-0.234508
-0.0964461
-0.100598
-0.284946
5.00394e-06
4.26931e-06
2.65809e-06
-2.70511e-40
9.96586e-06
-2.75311e-05
-6.96586e-06
2.07892e-40
-4.06099e-06
-4.55121e-05
-1.95516e-05
6.99054e-06
-1.2433e-05
7.97859e-06
-5.79056e-06
7.54006e-06
-2.44601e-06
1.2506e-06
2.15486e-06
5.55787e-06
4.56341e-06
6.07148e-06
3.46685e-06
-3.11709e-08
1.07954e-05
-2.51575e-05
-5.23252e-06
-2.3826e-07
-2.38855e-06
-5.64371e-05
-2.59534e-05
1.03131e-05
-1.13462e-05
5.09809e-06
-7.42652e-06
7.95154e-07
1.44699e-06
2.70974e-06
4.76199e-06
3.17726e-06
6.18387e-06
4.59518e-06
9.48638e-07
2.36104e-07
1.05979e-05
-2.45232e-05
-1.93226e-06
3.1779e-07
1.34706e-05
-5.52724e-05
-2.95706e-05
1.79844e-06
-1.03291e-05
1.60488e-06
-7.60996e-06
-6.06115e-07
-2.82191e-06
6.51912e-06
6.58803e-06
5.57248e-06
2.17431e-06
3.46933e-06
1.79779e-06
4.54394e-07
1.23829e-05
-2.34677e-05
1.47452e-06
8.36915e-08
-9.92176e-06
2.8433e-06
-7.76072e-06
-6.06115e-07
-2.24008e-06
5.87757e-06
7.21873e-06
5.57298e-06
2.8972e-06
3.35913e-06
2.1707e-06
-6.05081e-42
1.20263e-05
-2.40412e-05
1.19073e-06
1.0702e-07
0.0457475
-0.151262
0.162947
-0.281424
-0.100951
0.176364
-0.0531601
0.158098
-0.298963
0.162336
0.0972323
-0.23059
0.124705
-0.248891
-0.0110337
0.261464
-0.213221
9.15151e-07
6.04077e-06
3.19172e-06
-6.59322e-40
5.16476e-05
0.000113903
0.000172002
1.13368e-40
-7.00414e-07
-4.82542e-05
-4.53565e-05
6.94036e-06
-1.61122e-05
2.16264e-05
-3.67139e-06
1.3713e-05
-8.14056e-06
3.98705e-06
-1.00539e-07
1.03806e-05
1.85983e-06
7.90695e-06
5.25241e-06
4.3501e-07
5.34404e-05
0.000114695
0.000172888
3.4195e-07
3.36118e-06
-7.41477e-05
-4.72524e-05
8.60591e-06
-1.6098e-05
1.6831e-05
-7.98132e-06
1.43925e-06
-5.23878e-06
3.47782e-06
4.3168e-06
8.68445e-06
7.24402e-06
9.30763e-06
-1.0692e-06
1.45444e-07
5.19118e-05
0.000115976
0.000178467
4.75927e-07
1.32072e-05
-7.17751e-05
-5.53473e-05
3.01701e-06
-1.5831e-05
7.90862e-06
-1.36672e-05
-7.14938e-06
-8.20848e-06
1.24332e-05
6.64729e-06
1.13867e-05
2.96001e-06
7.08586e-06
2.32622e-06
4.99625e-09
5.18492e-05
0.000116683
0.000180603
5.09748e-09
-1.41307e-05
1.01843e-05
-1.40564e-05
-7.14938e-06
-7.30795e-06
1.18339e-05
7.45729e-06
1.13874e-05
2.93379e-06
7.58321e-06
1.88121e-06
-6.05425e-29
5.2759e-05
0.000116188
0.000181147
1.47166e-07
-0.251096
-0.268816
0.080622
0.221773
-0.0132357
-0.0339982
0.26915
0.0493972
-0.286002
-0.0656157
0.245851
0.133531
0.0721576
-0.00845517
-0.0906852
0.193821
-0.0469282
5.81364e-06
5.48941e-06
3.51644e-06
-4.63868e-40
2.81707e-05
-2.36902e-06
5.92825e-05
1.60231e-40
-3.53241e-05
-8.5796e-05
-4.6883e-05
2.17495e-05
-2.83788e-05
1.58007e-05
-1.30109e-05
1.97454e-05
-2.14144e-06
-1.00513e-09
4.27821e-06
1.11758e-05
8.0461e-06
9.75335e-06
6.87033e-06
1.87596e-07
2.90073e-05
-7.76878e-08
6.0584e-05
5.0217e-08
-3.35237e-05
-0.00010457
-5.17738e-05
2.61543e-05
-2.52141e-05
1.41401e-05
-1.1833e-05
4.07754e-06
4.43336e-06
3.36381e-06
7.86378e-06
8.40455e-06
1.13119e-05
8.56616e-06
8.00693e-07
1.18928e-07
2.86862e-05
1.91656e-06
6.73323e-05
3.34839e-07
-8.78434e-06
-9.57139e-05
-6.60783e-05
5.15719e-06
-2.50659e-05
4.71967e-06
-1.30754e-05
-5.9892e-06
-5.72062e-06
1.18574e-05
1.1813e-05
1.17076e-05
6.36676e-06
6.47196e-06
3.58086e-06
1.40665e-07
3.16076e-05
3.55861e-06
7.21968e-05
1.82518e-08
-2.37525e-05
6.91789e-06
-1.32888e-05
-5.9892e-06
-4.87148e-06
1.12453e-05
1.24098e-05
1.17082e-05
6.54579e-06
6.59016e-06
3.67027e-06
-2.72948e-29
3.20673e-05
3.18085e-06
7.25401e-05
5.63528e-08
-0.29482
0.240575
-0.0730688
-0.150111
-0.266771
-0.0599229
0.133416
-0.295911
-0.289275
0.220422
-0.233976
-0.19964
0.257262
-0.229069
0.298438
-0.00844473
0.197375
3.71148e-06
5.90625e-06
3.90168e-06
0
5.26366e-05
0.00010439
0.000190812
0
-2.64239e-05
-6.51291e-05
-4.53869e-05
1.17933e-05
-2.36315e-05
1.29581e-05
-8.46057e-06
1.42895e-05
-3.31036e-06
2.36741e-06
4.05321e-06
1.06651e-05
4.25117e-06
8.47948e-06
6.53436e-06
0
5.36456e-05
0.000105617
0.000191325
0
-2.52908e-05
-8.10077e-05
-4.89574e-05
1.16418e-05
-2.2267e-05
1.07818e-05
-8.29743e-06
1.34058e-06
1.39664e-06
5.04789e-07
6.85645e-06
8.18163e-06
9.69971e-06
7.38071e-06
-9.51723e-07
0
5.27715e-05
0.000106444
0.000196506
0
-7.85422e-06
-7.42878e-05
-6.01402e-05
-4.21433e-07
-2.3788e-05
2.448e-06
-1.07714e-05
-6.1964e-06
-4.9558e-06
7.1998e-06
8.509e-06
1.05847e-05
4.74212e-06
6.70666e-06
2.18668e-06
0
5.4443e-05
0.000108081
0.000200449
0
-2.3788e-05
2.448e-06
-1.07714e-05
-6.1964e-06
-4.9558e-06
7.1998e-06
8.509e-06
1.05847e-05
4.74212e-06
6.70666e-06
2.18668e-06
0
5.4443e-05
0.000108081
0.000200449
0
0.0675679
0.239898
-0.267781
-0.285012
0.24341
0.175455
0.268133
0.00863969
0.207649
0.20968
0.0378888
-0.261394
-0.0698992
0.12137
0.111669
-0.162335
0.0459542
2.06566e-39
3.11579e-39
2.23888e-39
5.4239e-39
1.95833e-40
2.29868e-39
9.54756e-40
-5.62177e-40
-5.13376e-39
-3.27635e-40
1.24483e-39
1.16595e-39
1.52997e-39
-1.39684e-39
1.08804e-39
6.74774e-40
8.2287e-06
5.89998e-06
-7.46034e-07
2.0305e-39
1.58709e-06
-1.07725e-05
8.87819e-07
-5.89409e-06
1.28258e-06
-2.91311e-06
2.48818e-07
1.82974e-06
-2.63181e-06
3.8757e-05
-1.37911e-06
-3.85185e-39
4.61102e-06
-4.9323e-06
-3.39098e-06
3.08137e-39
6.06319e-06
-1.79644e-05
3.49743e-06
1.55703e-27
7.02271e-06
-3.03637e-06
-2.56094e-07
-4.67468e-06
-3.66835e-06
-5.64918e-06
-7.01256e-07
-4.95575e-06
-9.14608e-07
2.96487e-05
2.38592e-06
1.85403e-39
6.47771e-06
5.18294e-06
2.69407e-07
1.83395e-31
5.29909e-07
-7.02866e-06
5.25119e-06
-1.34076e-28
-4.93372e-07
1.48533e-07
-4.91864e-06
-2.92261e-06
6.92314e-07
-7.58387e-06
3.4699e-06
-1.1752e-06
-6.17812e-06
-1.86727e-05
3.60128e-06
4.67968e-40
-4.50995e-06
4.35558e-07
-7.02137e-06
-6.39271e-09
-3.70018e-06
-5.02216e-07
-6.94155e-06
3.41187e-32
-3.66514e-06
-2.49237e-06
2.13137e-06
-3.50352e-06
0.094753
0.181387
0.153322
0.0029405
-0.00706605
0.0579375
0.123979
-0.175886
-0.0385671
0.0661237
0.271861
-0.0618694
0.205533
0.071167
0.102743
0.161822
-0.146442
-5.17166e-05
-8.23707e-05
-6.88727e-05
1.55237e-38
-0.000260237
-2.99598e-05
-0.000452127
-4.86477e-39
0.000354649
0.00067222
0.000508243
-0.000311496
0.000268771
-5.88229e-05
0.000188483
-0.000108939
6.5004e-05
-5.97214e-05
-8.49514e-05
-8.12815e-05
-4.05278e-05
-0.000138895
-9.32639e-05
-1.55679e-05
-0.000273482
-7.90636e-05
-0.000468693
1.70544e-05
0.000190898
0.00109254
0.000522964
-0.00033105
0.000252383
-4.79054e-05
0.000234915
-1.9127e-05
-2.96069e-05
-9.34254e-05
-5.88353e-05
-7.33728e-05
-5.7076e-05
-0.000108946
-2.46559e-05
-1.24355e-05
-0.00027795
-0.000106941
-0.000520272
-1.87672e-05
-0.00017329
0.000922381
0.000637506
-0.000138532
0.000207068
3.84104e-05
0.000237051
8.98472e-05
5.66718e-05
-0.00011185
-9.50495e-05
-0.00011744
-4.64891e-05
-8.45464e-05
-3.79307e-05
-1.83251e-05
-0.00029061
-0.000142909
-0.000568329
-3.66515e-06
0.000170359
-3.83819e-05
0.000240212
8.98472e-05
3.61645e-05
-9.18407e-05
-0.000121983
-0.000117462
-7.42744e-05
-7.79859e-05
-5.12888e-05
-2.29685e-39
-0.000298467
-0.000124337
-0.000563441
-1.29351e-05
0.152608
-0.163879
-0.0343226
0.201069
0.103138
0.214628
0.132112
-0.18107
0.149935
0.158257
-0.210963
0.255222
-0.202238
0.128883
-0.0656305
-0.186939
-0.0376849
-0.000148784
-0.000332617
-0.000256975
1.76157e-38
-0.00216245
-0.00438864
-0.00708894
-2.94616e-39
0.000684846
0.00239589
0.00203704
-0.000873025
0.00113081
-0.000273503
0.000646823
-0.0003739
0.000313746
-0.000248362
-0.000234057
-0.000378576
-0.000134184
-0.000408923
-0.000356858
-1.85146e-05
-0.00221933
-0.00449911
-0.00711055
2.76186e-05
0.000167935
0.0034249
0.00212352
-0.000982847
0.00104674
-0.000142388
0.00094698
-3.59654e-05
4.15454e-05
-0.000243844
-0.000221517
-0.000343197
-0.000324408
-0.000386462
-2.2991e-05
-1.31658e-05
-0.00217457
-0.00455505
-0.00731648
-2.57631e-05
-0.000873508
0.0032631
0.00251498
-0.000453516
0.000812997
0.000134238
0.000952376
0.000427315
0.000286463
-0.000459647
-0.000344211
-0.0005164
-0.000187492
-0.000304028
-9.13548e-05
-1.37551e-05
-0.00218737
-0.00461507
-0.00744858
-6.27101e-06
0.000766281
6.10031e-05
0.000957465
0.000427315
0.000274692
-0.000438786
-0.000386427
-0.000516424
-0.000221747
-0.000292813
-0.000111067
-2.67274e-39
-0.00219171
-0.004602
-0.00743587
-1.78832e-05
0.165164
0.0441727
-0.161715
-0.0690833
-0.120937
-0.269711
-0.0870817
0.158182
0.0654582
-0.163074
-0.0391159
0.132746
-0.161824
0.139995
0.0465655
0.124873
0.025721
-0.000176266
-0.000397003
-0.000325548
0
-0.00239589
-0.00442511
-0.00731196
0
0.00062918
0.00295874
0.00243413
-0.00118745
0.00134745
-0.000303979
0.000833024
-0.00037838
0.000340021
-0.000336726
-0.000331779
-0.000410049
-0.000159819
-0.000412406
-0.00047811
0
-0.00245763
-0.00456383
-0.00734072
0
3.8986e-05
0.00390138
0.00247802
-0.00132334
0.0012592
-0.000147686
0.00120691
-2.11027e-05
-9.51181e-06
-0.000233017
-0.000269105
-0.000375741
-0.000420757
-0.000439083
-5.73299e-05
0
-0.00238436
-0.00466086
-0.00760281
0
-0.0011165
0.0038242
0.00290209
-0.000670399
0.000918856
0.000142682
0.00116548
0.000527645
0.000341503
-0.000533865
-0.00041479
-0.000590232
-0.000230226
-0.000347352
-0.000106353
0
-0.00239155
-0.00475933
-0.00776205
0
0.000918856
0.000142682
0.00116548
0.000527645
0.000341503
-0.000533865
-0.00041479
-0.000590232
-0.000230226
-0.000347352
-0.000106353
0
-0.00239155
-0.00475933
-0.00776205
0
0.207941
-0.177942
-0.0305478
0.268285
-0.0197544
-0.0929319
-0.105648
-0.12276
0.221833
0.220921
0.225912
-0.194762
0.0823489
-0.247904
-0.0133493
0.1494
-0.172285
-6.85494e-40
-5.62506e-40
-1.40129e-39
-3.24236e-39
-8.29955e-40
-9.64959e-40
-1.0019e-39
4.11986e-40
1.93638e-39
1.70419e-39
-1.09148e-39
9.98916e-41
7.2321e-42
3.17285e-40
-4.96376e-40
-3.51401e-40
-7.83151e-06
-3.53417e-06
-1.41316e-07
-1.47857e-39
-9.41514e-07
4.52776e-06
2.08753e-06
3.53055e-06
-1.90606e-06
-1.52775e-06
-1.7612e-06
1.20549e-06
6.84266e-07
-1.63515e-05
-3.77631e-07
2.06921e-39
-2.39398e-06
5.26093e-06
1.65461e-06
-1.25177e-39
-2.49674e-06
2.9573e-06
-1.61627e-07
-1.0449e-27
-1.84273e-06
2.29433e-06
2.4278e-06
5.02869e-07
8.3724e-07
3.80494e-06
2.44007e-06
7.28191e-07
7.56137e-07
-1.59885e-05
3.7587e-08
-2.02566e-39
-6.4642e-06
-4.42179e-06
-1.31171e-06
-7.55148e-32
2.18215e-06
1.6656e-06
-1.05811e-06
2.52167e-29
5.71023e-07
-2.97761e-06
2.73177e-06
-5.11614e-07
-2.30913e-06
2.47436e-06
-3.11976e-06
-1.11187e-06
3.31497e-06
7.14888e-06
-3.50268e-06
7.8353e-40
2.75709e-06
-8.81073e-07
1.68446e-06
1.94012e-09
-3.3159e-06
5.17999e-07
2.17303e-06
-8.54288e-41
1.78414e-06
3.01145e-06
1.00701e-06
1.19786e-06
-0.229617
-0.211155
-0.106537
-0.157457
-0.210525
-0.21187
-0.0395657
-0.269227
0.0543539
0.0122047
-0.259049
-0.00404222
0.0231952
0.161096
0.188053
-0.201395
0.236294
1.05908e-05
1.39125e-05
2.8988e-05
2.65722e-39
-2.23552e-05
-0.00045713
-0.000502829
-2.33859e-39
-0.000416154
-0.000296654
-0.000169814
0.000150937
-4.40322e-05
2.596e-05
-4.86517e-05
7.62702e-05
5.15128e-05
2.4436e-05
5.80398e-05
1.3999e-05
8.9257e-06
1.12496e-05
4.76312e-05
1.09379e-07
-3.15692e-05
-0.000448841
-0.000496157
1.24694e-06
-0.000371097
-0.000269484
-0.000139946
0.00013429
-4.33576e-05
1.96979e-05
-4.34913e-05
3.85385e-05
7.75546e-05
2.13537e-05
3.15027e-05
1.94281e-05
1.35226e-05
1.72328e-05
1.93168e-05
-2.30065e-06
-2.76204e-05
-0.000433338
-0.000477281
-3.47492e-06
-0.000298696
-0.000224519
-0.000190112
4.68689e-05
5.90819e-06
2.39722e-05
-1.67065e-05
-9.39633e-06
4.66573e-05
1.53677e-05
3.50995e-05
1.21337e-05
2.10222e-05
8.45009e-06
4.73284e-06
-4.23536e-06
-3.09181e-05
-0.000424389
-0.000463157
1.2071e-07
-5.19632e-07
1.65796e-05
-1.64423e-05
-9.39633e-06
3.62948e-05
2.4226e-05
3.31719e-05
1.21273e-05
1.3252e-05
8.83391e-06
5.90764e-06
2.23228e-10
-3.03931e-05
-0.000417884
-0.000462405
-2.89009e-07
-0.00527771
-0.12298
0.0613972
-0.223699
-0.172964
-0.0715772
0.233142
0.200417
-0.180841
-0.0513981
-0.146169
0.0734425
-0.181742
-0.124056
-0.163579
0.272886
0.269823
-1.90984e-05
-4.01403e-05
-7.1638e-06
5.79569e-40
-0.000593964
-0.00141658
-0.00217586
-8.07637e-40
5.71693e-05
0.00043065
0.000393911
-2.71786e-05
0.00020487
-0.000143869
1.77759e-05
-0.000117477
6.81396e-05
-2.39974e-05
-1.11555e-05
-0.000102554
-2.10442e-05
-6.10789e-05
-2.50824e-05
1.28092e-07
-0.000605621
-0.00141699
-0.00217626
5.81927e-07
6.65844e-05
0.000613581
0.000418375
-4.89761e-05
0.000185432
-8.5484e-05
5.77882e-05
-1.54587e-05
5.09536e-05
-2.32114e-05
-5.19982e-05
-7.98598e-05
-8.10555e-05
-6.70948e-05
2.85384e-05
-1.07739e-06
-0.000594299
-0.00140673
-0.00221475
-1.42565e-06
-3.17125e-05
0.000565635
0.000522369
2.60228e-05
0.000211979
-2.87966e-05
7.02496e-05
6.65898e-05
8.34595e-05
-9.54633e-05
-6.46499e-05
-0.000110027
-4.14528e-05
-5.94554e-05
-1.26697e-05
-1.0103e-06
-0.000605495
-0.00141614
-0.00223842
-5.36974e-08
0.000210854
-2.92276e-05
6.8893e-05
6.65898e-05
8.00951e-05
-9.22201e-05
-6.34518e-05
-0.000110028
-4.307e-05
-5.94002e-05
-1.21579e-05
-5.50317e-33
-0.000605559
-0.00141226
-0.00223789
3.50411e-07
0.0322242
0.0552534
0.104971
0.177341
-0.291753
0.190982
0.1917
0.130817
0.260189
0.142333
-0.265369
-0.242077
0.0116459
-0.0462942
0.126651
0.194239
0.249539
-1.51753e-05
-8.61162e-06
2.76748e-06
-2.29843e-39
-0.000199625
-0.00055866
-0.00080617
-3.51327e-40
4.27821e-05
9.00781e-05
6.05215e-05
5.12341e-06
8.09678e-05
-7.5085e-06
-7.03979e-07
-5.00762e-06
1.99634e-05
-3.33733e-06
2.7281e-06
-3.75876e-05
-6.50232e-06
-8.77295e-06
-2.9581e-06
2.90756e-06
-0.000203746
-0.000562537
-0.000805137
-1.57397e-07
6.2957e-05
0.000127447
6.05736e-05
-2.34645e-05
7.08946e-05
2.03384e-05
2.85592e-05
2.01582e-06
2.77617e-05
3.87852e-07
-1.41514e-05
-2.89628e-05
-3.06551e-05
-1.27499e-05
1.22122e-05
4.74344e-07
-0.00019608
-0.000551627
-0.000814635
1.11704e-06
1.85455e-05
0.000127666
9.48273e-05
9.2115e-07
7.81672e-05
3.56785e-05
2.34745e-05
2.638e-05
3.71746e-05
-1.69751e-05
-2.40839e-05
-3.70648e-05
-1.46889e-05
-1.54654e-05
-6.82423e-06
-2.84452e-07
-0.000206147
-0.000560119
-0.000824201
7.27164e-08
8.52804e-05
4.46101e-05
2.12555e-05
2.638e-05
3.63725e-05
-1.63151e-05
-1.68969e-05
-3.70634e-05
-1.57719e-05
-1.58026e-05
-5.3598e-06
-6.02352e-40
-0.000202775
-0.000557717
-0.000823054
1.21282e-06
-0.121031
-0.0921653
0.118734
-0.242131
-0.286646
0.280997
0.167451
-0.101562
0.245355
-0.184497
-0.219662
0.216796
-0.296713
-0.176622
-0.162461
-0.190444
0.030125
2.50371e-05
3.4605e-05
3.26752e-05
2.38347e-41
0.000131103
-2.22219e-05
0.000187765
-4.32216e-40
-6.85814e-05
-0.000353458
-0.000214976
0.000105699
-0.000110539
2.87153e-05
-6.22442e-05
4.34725e-05
-7.19853e-06
2.09213e-05
3.25392e-05
3.42882e-05
2.62807e-05
3.91801e-05
4.20981e-05
4.27161e-07
0.000135406
-1.31224e-05
0.00018917
-2.49294e-07
-4.57092e-05
-0.000404076
-0.00022287
0.000115393
-0.000105366
2.79452e-05
-7.68322e-05
8.00967e-06
2.11928e-05
1.99619e-05
2.99286e-05
3.22081e-05
4.04996e-05
3.97483e-05
1.46635e-05
-3.34282e-08
0.000131056
-2.45148e-06
0.000214343
-1.40601e-07
6.80125e-05
-0.000392815
-0.000258828
4.31148e-05
-7.40639e-05
1.23657e-06
-6.83204e-05
-3.19024e-05
9.84814e-08
3.80467e-05
4.84224e-05
4.33932e-05
2.34237e-05
2.98776e-05
1.15135e-05
-3.81535e-07
0.000131336
5.03289e-06
0.000232656
1.77952e-07
-7.37825e-05
1.42947e-06
-6.86571e-05
-3.19024e-05
-8.88437e-07
4.0248e-05
4.9679e-05
4.33928e-05
2.30277e-05
2.93264e-05
1.22848e-05
7.62306e-43
0.000131915
6.29826e-06
0.000232713
4.76131e-07
0.0736741
-0.142872
0.299823
-0.16769
0.157968
0.115145
0.159899
0.125334
-0.0449213
0.180494
-0.133844
-0.00850306
-0.0143091
-0.0397536
0.248511
0.21975
-0.132091
-6.70256e-07
9.65082e-07
9.19447e-06
-1.86755e-40
-1.3063e-05
-4.79296e-05
-4.583e-05
1.06615e-40
-7.04586e-06
-8.96667e-06
-3.30033e-06
2.25627e-05
-6.6839e-06
-2.79325e-05
-1.10619e-05
-1.22813e-05
8.4799e-06
-1.70319e-06
1.10166e-05
-7.98954e-06
4.88078e-07
5.45548e-07
9.35947e-06
1.37098e-07
-1.35787e-05
-4.56596e-05
-4.83234e-05
-7.20427e-07
-1.7138e-05
1.18347e-05
4.35135e-06
2.41409e-05
-1.21909e-05
-9.84747e-06
-5.69419e-06
-2.60492e-06
8.61186e-06
-2.45663e-06
-1.89709e-06
-6.17021e-06
1.04213e-07
-1.68221e-06
6.3929e-06
3.53055e-07
-1.54284e-05
-4.22694e-05
-5.01776e-05
6.67853e-07
-1.86606e-05
1.24365e-05
1.06749e-05
2.81579e-05
7.12601e-07
-1.40682e-05
-1.34203e-06
-2.28311e-06
1.42893e-05
-8.48401e-06
-4.73827e-06
-7.77699e-06
2.59429e-06
-3.06488e-06
2.16465e-06
3.83676e-07
-1.79784e-05
-3.85025e-05
-4.84674e-05
7.27431e-08
7.70669e-07
-1.36168e-05
-8.8429e-07
-2.28311e-06
1.4157e-05
-9.44305e-06
-4.53506e-06
-7.77653e-06
3.50708e-06
-3.61802e-06
2.61358e-06
1.40119e-40
-1.83809e-05
-3.86942e-05
-4.91876e-05
2.7555e-07
0.23784
-0.080725
0.0216623
0.0184932
-0.0285188
0.259605
0.0879342
-0.0631396
0.046315
-0.200253
-0.225582
-0.0663438
-0.0308108
0.165161
0.273835
0.290643
0.0831095
5.42239e-06
6.13572e-06
3.24496e-06
2.12359e-39
4.68422e-05
9.85749e-05
0.000144767
1.0112e-40
-3.42918e-06
-1.35768e-05
-4.45762e-05
1.71026e-05
-1.85196e-05
-7.27813e-06
-1.21152e-05
-5.02485e-06
-3.23421e-06
1.18916e-05
3.30467e-06
8.749e-06
6.76595e-07
1.64553e-06
4.48493e-06
-2.40735e-06
4.87483e-05
0.000101979
0.000143671
-7.34049e-07
7.15025e-06
-3.00827e-05
-4.38883e-05
2.27642e-05
-1.69192e-05
-1.97755e-05
-2.72942e-05
-5.64478e-06
-1.30983e-06
9.02215e-06
5.83058e-06
6.79452e-06
7.93323e-06
5.61228e-06
9.78596e-07
6.70932e-08
4.5364e-05
9.83841e-05
0.000143916
-4.75182e-07
3.92569e-05
-3.98211e-05
-4.98203e-05
1.36112e-05
-6.7528e-06
-1.43962e-05
-2.43383e-05
-1.29089e-05
-5.77433e-06
1.15983e-05
1.24422e-05
1.18942e-05
3.29148e-06
7.03085e-06
1.04694e-06
5.18429e-07
4.83513e-05
9.82193e-05
0.000149753
6.37504e-08
-1.21678e-05
-2.34717e-05
-2.29347e-05
-1.29089e-05
-6.23625e-06
1.24553e-05
8.80985e-06
1.18927e-05
4.8937e-06
5.57673e-06
5.05132e-07
4.63615e-40
4.32622e-05
9.73482e-05
0.000147025
-4.4634e-07
0.130431
-0.167631
-0.115545
-0.165018
-0.274404
-0.164274
0.247998
0.110172
-0.215508
-0.0498667
-0.0548549
0.257151
-0.16792
-0.279443
-0.290499
0.0809315
-0.285679
-1.90909e-05
-2.69605e-05
-2.24013e-05
-2.47321e-40
-4.9401e-05
0.000164124
4.81673e-05
1.04492e-40
0.00014699
0.000260876
0.000124507
-0.000103902
8.13698e-05
-8.32685e-06
5.64865e-05
-3.64108e-05
-5.98684e-06
-9.8948e-06
-2.92538e-05
-1.71659e-05
-2.30125e-05
