0.742233
0.0720921
-0.806157
0.317164
-0.225413
-0.588608
-0.537583
-0.281515
0.706418
0.0539291
0.109048
0.0906208
0.0862951
0.0213675
-0.353115
0.545081
0.529326
-0.617017
-0.331766
-0.280685
-0.298986
-0.355471
-0.0338312
0.0447556
-0.699555
-0.657425
-0.13979
0.231548
0.360633
-0.157183
0.475124
0.209133
0.419539
0.496146
-0.236922
-0.571304
0.860495
0.121612
-0.224095
0.552927
0.621366
0.750914
0.0129226
0.10864
-0.0552804
0.489993
-0.0689278
-0.195955
0.468206
0.385948
0.379031
-0.643644
0.696732
-0.431166
0.00153616
-0.720443
-0.352889
-0.776552
0.196891
-0.684406
-0.174263
-0.0409596
0.233613
-0.444824
-0.236761
-0.582662
-0.248475
-0.345043
0.0783999
0.373224
-0.488027
-0.0525071
0.288524
0.308771
0.698749
-0.634592
-0.162839
-0.16829
0.0197967
-0.22683
-0.358931
-0.26641
-0.272388
-0.305811
0.0753135
0.64362
-0.464311
0.378049
-0.588099
0.637781
0.422397
-0.0263962
-0.171127
-0.0527875
0.179712
0.501445
-0.0901965
0.823084
-0.852539
-0.802549
0.310081
-0.387778
-0.0520459
-0.0175447
0.695598
-0.161219
-0.263917
-0.3806
0.515605
0.690131
0.180619
-0.874999
-0.304514
0.474409
-0.477436
0.2246
0.793381
0.139818
-0.026223
0.674863
0.0694722
-0.45115
-0.290663
0.449339
0.253575
0.738904
0.122564
-0.443159
0.781496
0.0837436
-0.559893
0.23845
0.401934
0.210113
0.794014
0.243436
-0.685844
-0.172116
0.524691
0.641699
-0.205773
-0.126071
0.757674
0.188708
0.0050568
-0.482158
-0.425549
-0.318728
0.583
0.570347
-0.346705
-0.264814
-0.943404
0.0693088
-0.420441
0.324199
0.165677
0.503748
0.638501
0.169576
-0.27338
-0.679885
-0.527816
-0.604914
0.404609
-0.638339
0.201999
0.367181
-0.0595075
0.222175
0.340237
0.603203
-0.720145
0.206537
-0.069292
-0.202544
0.775309
0.429971
0.103834
0.429705
0.132021
0.700025
-0.440008
0.143689
0.108639
-0.150351
-0.512264
-0.643097
-0.542036
-0.582087
0.0142044
-0.291408
-0.392595
0.273579
0.314415
0.697959
0.30918
-0.307095
0.302114
-0.442662
0.40987
-0.0447736
-0.553232
0.563669
-0.607815
0.0686766
-0.36671
-0.632571
-0.391892
0.680873
0.767765
0.565115
0.459987
-0.713666
-0.127428
-0.158144
-0.152888
0.32459
-0.289222
0.331152
0.545734
0.712947
-0.529045
-0.473318
0.0604099
0.460352
-0.626279
-0.556329
-0.955688
0.468457
0.0495088
0.602144
-0.42206
0.127833
0.540318
-0.324052
-0.593649
-0.69349
-0.157658
-0.357709
0.66713
-0.469985
-0.656979
0.56506
-0.00530239
0.0762149
-0.552954
0.829217
-0.255338
-0.0603005
0.218927
-0.40169
-0.260078
0.385818
-0.246161
0.731858
0.0813397
-0.0735109
-0.40597
0.0440861
-0.389725
0.341395
0.0326423
0.230247
-0.378168
-0.32035
0.52687
-0.350858
-0.487555
-0.213514
0.165612
-0.380358
0.266166
0.41617
0.817808
-0.584615
0.01931
-0.554863
-0.766691
0.310874
0.0349438
0.135802
0.621944
0.759301
0.0114958
-0.251126
0.57344
0.763231
0.45544
-0.403706
-0.147613
-0.376883
0.29434
-0.75085
0.265329
-0.77405
-0.274159
0.0887242
-0.295411
0.0451437
0.487214
0.571724
0.326057
0.0557774
0.57812
0.390325
0.181976
-0.421169
0.288308
0.232272
0.717414
-0.386279
-0.321644
0.57397
-0.419702
0.18843
-0.348908
-0.48178
0.178483
-0.634814
-0.41286
-0.667652
-0.475344
-0.53011
-0.425285
0.392164
-0.696347
-0.0195474
-0.200624
-0.181475
0.550849
-0.243674
-0.350028
0.185631
0.397037
-0.645744
-0.356184
-0.371009
-0.424498
-0.589337
0.580743
-0.467
-0.255436
-0.471449
-0.40507
0.159086
0.560638
-0.0790727
0.290576
-0.133416
-0.0578942
0.705214
0.287428
0.438558
0.804434
0.419402
-0.0509965
-0.74745
-0.586456
0.406039
-0.123386
-0.613186
-0.60004
0.214843
0.335733
0.477345
0.33784
-0.712416
-0.677666
0.664843
-0.75547
-0.579609
-0.470246
-0.250964
-0.205118
-0.359729
0.663696
-0.492308
0.308036
0.0712179
0.0277008
-0.570865
-0.034193
-0.428607
0.597904
-0.0981879
-0.678689
-0.162079
-0.120556
-0.581191
-0.465651
0.696465
-0.348737
-0.400413
0.122169
-0.684343
-0.70434
-0.292913
-0.648229
-0.616028
-0.310141
-0.570656
-0.27957
-0.204917
-0.0652835
0.311514
0.185512
-0.319651
0.240762
-0.263702
0.531719
-0.175197
0.14786
-0.208886
0.136092
-0.098808
0.625105
-0.124449
0.330706
-0.279956
0.304861
0.445575
-0.416837
-0.590001
-0.645413
0.591909
-0.56366
-0.474568
-0.409506
-0.592047
-0.185856
0.205038
-0.705814
0.301409
0.61652
0.0452241
-0.360059
-0.0443142
0.434926
-0.70817
0.477399
0.374229
-0.0579742
-0.120465
-0.555704
0.646279
0.377659
0.81387
-0.0747595
0.0902881
-0.349963
-0.404367
0.0229433
0.233604
-0.431652
0.0168349
-0.122632
-0.17519
0.280692
0.415184
0.0194978
-0.460626
-0.357872
-0.0669569
0.803932
-0.216222
-0.538621
-0.370593
0.0280447
0.648655
-0.376093
-0.182079
0.141541
0.206549
0.500547
0.223293
-0.00412859
0.246761
0.41898
-0.610039
-0.304663
-0.685327
-0.309916
0.338227
0.43107
0.187005
-0.334947
-0.246725
0.626174
-0.694345
-0.720359
-0.159141
-0.612
-0.308664
0.792686
0.869928
-0.137503
-0.432124
-0.492182
0.562682
-0.520896
-0.0284154
-0.0192789
0.224113
-0.573355
-0.304783
0.0272204
0.260079
-0.723427
-0.301604
0.45155
-0.362402
0.0705892
-0.324302
0.56061
-0.5085
0.31316
-0.398478
-0.195233
0.354853
-0.300517
-0.251983
-0.559712
-0.111293
0.245451
-0.571497
-0.163957
-0.563346
-0.268237
-0.100819
-0.568861
-0.215304
-0.828826
-0.0793058
-0.592551
-0.563934
0.328001
0.088239
0.615301
0.366649
0.738933
0.344739
-0.638142
-0.43011
0.398712
-0.751979
0.204271
0.410322
-0.278168
0.668861
-0.185229
-0.0894662
-0.322499
0.005659
0.514759
-0.697156
0.106389
-0.344448
-0.654937
0.542373
0.423803
-0.626943
-0.443838
0.537483
0.00065035
-0.286362
0.698634
-0.488871
0.376235
0.473426
-0.689551
0.292585
0.301595
-0.692072
-0.662267
-0.0686777
-0.827262
0.294708
-0.514932
-0.458918
-0.0797807
0.208664
0.470419
0.525199
-0.546787
0.339201
0.490307
0.330799
0.450412
0.443826
0.0582386
0.310731
0.518757
0.0514521
-0.00801007
0.0655046
0.756884
0.0060852
0.191918
0.46052
-0.0618949
0.159854
-0.23937
-0.58542
0.293458
-0.110912
0.122491
0.48373
-0.667219
0.358356
-0.812445
0.0321343
-0.186603
0.383953
-0.219348
-0.0866946
0.0495072
-0.584607
-0.664072
-0.282683
-0.727511
0.2738
0.745864
0.608264
-0.0702934
0.0810766
0.139461
-0.220261
-0.669852
-0.596065
0.379762
-0.180398
0.235892
-0.345372
-0.144143
0.0682602
0.40664
-0.638943
-0.463573
0.936052
0.169247
-0.300957
-0.539246
-0.65667
-0.746308
0.202221
0.167551
-0.0794071
0.429615
0.230115
0.591105
0.585534
-0.115095
0.484281
0.487804
0.141492
-0.148672
-0.2734
0.625447
-0.313575
-0.530541
0.547514
0.367041
-0.671008
-0.393319
-0.449058
0.196202
-0.703558
-0.310644
0.499338
0.68447
-0.525452
-0.628747
-0.523512
-0.292068
-0.521288
0.578872
0.406475
0.206279
0.316977
-0.0212142
-0.00759195
0.114069
0.48049
-0.491331
-0.0806379
0.116428
0.126525
0.173117
0.178676
0.4196
-0.921192
-0.152946
0.172394
-0.388929
0.322382
0.522643
0.373022
0.596323
0.762769
0.105249
0.426839
-0.71668
0.273899
-0.696171
-0.464723
0.502933
0.674068
-0.725135
-0.042559
0.211837
-0.0169237
0.39556
-0.3754
-0.416404
-0.666358
0.364399
0.498288
0.0315826
0.0308774
-0.116984
-0.276995
-0.0348426
0.677037
0.600764
-0.116766
0.0955182
0.38604
-0.387361
0.00967588
0.231816
0.544333
-0.368141
0.33686
0.0710587
-0.283854
0.745339
-0.40349
-0.351145
0.601119
0.228686
0.731673
-0.20848
0.0437677
-0.451091
0.481009
-0.00461166
0.793431
0.225743
-0.545652
-0.14557
0.625575
-0.132031
0.262534
0.556413
-0.0881163
-0.0897306
-0.0169187
-0.614758
-0.0126612
0.669777
0.431079
-0.0320225
-0.47145
0.0490036
-0.784841
0.199393
-0.203143
-0.3793
0.45909
-0.054376
0.664369
0.55431
0.548187
-0.146247
-0.642073
0.331892
0.721823
-0.709992
-0.181125
-0.721579
-0.131805
-0.311588
-0.241323
-0.443161
-0.645831
0.641028
-0.0279642
0.0433614
0.81923
-0.413903
-0.104532
0.28853
0.41462
0.447112
-0.429443
0.338315
-0.277833
0.321554
0.714876
-0.64141
-0.513431
0.594429
0.785006
-0.554273
-0.305303
-0.643052
0.508137
-0.22203
-0.414469
-0.592801
-0.129449
-0.0630935
-0.258117
0.525145
0.159102
0.0218579
0.197723
-0.335892
0.742656
0.361084
-0.187859
0.0930991
0.0972567
-0.528551
-0.493153
0.312347
0.389776
-0.0904706
-0.0791162
0.348631
0.012669
0.0931977
-0.0499404
0.0760141
0.317819
-0.771814
0.175089
0.116322
-0.372532
0.202075
0.285567
0.388004
-0.498501
0.690033
0.220416
0.401272
-0.162507
-0.0977034
-0.598073
-0.174306
-0.550551
-0.183765
0.532878
0.14492
-0.109608
-0.689204
-0.350908
-0.500929
-0.0856915
0.488596
0.648311
-0.510793
-0.180508
0.118081
0.344322
-0.541525
0.0593015
-0.2315
0.277151
0.522033
0.681506
-0.567744
0.11797
-0.50931
-0.37666
-0.317281
0.704473
0.126382
0.0852128
0.448001
0.774835
0.343655
-0.257296
0.277608
-0.274895
0.630585
0.642353
0.331381
-0.689546
-0.191243
-0.0620117
0.632415
-0.0247087
0.469403
-0.167573
-0.533101
0.562566
0.607347
-0.182239
0.183059
0.485123
-0.187518
0.372845
0.0503714
-0.00252996
0.580215
0.518028
0.0601466
-0.0171455
-0.195825
-0.160453
-0.00763649
-0.497166
0.628934
-0.348588
-0.012347
0.200907
-0.528625
-0.508041
0.326759
-0.0262263
0.0984519
0.470863
0.510389
-0.0510102
-0.486224
-0.624278
-0.452799
-0.469376
-0.16085
0.557533
-0.582584
0.323043
0.102147
-0.0423659
-0.367017
0.179989
-0.333153
0.337085
0.668864
0.345191
-0.555025
0.0628698
0.447676
-0.768382
0.170488
-0.237057
0.355645
0.20591
0.0302912
0.245364
-0.664155
-0.698092
-0.30588
0.684969
-0.0715474
0.129109
0.738449
0.307182
0.418702
-0.1413
0.345605
0.502557
-0.365918
-0.320569
-0.083743
-0.11487
0.36352
0.0879118
-0.612262
0.46987
-0.147659
-0.341279
-0.546772
-0.354623
-0.00391192
0.53664
0.0386323
-0.546164
-0.191059
0.700043
0.586938
0.100121
-0.712421
-0.708718
-0.0495855
0.0569795
0.293776
-0.0882013
-0.291722
-0.172084
0.539966
0.626673
-0.250737
0.71242
-0.398408
0.261842
-0.28797
-0.695266
-0.121845
-0.0259212
0.36756
0.338898
0.438548
0.58848
0.661081
-0.613834
0.283795
0.121281
-0.493505
-0.71895
0.0208935
-0.672768
0.227702
0.160345
-0.592631
-0.593279
-0.682559
0.19976
0.0250628
-0.149495
-0.523154
-0.541581
-0.254602
-0.0872945
-0.415443
0.177844
-0.547169
0.268783
0.189809
-0.00413455
-0.608973
-0.33187
-0.3435
0.567708
-0.331483
-0.460563
-0.670604
0.777543
0.46476
-0.113701
-0.93592
-0.406925
-0.179641
0.248531
0.39986
0.0167561
0.441545
0.519613
-0.478822
-0.332255
-0.334463
-0.0963565
0.162943
0.127929
0.517784
0.233558
-0.561503
0.591402
-0.0411495
0.439915
-0.283527
-0.264868
-0.449908
0.0420045
-0.382533
-0.109818
0.415339
-0.189088
-0.295373
-0.225376
0.363678
0.00754265
0.148831
-0.598537
-0.765274
-0.0180961
0.263035
0.507816
-0.0279789
0.509872
-0.789548
0.0805824
-0.496079
0.0315212
-0.304595
0.732935
-0.370135
-0.157928
0.602059
0.469294
-0.155593
-0.590032
-0.777784
-0.020628
0.386827
-0.147672
0.590694
0.267574
0.336717
-0.54881
-0.664006
0.0705809
0.0161277
0.509798
0.045897
0.0492378
-0.349829
-0.59011
0.097383
0.222017
-0.655165
-0.0479813
-0.264755
-0.468246
0.740476
0.216928
-0.320697
-0.407937
-0.507977
-0.492244
0.451861
-0.259673
-0.306471
0.722811
0.657864
-0.590073
-0.29787
0.413917
0.357531
-0.643782
0.535774
0.411419
0.137745
0.196533
0.0343957
-0.686468
-0.67499
0.494224
-0.0568757
0.09882
0.333287
-0.138642
0.790591
0.749398
0.165496
0.750015
0.0631597
0.513942
-0.432592
0.27933
0.806121
-0.578448
-0.63217
-0.175172
-0.386427
0.698696
-0.149244
-0.0250146
0.0298779
-0.385473
0.0804213
-0.001598
0.588332
-0.529716
0.71838
0.19949
-0.324665
-0.631426
0.0556782
0.316627
0.289475
-0.525396
-0.53749
0.262276
-0.617322
0.0801819
0.0143787
0.260009
0.0668545
0.552711
-0.266071
-0.028902
0.574455
0.0306915
0.183931
-0.737144
-0.488786
-0.490566
0.200235
0.656842
-0.269891
-0.421409
-0.111833
-0.3106
-0.237795
-0.145871
0.516516
-0.0408446
0.102188
-0.183537
-0.241689
-0.481169
-0.279546
-0.436634
0.54207
0.00552826
0.704169
-0.141855
-0.480693
-0.099292
-0.583292
-0.0111239
0.793364
-0.407612
0.733687
0.479936
-0.613442
-0.49665
0.716166
0.51698
-0.477278
-0.207268
0.512161
0.0868871
0.215592
-0.515073
0.666238
-0.111758
0.428429
0.220811
0.468543
-0.53206
0.517039
-0.398611
-0.289833
-0.138582
0.220657
-0.377625
0.432009
0.449823
0.327814
0.73766
-0.193661
0.464737
-0.665234
-0.500584
-0.0642067
-0.353434
-0.175742
0.129065
-0.569741
-0.0154366
0.69138
0.711339
-0.806628
0.0380228
-0.453695
-0.656259
0.696585
0.648302
0.0728085
0.158908
0.592941
-0.337242
0.558154
-0.347461
0.42208
0.13333
0.0841399
0.117732
-0.0345384
-0.334563
-0.0903624
0.391255
-0.647311
0.211043
0.787618
0.140112
0.450857
-0.211043
-0.378513
0.714533
0.395433
-0.761054
0.611996
0.644238
0.0815587
-0.642193
-0.773297
-0.0284771
0.673059
0.202997
-0.52362
0.387891
0.56252
-0.340995
-0.682547
-0.0762218
0.522886
0.317109
-0.674291
-0.583779
0.700135
0.055958
0.542081
0.88159
-0.490543
0.452931
0.174506
-0.543775
-0.197371
0.762535
0.611139
-0.942545
0.326603
0.410108
0.748659
-0.202383
0.411102
0.73217
0.449305
0.297561
0.0632276
0.683471
0.149603
-0.298877
-0.544189
0.410208
0.625225
0.349847
-0.2102
-0.919704
0.561724
-0.212583
0.110976
0.495678
-0.253403
0.405598
0.0718511
0.629778
0.302378
0.503782
0.370288
0.157388
0.405885
0.0442627
-0.0625502
0.372131
0.687813
-0.267267
0.249836
0.428721
-0.686429
-0.517582
0.396924
0.380911
0.17728
0.6912
0.353924
-0.0860551
-0.16543
0.475435
0.155654
-0.269451
-0.361085
-0.427893
-0.530595
-6.2432e-05
0.692831
0.107473
-0.272234
0.30889
-0.130977
-0.903325
0.0310538
-0.506966
0.264172
0.661448
0.626445
0.232905
-0.392919
0.101244
-0.0819203
-0.191854
0.676727
-0.486183
-0.552032
0.19878
0.632884
0.0344936
-0.481159
-0.0639062
0.0632092
0.488793
0.500424
0.0219844
0.591225
0.392349
0.705289
0.595219
-0.0593361
-0.144434
0.0219808
0.443718
-0.189357
0.975126
-0.508989
-0.599169
0.767118
-0.65891
0.403797
-0.699929
0.175736
-0.414753
-0.0561906
0.153017
-0.312771
-0.0591342
-0.456797
-0.541735
0.667743
-0.0204938
0.0361182
-0.167259
-0.580545
-0.215869
0.649252
-0.493364
-0.908253
0.540015
-0.687502
-0.135239
-0.544294
0.225357
-0.263672
0.244924
0.148029
-0.229856
0.442838
-0.0469571
-0.239438
-0.120304
0.0423296
-0.585922
0.19616
-0.726339
0.316586
0.527776
0.0443024
0.674742
0.695882
-0.0470847
-0.167629
0.052186
0.684709
-0.00797263
0.371495
0.43093
0.340975
0.413287
0.286827
0.257677
-0.203218
0.400642
-0.391743
0.224859
-0.0567266
0.689584
-0.473667
-0.58839
-0.195094
-0.208749
0.112085
0.765291
-0.00065081
-0.627216
0.883002
-0.23671
0.541227
0.0031219
-0.289009
0.506248
0.639889
0.278698
-0.0349929
0.484281
-0.192305
-0.487751
0.0882577
0.384903
-0.510711
-0.582585
0.0328318
0.10264
0.751707
0.339638
-0.236201
-0.298831
0.244978
-0.0547354
-0.100327
-0.740131
0.735798
-0.793767
-0.606304
0.119887
-0.488344
0.867332
0.465927
-0.759747
-0.155678
-0.680973
0.621035
-0.208948
0.426477
-0.155278
-0.475125
0.524921
0.236683
0.183675
0.275876
0.46635
0.63044
-0.428403
-0.0530937
0.446614
0.755325
0.445913
-0.655996
0.134317
-0.343647
0.0354538
0.351534
-0.568596
0.181393
0.246646
0.502709
0.285297
0.276233
0.240332
0.14076
-0.46717
0.37887
0.130388
0.00136549
0.0231176
0.724817
0.2129
-0.301572
0.264807
-0.146436
-0.709161
-0.130103
-0.456979
-0.455797
0.477669
0.431176
-0.482205
0.275389
0.684528
0.49794
0.711647
0.0189476
0.0412478
-0.412355
-0.619188
-0.464574
0.422642
0.34613
0.630382
0.100085
-0.290317
0.547247
-0.42293
0.579746
-0.162274
0.359043
0.606595
0.696764
-0.629563
0.0023237
-0.2533
-0.42529
-0.721085
0.198346
-0.0655593
0.828335
-0.213049
-0.0478577
0.215406
-0.255119
-0.277156
0.295191
0.524985
0.405555
0.34492
0.399681
0.816541
0.167521
0.0174853
0.111104
-0.131567
0.25187
0.0659544
0.0279008
0.217714
0.279332
-0.0546068
0.17547
0.221144
-0.0151261
-0.148242
-0.179532
0.0529619
-0.138292
0.0918972
0.290494
-0.175677
-0.234554
0.0115926
0.21103
-0.0629365
0.189444
0.0645809
-0.162417
0.09246
-0.0662538
-0.252702
0.145077
-0.184767
0.0840594
-0.0883493
0.0287647
0.0860795
0.25448
-0.212011
-0.0650632
0.251524
0.0161204
-0.19724
0.284076
0.234244
-0.0455393
-0.173846
0.0387789
0.0858907
0.259015
-0.0176998
0.266255
0.289707
0.243937
0.205688
-0.113059
0.142094
-0.0910559
0.0924242
-0.012006
0.212752
0.14502
-0.305083
0.283609
-0.0738304
-0.0568315
0.0254998
0.251431
-0.125844
0.122906
-0.147427
-0.138316
-0.13193
0.0199533
-0.202792
-0.290415
0.288592
-0.145565
0.101972
0.0559838
-0.188466
-0.22028
0.0637941
-0.237049
-0.26154
-0.0618357
0.0140406
0.202857
0.212555
-0.162298
-0.132724
0.104473
0.192761
-0.051342
0.0748851
-0.126338
0.12784
-0.203706
-0.148755
-0.248158
0.264199
0.0286343
-0.0904376
-0.27559
-0.242834
-0.0423646
-0.212452
-0.296234
0.130485
0.13921
0.0916565
0.191948
0.228716
-0.12036
0.315049
0.243254
0.116292
0.00375406
0.157407
0.00882055
0.0589674
-0.297157
-0.218603
-0.0198362
-0.0699036
0.151527
0.158128
-0.239316
0.20157
0.247523
-0.192663
0.152541
-0.00840721
0.0141559
0.13993
0.0659319
0.228853
0.190976
0.0205067
0.0236958
0.0467899
-0.141895
-0.0171715
-0.0444117
-0.0138141
-0.0131455
-0.0740455
-0.21471
0.277612
-0.19538
0.0755609
0.0760035
-0.198982
0.138561
-0.235163
-0.00878162
-0.0295697
0.175095
0.0572948
-0.0895261
0.146389
0.130912
-0.250868
-0.167319
-0.189595
0.139628
0.196518
-0.255389
0.0385937
-0.0340194
0.121091
-0.210962
0.0782124
-0.236992
0.0705741
-0.175066
0.0770717
0.291049
-0.0653097
0.0478596
-0.266814
-0.289914
-0.218454
-0.133678
0.129262
-0.171525
0.10935
-0.148701
-0.253114
-0.150244
0.0209279
0.205479
-0.279667
0.072607
-0.279903
-0.125427
-0.112409
0.252805
-0.138725
0.2502
-0.104
0.24629
-0.264969
-0.226905
-0.161835
0.127808
-0.137216
0.131092
0.0696647
0.105574
-0.204187
0.129592
0.103377
-0.0534393
0.26121
-0.0762335
0.079731
0.108118
0.130816
0.11704
0.304389
-0.10849
0.0103581
-0.278118
0.23419
0.0949873
-0.147533
-0.117961
0.00806735
0.0579364
-0.285372
0.207781
0.103253
-0.223647
0.190516
0.0984703
0.237709
-0.24491
-0.103019
-0.0467762
0.114221
-0.0198559
-0.206299
-0.103623
0.22756
-0.299205
0.151455
0.0149527
0.108394
-0.0609892
-0.153691
0.0477543
0.0460057
0.136287
0.122556
-0.0252846
-0.00955948
0.262215
0.0540224
0.18901
-0.0170326
0.140336
0.159705
-0.282962
0.222484
0.0729773
0.114041
0.13438
0.128884
0.30338
-0.188458
-0.108437
0.0548913
-0.146138
0.107831
0.0192724
-0.0451342
-0.0356257
-0.28823
-0.175182
0.177543
-0.0781179
0.162426
-0.0442557
-0.195458
-0.064078
0.0847161
0.00953413
-0.0141751
-0.0786232
-0.100419
0.210821
-0.197743
-0.162094
0.259067
-0.305494
0.172977
0.0462791
0.119423
-0.0357107
0.030724
0.179892
0.163096
-0.263853
-0.232598
-0.00879871
-0.0272018
0.037417
0.219983
0.0068247
0.129014
0.0912273
0.184199
-0.0128802
0.239048
0.218752
0.239405
0.0845101
-0.0284104
-0.127924
-0.237575
0.141482
-0.139412
-0.185863
-0.267132
-0.207336
-0.191746
0.206687
0.112382
0.273201
-0.184116
-0.205211
0.178585
-0.286422
-0.139608
-0.275526
0.0254733
0.172496
0.0469552
-0.0604442
-0.0954707
-0.159551
0.282594
-0.240729
0.125449
0.275886
-0.233262
0.0139188
0.0527104
0.0120393
0.252528
0.0581783
-0.118349
-0.19777
0.192163
-0.0742069
-0.05084
0.306343
-0.214922
-0.226188
0.228729
-0.0312037
-0.0787936
0.1265
-0.0580555
0.0732779
0.144472
0.285117
-0.118747
-0.133999
-0.118391
0.0331887
0.0147007
-0.13055
0.194397
-0.172567
-0.18132
0.180435
0.169102
0.153854
-0.130567
0.140079
-0.0772917
0.0743219
0.263182
-0.222032
-0.289415
-0.10287
-0.242635
-0.187523
-0.0666461
-0.310215
0.0803694
0.150513
0.136256
0.265468
-0.0989408
-0.0274571
0.266242
0.107131
0.124951
-0.147382
-0.0823413
-0.134418
-0.0617766
-0.222025
0.0111571
0.0702242
0.228315
-0.137901
-0.0543959
-0.222114
-0.311332
0.117917
0.267559
0.251584
0.198777
0.16973
-0.109563
0.242165
-0.247836
0.125214
0.301759
0.0833723
-0.0329349
0.104571
0.0681553
0.216626
-0.279891
-0.0338975
0.000934773
0.227166
0.110253
0.208589
-0.215089
-0.190103
0.206478
0.0027084
0.211256
0.212653
0.125569
-0.18981
0.283866
0.127733
0.192341
0.180781
0.112087
0.104114
0.1414
0.292321
0.0777511
0.181455
0.122264
0.0400663
-0.0611103
-0.166333
-0.117724
0.225717
-0.240025
-0.0948171
-0.118157
-0.0157057
-0.15822
-0.228738
-0.0740252
-0.15849
-0.121491
-0.148446
0.110127
-0.254038
0.259676
-0.00471603
-0.168331
0.27168
-0.19095
-0.219091
0.144603
0.262859
0.195477
-0.0860789
0.151544
0.00427114
-0.225089
0.0436029
-0.274215
-0.0480604
0.19209
-0.11293
-0.173918
0.171649
0.171841
0.0935763
-0.171292
0.240842
0.128543
0.0618198
-0.17286
0.244823
0.132296
0.284276
-0.328571
0.175955
-0.0699572
-0.184661
0.120452
0.0211273
-0.0941231
-0.0272021
-0.094548
-0.222585
0.211726
-0.160198
-0.0115506
0.297607
0.178249
0.0636423
-0.079298
0.0348785
0.230286
0.0951152
-0.113752
0.131993
-0.117146
0.0576544
0.0669758
0.296872
-0.245229
0.186754
0.266317
0.190618
0.114228
0.258838
0.105638
-0.270068
-0.182842
-0.118849
0.0199385
0.0253151
0.16553
0.186466
0.133
0.066139
-0.249867
-0.130526
0.0745958
0.204396
0.198626
-0.291336
-0.0822267
0.181191
0.0984616
0.108557
-0.00606521
0.285821
-0.170472
-0.24447
0.301861
-0.0756958
0.204928
0.242053
-0.141288
0.0422619
0.226409
0.212378
0.0525595
-0.234044
-0.185313
-0.218009
0.0566577
0.2747
0.305966
-0.139857
0.0820164
-0.246459
0.0122064
-0.142808
0.24862
-0.0972956
-0.13517
-0.138838
-0.205742
0.250048
0.264868
0.0343861
0.27959
-0.176522
0.0945638
0.215511
0.0253973
-0.00508551
0.21246
0.164043
-0.266687
0.131825
0.0934755
0.0686133
0.139939
0.232551
0.134879
-0.100399
0.230346
0.124004
0.0986915
-0.0127132
0.155935
-0.16885
0.168315
0.163414
0.0486586
-0.278306
0.294214
0.117065
0.273381
0.242489
-0.162302
0.260532
-0.268742
0.256774
0.228757
0.0784997
-0.0551164
0.0903782
-0.0241551
-0.033756
-0.0631299
-0.258837
-0.275138
-0.233339
0.298929
0.187369
0.0044337
0.216661
0.0429374
-0.202764
-0.0580329
-0.0788797
-0.0757653
-0.197852
-0.278945
0.235256
-0.207575
-0.266638
0.0793422
-0.243147
0.270042
0.247466
-0.241497
-0.275513
0.178359
0.215229
0.101144
-0.125934
0.0254263
-0.23232
0.161648
0.257296
-0.193259
0.202355
-0.246963
-0.212981
0.0803501
0.0395222
-0.29949
-0.174157
0.133485
-0.097862
0.0419699
-0.213879
-0.0426087
0.0757034
-0.291406
0.0981482
0.118773
0.0931266
0.183602
0.0860243
0.0219961
0.16611
0.106696
-0.0389697
0.13357
-0.0945634
0.115131
-0.102656
-0.0479686
-0.0587562
-0.149853
0.0629462
-0.113418
-0.139755
0.122365
0.273191
0.230495
0.132797
-0.203149
0.0782458
-0.267363
0.149197
0.158212
0.06053
-0.0761079
0.206902
-0.174198
-0.259986
-0.0143736
0.291171
0.0929802
-0.247359
0.19999
-0.106702
-0.00730122
0.0513196
0.106545
-0.24941
0.227993
-0.299592
-0.0566231
-0.277069
0.041616
0.206345
-0.0189419
-0.0673568
0.176768
-0.143113
-0.297468
0.208768
0.302811
-0.197123
0.101838
0.137723
0.136911
-0.249237
0.0756099
0.207596
-0.225267
-0.269879
0.192794
0.11792
-0.259049
0.0565123
-0.196269
0.0736636
-0.169924
0.163443
0.0802065
-0.270508
0.138931
-0.118689
-0.217484
-0.0444672
-0.245629
0.0622159
0.171823
0.188327
0.215615
0.247194
0.185512
0.264883
0.234624
-0.0958717
0.16246
0.0211868
-0.0561782
-0.0938281
-0.0491338
0.0642544
-0.0684942
-0.186552
-0.0744314
0.00498053
0.261928
-0.0785999
-0.280211
-0.213299
-0.23805
0.199597
-0.118279
0.27795
-0.25083
-0.093007
-0.096676
-0.192433
0.303083
-0.230717
-0.222876
0.263563
0.199686
0.220811
0.167425
0.127234
-0.0737852
0.0732633
-0.0984056
0.192936
0.198164
0.124121
-0.0235428
-0.114269
-0.254634
0.0963896
0.199493
0.33904
-0.306701
0.325602
-0.219571
-0.199407
0.178519
-0.16719
-0.317371
0.217534
0.109875
-0.0803024
-0.190215
0.0978447
-0.0299334
-0.198288
0.0436331
-0.0999099
-0.233174
-0.0561486
-0.20783
0.0119124
-0.179397
-0.0708871
-0.106855
-0.292043
-0.201928
0.124433
-0.0737715
-0.204543
-0.0820598
-0.122072
-0.232996
-0.0740301
-0.191139
-0.10102
0.0134343
0.276752
0.0320307
-0.000955712
0.166361
-0.141002
0.247505
0.269506
0.215339
-0.086421
-0.202509
-0.0368961
0.111599
-0.204247
-0.278994
0.139406
0.123558
-0.234198
-0.16407
-0.261835
-0.200884
-0.036288
0.161997
0.0067566
0.0729553
-0.222908
0.143381
0.112626
-0.0101716
0.28532
0.266483
0.278971
0.234852
0.0197162
0.0168997
0.205839
0.146606
-0.0332225
0.110561
0.134613
0.190474
0.239062
-0.126299
0.0568508
-0.272708
-0.190364
-0.040621
0.20489
-0.146092
0.104926
0.250387
-0.0269458
-0.290974
0.0938203
0.272639
0.0741116
0.148566
0.153111
-0.0580194
-0.124754
0.0711201
-0.121692
-0.180253
0.0699399
0.221498
0.154021
-0.0606568
0.0352796
-0.165299
-0.177074
-0.13298
-0.249629
-0.31494
-0.000748317
0.0843934
-0.237839
0.159557
-0.252326
-0.284541
-0.244864
0.128807
0.263715
-0.00780757
0.163987
-0.00953713
0.0404474
-0.0836147
-0.0990675
-0.168476
0.0875991
0.0368281
0.20961
0.2409
0.196205
0.00914911
0.159476
-0.00157068
0.303887
-0.0951295
0.189403
-0.224784
0.104027
0.217791
-0.228308
-0.148808
-0.0641231
-0.135436
0.21304
0.0344598
-0.155709
0.281381
-0.112906
-0.14938
-0.0303763
-0.303841
0.183327
0.331027
-0.087165
-0.224429
-0.199745
-0.261136
0.134116
-0.193226
-0.251605
-0.00464055
0.0666151
0.180898
-0.261136
0.0146623
-0.155368
0.202574
0.0987194
0.216902
0.0754247
0.108851
-0.231704
-0.233323
0.259884
0.256599
0.127775
-0.142428
0.208973
0.2842
-0.0685295
-0.0917989
-0.30876
-0.154758
-0.183742
-0.120407
-0.0958587
0.057479
-0.0907649
0.265659
0.0446644
-0.0422661
-0.021754
-0.146901
-0.203921
0.0618474
0.125304
-0.0407555
-0.0740672
-0.0261304
-0.170145
0.27158
-0.208174
-0.0950742
-0.231688
-0.194571
-0.145321
0.245365
-0.0306817
-0.175878
0.193016
0.218067
0.0279465
0.218627
-0.280998
0.134433
-0.184176
-0.0191859
-0.166632
0.0563823
-0.0766242
0.245331
-0.262688
0.241253
-0.245543
-0.128821
-0.069864
0.279588
0.0886344
0.160026
-0.138535
0.223143
0.110168
-0.00205862
-0.11175
0.172509
0.0588979
0.0401872
0.114051
0.332984
0.148501
0.00153898
0.24958
-0.176834
-0.0935215
0.243553
0.281262
0.00379432
-0.108742
-0.166222
-0.161156
0.137471
-0.255839
-0.208323
0.0322798
-0.166061
-0.0232216
0.285194
-0.218884
-0.234359
0.121075
-0.0351622
-0.188642
-0.0500375
0.167785
-0.0262589
-0.15064
-0.0802162
-0.29134
0.199182
-0.0272525
0.147199
-0.065975
-0.135277
0.243758
0.142734
-0.128501
0.223241
-0.104699
0.0334601
-0.195084
0.00972761
-0.201516
-0.171227
0.112052
0.217498
-0.0360901
-0.248824
0.136334
-0.000187523
-0.11912
-0.0545586
0.274375
-0.106876
0.172013
0.163296
0.168862
-0.284196
-0.157731
0.185978
0.242268
0.0957109
-0.00979115
-0.106208
0.229737
-0.0519705
-0.261578
-0.285375
-0.0944284
-0.0665627
0.0142354
0.0145527
0.3184
0.141395
0.11793
0.0745619
0.0538806
-0.168117
0.148118
-0.0634592
0.173616
-0.267312
0.13976
0.132657
-0.0249678
0.0742458
-0.0799406
-0.18769
0.047334
0.0881733
-0.334751
0.0190446
-0.132834
0.0184256
0.217321
-0.280315
0.277583
-0.257989
-0.164889
-0.11638
-0.0431068
0.151208
0.181416
-0.0238134
0.0907682
0.0517263
-0.33073
-0.191358
0.245715
0.15699
0.00345288
0.0990633
0.198237
-0.160373
-0.105392
-0.115938
0.140053
0.176475
0.0247935
-0.0644024
-0.0842429
0.0522068
0.265052
0.0510542
-0.285387
0.21362
0.16492
-0.222976
0.24136
-0.2958
-0.0766663
-0.0987303
0.195823
-0.135678
0.125635
-0.0564504
0.277886
0.144965
0.153148
0.166022
0.0436929
-0.241932
-0.077279
-0.0316002
-0.0331203
0.111399
0.123849
-0.138126
0.0188582
-0.226784
0.0906373
0.243147
0.139065
0.118842
0.0209039
0.151947
0.0466326
-0.111595
0.168819
-0.00415197
-0.0320779
-0.145459
0.212192
-0.192991
0.02306
0.0691068
0.136315
-0.0248112
-0.0382012
-0.117948
-0.186994
0.255561
0.0108347
0.07472
-0.138253
0.238318
-0.0966557
-0.233373
-0.249885
0.167394
-0.184186
0.19323
0.151539
0.253968
-0.0290786
-0.132806
0.144774
-0.226513
-0.0182337
0.017404
0.0150045
0.255338
0.177417
-0.063545
-0.251507
-0.16686
0.299787
0.127258
0.122679
-0.134104
-0.194405
0.250674
-0.201134
0.0514252
0.0405254
0.0464909
0.022647
0.210951
0.102821
0.108379
0.122699
0.254216
-0.0492951
-0.0132941
0.192208
-0.245868
0.128167
0.00921856
-0.214999
-0.0681297
-0.253339
0.0908578
-0.137714
0.170174
-0.25568
-0.0329226
-0.250566
-0.332204
-0.166798
0.187742
-0.10758
-0.0520926
0.0974543
0.0760394
-0.246838
-0.181435
-0.176009
0.052956
-0.199836
0.1649
-0.152982
0.274445
0.142248
0.169634
0.0123475
0.0275945
0.184406
-0.134741
-0.231441
0.265662
0.010346
-0.183558
0.0673972
0.270218
0.294196
0.0815781
-0.12454
-0.253488
0.121292
0.0397977
0.20406
0.26983
0.302732
-0.0397809
0.0453743
0.320938
0.168923
0.141778
0.0485309
0.285561
0.0582789
0.175911
0.266709
-0.13368
0.0774059
-0.0163501
0.156129
-0.0186865
0.0925795
0.206939
-0.0655188
-0.158971
-0.311234
-0.278307
-0.26836
0.259011
0.163009
-0.0444299
0.316583
-0.113316
0.24349
0.153767
-0.0872714
0.179733
-0.17212
0.2245
0.185588
0.302758
0.0703324
-0.0872666
0.239891
-0.210236
-0.0856411
0.191692
-0.0478266
0.261395
-0.0979528
-0.191071
-0.0806584
0.230605
-0.274285
0.14807
-0.224665
-0.232323
0.188656
-0.14742
-0.296355
-0.0233644
0.0652195
-0.254508
0.227498
0.0269624
0.192823
-0.134392
-0.0457112
-0.25159
-0.216359
-0.144936
0.244123
0.136571
0.0741625
0.241119
0.236291
0.250312
0.111476
-0.0727946
0.158984
0.307312
-0.0261728
-0.174754
0.218019
0.0673204
-0.282183
-0.25105
0.0835164
0.202896
-0.105194
0.0852349
-0.0585003
0.276439
0.112289
-0.141224
-0.0105454
-0.0395968
-0.0129915
0.246051
0.0076183
0.0408693
-0.18892
-0.0166871
-0.092647
0.21778
-0.0879686
-0.190415
0.103859
-0.279216
0.0661823
0.0262255
-0.257032
-0.262145
0.167323
0.250169
0.0848856
0.178663
0.24481
-0.0631425
0.131771
-0.122865
-0.254709
-0.285994
-0.112554
0.0991892
-0.0932118
0.146038
-0.193688
0.159127
0.143954
0.148673
0.0209288
0.18769
-0.249417
0.137509
0.0332547
-0.0569867
0.260756
-0.143751
0.0242203
0.0123248
0.163878
0.0489521
0.0948491
0.0568595
-0.055225
-0.0255172
-0.117275
-0.0421292
0.218677
0.288824
0.151096
0.155126
0.259973
-0.187694
-0.0247018
-0.155204
0.236229
0.0999563
-0.241649
-0.0287052
-0.0555638
-0.0518992
-0.0547636
0.022641
-0.149435
0.258695
-0.204584
-0.161073
-0.135098
0.0464831
0.135358
-0.3051
-0.206811
-0.0538239
0.00711375
0.0492951
0.183391
0.189919
-0.229666
-0.0359948
0.140421
0.181625
-0.0937748
0.208699
0.208275
0.227906
-0.250816
0.0764068
0.0141004
-0.134791
-0.213592
0.290385
0.117893
0.0464101
-0.00506358
0.267079
-0.0746841
0.0136893
-0.164272
0.113031
-0.247597
0.266687
0.0783859
-0.143086
-0.0713473
-0.132372
0.247207
-0.186219
-0.255997
0.321859
0.168199
0.298963
0.191747
-0.183404
0.0983285
0.114943
0.312426
0.116734
-0.063149
0.0238641
0.279313
0.0379039
0.0227912
0.0966372
-0.256495
-0.221089
0.0771587
-0.014928
0.12403
0.134014
-0.26519
0.192105
0.065761
0.145612
-0.203977
0.298982
0.246993
-0.225235
-0.213354
-0.282908
-0.242561
0.229733
0.240936
0.244215
0.283339
0.0379903
0.0350776
0.259176
-0.0989083
0.280845
-0.0114037
-0.11824
0.0393745
-0.268802
0.270535
0.0831057
-0.210669
0.0278448
-0.245378
0.207659
-0.122216
-0.178836
0.114697
0.236973
0.252195
0.204815
0.221547
0.181803
0.257996
-0.290258
0.202076
-0.265807
0.255284
0.139185
0.283332
0.22268
-0.101424
0.0394904
0.201112
0.0763466
0.0301774
-0.103597
0.281691
-0.27746
-0.0985781
0.255046
0.0871808
-0.0139621
-0.0151499
0.174218
-0.112404
0.161867
0.263067
0.288527
0.0883036
0.222349
0.186837
0.0317284
0.118347
0.163778
0.024543
0.0307564
0.19241
-0.0197795
-0.132463
0.146967
-0.0793789
0.0513118
-0.0978873
-0.186227
-0.170095
0.204617
-0.0161245
-0.165333
0.23855
0.188564
-0.235058
0.0391352
-0.0997905
0.0257636
-0.123987
0.0647419
-0.150085
-0.14338
0.058305
0.232482
-0.245991
-0.0669242
0.0198411
0.178451
-0.194151
-0.261024
-0.0882967
-0.300736
0.0104133
0.094497
0.232735
0.155551
-0.133742
-0.17594
-0.268801
-0.039343
-0.311522
0.00912738
0.0948903
0.274423
-0.0563697
0.143434
-0.0384659
0.0848847
-0.0674131
0.220095
-0.153751
0.0675861
-0.14767
0.282241
0.0395541
-0.108914
-0.143571
-0.225909
-0.226732
0.0636218
-0.201807
-0.0696594
0.0980865
0.130622
-0.196128
-0.0444208
0.0276751
-0.0628602
0.0742873
0.0942701
0.281173
0.084209
-0.173576
0.0588287
0.0135963
0.0827181
-0.074764
-0.221823
-0.108497
0.108443
0.274879
0.0136949
-0.104607
-0.233725
-0.0391632
0.287304
-0.10875
0.10728
-0.178623
0.0171361
-0.109325
-0.181095
0.259196
0.234607
0.237694
-0.2709
-0.0655307
0.0302976
-0.00310226
0.275913
-0.217782
-0.0990376
0.132465
-0.0545132
0.253053
-0.125742
-0.258135
-0.200706
-0.0716347
-0.107589
0.316139
-0.111456
0.31289
-0.0682735
-0.0464061
-0.14669
-0.0794603
0.146083
0.259691
-0.0349009
-0.236423
-0.190476
0.110971
-0.291034
-0.228958
0.0382931
-0.164023
0.0137711
-0.180427
0.134297
-0.143562
-0.0557215
0.320316
-0.280949
0.101446
0.201178
-0.0618612
0.184314
-0.226117
0.073701
-0.195332
-0.231049
0.27255
0.224157
-0.0251725
-0.126905
-0.172308
0.171265
-0.286115
-0.217408
-0.120595
-0.173391
-0.0769996
0.183413
-0.0996765
0.0902658
0.00499366
-0.0646563
0.285271
0.114121
0.280067
-0.0309766
-0.298248
0.246672
0.0227475
0.159677
0.123508
0.215846
0.0335564
0.268183
0.0512994
0.0671948
-0.279499
-0.00666967
0.0679587
0.00263048
0.168132
0.193039
-0.144249
0.222481
0.277092
-0.0369307
-0.213455
-0.0366249
-0.0853657
-0.123815
0.231799
0.26421
0.169336
0.244977
0.101159
0.0599008
-0.0689165
0.116663
0.114645
0.110096
0.0545997
-0.0220532
0.0496944
-0.226679
-0.051256
-0.188955
0.264696
-0.0752093
0.0697311
-0.0592936
0.251136
0.00275118
-0.123669
-0.194594
-0.145522
-0.116085
0.0754789
-0.124502
0.0580724
-0.303536
0.183948
0.0910217
0.348509
0.0320991
-0.0180808
0.0629973
-0.171485
0.158661
-0.0787839
0.283665
0.0206317
0.226008
-0.0844859
-0.185362
0.26569
0.1767
-0.138291
0.150857
-0.15409
0.225114
-0.184953
-0.265982
-0.165429
-0.09181
-0.140887
0.0435245
0.0733813
0.243605
-0.296747
-0.153169
0.235873
0.173936
0.175946
0.185552
-0.0899359
-0.128063
0.0115485
0.0758697
-0.233393
0.211875
0.034083
0.0970638
0.177881
0.303293
0.214119
0.183209
0.19146
-0.211911
0.0479819
-0.279963
-0.291543
0.153302
-0.227766
-0.0858037
-0.194521
-0.0845074
0.256876
0.131672
-0.173357
0.248213
0.313381
-0.194739
0.135452
0.166755
-0.267044
-0.279282
-0.263802
0.0442541
0.0856999
-0.217241
0.000864169
-0.19662
0.235833
-0.123116
-0.186681
0.10952
-0.249788
0.280918
0.210729
0.0558239
0.273796
0.213871
-0.091128
-0.240927
-0.185201
-0.041449
-0.0119139
-0.200274
-0.163116
0.127106
-0.250607
-0.162298
0.242474
0.162126
-0.31316
0.235244
0.201268
-0.252238
0.0284402
-0.0333252
-0.146416
-0.267227
0.0998095
-0.233359
-0.091299
0.202604
0.152982
-0.0212925
0.13107
0.0865656
-0.22624
0.139444
0.0178098
3.10781e-06
0.202009
0.183828
0.27493
-0.102398
0.227412
-0.157969
-0.208698
-0.276528
-0.0170307
0.263631
0.165667
-0.0339794
0.212753
0.0965334
-0.0206452
-0.0348623
-0.236412
0.156589
-0.0417754
0.159868
0.202816
0.155688
0.119375
0.0538769
-0.144877
-0.0347401
-0.142124
-0.0769008
-0.194937
0.133728
0.202554
-0.263927
-0.0299514
0.170143
-0.0579889
-0.0597482
-0.264251
0.00277095
-0.0474621
-0.0434093
-0.0592739
-0.158344
0.242305
-0.124379
0.188221
-0.0329988
0.0768245
0.276111
-0.175384
-0.220248
0.168488
-0.240121
0.213429
-0.0769201
0.0909107
-0.189564
0.161077
0.252119
0.0406399
0.263432
0.105791
-0.0665751
0.303002
-0.199527
-0.135267
-0.0846345
0.0202498
-0.179592
0.183542
0.31441
0.110312
-0.162661
-0.16018
0.004438
-0.00896659
-0.271618
0.316948
-0.192926
-0.237422
-0.205725
-0.135559
0.201951
-0.129956
-0.201893
-0.153193
0.277008
-0.0626365
0.254563
0.209284
0.232739
0.248813
0.00807052
-0.0071055
0.217417
0.164403
0.0950049
-0.179729
-0.157873
0.222227
0.304437
-0.0814703
-0.0309734
-0.195098
0.0440664
-0.314688
0.00586574
0.0956039
-0.259618
0.193016
0.0968607
-0.137694
-0.225312
-0.0138824
-0.0158872
-0.171311
0.0929441
-0.0101458
0.0562114
0.155765
-0.0769438
0.0166831
0.10769
0.184761
0.227641
-0.061254
-0.0285336
-0.030895
0.103559
0.150613
-0.131777
0.093778
-0.268834
0.149208
0.177806
-0.0331547
0.0978952
-0.0843902
-0.299122
0.104985
-0.145341
0.116245
0.179452
-0.189433
-0.213177
-0.0551041
0.026076
0.270198
0.270271
-0.280505
0.0308235
-0.252432
0.105558
-0.21756
-0.273389
0.0203909
0.0569545
0.022804
0.324929
-0.15293
-0.0846179
-0.313291
0.150946
-0.119515
0.145507
0.107098
0.130361
0.00903221
-0.229421
0.32913
-0.210159
-0.114811
0.102846
0.306495
0.111142
0.153224
-0.0973675
-0.183611
0.0676744
-0.1964
-0.194232
-0.219016
-0.0994149
0.211476
-0.0712377
-0.117266
-0.132368
0.271935
0.238479
-0.153558
-0.213146
-0.20531
-0.14913
0.249739
0.0999962
-0.195057
-0.0235525
0.00334905
0.067725
-0.00275447
-0.081363
0.111858
0.195557
0.27099
0.111327
-0.0324966
0.141835
-0.301786
0.0168713
-0.0492546
-0.169929
0.14348
0.0405242
0.0070053
0.0461738
0.303094
0.216326
0.279088
0.252008
0.209885
-0.187251
-0.295121
-0.235759
0.0560972
0.277353
0.120937
0.153409
-0.0922276
-0.200069
-0.0716556
0.212086
0.0415541
-0.267616
0.112506
-0.00420106
0.0923347
-0.235827
-0.171296
0.129853
0.0668059
0.0961745
0.24321
-0.0742368
-0.147114
-0.00858575
0.314838
-0.199935
-0.118349
0.214886
-0.240671
-0.221065
-0.268823
-0.260374
-0.179101
0.0938344
-0.299544
0.211141
-0.0626731
-0.0608685
-0.277776
0.149331
-0.176793
0.0649398
0.142669
0.206069
-0.240347
-0.00778468
0.28629
-0.094285
-0.194352
0.0797107
-0.306634
-0.29291
0.254796
-0.106045
0.0252814
0.22092
-0.0538799
0.197668
0.186216
0.0567766
0.310333
0.21868
0.0832328
-0.195355
-0.00444368
0.0928375
-0.263001
0.287078
-0.303292
-0.232966
0.106739
-0.128854
0.13481
0.000354869
-0.222717
0.193266
0.246209
-0.215406
-0.16945
-0.238097
0.208562
-0.108434
-0.225305
0.140487
0.000859715
0.0421322
0.0816876
0.253121
0.0215791
-0.0734544
-0.0316578
-0.0342674
-0.113795
-0.273993
0.148542
0.209843
0.166341
0.191947
0.193708
0.135651
0.181207
-0.0299708
0.268612
0.0340958
0.271954
-0.173336
0.00772819
0.258269
-0.138414
0.0840326
-0.247205
-0.267856
0.203829
-0.198209
0.169257
-0.118404
0.251153
-0.0596666
-0.153526
-0.0294731
0.171919
0.0552979
0.20727
-0.201202
0.131288
0.067689
-0.272469
-0.0763302
-0.0512066
0.221771
-0.24865
-0.0919491
-0.0580346
-0.278221
0.250051
-0.0985124
-0.184644
-0.0415224
-0.197656
-0.00716841
-0.303612
-0.191682
0.10512
0.272958
-0.0173335
-0.0397488
-0.209456
-0.0762348
0.231233
-0.0653135
0.0599291
0.131485
0.307079
0.0321254
0.259047
0.0305487
-0.157914
-0.268825
0.248302
0.0888144
0.202475
-0.238022
0.308367
-0.132961
-0.228718
0.212057
0.0303809
-0.0335393
-0.162761
0.208066
0.19993
-0.0944749
-0.245962
0.0438558
-0.21784
0.0306369
0.212304
-0.000727801
0.090487
0.237174
0.176897
-0.0433336
0.0949863
0.116037
-0.257084
0.115261
-0.0884524
-0.0410279
0.0921943
-0.108631
0.280717
-0.0510839
-0.0235355
0.20056
0.0678388
0.0167862
0.228861
-0.211168
0.280089
-0.247635
-0.288217
0.161158
-0.0769224
-0.239592
-0.103257
0.157213
0.0479191
-0.140728
-0.314408
-0.102724
-0.149147
0.146764
0.220681
0.0674509
0.0023844
0.268755
-0.251193
0.263685
-0.11721
0.221688
-0.127205
-0.119284
-0.113059
0.20418
-0.118263
0.332072
-0.130331
0.239398
-0.286035
-0.198482
-0.300657
-0.224941
0.263303
-0.0285174
-0.242893
-0.0792302
-0.330283
0.0622538
-0.0403361
-0.209957
-0.232571
0.0215422
0.242261
0.314432
-0.214991
-0.0950103
0.352776
-0.038005
-0.0614817
-0.204513
-0.0565461
0.0244638
0.0775144
0.00476212
-0.178127
0.180114
0.100289
0.0305872
0.131047
0.101563
0.137949
0.221315
0.283506
0.146359
-0.0814357
-0.298913
-0.259305
-0.0366029
0.198783
0.0214095
0.0882531
0.17742
-0.208042
0.0139037
0.186239
-0.0266639
0.244274
0.138029
0.280307
-0.149974
0.25122
-0.102307
0.201248
0.0305175
0.293353
-0.185809
-0.149658
-0.0298109
0.124388
0.293021
-0.205757
-0.00212076
0.147837
0.298506
-0.132235
-0.238791
0.253308
-0.111991
-0.0103853
0.122873
0.213117
-0.31016
0.0602936
-0.258803
-0.0134339
-0.10563
-0.00455653
-0.0702356
-0.235193
-0.0709104
0.110656
-0.235962
0.174054
0.0725493
0.0824114
0.130919
0.14029
0.200853
-0.165918
-0.0173898
0.174431
-0.0630974
0.294214
0.0355331
-0.0786383
-0.196414
0.100785
-0.0809275
-0.0274487
-0.209021
-0.231113
-0.0530582
-0.205536
0.081232
-0.0437229
0.12263
-0.275705
0.250245
-0.257492
-0.190891
-0.088752
0.171999
-0.152927
-0.250199
-0.101445
0.209443
0.14221
-0.22908
0.126035
0.251856
0.0198571
0.0237594
-0.128735
-0.00242
-0.216119
0.104128
0.152105
0.146321
-0.260478
-0.135699
0.305854
-0.260305
0.0377969
-0.18563
0.183017
-0.285489
0.191359
0.175965
0.279299
0.202165
0.303716
-0.162898
0.112368
-0.151929
-0.128172
-0.252432
-0.227886
-0.268149
-0.202407
0.179534
0.258558
0.124859
-0.0663194
-0.164319
-0.159492
-0.0180744
0.263733
0.274797
-0.145509
0.227894
-0.197789
-0.148291
-0.260759
0.171597
-0.055947
0.183529
0.153363
-0.17773
0.0922498
0.14428
-0.263804
0.0753935
0.272217
0.132763
0.197597
-0.140693
0.161132
0.273686
-0.124137
0.257243
0.174597
-0.133631
0.0370577
-0.209207
0.00734952
0.201878
0.0680498
-0.0287594
0.157528
0.246193
-0.051135
0.261633
-0.222085
-0.0491459
0.120436
-0.0303369
-0.164804
0.0324345
0.117565
0.195517
-0.155776
0.138594
-0.0315679
-0.195878
0.00920992
-0.104309
-0.0366965
-0.149136
-0.132441
0.0949739
-0.200464
-0.26941
0.219648
0.155461
-0.212176
-0.0147396
0.0542194
0.131498
0.215134
-0.0718365
0.0876068
-0.154127
-0.138409
0.137593
0.0866998
0.299602
-0.143825
0.22006
-0.0194213
0.256677
0.117219
0.105806
0.113924
-0.208378
0.208715
-0.196669
-0.0140078
-0.165284
-0.0537132
0.116423
0.238672
0.0653029
0.111421
0.182825
-0.0699695
0.216557
-0.116167
0.284008
0.0578808
-0.232406
-0.108544
-0.11727
-0.0832635
0.0579274
0.282997
-0.282654
0.0797965
-0.144616
0.208013
-0.1831
-0.156344
0.0735643
0.173281
0.217496
0.146822
0.0542093
-0.309846
-0.152197
0.206343
-0.0480545
0.255305
0.128893
-0.269156
0.0719624
0.109184
-0.0203695
-0.000897981
0.240988
-0.0515797
-0.204572
-0.272888
0.0564251
-0.0882166
-0.0556721
-0.132663
-0.0755645
-0.0414475
0.206414
-0.0126676
-0.11739
0.288838
0.0734547
0.233206
0.181312
0.064762
0.088291
0.0329827
0.0587004
0.219448
-0.0957468
-0.269378
0.153914
-0.211155
-0.20485
-0.0778272
0.101431
0.0395181
0.233124
0.0398111
0.29199
-0.286053
0.0406497
0.107693
-0.0538454
0.311822
-0.304812
0.103125
-0.0552209
0.260629
-0.163855
0.0649834
0.260532
-0.283379
0.0344812
0.123171
0.0456484
-0.162367
-0.219488
-0.149008
-0.283597
-0.0848477
-0.168041
0.168231
-0.00423331
-0.0121859
-0.23559
-0.18054
0.298631
-0.325155
0.206105
0.229616
-0.270019
-0.138741
0.114548
-0.0214187
-0.152059
0.0959128
-0.218262
0.114317
0.0176379
-0.0236022
-0.0829652
0.0690933
0.0340914
0.229826
-0.0905148
-0.180269
-0.2564
-0.0853074
-0.100082
-0.225917
0.20894
0.072999
0.272756
-0.173107
0.31532
-0.334028
-0.00785625
0.313929
-0.248003
-0.13561
0.209641
-0.157169
0.0939387
0.0260052
0.0297663
0.276159
-0.191414
0.149698
0.0303641
0.162677
-0.127373
-0.256682
-0.147533
0.205988
0.28259
0.0115613
-0.260675
-0.290518
0.253978
-0.0186093
-0.179403
0.0856709
-0.303253
-0.259709
-0.328015
-0.28516
-0.210139
-0.027503
0.217358
-0.205269
0.239145
0.211914
-0.144921
0.0308303
-0.0449543
0.210252
-0.0295256
-0.015242
0.0484472
-0.193458
-0.0411451
0.267268
-0.243444
0.11527
0.187858
-0.295079
-0.172966
0.227868
-0.221216
-0.243763
-0.171322
-0.166447
0.194975
-0.152732
-0.0621791
0.207104
-0.158683
-0.0864037
-0.0883264
-0.159043
0.0735475
-0.112266
-0.258346
0.234432
0.154035
-0.0336611
0.113204
-0.157518
-0.250945
-0.154637
-0.0743466
-0.0212366
-0.196195
0.0216942
-0.224937
0.287983
0.097647
-0.150237
0.130388
0.151324
0.00200559
-0.283945
0.2387
-0.101012
-0.140207
-0.114348
-0.217503
0.0288895
0.148413
0.123756
0.101767
-0.117289
0.215484
0.214345
-0.182373
0.144565
-0.103877
0.222758
0.294787
-0.0513994
-0.232437
-0.0916471
0.194449
-0.130162
0.276823
0.228086
-0.183965
0.02217
-0.104217
-0.299534
-0.155043
0.107434
-0.237369
-0.177328
0.339723
-0.125984
-0.0236022
-0.221838
0.206343
-0.0885478
0.157949
0.0280762
0.0912811
0.118831
-0.0910399
0.175918
-0.0603707
0.0677323
0.0572474
-0.0642714
-0.280731
0.124299
0.199445
0.22501
0.236722
0.0989465
0.188627
-0.185831
-0.143037
-0.250298
-0.211554
-0.0321131
0.153284
-0.158165
0.0977202
0.124415
0.0148485
-0.240626
0.213743
-0.11631
-0.0262412
0.162809
0.213121
0.282948
-0.0244764
-0.168748
0.190581
0.207576
0.250799
-0.103011
-0.110712
0.272313
-0.314116
-0.271703
0.209755
0.236967
0.164748
0.0878121
-0.240646
-0.245083
0.11773
-0.112059
-0.000825884
0.0204154
-0.0193115
-0.268427
-0.148224
-0.30922
-0.180485
-0.2549
-0.139778
0.00467352
0.14865
-0.213013
0.0475627
-0.20625
-0.0876425
-0.186632
0.329854
-0.155645
0.0475374
-0.158824
-0.131679
0.0156874
-0.0829242
-0.219848
0.0443696
-0.278754
0.184193
0.124574
-0.211421
-0.0211334
0.217441
0.0301027
0.273328
-0.0123604
0.117205
-0.188706
-0.058953
0.194636
-0.19915
0.208955
-0.0534
0.273091
0.32532
0.334515
-0.196641
-0.0659476
-0.191789
-0.212268
0.114462
0.1829
-0.0406045
0.246418
-0.0996642
0.135664
-0.220986
0.224069
0.198432
0.252253
-0.0507793
0.239891
0.0206834
-0.0782869
0.0259589
-0.0578215
0.207269
-0.154039
0.0547382
-0.128985
-0.224086
0.158246
-0.246504
0.00191873
0.152201
-0.234404
0.00802298
0.291181
-0.0806479
0.105396
-0.174273
-0.221198
-0.0282088
-0.0211444
-0.262955
0.213087
-0.149226
-0.181848
0.119711
-0.267431
-0.262684
-0.200805
0.300031
0.0636462
0.070628
0.034848
0.294674
0.0233221
0.16025
-0.00192333
0.185217
0.224593
-0.0563084
0.281522
-0.0303487
-0.146934
0.264829
0.281448
-0.182482
-0.0976234
0.0172097
-0.119234
-0.0472184
-0.243353
0.245558
-0.0253498
0.219212
-0.20897
0.0916023
0.0187994
-0.203885
0.0966608
0.151905
-0.209329
-0.138558
-0.071763
0.0581232
-0.153122
0.164763
-0.0493349
0.22039
0.0997607
-0.151081
-0.151267
0.0909884
0.116178
-0.0374377
0.00733732
0.0335133
0.0768654
0.204358
-0.194707
0.213411
-0.116086
-0.124063
0.117588
0.110253
-0.203328
0.183264
-0.0818361
0.116271
0.266604
-0.234948
-0.00347885
-0.25858
-0.112458
0.186573
0.117198
0.0435754
0.101886
-0.219163
-0.0804033
-0.118928
-0.0374585
0.0771271
0.192103
-0.198244
-0.273004
-0.0649725
0.115434
0.0656692
-0.194831
0.276345
0.0525638
0.00568143
-0.228913
-0.127162
-0.180964
-0.154483
-0.223965
0.0379838
-0.299352
-0.285148
0.0762536
-0.0410607
-0.20922
0.272329
-0.0821703
0.251172
-0.0469068
0.267159
-0.251257
0.190761
-0.106497
0.0201115
-0.0377886
-0.217391
0.0968539
-0.0508281
-0.00295095
-0.0671871
-0.234428
0.0981185
-0.152608
0.0971281
-0.225907
-0.0467114
0.283866
-0.0989053
0.146356
-0.279108
0.18198
0.168122
-0.172824
-0.0398594
-0.150402
-0.0785715
-0.0668281
-0.00699883
-0.113456
0.20707
0.0167875
-0.0341495
0.0975666
0.147162
0.32409
-0.258438
0.251142
0.0970624
0.0936884
-0.0584727
-0.273435
0.119021
-0.25157
-0.0492731
-0.115569
-0.245805
0.179939
-0.121312
-0.0305767
0.012629
-0.0699474
-0.124204
-0.165581
0.0540891
0.126262
-0.0326579
0.241695
-0.237523
0.288766
-0.171229
0.257808
-0.040721
0.0617118
0.0585273
-0.140813
0.0795289
0.133927
-0.212956
-0.113425
-0.108211
0.00410801
-0.0191997
-0.261745
-0.037561
0.190289
-0.0817781
0.0617047
0.0385574
0.111285
-0.28765
-0.233668
-0.275356
-0.131032
-0.135561
0.0745898
-0.284766
0.117914
0.0102228
-0.233271
0.154173
0.156614
-0.290233
-0.200132
-0.0826087
0.104883
-0.0406321
-0.312648
-0.0697248
0.0321404
-0.0971177
0.129525
-0.255596
0.154643
0.131468
0.0190495
0.0151248
-0.210759
-0.230045
-0.236473
0.201008
-0.202317
-0.194652
0.232041
-0.0519179
-0.0286223
-0.00976709
-0.0680402
-0.164025
-0.261889
0.00677622
0.304723
0.207203
0.0370621
-0.205599
-0.169897
-0.168486
0.0462043
-0.194866
0.0583297
-0.210569
0.0243378
-0.133552
-0.212801
-0.0993563
-0.274603
0.104797
0.19163
-0.198529
0.151469
0.247449
-0.310053
0.226725
-0.256596
0.238069
-0.134345
0.0515756
-0.0268632
0.109103
0.174196
-0.0176094
-0.160711
0.163544
-0.114693
0.133941
0.232004
-0.0144198
0.251292
-0.0182455
0.0841625
0.006207
0.0883666
-0.191271
0.158897
0.172809
-0.0124595
0.177033
-0.0281519
-0.125723
0.279202
-0.153506
-0.153902
0.269913
-0.243578
-0.108508
0.211057
-0.069251
0.217287
-0.104915
-0.242946
0.0762333
0.155197
-0.124134
-0.0780748
-0.243082
-0.250754
-0.12943
0.0353319
-0.289666
0.167984
-0.168856
-0.0039398
-0.0667598
-0.0718483
-0.140509
-0.181604
0.228161
-0.257877
0.10234
-0.145612
-0.28963
0.224086
-0.0441438
0.305626
-0.271838
0.135486
0.192414
-0.0490602
0.0504348
-0.199995
-0.016325
-0.175546
0.277319
0.181023
0.0690597
-0.285858
0.210936
0.221723
0.0615338
0.234964
0.0683427
0.193822
-0.0932131
-0.274036
-0.117603
0.110238
-0.147475
-0.178071
0.132307
0.219064
-0.0666193
0.119797
0.193577
0.171295
0.148014
0.238992
0.0287011
0.0496362
-0.178526
-0.208564
0.153354
0.144833
-0.0826244
0.142036
-0.0089554
0.289059
0.142445
-0.0792659
0.202733
-0.0944916
-0.121266
0.0031757
-0.18799
0.0826827
0.00894073
-0.0477713
-0.137861
0.114641
0.0513053
-0.261307
0.0258026
0.277486
0.208524
-0.0517254
0.120572
-0.00780739
-0.204873
-0.170929
-0.212303
-0.0556241
-0.0709974
0.299818
-0.186935
0.1183
0.0938564
0.108139
0.079782
-0.0319709
-0.259572
-0.0273796
0.192537
-0.150939
0.221444
-0.278838
0.274603
-0.0801482
-0.0243226
-0.148757
-0.212994
-0.243567
-0.0956319
0.166128
0.251211
-0.246383
-0.245658
0.0963665
0.10246
-0.0784854
0.272838
0.197459
0.215749
-0.161518
0.189588
0.28059
0.311184
0.0406901
0.0315806
0.0736422
-0.266344
0.091915
-0.230785
0.231541
0.252776
-0.273407
0.269364
0.252391
-0.0511809
-0.0807267
-0.192556
0.0536362
-0.0402281
-0.0656404
-0.137631
-0.092706
0.0792704
-0.0400087
-0.284334
-0.164448
0.175921
0.288117
-0.213819
0.0471924
-0.162104
0.2178
0.0766244
-0.193467
0.0186263
-0.141799
0.201514
0.014263
0.220082
0.243359
-0.0787482
0.149261
0.254914
-0.0695083
0.13228
-0.109183
0.197335
0.286152
0.252456
-0.181908
-0.0626453
-0.16208
0.0335749
-0.258016
0.0516055
0.0721309
-0.10858
-0.0253845
0.0172279
-0.0648459
-0.262824
0.174923
-0.123651
0.0742004
-0.277555
0.240805
0.202263
0.247902
-0.0826175
0.152082
0.187984
0.197594
0.0879874
0.165192
-0.237488
-0.098257
-0.214723
0.201479
-0.144109
-0.281609
-0.281944
0.177699
-0.212683
0.037887
0.181546
0.188907
-0.203921
-0.233863
-0.0794933
0.136738
-0.0385958
-0.0197485
0.0147963
0.182478
-0.23231
0.0303392
0.0860367
0.26538
-0.0484484
0.287969
0.159452
-0.181814
0.11341
-0.0953485
0.266727
0.185167
0.0966331
-0.287395
0.115789
-0.252978
-0.302091
0.161909
0.197874
-0.171805
-0.102615
0.0579321
-0.222795
-0.0483507
0.122483
-0.00438691
-0.186582
-0.200517
0.237794
0.109919
0.272069
-0.247163
-0.166434
0.0619379
-0.331128
0.0376907
0.0467195
0.155823
0.2162
-0.182852
-0.250011
0.211019
-0.188423
0.226394
0.205125
0.188096
0.224463
0.273778
0.0463885
0.124555
-0.233826
0.137381
-0.0292422
-0.11182
-0.119721
-0.304535
0.104641
-0.0819877
-0.211248
0.0696652
-0.265768
-0.22454
0.118262
-0.0604284
0.116448
0.155552
-0.324356
-0.162815
-0.00911783
0.322254
0.0267462
0.119743
0.113902
0.134899
0.0596617
0.102205
-0.0209267
-0.0357359
0.0213339
-0.289642
-0.179206
0.147677
0.278186
0.0334932
-0.261441
-0.161719
0.0404923
0.175322
0.0608196
0.161289
0.0266514
0.112479
0.282581
-0.16413
-0.264812
0.0863146
0.245172
-0.219294
0.261771
0.00431239
-0.298758
-0.0354582
-0.221869
0.216117
-0.157031
0.0937499
0.000694501
0.159943
-0.208936
-0.191793
0.217608
-0.149538
0.24227
0.164325
0.214407
0.289579
0.201908
-0.0545697
0.152023
-0.026201
-0.142637
-0.139382
-0.154124
-0.16465
-0.0509493
-0.163969
0.205412
-0.146404
-0.125817
0.0935606
0.12555
-0.0640795
-0.183196
0.205835
-0.216406
-0.113401
-0.00591959
0.0840134
-0.28593
0.0526803
0.275134
0.224926
0.184454
0.214642
0.107639
0.098767
0.269676
0.00129652
-0.273281
0.0805313
0.29532
-0.0863734
0.21938
-0.164651
0.00921658
-0.146319
-0.0764408
-0.0833397
-0.0373614
0.0971908
-0.225149
-0.184972
0.264006
-0.152691
-0.268007
-0.23107
0.0384679
0.0259509
0.214857
-0.0305157
-0.288791
0.169312
-0.137816
0.26017
0.0844006
0.244411
0.0761034
0.0434252
-0.0870858
0.126828
-0.215292
0.0079944
-0.210167
0.278372
0.0704905
0.0517215
-0.193952
0.244413
0.240996
0.158514
0.0430279
0.301017
0.227372
0.0151132
-0.198684
0.298532
0.0451288
0.103228
-0.0545199
0.00117374
-0.190926
-0.0514763
-0.0926938
-0.0144798
-0.0389022
0.178812
-0.052873
0.272755
-0.0209602
0.190447
0.0542859
0.0733566
-0.140037
0.0953607
-0.0168302
0.17575
-0.0838121
0.147107
0.13481
-0.143075
-0.0161
-0.0889902
-0.150076
-0.0445855
0.188644
-0.0698812
-0.133019
-0.038749
-0.22436
0.144783
0.254545
-0.169895
-0.143888
-0.171362
0.108862
0.0891625
-0.254413
-0.250141
0.0489915
-0.0227869
0.241917
-0.154305
-0.290034
-0.239077
0.264303
0.0121594
0.231274
-0.130259
-0.152187
0.0868266
0.0333116
0.115976
0.244043
0.166465
-0.261921
0.140843
-0.215013
-0.0754598
-0.181152
-0.202552
-0.215851
-0.224032
-0.0851828
-0.0820361
-0.111085
-0.268442
-0.289279
-0.059393
-0.222748
0.0587202
0.215674
-0.268758
0.197237
0.222899
-0.229396
0.185707
-0.0667276
-0.295664
-0.251312
0.0884493
0.0668252
0.0551378
-0.0921135
0.0396483
-0.0981006
-0.0435587
-0.125879
-0.00640685
0.166454
-0.00884692
0.0848217
0.263896
0.0632478
-0.285621
-0.121115
0.255629
-0.252997
-0.117286
-0.121917
-0.170524
0.240118
-0.195246
-0.170283
0.131615
-0.260822
-0.0850991
0.0196287
-0.0317746
-0.0626211
0.0578132
-0.234888
-0.28097
-0.18318
-0.016395
0.0490315
0.0179818
0.233424
0.233434
-0.299212
0.0987185
-0.0738269
0.10143
0.0698359
0.282576
0.109241
0.227582
0.245765
0.132727
-0.172056
-0.185691
0.256555
-0.234134
-0.0746177
-0.169577
0.217262
-0.0472725
0.0225498
-0.118754
0.174224
0.216991
0.248459
0.291781
0.224655
-0.250693
-0.0142511
0.0358516
0.0953839
-0.0710054
-0.071018
0.105908
0.268676
0.145664
-0.0773669
0.0370867
0.116745
-0.287137
0.0643776
0.0947842
0.168388
0.121018
0.215482
0.127999
0.208193
-0.144604
0.18447
0.0984871
0.054627
-0.0924829
0.328656
-0.0260348
-0.1323
0.264094
-0.0114165
-0.149481
-0.262473
0.231133
0.12072
0.138642
-0.211901
-0.231276
-0.0741818
-0.179755
0.239178
0.142918
0.180611
0.113574
0.138376
-0.11773
-0.0478851
-0.0296966
0.279391
-0.194335
-0.226611
0.208809
-0.0282861
-0.296478
-0.0142746
-0.263841
-0.0551144
-0.0291924
-0.00182931
0.086794
-0.0801421
0.226242
0.241679
-0.00133543
0.106991
0.0826751
-0.144573
-0.255948
0.178385
0.00984419
-0.185614
0.15034
-0.168852
-0.287701
-0.107366
0.320639
-0.142122
0.0852017
-0.0497802
-0.121708
0.189604
0.0505157
-0.221501
-0.0991706
0.0531396
0.07675
-0.114414
0.30213
-0.261776
0.215924
0.0361585
-0.0525992
0.144553
0.03268
0.20739
0.0281784
-0.174969
-0.274908
0.0272618
0.251733
0.00107581
0.18014
0.0789938
0.1612
0.186884
-0.296429
0.123759
-0.210567
0.119717
-0.203464
-0.056835
0.0528492
0.138704
0.044725
0.232378
-0.103647
-0.244922
-0.138785
-0.108383
-0.188296
-0.255579
0.275625
0.054565
0.15909
0.019907
-0.0571852
-0.0685563
0.127173
-0.0485485
0.26345
0.131985
0.272304
0.137691
-0.100636
0.148462
0.047763
-0.0808871
-0.0440678
0.12308
-0.246368
0.0583089
-0.186921
0.126262
-0.125082
0.0944911
0.0834469
0.0691446
0.15684
0.240421
0.267905
0.262348
0.264374
0.23958
-0.010185
0.113699
-0.04204
0.249901
-0.236314
-0.194412
-0.102054
-0.253196
0.219708
-0.13841
0.175613
-0.171096
0.273759
-0.0975929
0.0312185
-0.0656528
-0.288126
0.0836186
0.285725
-0.21033
-0.0964672
-0.126871
0.195268
0.302347
0.231513
0.0861067
0.238094
0.239103
0.020194
0.174837
0.169083
-0.270813
0.0290066
-0.134286
0.248507
0.116905
-0.00838365
-0.158275
0.149713
-0.0468585
-0.0205077
0.0333272
0.102369
-0.0104425
0.22776
-0.194279
0.259036
0.233726
0.22645
0.161433
-0.273772
-0.159849
-0.247447
0.20386
-0.155415
-0.304669
-0.00696498
-0.240529
0.234914
-0.267062
0.23811
0.106784
-0.222282
-0.00134445
0.273386
-0.273741
-0.25844
-0.0279024
-0.127635
0.243532
0.160971
0.158837
-0.0599505
-0.03376
-0.245663
-0.200845
0.0724252
0.255388
-0.21275
-0.00650996
0.201418
-0.186945
0.10223
0.241508
-0.30349
0.214696
0.194242
0.0151293
0.246916
0.1436
0.00921033
0.176941
-0.0150321
0.0590382
-0.150479
-0.0213902
0.0907665
-0.0500919
0.186242
0.230326
-0.174748
0.114851
0.0740835
0.0647954
-0.263083
0.145048
0.166086
0.144611
0.130427
0.257812
-0.176327
-0.0350849
-0.238648
0.245507
-0.0425876
-0.224153
0.221663
-0.150387
0.0205096
0.20237
0.271707
-0.224241
0.0981026
-0.0432193
0.083382
0.227944
0.207144
-0.167671
-0.156637
0.120739
-0.20899
-0.0297339
-0.12152
0.179257
-0.291674
-0.03087
-0.000268212
0.215697
-0.179888
-0.181044
0.155099
0.0312162
0.198307
0.202159
-0.074304
-0.22624
0.253031
-0.176187
-0.140059
-0.00646987
-0.282188
-0.0995607
0.0564735
0.100378
0.169322
-0.157912
0.0851104
0.0877155
-0.0106406
0.20445
-0.124047
0.0892792
-0.0821059
0.113422
-0.0469792
-0.0526646
-0.203755
0.284814
-0.15839
-0.0570927
-0.130627
-0.286431
0.214754
0.301721
0.23091
-0.166049
-0.218205
0.145784
-0.0534053
-0.0607696
-0.160341
-0.0056856
0.0888011
0.12774
-0.202632
-0.016383
0.246552
0.18683
-0.22563
-0.0515702
0.0724391
-0.0156793
-0.225048
0.255354
-0.232599
-0.0113543
-0.143224
-0.168977
-0.0432308
0.0454184
0.0525679
0.119121
0.034806
-0.0673977
0.0758896
-0.00428689
0.0182001
0.160566
-0.162307
0.293729
-0.215468
-0.0915053
-0.0256425
0.226142
-0.185989
0.0595873
-0.116317
-0.215104
-0.0780636
-0.0356755
-0.0061726
0.292775
0.24616
0.0132708
0.184806
0.274817
-0.223136
-0.194747
-0.189767
-0.0184169
0.138342
0.199822
-0.177272
-0.145694
-0.184474
0.217534
0.114024
0.117813
0.0352814
0.252229
0.0954183
0.125972
-0.0770078
-0.196832
0.0309776
0.0259127
0.167852
0.174588
0.131136
-0.217318
-0.115246
-0.197874
-0.288177
-0.18531
0.153237
0.18557
-0.214249
0.256279
-0.258652
-0.0305381
-0.0265592
0.149282
-0.194052
0.0921225
-0.259724
-0.0886891
0.0115262
0.147982
-0.262737
-0.270599
0.134213
0.197645
0.140011
-0.244042
0.230249
-0.143648
0.0691049
0.093439
-0.313208
-0.152778
0.187775
-0.102047
-0.00336928
0.203614
-0.0375293
-0.131364
0.129941
0.0509499
-0.223472
0.206023
0.240193
0.0342095
0.0122937
-0.248522
-0.15134
0.0089262
-0.0620885
0.145566
-0.0728713
0.0386806
0.139786
-0.218193
-0.112616
-6.30383e-06
-0.170378
-0.183341
0.108769
0.146004
0.259857
0.176914
0.284403
0.109662
-0.243585
-0.0592119
0.101412
0.051897
0.0901473
-0.0807037
-0.138717
0.119442
-0.246292
-0.139344
-0.178501
0.216259
-0.141614
-0.0439887
-0.104335
0.154155
-0.183146
0.107268
-0.188621
0.29391
0.185275
0.0155996
-0.0419027
0.255204
0.179729
-0.131894
0.0935197
0.075004
-0.287195
0.0793802
-0.057779
-0.162871
-0.252214
-0.269511
0.131469
0.0800396
-0.0186901
-0.291805
-0.111817
0.0621115
-0.119981
0.0609853
-0.0895094
-0.0530492
0.302593
0.0786059
-0.150433
-0.187859
-0.0805355
-0.0169271
-0.285658
-0.181652
0.344767
0.0840295
-0.24671
0.146493
0.243722
0.149225
-0.0639211
0.276831
-0.0472656
0.320109
-0.192068
-0.0508878
0.229539
0.234314
0.303539
-0.109037
0.276844
-0.0926865
0.202859
-0.204792
0.178703
-0.185471
0.0391646
0.211119
0.21158
0.211324
0.277765
-0.182749
-0.0710598
-0.114744
-0.0105332
-0.145921
0.196039
0.0257914
-0.294501
0.120353
-0.137081
-0.00827387
0.110547
0.0978659
-0.127342
0.118674
-0.258183
-0.141102
0.0539378
-0.232212
0.0645235
0.0148672
-0.10275
-0.0840943
0.128693
-0.152664
0.10013
-0.109042
-0.267121
0.00983124
-0.258433
-0.26519
0.13174
-0.0642305
-0.158362
-0.231682
0.0688069
0.291181
0.111863
0.134714
0.0958422
0.272706
-0.128779
-0.176084
0.0999339
-0.0122282
0.281527
0.154589
0.13876
0.00651223
0.220505
-0.141557
-0.177506
-0.11933
0.143691
0.152028
-0.00132327
-0.100874
-0.274494
0.0161424
0.222897
-0.201211
0.0294482
0.0182717
-0.0355077
0.169733
0.0950461
-0.232529
0.169496
-0.0758774
0.232267
-0.134797
-0.12737
0.286009
0.0169819
-0.275211
-0.0377532
0.0246483
0.208461
-0.154934
-0.282731
0.132008
0.0443613
-0.183536
0.28588
-0.111815
0.231329
-0.0350946
0.0841222
0.28391
0.284038
-0.0113886
-0.153831
-0.0149766
-0.268561
0.0682079
-0.21557
0.117063
0.166436
0.162201
-0.25623
0.0759767
-0.20058
-0.0312859
0.0536328
0.110661
0.0331386
-0.260489
-0.165437
-0.0576063
-0.100039
-0.222402
-0.264454
0.179973
-0.109547
-0.24289
-0.194495
-0.137763
-0.000756594
0.167635
-0.0934002
-0.0610801
-0.214488
-0.0554826
0.196502
-0.176362
-0.261723
-0.347469
0.273401
0.200137
0.255794
-0.319624
-0.0262612
0.256347
9.47865e-05
-0.294798
0.0927804
-0.316763
-0.223874
0.152347
-0.100115
-0.0569182
0.205008
-0.0612815
-0.195679
-0.123685
-0.060444
-0.105176
0.0685758
0.217153
-0.255743
0.208466
-0.111425
-0.169708
-0.111146
-0.178201
0.0296657
-0.0891864
-0.145321
-0.0127929
-0.247824
-0.246139
0.0131468
0.0519431
-0.334335
-0.272091
0.106921
0.142781
-0.300351
0.192444
-0.0182963
-0.0162912
-0.28799
-0.108717
0.208111
-0.0912338
0.124775
-0.132488
0.232847
-0.00216546
-0.134481
0.129277
-0.144168
0.0556079
-0.238772
0.0465813
0.105285
0.0955696
0.225642
0.21015
-0.229221
-0.251103
0.278128
0.138461
0.0847553
0.290366
0.112143
-0.110575
0.0676352
0.169748
0.242275
-0.251899
-0.187096
-0.275422
0.0416215
-0.271133
-0.0471681
-0.0894079
-0.0976474
-0.223408
0.229244
0.035162
0.176701
-0.297633
-0.30207
0.254287
0.153471
0.117063
0.0831723
0.0586296
0.137849
0.100619
0.0465423
0.0654351
-0.0793285
-0.218847
0.0505034
-0.234143
-0.0923927
-0.0885394
0.223474
-0.0176143
-0.0442771
0.267975
-0.075899
-0.182258
0.274201
0.184437
-0.0627229
-0.105128
0.201412
-0.139895
0.224274
0.142115
-0.126151
0.232999
0.107167
0.27423
0.129077
-0.0815395
0.0179629
-0.0440084
0.275144
-0.163352
-0.312273
-0.0879036
-0.140912
0.113197
-0.117183
0.285075
-0.281137
-0.275874
-0.166582
0.0335222
-0.213208
0.151752
0.0492311
-0.191863
0.0642304
-0.32657
-0.0639434
-0.0827103
-0.0766219
-0.164475
-0.10201
0.168023
-0.111341
0.222191
0.101485
-0.353504
-0.172415
-0.138118
0.0527818
-0.230217
-0.146064
0.0972268
0.0921986
0.180152
-0.0817972
0.223286
0.166514
0.0224625
-0.293986
0.245858
0.137956
-0.101352
0.0710154
0.0883047
-0.00193171
-0.263379
0.054051
-0.24058
0.0785404
0.199692
-0.0830767
0.225958
0.0276651
0.0819594
0.242345
-0.0629323
0.139333
-0.214567
0.0273826
-0.0902299
-0.103807
0.333407
0.287176
0.241525
0.19018
-0.0986048
0.159152
-0.0647556
0.110212
-0.321645
-0.177563
0.0287138
0.0689032
0.27809
-0.21045
0.267884
-0.246102
0.148341
0.289961
0.228226
0.130896
3.1937e-05
0.088785
-0.159744
-0.254125
-0.0110322
0.0592898
0.216481
0.0814366
-0.270103
-0.25552
0.211908
-0.246961
0.37904
0.219166
0.174204
-0.10064
0.146312
-0.195719
0.274896
0.117936
-0.0524567
-0.0553417
-0.202325
-0.15687
-0.00990009
-0.224773
-0.0820237
-0.149884
-0.314895
-0.172677
0.218929
-0.114105
0.174912
-0.236787
-0.051223
0.0105588
0.0948397
-0.22243
-0.2818
0.280338
-0.201254
0.212424
0.192281
-0.175969
0.199653
0.0914877
-0.0891596
-0.0772972
0.135144
-0.044307
-0.26218
-0.235762
0.166802
-0.145503
-0.021207
-0.0569009
-0.110136
0.171392
0.134522
-0.0939632
-0.283778
0.0492805
0.143691
0.28631
0.0372549
-0.162029
-0.0339947
-0.0866562
-0.113074
-0.0379661
-0.178735
0.109433
-0.0237772
-0.199638
0.216686
-0.300228
0.146635
-0.126552
0.0352304
0.0715443
0.0863693
-0.0218812
0.155195
0.00532265
0.147678
-0.219287
0.248031
-0.381129
-0.260961
0.057449
0.0241547
-0.179217
-0.182486
-0.219399
-0.317072
0.201659
-0.0374524
-0.115365
-0.2278
0.163647
0.187387
-0.0571076
-0.109509
-0.231996
0.0466983
-0.143658
-0.162488
-0.0869866
-0.0237986
0.0870944
0.23687
-0.334692
-0.243453
0.118106
0.014839
0.226124
0.210269
-0.0700715
0.267968
-0.287357
-0.208979
-0.0948764
-0.176663
-0.175078
0.0156689
-0.13926
-0.273424
0.244989
0.076834
-0.132216
0.138535
0.0178579
0.103358
-0.269618
0.0721471
-0.165919
-0.179811
0.209779
0.0169423
0.0411682
-0.025305
0.0161206
0.071308
0.0847454
-0.177644
-0.234369
0.0269189
-0.205011
0.0176049
-0.0585755
-0.22437
0.031813
0.161326
-0.0957509
0.147367
-0.135113
0.0614095
0.143066
-0.157457
-0.136139
-0.289463
0.20014
0.154111
0.0955259
0.219378
-0.0415245
0.20488
-0.287969
-0.113975
-0.0522493
0.0312151
0.179768
0.200029
-0.214417
-0.00571421
-0.250132
-0.135844
0.28332
-0.139587
0.154611
-0.0519795
-0.0591354
-0.0900165
-0.201984
0.146758
-0.221191
-0.0207425
-0.108497
0.216733
0.0675547
0.0317316
0.210632
-0.0212088
-0.0933897
0.0415961
-0.099644
0.169133
-0.0780856
-0.0531001
-0.23459
0.207492
0.264527
0.213053
0.158029
-0.190553
-0.0964976
0.186623
-0.0557816
-0.0854699
-0.287696
-0.174539
0.137251
-0.0201602
0.0648626
0.229921
-0.156688
0.0940461
-0.113422
0.0365274
0.0111953
0.26197
-0.188334
-0.0654769
-0.103371
0.00247661
0.267595
0.07111
-0.0772814
-0.0981293
-0.250688
-0.167854
-0.262475
-0.278502
-0.144973
0.202224
-0.156681
0.0515649
0.0915701
0.0375578
0.29876
0.156195
0.21966
0.110458
-0.170144
-0.103302
0.00951273
-0.0494533
0.189472
0.21336
0.244295
0.0676992
0.202039
-0.274975
0.212802
-0.236665
0.0853834
0.214586
0.127936
0.346636
-0.232462
0.177198
-0.0640518
-0.18187
0.233846
0.0944358
-0.127244
-0.295663
-0.0895338
0.242733
0.0926254
-0.131204
0.119431
-0.0746905
0.303414
0.226904
0.132161
0.0150102
-0.142748
0.139177
-0.0724261
-0.165078
-0.111076
-0.210607
-0.0769096
-0.167533
-0.110302
0.223326
-0.327465
-0.216611
0.199655
-0.211555
-0.227746
-0.153284
-0.0109014
0.310702
0.189201
0.136438
-0.285039
-0.139714
0.0176594
0.0675514
-0.0245015
-0.107298
-0.158656
-0.146723
-0.259778
0.216685
0.193195
-0.0443701
0.0909105
-0.147947
0.0254203
0.262733
-0.125362
0.192441
-0.191937
0.0698732
0.146475
-0.214876
0.189038
0.0903937
-0.143419
0.164759
0.215217
0.152316
0.185127
0.116891
-0.00518195
0.209184
0.215934
-0.281641
-0.0167507
-0.131634
-0.0656125
0.0181465
0.0291938
0.0391298
-0.0446061
-0.046508
0.226918
-0.317502
0.0454562
-0.05095
0.254782
0.236893
-0.0811701
-0.281285
0.0571257
-0.196231
-0.224445
-0.0458957
0.180225
-0.0409111
-0.150454
0.115762
-0.174777
-0.275702
-0.094611
0.00629072
0.15262
-0.156075
0.0757922
-0.128974
0.0366236
0.271508
0.163021
-0.270841
-0.00777541
-0.250477
-0.0466801
-0.0866449
-0.229877
0.276217
0.260783
-0.269857
0.249819
-0.123832
-0.237456
-0.0101364
-0.0443856
-0.1208
0.232236
-0.226691
0.0446927
-0.233702
0.189984
0.14529
-0.185162
-0.194161
-0.105907
0.280238
-0.0214604
0.262923
-0.19416
0.229117
0.229498
0.281394
0.259994
-0.0794224
-0.229664
-0.0573624
0.223709
-0.133508
-0.12218
0.0776246
-0.0313893
-0.11371
0.240067
-0.00321362
0.147155
-0.127257
0.176359
0.0697336
-0.0663974
-0.0790871
0.10922
-0.124195
-0.22867
0.192339
-0.0234515
-0.0222148
0.198046
0.215696
-0.0343837
-0.300626
0.208383
-0.0775653
-0.257212
0.166824
0.209765
-0.198894
-0.253317
0.0769905
0.00536214
-0.0129382
-0.163298
0.228803
0.136761
-0.215189
-0.0239135
-0.0484809
-0.0747098
-0.168488
0.247346
0.191306
0.0468107
0.0808987
-0.21544
0.0944629
0.0554731
0.113394
-0.232475
-0.0885562
0.0204009
0.0273049
-0.0360907
-0.0581217
0.228838
-0.0296983
-0.23135
0.0894624
0.109103
-0.146477
-0.127574
-0.156597
0.109237
-0.0106594
-0.242527
-0.10283
0.0312422
0.0223282
0.115029
-0.294146
0.143393
0.129774
0.180043
-0.12258
-0.0528739
-0.288588
0.289693
0.251811
0.132564
-0.234697
-0.212015
-0.18565
0.0553868
0.0677653
0.0763677
0.0449152
-0.221798
0.166152
-0.165901
0.188524
0.292242
-0.0427503
0.289197
0.0750343
0.273479
-0.254505
-0.316958
0.0732343
0.095617
0.191423
0.0435776
-0.0656122
-0.0668115
0.0320957
0.124141
0.145743
-0.0211803
0.131172
0.0955367
-0.199142
0.165552
0.197862
-0.0577038
-0.0424464
-0.000530845
-0.297412
0.260932
0.0533157
0.145309
-0.191912
-0.114205
0.176122
0.0398464
-0.0996678
-0.0702323
0.0549562
-0.131815
-0.00521658
-0.0920067
-0.243799
-0.223016
0.174458
-0.136795
0.150195
-0.0611916
-0.299076
-0.0484203
0.274008
0.155138
-0.262928
-0.239093
0.00632992
-0.21734
-0.0108324
-0.223698
0.062919
-0.0180411
0.247264
-0.230543
-0.149511
-0.12029
0.00193
0.246886
0.148511
0.158237
-0.0504958
0.00850718
-0.156014
0.302063
0.145174
-0.182746
-0.197519
0.0011788
0.0582773
0.162737
0.324327
0.114833
-0.133081
0.215626
-0.00619506
-0.0561495
0.255336
-0.236816
0.00993887
-0.100685
-0.276561
0.321317
0.247378
-0.266923
-0.330385
-0.266062
-0.107478
0.0601925
-0.273236
-0.233918
-0.116399
0.0137157
0.0429544
-0.00692693
-0.0527745
-0.0925097
0.128312
0.0594772
0.300039
0.00403364
-0.0737354
0.232903
-0.208407
0.0935812
0.124097
0.0482829
-0.186232
0.154405
0.0539736
0.0107192
-0.294595
0.149445
0.110669
0.276521
0.282895
0.115206
-0.241988
-0.152217
-0.126023
-0.1649
-0.14046
0.0846673
0.112511
0.221835
-0.210603
-0.237642
-0.136084
0.207759
0.141945
-0.250867
-0.138503
-0.259926
-0.27323
-0.124094
0.1421
0.223198
0.187834
0.251859
0.0550283
-0.00683597
0.0275969
0.134134
-0.172262
-0.184849
0.108469
-0.259566
0.242989
0.176429
-0.189369
-0.178496
0.260284
-0.0352345
0.201308
0.0742508
-0.135587
-0.299296
0.172471
0.0117529
0.255125
-0.0592861
0.0930245
-0.185673
-0.0287846
0.117074
0.00165088
-0.163161
0.0433074
-0.0948744
-0.191446
-0.201023
0.176173
0.139808
0.198505
-0.302419
0.271487
0.0307966
-0.240439
0.211845
-0.0875445
-0.141688
-0.246013
-0.109477
0.110767
0.252594
0.283786
0.282746
0.259156
0.112783
-0.00167355
0.231996
-0.220574
-0.222969
-0.249226
0.0514371
0.227502
0.0474464
0.207513
-0.0360567
0.234388
0.30241
0.0504175
0.127154
0.14452
-0.0297095
0.133267
0.0953765
0.289596
0.16792
0.0423637
-0.105125
-0.26445
0.0609121
0.0687234
0.153733
0.0406274
0.0462457
0.136972
-0.011024
-0.127316
-0.174773
-0.0795955
-0.0409442
-0.0904288
-0.0468435
-0.28504
-0.196657
-0.286318
0.188401
0.0463169
0.245378
0.218798
-0.206057
0.0755859
0.0600066
0.087678
-0.0825102
-0.15653
0.0725839
-0.191829
0.173651
0.264995
-0.191082
-0.0128401
0.0312124
0.225771
0.285604
-0.208424
0.0987754
-0.0366144
-0.039662
0.224936
0.211745
0.184329
-0.176776
-0.139914
0.252476
-0.0767966
-0.124988
0.0938851
0.272229
-0.182995
0.0573238
-0.220715
0.202532
-0.23362
0.184241
-0.177162
-0.0769577
-0.0525092
-0.108709
-0.17575
-0.115843
0.0459778
0.112482
0.209946
0.00218273
0.111609
-0.299958
-0.212221
-0.22502
-0.0388328
-0.301899
0.281891
-0.123544
-0.152441
-0.130094
-0.17392
0.0555364
0.0466261
0.219624
0.0822471
0.163749
-0.0368495
0.150142
0.0803371
0.0229345
0.0589556
0.175183
0.284876
0.248234
-0.222688
-0.176154
-0.144385
0.138283
0.222971
-0.209615
-0.181276
0.0493598
-0.216872
-0.0867201
0.139295
0.0674573
-0.0784018
0.102146
0.20926
0.0597328
0.278213
-0.254004
-0.163269
0.0350087
0.28745
0.190966
-0.10366
-0.057869
0.0648819
0.265109
0.322983
-0.201357
0.111129
0.258759
-0.22598
0.180418
-0.190749
-0.103007
0.0252733
-0.235191
0.00512131
0.134657
0.106249
0.0575651
-0.254399
-0.113292
-0.147956
-0.0848462
0.291479
-0.226485
0.331583
0.264007
-0.172337
-0.168406
0.0223842
-0.182548
-0.246203
0.217556
-0.00194889
0.143988
0.0969962
0.0501233
0.20558
-0.0360232
0.0187614
0.271095
-0.195461
0.0934567
-0.153994
0.161811
0.105836
0.103338
-0.00700804
-0.106491
-0.09505
-0.0251146
0.105643
0.0466774
0.232873
0.0775151
0.0558533
0.197743
0.0479558
0.206232
-0.233946
-0.262004
0.24329
-0.219338
0.241512
0.0139184
0.158304
0.0289684
-0.258381
0.0529732
0.242725
0.00769982
-0.0375829
-0.197992
-0.138648
0.145391
0.204389
0.277171
-0.034519
-0.140242
-0.146344
0.167595
0.188204
0.230085
-0.0961023
0.0531501
0.0215152
0.301488
0.0241555
-0.210311
0.147916
0.0192717
-0.208671
0.170099
0.152168
-0.231123
-0.127867
0.00775787
0.0830372
-0.0942028
-0.239242
0.0418285
0.278255
-0.00272821
0.125741
-0.214828
-0.111026
0.042108
-0.243748
0.180192
0.261327
-0.0621997
0.00566458
0.120559
-0.102654
0.222829
-0.0342851
0.180978
0.107853
0.196098
-0.22166
0.0777301
-0.0190684
-0.199008
-0.0295071
-0.199924
-0.0444349
-0.012302
0.0379758
-0.30147
0.258873
0.0858415
0.0768331
0.199083
-0.210109
-0.0202662
-0.284168
-0.0106549
0.255556
-0.16695
-0.186654
0.231635
0.0606269
0.258936
0.0463092
0.256277
0.0145428
0.223497
0.176795
-0.169501
0.177646
0.20525
0.256202
-0.254364
-0.223928
-0.101965
-0.229527
-0.0304111
0.329805
0.180015
0.0267949
0.332142
-0.110337
-0.188025
0.29044
-0.00674418
-0.0163382
0.221621
-0.219524
0.0194478
-0.143805
-0.15779
0.0319915
0.200046
-0.306844
-0.224117
0.125555
0.0717062
0.251488
0.0450573
-0.315442
0.136182
-0.123053
-0.32084
0.196899
0.0296804
-0.0365851
-0.309577
-0.295112
0.0283274
0.114633
-0.0506386
0.0138843
-0.200677
0.221778
-0.172477
0.0466707
-0.125834
-0.109713
0.148976
0.14674
-0.0272172
0.310831
-0.124194
-0.130757
-0.277607
-0.145843
0.228538
0.162986
-0.0975555
-0.1276
0.190362
0.326343
0.172234
0.229298
0.182907
-0.0544483
-0.0983764
0.186609
-0.132042
0.194426
0.0539258
0.269068
-0.254475
0.12073
0.0496546
-0.0699224
-0.178066
0.280039
0.0723875
0.255565
0.130702
-0.14632
0.279105
-0.222144
-0.137192
0.241926
-0.0829648
-0.0912783
0.0209107
0.0409074
0.1229
-0.167428
0.053478
0.000535281
-0.193544
-0.0549761
0.229689
-0.103747
-0.142956
-0.145002
-0.212678
0.131077
-0.213452
-0.0755793
-0.00234673
0.21942
0.0477152
0.108966
0.210021
-0.193096
0.0799291
0.024016
-0.15581
-0.0698236
0.0560596
0.177916
-0.0745327
-0.243124
-0.209759
0.217414
0.153023
0.132137
-0.132766
-0.0928995
-0.159236
-0.00210959
0.191005
-0.240418
0.359415
0.244008
0.0215517
-0.282855
0.151073
0.109391
-0.0864419
-0.174837
0.0204293
0.336265
0.323175
-0.0703019
-0.114496
0.0342716
0.329079
0.0595199
-0.260553
0.13721
-0.0107162
-0.0577871
0.139731
-0.0670563
-0.0687357
0.0164033
-0.136545
0.169827
0.169142
0.0792124
-0.155026
-0.0396703
0.281415
-0.274015
-0.016645
-0.122825
-0.192294
-0.255124
-0.336135
0.0326249
-0.137712
0.027511
-0.0355792
-0.186636
0.177523
0.121031
0.14169
0.25464
-0.123464
0.214911
0.0446658
0.196142
-0.209512
-0.146478
-0.116464
-0.0216336
0.128013
0.0381291
-0.189129
-0.0915271
-0.215473
-0.173984
0.294658
0.211143
0.0335249
-0.148814
-0.200407
0.137241
0.0281426
-0.0885445
-0.167712
0.196546
0.191078
0.143864
-0.306899
0.0697948
-0.15321
0.124203
-0.0118677
0.159065
-0.0216179
-0.342391
0.0340307
0.182346
-0.0703085
0.0795692
-0.082696
-0.317856
-0.125173
0.0771621
0.0220795
-0.15136
0.250378
-0.0830219
-0.283511
-0.0702374
0.238902
-0.0875233
-0.224502
-0.109894
0.0902834
-0.208329
-0.151851
-0.155051
0.226761
-0.132309
0.246997
-0.21632
-0.172435
-0.00940345
0.147224
0.183706
-0.040717
-0.177631
-0.097347
0.219496
0.262535
0.162368
0.230592
-0.208666
-0.175068
-0.129708
-0.137535
-0.0664101
0.21912
-0.123355
0.0644735
0.0630014
0.103127
0.142061
0.2567
-0.132354
0.163537
-0.157892
-0.0124376
0.00964151
0.0275188
-0.107269
0.0229657
0.218576
0.236848
-0.0929816
-0.0189989
-0.108248
-0.00727941
-0.258321
-0.156812
-0.0247481
0.146207
-0.242351
-0.00664647
-0.230963
-0.0516325
0.156643
-0.0558416
-0.199689
-0.194149
0.249404
0.100573
0.139164
0.048043
0.0790617
-0.241681
-0.143412
0.214489
-0.0591056
0.227567
-0.0283041
0.220494
-0.0440849
-0.178189
0.112773
0.140766
0.11251
-0.164139
-0.135656
0.168772
0.0443674
0.156297
0.0572788
-0.0699139
-0.228601
0.0941661
0.263782
0.2367
-0.26246
-0.223908
-0.280428
0.256948
0.244198
0.256321
-0.00149119
0.00550001
0.250013
0.18836
-0.0364738
-0.15847
0.0297415
0.225272
-0.141054
0.239449
-0.223956
-0.25976
0.134833
0.224977
-0.122826
0.251329
0.0547376
0.122144
-0.0348677
-0.176557
-0.158013
0.105507
0.191264
-0.204492
0.0714088
0.163793
-0.102121
0.0283218
0.279727
-0.174542
-0.055483
-0.0621973
0.209445
-0.141468
-0.260107
-0.0725852
0.0678334
0.096988
-0.144911
0.213824
0.138488
-0.120249
-0.265195
-0.157785
-0.19804
-0.148089
-0.196573
0.145598
-0.220338
0.0926676
0.256057
-0.143802
-0.111032
0.158848
-0.0540247
0.268293
0.0793696
0.155493
0.0328509
0.00351913
0.244367
-0.28374
0.164106
0.149635
-0.0602464
0.230887
-0.261573
-0.22678
0.0277563
-0.131906
-0.270271
-0.164923
0.0203316
-0.256292
-0.0424842
0.148596
-0.0369705
0.0204645
0.0189633
-0.0403801
-0.156024
-0.0161572
0.127324
0.0446301
-0.17488
-0.220981
-0.00483658
0.15732
0.222745
-0.249448
-0.160608
0.198808
-0.207553
-0.314091
0.0712383
0.0134912
0.217227
0.0613229
0.0308594
-0.0425798
0.24718
0.0591774
0.0479825
0.000104424
0.119167
0.29228
-0.100926
-0.223258
0.0582028
0.203586
0.0438597
0.132989
-0.146757
-0.141713
-0.151726
-0.0528297
-0.0374641
0.171643
-0.171983
-0.114013
0.211987
-0.0232282
-0.208375
0.277414
-0.0212276
0.110044
-0.0169106
-0.0998275
-0.0612829
-0.291917
0.15342
-0.123055
0.0790262
-0.114037
0.187456
-0.118813
-0.0923831
-0.243692
-0.0427378
0.22904
0.25145
0.299338
0.0640101
-0.185312
-0.111546
0.215164
0.076403
0.134254
0.111279
0.191206
-0.284636
-0.00755757
-0.0805157
-0.164325
-0.0108815
0.12989
0.326672
0.292741
-0.2697
-0.0995628
0.250825
0.182419
0.016884
-0.0210519
-0.242722
-0.123431
0.162679
-0.024785
-0.00322223
-0.174962
-0.0680745
-0.0618457
-0.189675
0.267578
0.0305176
-0.00181664
0.176287
-0.229653
-0.150372
0.0158911
-0.236584
-0.128321
0.303279
-0.130603
-0.0452336
-0.0381219
-0.300904
-0.0806035
-0.0829148
-0.287597
0.0873324
-0.174511
0.263232
-0.19215
0.100776
-0.266375
-0.0183368
-0.0199113
0.0214292
0.256164
0.0748097
0.217724
-0.12747
0.216934
0.198659
0.265497
-0.101105
0.15362
-0.284818
0.0735916
-0.213772
-0.268586
0.227192
-0.187153
-0.140693
-0.100714
0.0301397
-0.0805871
0.101309
0.178396
-0.0155888
-0.106004
-0.264486
-0.0657996
-0.0161519
0.188172
-0.0247931
0.269653
-0.21749
-0.27057
0.237643
0.275295
0.249091
-0.175899
0.0985069
0.151853
-0.220678
-0.284096
-0.0228223
-0.120671
0.0650089
0.0617981
-0.165812
-0.0164405
0.12226
0.126324
0.152949
-0.122401
-0.270934
-0.00378752
-0.229915
0.0489024
0.128578
-0.158106
0.236074
-0.190913
0.279546
-0.0903514
-0.144912
-0.2075
-0.0743874
-0.252882
-0.242094
-0.0981972
-0.00961021
0.137204
-0.226969
0.00578393
0.169769
-0.0340066
0.111431
-0.124099
-0.248309
0.342043
0.14893
0.206961
0.0552961
0.0404509
-0.170944
0.114227
-0.318844
-0.0869065
-0.150286
0.165038
0.0254818
-0.19892
0.276706
0.0133618
0.0561697
-0.160932
0.123218
0.262272
-0.130672
0.115888
-0.0968102
0.146218
-0.0235535
-0.0495248
-0.149652
-0.13815
0.241365
0.332425
0.0554074
-0.298937
0.24169
-0.0796148
0.246368
0.0766855
0.208332
-0.241893
-0.154857
0.261525
-0.0447602
0.0127309
0.0756031
0.310471
0.0621025
0.121417
0.0240589
-0.119592
0.236822
-0.207225
-0.157549
-0.212903
0.268358
0.0207611
0.226948
-0.0768098
0.251598
-0.225616
0.0465126
0.236602
-0.283006
-0.214072
0.255722
-0.267451
-0.0103423
0.164241
0.0858682
-0.121444
0.194067
0.191518
-0.117844
-0.148323
-0.088644
0.23188
-0.159656
-0.275576
0.0427185
0.157285
-0.134266
0.0102725
0.249384
0.0562897
0.0901257
0.283474
-0.21429
0.0439645
-0.0969186
-0.250458
0.158129
0.275578
0.281563
0.202209
-0.209621
0.179727
0.239449
0.0605005
0.09631
-0.0678015
0.217323
-0.0317983
-0.105147
-0.173054
0.0841688
0.122034
-0.125483
0.247863
0.0897769
0.17706
0.095308
0.315395
-0.0989356
0.0823298
0.0383757
0.301772
0.00905241
0.0965616
0.0674185
0.178191
0.17016
-0.16784
0.150548
0.167741
-0.21843
0.18766
0.0644368
0.280225
0.00733768
-0.180994
-0.0806196
-0.0913479
0.0848876
0.113043
0.093739
-0.0633024
-0.118225
0.222625
-0.144918
0.250724
0.130942
0.207641
0.259874
-0.286136
-0.00752031
0.0287242
-0.270365
-0.259621
-0.201271
0.039432
0.212325
0.269119
0.208364
0.0882725
0.128708
-0.27781
0.0554219
-0.0783061
0.231013
-0.23893
0.0260752
-0.162672
0.00750871
-0.172715
0.20863
-0.235282
-0.023998
-0.160707
-0.217967
0.0992951
-0.233301
0.201573
0.037537
-0.24765
0.181973
-0.211984
0.00162677
0.230347
-0.245261
0.116427
-0.034929
-0.316086
0.0139882
-0.0664562
0.142393
-0.143655
-0.10999
-0.0867195
0.0330037
-0.129652
-0.0918595
-0.235865
-0.00644525
0.210229
-0.17802
-0.0395817
-0.248305
0.172274
0.055736
-0.222422
0.0225956
0.154257
0.23332
-0.191866
0.196876
0.150104
-0.0749915
-0.187845
0.122837
-0.113864
0.288674
-0.244568
-0.015427
-0.0252079
-0.100415
-0.212624
0.182597
0.0902933
-0.0619073
-0.10498
0.260714
0.207744
-0.0677453
0.0549208
0.109356
0.0908954
0.309883
0.130432
-0.0950468
0.0268372
0.225798
0.247512
-0.0602459
0.155092
-0.255796
-0.205031
0.0174486
-0.14526
-0.0719173
-0.206473
0.148342
-0.131479
-0.235
-0.246909
0.163443
0.0108973
-0.173974
-0.0279649
-0.186611
0.110032
0.106683
-0.157631
0.00548473
-0.239103
0.127749
-0.141613
0.0762952
0.084873
0.277044
-0.188606
-0.120197
0.131316
-0.310172
0.0538217
0.0517993
-0.198717
0.116748
-0.24196
-0.0597716
-0.267035
-0.166355
-0.217132
-0.161564
-0.06789
-0.174077
-0.239185
0.234945
0.0547497
-0.0458141
-0.206261
-0.0829107
-0.0948517
-0.110376
0.209339
-0.110634
-0.270358
-0.279896
-0.252976
0.127187
0.267821
-0.241172
-0.328199
0.159162
-0.220644
0.0286098
-0.0723083
-0.109257
-0.129931
-0.096296
0.143288
-0.0974423
0.0615091
0.221839
0.132884
0.223999
-0.205305
0.173428
0.158178
0.129801
-0.115254
0.27406
-0.253644
0.0259354
-0.150801
0.230862
0.244347
-0.102426
0.198895
0.276547
-0.251933
0.183997
-0.246857
-0.26795
0.103234
-0.162107
0.0993258
0.24552
0.0187083
0.289203
-0.103669
-0.119413
-0.0891611
0.255753
-0.168092
-0.279039
0.195102
-0.0767654
0.14848
0.0872037
-0.222315
-0.21887
0.0545877
-0.239753
0.125813
0.23872
0.275055
0.0471614
-0.201591
0.234518
0.021105
-0.147723
0.192012
0.0724437
-0.118133
-0.0252832
0.209412
0.275939
-0.0764254
-0.0262413
0.255613
0.12165
0.111279
-0.162746
0.117072
0.22534
-0.146501
-0.0172945
-0.145219
-0.235625
-0.227273
-0.0719001
-0.174998
0.160999
-0.0384811
0.22316
0.0905259
-0.0088524
-0.00102865
0.194864
-0.051893
-0.26711
-0.269163
-0.184655
0.0741027
-0.0198003
0.0519729
-0.00962357
-0.0361148
-0.279119
0.270514
-0.0786351
0.16607
0.0635675
0.0423232
-0.0441746
-0.0156778
0.229459
0.259631
0.124641
0.260058
-0.2722
-0.263436
-0.233712
0.173647
0.0204434
-0.257181
-0.046128
-0.291741
0.0152679
-0.122736
-0.066452
0.0378346
-0.071424
0.0335805
-0.168991
0.19125
-0.205083
0.121942
-0.12618
-0.19441
0.0416168
0.056844
0.237663
-0.197116
-0.200508
-0.103251
0.133055
-0.239437
-0.153743
-0.0627141
-0.274566
-0.12951
-0.0104398
-0.192858
-0.224788
0.285244
-0.204863
0.0336903
-0.288953
0.105443
0.1865
-0.0520325
-0.117686
-0.157657
0.256274
-0.0381459
-0.256594
-0.233964
-0.231673
-0.11624
-0.132925
0.128217
0.264355
-0.16628
0.255493
-0.172214
0.0215137
0.071849
-0.116418
0.157495
-0.289548
-0.104272
-0.238794
-0.0295482
-0.00851774
-0.23598
0.0142778
0.0964471
0.11218
-0.0314764
-0.067416
0.0613257
0.190377
0.0688264
0.195853
0.173709
-0.25004
0.20647
0.259032
-0.20581
-0.140256
-0.180235
0.242191
-0.183158
-0.0663476
0.165518
-0.034872
0.262552
-0.0274751
0.134721
0.135147
-0.0134559
-0.281569
0.181644
0.250932
-0.0125761
0.267874
-0.0554411
-0.232788
0.107589
0.247543
-0.0164406
-0.168115
0.177925
-0.248004
-0.273947
0.0419767
-0.187922
0.260233
0.0214563
-0.132054
-0.181889
0.104006
-0.202269
-0.0373616
-0.2349
0.275853
0.139578
-0.272505
-0.0296386
-0.0298952
0.144994
0.241941
-0.0158599
0.0274322
0.198392
0.257152
-0.0374282
-0.162952
-0.229051
-0.235051
-0.247674
0.0289273
-0.0810696
0.226787
0.0952038
-0.0712162
-0.0141759
0.156061
-0.0767071
0.246805
-0.241785
0.0330768
0.0781385
-0.166826
0.233343
0.0983925
-0.139105
0.120028
0.146216
0.0875907
-0.211455
-0.00529244
-0.0198865
0.0989897
-0.28415
-0.13852
0.0394685
-0.0181317
-0.00811899
0.0803116
0.0466871
0.115037
-0.161478
0.25829
-0.0181521
0.236959
-0.0812865
0.302322
0.104784
0.125063
0.243114
0.139415
-0.162196
0.00131473
0.296345
-0.200546
-0.184427
-0.181497
0.196736
0.264262
0.163909
-0.277707
-0.0103895
-0.092726
0.0911423
-0.0069763
0.0424875
-0.164679
0.262027
-0.251595
0.23454
0.015832
0.13157
-0.156798
0.0301404
-0.150084
-0.222242
0.198259
-0.146229
0.183011
0.0413559
-0.227084
0.0208489
0.171128
0.142849
0.0600989
0.240581
0.236039
0.144466
0.153362
0.201315
0.0126948
0.221892
-0.108349
0.195782
-0.0169189
0.133284
0.00788286
0.162902
0.0706013
0.0423607
0.189757
-0.141981
-0.0749017
0.265069
0.162118
0.063055
-0.292271
0.0696652
0.18683
0.159833
-0.16266
0.280252
-0.143117
-0.273689
0.052614
0.19204
0.292139
0.023419
0.0302639
0.213953
-0.0215
-0.235939
0.07115
0.159027
-0.279391
-0.190145
0.028173
-0.0127134
0.287614
-0.165105
-0.270561
0.128538
-0.0124808
-0.106241
0.0864843
-0.16823
0.311659
0.0649448
0.160608
0.170994
-0.0303076
0.257333
0.146422
0.184727
0.310925
-0.0196145
0.0517854
0.307022
0.338797
-0.143577
0.154546
-0.0718332
-0.0454622
-0.0407219
-0.214591
-0.070319
0.0678182
0.135
0.178717
0.0485899
0.236964
0.220412
-0.144313
-0.0872655
-0.143268
0.251531
0.0180004
-0.176689
0.0820562
-0.0841182
-0.27507
-0.2733
-0.0514794
0.186961
0.190357
-0.10034
-0.15068
-0.0146027
-0.126727
-0.180865
0.114408
-0.305546
0.0830689
-0.277929
-0.0506858
0.191833
-0.0398992
-0.277744
-0.025733
-0.145011
0.0651201
-0.075914
-0.253324
0.247257
0.146197
-0.073232
0.182367
-0.154492
0.0185293
-0.0357468
0.0130957
-0.00358608
-0.0190431
0.219018
-0.0656604
-0.181513
-0.176832
0.0570983
0.11751
-0.030123
0.164048
-0.0970672
-0.0240674
-0.0180994
-0.0580576
0.229817
-0.181531
0.14124
0.26096
0.155191
0.281128
0.0422312
-0.22031
-0.272825
-0.0317924
0.175446
-0.123383
-0.100982
-0.248989
0.234266
0.115886
0.115491
-0.0430772
-0.204851
0.00351028
0.167645
-0.0595428
0.131282
-0.0734267
-0.244258
-0.169392
-0.183387
-0.00196006
0.0947485
0.0692252
0.192087
0.0109267
0.266164
0.0570555
-0.0147669
0.0539426
-0.000775486
-0.257
0.103517
0.000702414
0.049545
0.00512024
0.232658
0.171989
0.052867
0.123763
0.0525074
-0.154117
-0.20408
0.130684
0.174181
0.251409
-0.234998
0.0308724
-0.123776
-0.170433
0.151614
-0.00347479
0.0600883
-0.00884152
-0.237752
0.0172749
0.277891
0.271268
-0.252146
0.0285582
0.0349103
0.0326007
0.0176207
-0.132032
-0.244527
-0.23298
0.176324
0.276304
0.269963
-0.0526975
0.0834867
0.000405768
0.116325
0.210169
-0.167855
-0.0128472
0.18388
-0.118848
-0.23444
-0.271794
0.0431143
0.200025
0.0687618
-0.130937
-0.137299
0.0901411
0.142086
-0.131907
0.12879
0.204354
0.154541
-0.126015
-0.0323776
-0.121819
0.0515894
0.037731
-0.032455
-0.0514218
-0.0280308
-0.097592
0.163353
-0.176589
0.215634
0.00208452
-0.263316
-0.263461
0.282367
0.221566
-0.083062
-0.27653
0.252654
0.243997
0.235737
-0.0378484
-0.144564
-0.197095
-0.210503
-0.298763
-0.0428537
0.157881
0.156355
-0.186487
-0.280508
-0.154118
-0.0137524
0.0462377
0.167643
0.215919
0.318534
-0.13733
-0.146092
0.162483
-0.0357107
-0.241852
-0.104978
-0.0348244
-0.24122
-0.13986
-0.0919582
-0.0263406
-0.110019
-0.179046
-0.00604072
-0.12738
0.139111
0.134801
-0.0444155
0.167889
0.127191
0.223411
0.0434091
0.0270027
-0.231491
0.0424113
0.125976
0.0614986
-0.17213
0.0359272
0.0261003
-0.212175
0.130657
0.129895
0.310211
-0.152839
0.187917
-0.167928
0.129059
0.232451
-0.000681802
-0.335128
-0.11635
0.204865
-0.149478
0.215057
-0.245839
0.246056
-0.00179086
0.0264765
0.127108
-0.206448
-0.092465
-0.0546418
0.123874
-0.0464514
0.291612
-0.0156584
-0.259031
-0.188464
-0.261038
0.0423808
-0.0982058
0.240951
-0.123815
-0.0888811
-0.200683
-0.257816
0.0589666
0.236323
0.251784
-0.286025
0.266148
-0.0929758
0.181793
-0.202675
-0.224918
0.238325
-0.202163
0.0811342
-0.0772488
0.17401
0.173466
0.189441
-0.134729
0.0016691
-0.108923
-0.22098
-0.322163
-0.0853053
-0.0951487
-0.204944
0.241682
0.116526
0.28003
-0.189935
0.274531
-0.189882
-0.107764
-0.0160856
-0.276266
-0.182992
-0.0329978
0.312145
-0.000277307
-0.0807556
-0.18713
0.131957
-0.1667
-0.140073
-0.08901
0.0905
-0.222111
-0.155657
-0.0388747
-0.0714683
0.0921444
0.0747517
0.0318471
0.143825
-0.309255
0.178863
0.202041
0.215441
-0.00569445
0.175842
-0.241738
-0.0421412
0.246233
-0.107407
0.221052
0.283952
0.0277723
-0.109813
0.276235
-0.238532
0.0925996
-0.224545
0.172628
0.232989
-0.0421524
-0.218106
0.0121632
0.0722157
-0.12236
0.287315
0.255331
0.264022
0.108887
-0.0106774
0.11009
0.104342
-0.128453
-0.0107784
0.0338055
0.15288
-0.156332
0.0876026
-0.186619
-0.192117
0.291031
-0.298633
-0.198517
0.0320237
-0.0913215
-0.247244
0.0613545
-0.290306
-0.176065
-0.0337762
0.224306
0.0549808
0.0362425
-0.0527785
-0.177795
0.206239
-0.047058
-0.205714
0.183422
-0.257809
0.0646983
-0.00944902
0.146974
0.242743
0.25541
-0.0965435
0.117757
-0.177703
0.275154
0.206979
-0.0843334
0.268657
0.236558
-0.00149984
-0.0359803
-0.146129
0.0725239
-0.279964
-0.154267
0.187999
-0.00265993
-0.196919
-0.0348977
-0.281969
0.0458474
0.0629612
0.232695
0.312127
0.160746
0.12711
-0.257637
-0.0602317
-0.194161
0.201265
-0.113487
-0.216958
-0.204681
-0.295511
-0.106822
-0.216844
0.234769
0.0879504
-0.283348
0.169878
-0.178651
0.043735
-0.26816
0.199478
0.021658
-0.141159
0.0538296
-0.26013
-0.000812955
-0.218593
-0.27095
-0.258529
0.0736207
0.319028
-0.326843
-0.0675408
0.121346
-0.169139
0.18908
0.220342
0.34581
-0.208233
-0.20948
-0.248944
-0.142295
-0.0739505
-0.119902
-0.219712
-0.238828
-0.087899
0.268031
-0.172782
0.166209
0.279066
-0.322367
-0.0761731
-0.15702
0.113572
-0.0147437
0.181184
0.0955494
0.0278028
0.178685
-0.0891345
-0.00807773
0.232789
0.256495
-0.176617
0.258017
0.158669
-0.243434
0.242614
0.222939
-0.228597
-0.218331
-0.204274
-0.0701043
-0.102875
-0.131006
-0.0161967
0.0531272
-0.215031
0.149954
-0.0778096
-0.252041
0.183587
0.129181
-0.00738877
-0.0374765
-0.18884
-0.211979
-0.212881
0.105615
0.300463
0.0794953
-0.303243
0.179055
-0.0665809
-0.15923
0.20584
-0.192401
-0.167656
0.146388
-0.192653
-0.108582
0.224708
-0.18185
0.140319
-0.207405
-0.023024
-0.0640022
0.198773
0.123807
-0.284481
-0.0960516
0.240569
0.165153
0.261918
-0.0684073
-0.104731
-0.262815
-0.0536827
0.0013175
0.110887
-0.0497946
-0.232958
0.157256
-0.148495
0.072506
0.171567
-0.239971
0.121753
-0.204873
0.230169
0.206383
0.0625203
0.150752
-0.26731
-0.0932012
0.213008
0.091246
0.0766709
0.0938042
-0.0914052
0.0495768
0.244611
-0.204455
-0.0380857
0.228963
-0.0219608
0.17882
0.320737
0.268752
-0.0562429
0.155004
-0.0574082
-0.0591364
0.0032958
0.187358
-0.301219
-0.0855986
0.261918
0.167013
0.0191499
0.138342
0.0604463
-0.323155
-0.0271508
0.138038
-0.0793236
-0.0981533
-0.0855762
-0.302539
0.30821
0.120971
0.129824
0.233604
0.255376
-0.147882
0.115692
-0.088281
-0.253246
0.159548
-0.0685446
-0.0807365
-0.00789934
0.20426
0.220349
0.227395
0.0690953
0.235128
-0.17012
-0.0111781
0.108183
0.125544
-0.161235
-0.125162
0.197218
0.0753813
-0.298211
-0.165228
0.341159
-0.0602501
-0.174633
0.245299
-0.141132
0.297257
0.194004
-0.211351
-0.200796
0.140063
0.00487621
-0.113189
-0.0674552
0.19018
0.165489
0.206502
0.121713
0.07256
0.122703
-0.195968
0.038562
0.28806
0.0575962
-0.162436
0.100885
0.142979
-0.00923574
0.0232218
-0.0595181
0.0233602
0.0959848
-0.0706653
0.242522
0.28753
-0.096722
-0.206035
0.243317
-0.174216
-0.178209
-0.194347
0.193631
0.0724589
-0.0837595
-0.15816
0.0260937
-0.206528
-0.252704
-0.201612
0.157202
0.121657
-0.126765
-0.168705
0.10534
0.172742
-0.0293445
-0.0909589
0.0783971
0.201569
0.176136
-0.297037
-0.0602234
0.0214098
-0.0741625
-0.106412
-0.00684074
0.173394
-0.0389537
-0.052067
-0.299237
0.0934041
-0.0497902
0.239845
-0.110159
0.207551
-0.204032
0.186044
0.250362
-0.177197
0.232573
0.124449
0.239375
-0.170183
0.280879
0.0530422
-0.248079
-0.0469289
0.237825
0.122294
-0.120545
0.109167
0.13124
0.125879
-0.143694
-0.239548
-0.262102
0.105916
0.255801
-0.0162705
-0.28909
0.295087
-0.235186
-0.0086631
0.21391
-0.0663189
-0.0498388
0.267018
-0.168596
-0.0848553
-0.237819
-0.181652
-0.317005
-0.294209
-0.0520022
0.284514
0.104479
-0.00166905
-0.0899689
0.0707042
-0.120403
0.14915
-0.0701749
0.275215
-0.0637077
0.0182939
-0.212267
-0.0901182
-0.205213
-0.237007
0.185179
-0.149301
-0.294502
0.21256
0.139107
0.242244
-0.0972641
-0.246696
0.236361
0.0303894
-0.082951
0.271262
0.149495
-0.0499766
-0.270274
-0.213275
-0.0502133
0.104023
0.122398
0.191617
-0.137593
0.230726
-0.027649
0.0381903
0.26165
0.230474
-0.229765
-0.261862
-0.167551
-0.0796523
-0.200672
-0.23831
0.0811926
-0.225729
0.29549
-0.0694365
-0.302796
-0.134404
-0.0105332
0.181611
0.165615
0.240702
0.206343
-0.00067351
-0.087634
0.210702
0.0801446
0.128993
0.0176805
-0.128773
0.0274541
0.187119
-0.175468
-0.283689
-0.0445302
-0.221715
0.230236
0.0181528
-0.206914
-0.224074
0.263236
-0.15987
-0.211117
0.0665399
-0.0597188
-0.198107
0.262244
-0.0183434
-0.0523559
-0.0181974
-0.106587
-0.201835
-0.100716
-0.211435
0.101901
0.120903
-0.285047
-0.157023
-0.0681735
0.0333353
0.0227018
0.291544
-0.0875489
0.150126
0.26619
0.221626
0.165775
0.216313
-0.0892924
0.266314
0.279056
-0.116062
-0.198189
-0.215471
0.201004
0.0669236
-0.121641
0.213643
-0.388468
0.035778
-0.164078
-0.024882
0.198352
0.0589116
0.0328434
-0.000492494
-0.24081
0.0607618
0.0682474
0.170375
-0.182804
-0.103624
0.0657535
0.058099
-0.301068
-0.0293469
-0.166971
0.213333
0.0760507
0.100348
0.210069
-0.0328671
0.272387
-0.319603
0.0750916
0.129361
0.141668
0.196572
-0.0113832
0.118184
-0.0861682
0.145833
-0.296234
-0.152494
-0.0555703
0.13216
0.0755442
0.127118
-0.114588
-0.0500373
-0.10238
-0.0383552
0.0906371
0.271434
0.135905
0.11579
-0.0470768
-0.281984
0.0645033
-0.178769
0.19251
0.0185028
0.0218618
0.112614
-0.0800687
-0.288464
-0.00847969
-0.302011
0.224033
-0.265343
0.226817
-0.136837
0.194955
0.251953
0.0495759
-0.148629
-0.0626887
-0.178667
0.155248
0.116707
0.0713779
-0.14677
0.234734
0.0253109
-0.227676
0.140404
-0.207169
0.149117
0.288357
0.1596
0.25468
0.130994
-0.175635
-0.0844876
-0.0138174
0.0259336
-0.0601615
0.294056
0.160398
-0.0512765
0.282791
0.0923486
0.13886
0.159073
-0.0954438
-0.0813794
0.267707
0.159146
0.138702
0.110756
-0.0684631
-0.0313465
0.218469
-0.126292
0.233185
0.23506
-0.258152
-0.296141
0.0865022
0.250633
0.170907
-0.0388294
0.103219
0.208308
0.153205
-0.230507
-0.0164238
-0.232693
-0.26629
-0.157069
-0.0228731
-0.268814
0.0742475
-0.203091
0.159177
0.29061
-0.0163806
0.171739
0.148234
-0.168812
0.00860882
-0.202598
0.101728
-0.140293
-0.00655945
0.0260889
-0.166569
0.0167072
0.0360686
0.234958
0.00901687
-0.119932
-0.113894
-0.198833
-0.170652
-0.302192
-0.120095
0.117252
-0.211351
-0.0677998
0.227946
0.0410711
-0.0224959
0.00525372
0.152408
-0.13632
0.00303433
-0.149035
-0.284043
-0.129912
-0.0218559
0.00748189
-0.0223468
-0.246206
0.165494
0.271699
0.0798563
-0.293537
-0.0204363
-0.163874
0.2077
-0.29427
0.0122792
-0.220693
-0.215977
0.148615
-0.195865
0.0164996
-0.0497895
-0.127782
0.233357
-0.0815541
0.226754
-0.0999553
0.212311
0.0782561
0.0345763
-0.0604756
0.225474
0.109109
0.0949673
-0.113387
-0.180921
-0.205141
-0.0233226
0.277952
-0.196077
-0.259216
0.267583
0.0566717
-0.107825
0.182512
0.0774955
0.129406
0.258341
0.202228
-0.0718103
-0.265999
-0.063053
0.254303
-0.0417178
-0.197153
-0.176862
-0.11198
-0.0124346
-0.258822
0.225743
-0.201431
0.0312608
0.15526
0.152301
-0.227834
-0.204918
0.227289
-0.136856
-0.0175051
0.163171
-0.0682753
0.0311218
0.11185
0.256107
0.205347
0.0856058
0.0421942
0.0381729
0.0228577
-0.094364
0.29998
0.0505598
0.0473621
0.202397
-0.205172
0.146154
-0.295218
-0.118897
-0.165966
-0.217345
-0.141273
-0.101519
0.0861062
-0.23345
-0.296446
0.0839875
-0.171327
0.228938
0.320365
0.176123
0.14943
-0.097323
-0.0559292
0.00183497
-0.120997
-0.244646
-0.255654
0.147845
0.043027
0.146166
-0.233496
0.0850775
-0.0738545
0.256877
-0.0553068
-0.0551933
0.0619916
-0.0171775
0.182711
0.221021
0.0550196
-0.206296
-0.223392
-0.180408
-0.185035
-0.220356
0.287229
-0.00573416
-0.285022
0.224343
-0.188375
0.187557
-0.129391
0.0295301
-0.181078
0.0245427
0.0701929
-0.104479
-0.041743
-0.0972093
0.280772
0.043813
0.264433
-0.103227
-0.0636154
-0.0832556
0.164933
0.27541
0.236006
0.0858071
0.192842
0.0457862
0.174043
0.280888
0.200523
-0.302609
-0.217244
0.179173
0.00906573
-0.192428
0.166821
0.144772
0.296887
-0.263841
-0.130709
-0.172649
0.0795968
0.303294
0.00987139
-0.242192
-0.10342
0.0300503
0.0831652
-0.164311
0.207761
-0.292628
0.0299136
0.0728505
-0.28565
-0.0232951
-0.154225
0.195344
-0.276674
-0.281384
0.181608
0.192731
-0.267511
0.265868
0.0838115
0.0312119
-0.197542
-0.106592
-0.138367
-0.240842
-0.0969275
0.0543867
-0.0790045
0.28422
0.045521
0.225363
-0.268054
0.191957
-0.0590033
0.0859052
-0.275467
-0.150606
0.131168
0.0689127
0.245847
0.134893
-0.267678
-0.186476
0.0322761
-0.26466
-0.187777
-0.0636275
0.208369
-0.160888
-0.110509
-0.0332564
0.171809
-0.0410039
0.127354
-0.22546
0.0457773
-0.245631
0.090742
0.24029
-0.24226
-0.173163
0.162553
-0.19392
-0.284846
-0.172889
0.159221
-0.252714
-0.00926856
-0.0357502
0.0638161
-0.0877722
-0.199809
0.0625569
0.019472
0.150445
0.105467
0.169996
-0.193492
-0.0191272
-0.261717
-0.0181449
0.267656
0.289904
0.274932
0.0988923
0.260697
-0.0331623
0.180395
0.0391694
-0.116104
0.250029
0.176731
-0.183455
-0.267646
0.20726
-0.0939757
0.179633
0.266615
0.196047
-0.153099
0.0605148
-0.109016
0.00989113
-0.150039
0.187254
-0.0903512
0.247733
0.058486
-0.00435003
-0.0112844
0.103588
0.271176
-0.0333706
0.0333597
0.262623
-0.166431
0.0386894
-0.0935165
0.31896
-0.173732
0.170966
0.261371
-0.264985
0.217927
0.265756
0.236038
-0.11129
0.183791
0.25137
-0.238644
-0.195197
-0.0703496
-0.0683352
0.0963907
0.122512
-0.170851
-0.308951
0.0723255
0.287816
0.00414545
-0.26338
0.101722
-0.0773833
0.0712776
-0.163458
-0.109748
0.055169
0.206795
0.104377
0.107148
-0.264596
-0.0561903
0.0418498
-0.172937
-0.136739
0.0483766
-0.231479
0.0414688
-0.0667595
0.292821
0.101685
-0.00428625
-0.00878667
-0.224714
-0.269452
-0.210497
-0.101019
-0.209605
0.152501
-0.14054
0.097255
0.147741
0.225357
-0.248238
-0.114886
-0.220115
-0.0183644
-0.328154
0.310756
-0.194611
0.140783
-0.297495
0.0235614
-0.140329
-0.223012
0.200272
0.219221
-0.133146
-0.0629869
-0.13134
-0.178218
-0.21641
0.108602
0.120582
-0.238024
0.197983
0.133867
0.00844853
0.24595
-0.0704818
0.155364
0.0917857
-0.125006
0.0991599
0.167172
0.0467164
0.171504
-0.142732
0.0148311
0.0794425
-0.048348
-0.154464
0.137339
-0.282911
0.0138289
0.194666
0.282067
-0.058266
-0.298437
-0.12874
0.0645249
-0.123314
-0.0178466
-0.103164
0.237175
0.0647806
-0.212612
0.0378846
-0.148971
-0.196696
-0.241929
0.280554
0.148366
-0.140915
0.0550017
-0.00561209
0.0894145
-0.087987
0.149807
-0.135776
-0.284708
-0.103944
0.00472157
0.127476
-0.0822569
-0.303976
-0.00491474
-0.1998
-0.0471009
0.0575548
0.0413724
-0.273583
0.186907
0.277509
-0.0982902
0.0791746
0.124899
-0.0030414
-0.133475
0.174952
0.0614666
-0.125971
0.162234
-0.101591
0.00469777
-0.0790351
0.218296
-0.197642
0.0965564
0.102525
0.00931517
0.0688314
0.236192
0.242732
-0.078852
-0.156681
0.260983
0.253415
-0.0758608
-0.0433274
0.003242
0.265392
-0.0167669
-0.173282
0.290782
0.156626
0.27734
0.120719
-0.142354
-0.0807694
-0.0947668
0.165809
0.00549999
-0.222981
-0.203547
-0.350759
0.0455919
0.276182
-0.227775
-0.156171
0.0782504
0.0910275
0.188199
0.15039
0.0397368
-0.219837
0.248295
-0.0704309
-0.19766
-0.0890991
0.20156
-0.01094
-0.0825764
-0.115939
0.193569
-0.0934265
-0.25932
0.216631
0.257981
-0.171012
0.27246
-0.0821812
-0.241156
0.0535549
0.0412542
-0.246731
0.0841599
-0.271386
-0.207456
0.103366
-0.102972
0.168742
-0.0653199
-0.226207
-0.0799534
0.258007
-0.0653563
-0.117273
-0.0742088
-0.0123175
0.137537
-0.0974693
-0.230102
-0.225354
-0.0229554
0.267062
-0.00550168
0.0422768
-0.0427675
-0.0435655
0.255164
0.0533853
0.169728
0.20062
-0.223482
-0.0555322
-0.318256
0.114229
0.0746246
-0.206732
-0.03357
0.166412
0.162988
0.232982
0.24948
-0.07786
0.140684
-0.0656624
0.0824286
-0.159574
0.191848
-0.00970617
0.0499761
0.235681
0.0286596
-0.194298
0.204309
-0.288516
0.088109
-0.0323912
0.0331632
0.0393242
0.284734
-0.149204
-0.0390053
-0.236926
0.0787243
-0.0639596
0.129413
-0.24258
0.0274999
-0.158664
0.254108
-0.0542246
-0.2979
0.204471
0.159934
0.211506
-0.248198
-0.0205637
-0.256065
0.27618
0.277372
0.0695947
0.231574
0.0235954
0.16721
0.0849829
0.02717
-0.0173581
-0.255756
-0.30776
-0.276092
-0.268997
-0.0875396
-0.0423576
-0.196259
0.241445
0.238787
0.223373
-0.265446
-0.0436211
-0.26107
0.210113
0.200223
-0.186478
0.0948064
0.0725275
-0.223
0.189439
-0.197612
-0.238781
0.175806
-0.250777
0.211821
0.15339
0.0606074
0.0190911
-0.088557
-0.214974
-0.250167
-0.0673341
-0.194717
-0.19024
-0.0539364
-0.00579599
0.0867825
0.0694728
-0.0440009
0.0706785
0.0277474
-0.0458206
0.316717
0.067099
-0.0904322
0.255526
0.196943
-0.292416
0.00871885
0.199907
0.166047
0.0385823
0.300161
0.0709052
0.120455
0.16969
-0.138294
-0.171366
-0.0191673
0.0777832
-0.1109
0.029016
-0.310256
-0.0428482
0.130034
-0.0490478
0.259265
-0.0602694
-0.265352
-0.11046
-0.308641
0.0720075
0.162866
0.281414
-0.146459
-0.203296
0.238989
-0.207637
-0.216444
-0.122722
0.277752
0.307348
0.228112
0.286721
0.0434159
0.024977
0.185112
0.207846
0.142296
-0.201519
-0.0305898
-0.176353
0.121289
-0.0188331
0.063308
0.005202
0.268676
0.026003
0.203508
-0.295823
0.217634
0.200753
0.0941839
0.0925858
0.225055
0.254067
0.162983
0.141806
-0.255558
0.282638
-0.277006
-0.27018
0.305163
0.300424
0.306831
0.0265152
0.0540568
0.120599
-0.0585638
-0.0846885
0.283673
0.231697
0.012005
0.0668457
-0.0594795
-0.239204
-0.224417
-0.141671
0.0970549
0.266024
-0.0950321
0.0437768
0.224241
0.286297
-0.151181
0.138925
0.206193
-0.274996
-0.0246908
0.25479
-0.320345
0.0102556
0.24832
0.275606
-0.0083535
0.252964
0.0247905
-0.209966
0.100178
0.253405
-0.0108922
0.0556806
0.159845
0.254421
-0.176303
-0.187055
-0.244189
-0.0864694
-0.0575403
0.176361
-0.121398
0.175151
-0.0838502
-0.232939
0.181578
0.00453965
0.273061
0.114167
0.117138
-0.097471
0.0465554
0.0735401
0.224105
