ARMA_MAT_TXT_FN008
10 15
  -2.060795563852e-01   3.161668839418e-01   5.049631111444e-02  -5.411324373344e-01  -1.350273227684e-01   7.150433387636e-01   6.823612215813e-01   3.878670926347e-01   4.406266564855e-01  -3.018174428819e-01   4.324584011059e-01  -5.462034633031e-01   6.617327049685e-01   6.143894665312e-01  -5.441164525791e-01
  -2.849566836863e-01  -5.183310514824e-01  -1.998564950935e-01   8.156197023138e-01   7.811886075719e-01   4.571387870550e-02  -2.005900962025e-01  -2.834040089309e-02   5.163094883757e-01   2.555225454477e-01   2.464700194002e-01   1.494569384538e-01   6.353496561830e-01  -3.459690290701e-02   6.560804616540e-03
   5.622734165452e-01   1.479981916968e-01   6.753333796367e-01  -6.727558731049e-02   1.547847796066e-01   1.182116032180e-01  -6.694919518117e-01  -5.260108237358e-01  -6.836457464362e-01   5.768390524361e-01  -6.647114795273e-01  -1.958911041538e-01   9.516772539527e-02   3.598752679284e-01   2.799628056173e-01
   1.907021336991e-01  -1.030176962789e-01   5.093951845370e-01  -7.570903931464e-02  -3.268428649776e-01   3.866467838979e-01  -1.385067554715e-01  -8.681937442577e-01  -2.919505269787e-01   1.440750204920e-01  -4.823126949929e-01  -2.899364617361e-01   4.026825360257e-01  -5.010443725150e-01   3.812237338337e-02
   3.259430675446e-01  -3.543041240169e-01   1.488379646159e-01   1.878238139580e-01  -2.167034775008e-01   3.050273092866e-02  -1.104857867127e-01  -1.868815894901e-01   4.700769863420e-02  -5.205653480305e-01   2.817142433527e-01   4.618819970482e-01  -2.706265718987e-01  -3.552552522972e-01   4.315627654313e-01
  -1.570291350855e-01   6.002574650552e-01  -3.018979010691e-01   1.510847950743e-01   4.224573895080e-01  -5.020113697381e-01   6.686157015980e-02  -5.882682167650e-01   1.605872502157e-01  -1.625589398502e-01  -1.869086052700e-01  -5.797395848335e-01   4.100609862893e-01   1.705516992356e-01   1.204821808704e-01
  -9.401165474592e-01  -2.809862722154e-01   1.032881894896e+00   8.891201985501e-01   5.436522597238e-02  -7.332025016560e-01  -3.266670760498e-01   5.603693815960e-02  -1.686848741653e-01  -3.227485604463e-01  -8.208138760164e-02   5.212383173109e-01  -9.479270772516e-02  -2.938999928657e-01  -1.362200619430e-01
   8.935677803573e-01  -2.270842792907e-01  -4.524925302040e-01   6.086352785033e-01   8.115609489113e-01  -1.497282264959e-01  -2.330796247171e-01   5.522339963974e-02  -2.267344659999e-01  -1.391316421746e-01  -1.592230433830e-01  -1.124656035631e-01   1.630684388228e-01   5.558912819619e-01   4.909389773353e-01
   1.819179286989e-02  -4.473187492899e-02  -2.922968789559e-01   1.623823809125e-01   3.379856341229e-01  -5.913239771173e-01  -2.471523069867e-01  -4.826013351739e-01   8.980895914399e-01   7.207439236412e-01   3.800877193801e-01   4.613640093570e-01   8.849860098878e-02  -3.168651984531e-01   8.059679781861e-01
  -4.914861876685e-01   6.167691573515e-01   4.623935919993e-01  -7.128071204141e-01  -3.146832666466e-01   8.645144149243e-02  -3.914673821901e-01  -2.375674771747e-02   8.236875831607e-02   2.016693456642e-02  -1.334624986048e-01   2.283687930902e-01  -2.834001914918e-01  -5.419168661835e-01  -5.193194134109e-02
ARMA_MAT_TXT_FN008
10 10
   2.089435419846e-01  -5.637693328593e-01   2.709069050643e-01   1.232461583844e-03  -1.414956933545e-01  -1.590870315750e-01   1.173182100541e+00  -8.228874624486e-01  -4.965107049503e-02  -7.807283923049e-01
   5.390704953343e-01   1.749540385770e-01   5.332294819146e-01   3.618521132324e-01   3.803358523133e-01  -5.615075401114e-01   8.949753849008e-02  -2.708046707797e-01   8.530002279929e-01   3.085983909838e-01
  -3.369088226981e-01   6.528538888869e-01   7.171230677597e-01   3.343240296245e-01   5.411510903175e-01   3.857695997003e-02  -4.596319507576e-01  -7.805338431454e-01  -4.624252310174e-01  -1.132239087874e+00
  -1.352552728006e-01  -9.804995299239e-01  -4.608894893552e-01  -7.217360259809e-01  -5.698565154532e-01   7.940924391551e-01   1.911860592352e-01  -1.414477937638e-01   4.947689256202e-01  -8.742898966452e-03
   6.472633183578e-01  -1.763207534202e-01   1.643852261591e-01   4.534637697119e-01  -4.446997420952e-01  -2.910459530392e-01   3.404267005521e-01   2.456441018518e-01   4.595920938979e-01  -2.108085697125e-01
   2.548116239073e-01  -6.796246300526e-02  -1.294417239120e-01  -9.181520826857e-02  -1.378591208322e-01  -2.339183287673e-01   6.673912793462e-01   2.923727637867e-01  -8.416922342675e-02   3.543961342130e-01
  -5.602838512218e-01   5.275077392713e-01  -6.527250934861e-01   7.738616174864e-02  -7.504770279524e-02  -4.851272633946e-01  -4.688970289038e-01   7.767746814797e-01  -5.415797400658e-02   1.742942333096e-01
  -7.162128591928e-01  -8.338064043631e-03  -6.980575796626e-01   8.123467353616e-01  -5.461734983798e-01   7.871353690006e-02   8.103263559552e-01   4.264125536332e-01   7.710467648728e-01  -7.321788391666e-02
  -3.294714763921e-01   5.996462930643e-01  -1.143791128232e-01   2.023054655126e-01  -2.345185507506e-01  -3.982074997119e-01   1.285626462876e+00  -1.688561298791e-01  -5.772903143493e-01   5.932254135891e-02
  -1.659293796095e-01  -1.891387300389e-01  -6.149725229601e-01  -2.501113458187e-01  -6.172113229588e-01  -2.434427395988e-01   3.569906178998e-01   3.646491963982e-01  -2.550851826770e-01  -6.279634179898e-01
ARMA_MAT_TXT_FN008
3 10
   1.224170258362e-01   1.908379834123e-01  -1.890317809231e-01  -2.426390689164e-02   3.154070905109e-01  -1.942120774477e-01   7.375281952669e-02  -1.477547993472e-02  -8.600252965191e-02   2.500013276995e-01
   6.878749985116e-01  -2.760614150062e-01  -1.380728648626e-01  -6.857015348719e-02   9.097047760745e-01   5.438312822420e-01   5.585593353174e-01   1.576699324812e-01  -5.263779637781e-01  -3.457103279929e-01
   5.668889555569e-01  -4.757861971848e-01  -9.491093265779e-01  -5.435728586725e-01   1.137906456688e+00  -4.572561971888e-01   3.229831841515e-01   2.162309640104e-01  -2.861443627640e-01  -2.350163281658e-01
