0.296077
0.682392
-0.586286
-0.659717
0.286874
-0.131263
-0.122009
-0.826195
-0.203998
-0.353368
0.675035
-0.417708
-0.177974
0.221972
0.118602
0.00556517
-0.10292
-0.636171
-0.436613
0.243027
0.411891
-0.129983
0.29597
-0.152777
0.0555439
-0.204429
-0.275999
-0.152933
-0.172035
-0.138836
-0.427136
-0.665047
-0.165949
-0.244508
-0.537644
-0.75604
0.35398
-0.000424547
-0.765489
-0.649185
0.388013
0.648905
-0.272482
-0.512967
0.163287
0.628137
0.360134
-0.738975
0.731025
0.570831
0.46912
0.403296
-0.280546
-0.0217487
-0.442558
0.524214
0.470803
-0.00168885
-0.373891
-0.402857
0.673593
-0.0549126
-0.339966
-0.358605
0.373532
-0.137973
-0.327605
-0.0360205
0.613039
-0.347033
0.116875
0.29447
-0.414726
0.573065
0.516945
0.517119
0.477274
0.123501
0.625082
0.521156
-0.0268873
0.447312
0.104789
0.487843
-0.394945
0.418159
0.194197
-0.670659
-0.291556
0.629335
-0.302935
-0.447781
-0.186352
0.122278
-0.0174588
-0.476422
0.702949
0.42368
0.300018
0.536666
-0.715239
-0.411136
0.0672186
-0.383025
-0.570906
-0.16142
-0.646927
0.680369
0.720627
-0.744749
0.394134
-0.0880531
0.267733
-0.312871
-0.380902
0.806194
-0.562814
0.635835
-0.680312
-0.16962
0.474761
-0.190357
0.167572
-0.506849
0.658464
-0.619067
-0.212818
0.540001
0.555414
-0.647232
0.413922
0.614031
-0.36462
-0.301039
-0.505474
-0.22983
0.313087
-0.404018
-0.268394
0.263518
-0.36018
-0.664228
-0.595286
-0.693062
-0.144128
-0.125584
-0.761104
-0.00143693
-0.327491
-0.647945
0.620559
-0.654157
-0.149756
-0.013364
-0.408708
-0.210706
0.180946
0.146549
-0.4097
-0.0446229
0.168865
-0.705905
-0.20901
0.486186
-0.22123
0.079671
-0.437132
-0.659047
0.432771
0.0742491
0.36033
-0.721988
0.15061
0.549164
-0.675339
0.805645
-0.457207
-0.643404
0.0454503
-0.0812559
-0.556046
-0.139096
0.0534023
0.101111
0.563552
0.379966
0.578004
0.0715171
-0.191944
-0.527859
-0.773631
0.792188
-0.524116
-0.249226
0.494371
0.0307779
0.620047
-0.689421
0.116309
0.295748
0.113289
-0.259215
0.362947
-0.504374
-0.482524
0.449503
-0.493013
-0.066066
0.449651
0.253655
0.592043
0.722916
-0.60171
-0.06892
0.0353406
0.731401
-0.45004
-0.1601
-0.000595772
0.137753
0.0861419
0.0269405
0.08338
0.30063
0.596045
-0.201157
-0.34415
0.48947
-0.12432
0.500818
0.0316025
0.743251
-0.546948
-0.358748
-0.50561
-0.249645
-0.672928
-0.228768
0.377413
0.697349
-0.765499
0.227263
0.601187
-0.616361
-0.670312
-0.157559
-0.647038
-0.332155
0.431256
0.147441
0.544888
-0.228935
-0.571179
-0.114323
-0.668137
-0.730022
0.378336
-0.270504
0.495509
-0.367121
-0.500867
-0.156331
-0.403036
-0.258673
0.269384
-0.156594
0.25576
0.333233
0.364231
-0.152179
0.197688
0.452224
-0.654451
-0.0226951
0.5141
-0.635721
0.588327
0.667597
-0.208533
0.255598
0.0798507
-0.401622
-0.744431
0.277767
0.225588
-0.64058
0.365886
-0.026626
-0.131279
0.160714
0.338801
0.123195
0.752208
0.602371
0.595286
0.183044
-0.341285
0.0692848
-0.218654
-0.723533
0.686222
0.757093
0.466168
0.698546
-0.137997
0.290167
-0.684946
-0.14622
0.190671
-0.121406
-0.653116
-0.49311
0.224911
-0.652758
0.558077
-0.337686
-0.536179
0.144277
0.373689
0.113212
-0.476493
-0.0232636
-0.550897
-0.489991
-0.245343
-0.693113
0.460561
0.175379
0.129617
-0.530493
0.22458
0.0503297
-0.517539
-0.0912369
-0.00997982
0.283301
-0.607874
0.0991385
-0.69178
0.365954
0.742225
-0.647444
0.623424
0.189753
-0.494868
0.427189
0.659047
-0.305595
-0.208558
0.232477
0.601819
-0.0206495
-0.595213
-0.61545
0.314413
-0.173194
-0.612396
0.0258122
-0.783079
0.214166
0.266092
0.225828
-0.438562
0.494196
-0.61768
0.320525
0.0178189
-0.534391
-0.320287
0.0556707
0.616878
-0.311196
0.177224
0.490965
0.583626
0.418835
0.216674
0.436043
-0.59009
0.717653
-0.121419
0.750313
0.0384108
0.0471225
-0.625842
-0.381855
0.599253
-0.576909
0.348702
0.577657
0.42792
-0.159173
0.0874295
0.7902
-0.358068
0.186802
0.330255
0.396036
0.544412
0.727077
-0.279924
0.496204
-0.351902
0.592348
0.197728
-0.593971
0.334296
-0.447366
0.518352
0.407561
-0.519149
-0.23201
0.435862
0.314144
0.45411
0.470017
0.621935
0.280181
0.595516
0.260019
0.168471
0.302197
-0.66694
-0.53963
0.244664
-0.29063
0.404235
-0.146571
-0.640533
0.170756
-0.193734
-0.2001
-0.18693
0.16868
-0.304975
0.755487
0.428029
-0.735781
-0.479524
0.243813
0.438539
-0.189316
0.730344
0.118728
-0.649324
0.451314
-0.205695
-0.848041
-0.0968658
-0.412134
0.280888
-0.560035
0.622203
0.347952
-0.376557
0.159698
-0.685967
-0.737703
0.749467
-0.536212
0.189593
-0.182634
0.0255566
-0.810021
-0.726886
0.461491
0.739559
0.42445
0.44398
-0.543089
-0.0903563
0.185631
0.105491
-0.120566
-0.430271
0.167842
-0.425048
0.115898
0.184126
0.400792
0.48213
-0.304581
0.503058
0.428952
-0.738087
-0.655373
-0.237453
-0.653225
-0.637012
-0.222659
-0.421607
0.288756
0.330408
0.372391
0.325193
0.399067
0.0286085
0.222041
0.0663907
-0.199544
0.468185
0.735772
-0.697734
-0.188208
-0.140161
-0.400684
0.735997
0.156631
0.465062
0.156551
-0.242419
0.236039
0.573175
-0.479312
-0.186843
0.618935
-0.424492
0.371887
0.777138
-0.318936
-0.71661
-0.446079
0.697618
0.437408
0.727199
0.267595
0.0307121
-0.0251128
-0.217972
-0.585918
0.665635
-0.460191
-0.641907
0.737442
0.0846981
-0.130664
-0.494492
0.0670022
-0.727948
0.76755
-0.529656
-0.202876
0.181877
-0.804771
0.0294271
0.711755
0.710838
0.377104
0.316785
0.672186
-0.732749
0.436838
-0.52924
0.754926
0.0858062
-0.542805
0.268011
-0.643807
0.273516
-0.794211
-0.639788
0.228062
-0.329492
-0.492893
0.185728
0.496841
0.17042
0.461439
-0.246255
0.186453
0.397225
0.00854646
0.753665
-0.141238
0.0457619
-0.0523092
-0.139136
-0.152971
-0.389683
-0.5078
-0.122453
-0.360035
0.628237
0.145961
-0.356836
-0.0535369
0.359734
0.661459
0.058462
-0.133176
0.727743
0.191617
-0.736137
-0.468514
0.571587
0.172144
-0.7963
-0.0960086
-0.0953469
-0.199946
-0.660019
-0.433612
0.55883
-0.650439
0.176568
-0.145611
0.126549
-0.706673
0.577361
0.435506
-0.521919
-0.273491
-0.613423
-0.679305
0.661687
-0.224945
-0.0364468
0.235527
-0.375063
-0.681384
-0.664119
-0.397391
0.346545
-0.651041
-0.0752902
0.125603
0.386739
-0.0676109
-0.705197
-0.484956
0.467639
-0.632348
-0.191379
0.260391
-0.510439
0.773191
-0.690096
0.377271
-0.737391
0.744631
0.051636
-0.515633
-0.320511
0.249074
-0.458839
-0.513584
-0.738079
0.279561
0.517402
-0.33854
0.379941
0.631003
0.0362168
-0.0411884
-0.731006
0.728337
-0.773291
0.466931
-0.126025
-0.592495
0.71403
-0.42183
-0.458107
-0.257518
0.517844
-0.261335
-0.287457
0.669416
-0.632165
-0.231915
0.535592
0.0838596
-0.00858726
-0.626976
-0.320222
0.404049
-0.313032
-0.275304
-0.104525
-0.546081
0.164264
-0.51155
-0.686389
-0.553611
0.225727
-0.647312
-0.639468
0.323559
0.473641
-0.00828897
0.417347
0.453979
0.353464
0.733351
-0.558091
0.189129
-0.285969
-0.0800265
0.0227689
-0.127239
0.489595
-0.184419
-0.704782
-0.207139
-0.0515514
-0.176989
-0.642247
0.420209
0.309051
-0.0317636
0.665657
-0.298091
0.233816
0.702527
-0.0884782
-0.293267
-0.698968
0.066799
-0.770241
0.625385
-0.700041
0.467971
0.383607
0.346547
0.414244
0.535089
-0.219454
-0.658597
-0.325905
0.563432
-0.0552393
-0.603128
-0.404653
0.0486711
-0.089682
0.384016
0.519522
-0.00995485
0.0794338
0.171238
0.71168
-0.155464
0.714558
0.200009
-0.146514
-0.143485
0.712561
-0.0849276
0.679379
0.716062
-0.22748
0.794876
0.447861
-0.733877
0.348201
0.00601742
0.556518
-0.54604
0.15335
-0.446297
0.729308
-0.649804
-0.340006
-0.409488
0.188549
0.36489
0.692696
0.104081
-0.360763
-0.0707625
-0.531874
-0.317959
0.60893
-0.568176
0.593241
-0.33706
-0.015174
0.53761
0.372901
-0.0770233
0.476048
-0.636689
-0.0961463
-0.00380722
-0.512484
-0.483381
-0.607811
-0.743967
-0.27764
0.321164
-0.474601
-0.360775
0.456891
0.0278705
0.0439665
-0.207604
-0.4345
-0.0582055
0.717772
-0.0322649
0.643157
-0.533086
0.31788
0.583955
-0.37242
0.158801
-0.532335
0.303986
-0.132183
0.521969
-0.517488
-0.380195
0.702499
0.169001
0.456779
-0.703817
0.448513
0.637026
-0.591613
-0.553363
0.155
-0.29266
-0.128525
-0.19555
0.433459
0.718384
0.416947
0.764737
-0.104271
0.321522
-0.0495051
-0.232628
0.498726
-0.452676
-0.434318
-0.666945
0.406832
-0.29016
0.40856
-0.417009
-0.477382
0.667909
-0.0306458
-0.56406
0.11164
-0.310724
-0.467171
-0.159297
-0.512841
-0.255949
0.0288273
0.4338
0.179405
0.696286
-0.473514
-0.180197
0.579209
0.634679
-0.221673
-0.219777
0.260819
0.522494
0.248702
-0.0448766
-0.69292
0.636005
0.0333341
0.416778
-0.447546
-0.263227
-0.761598
-0.18353
-0.3104
0.0057212
0.024136
0.511946
0.418848
0.336096
-0.412025
0.782844
-0.603817
0.3262
0.366377
0.20651
0.301089
0.745115
0.744596
0.123874
0.629006
-0.212763
0.595313
0.0909828
-0.451492
0.153654
-0.67995
-0.497312
-0.0420396
0.118033
-0.74257
0.308388
0.617727
-0.700745
-0.654391
-0.490773
0.0232938
0.182576
-0.742515
-0.293301
-0.257508
-0.379366
-0.315647
-0.115585
0.63889
-0.614633
0.783974
0.208687
-0.737891
0.729148
-0.416701
0.667116
-0.235058
-0.607895
-0.0240908
0.111642
0.347833
0.0881536
0.397844
-0.380677
-0.505804
0.384822
0.628049
-0.661724
0.477567
-0.716967
-0.371826
-0.214771
0.163571
-0.360091
0.219133
0.746633
0.0623536
0.66925
-0.262712
-0.0319453
0.758432
-0.288762
-0.510536
-0.76302
-0.271914
-0.182302
0.650338
0.263951
0.0523919
-0.107754
-0.395551
-0.407861
0.73477
-0.745451
-0.0440426
-0.541746
0.473386
-0.145516
-0.496916
0.189116
-0.154657
-0.0604394
0.739453
-0.675738
0.288479
0.129417
-0.772415
-0.333809
0.083219
-0.236968
0.383194
0.106719
0.256143
0.718515
0.113821
0.703388
-0.259612
-0.0322469
0.247002
0.566247
0.630971
0.630411
-0.638417
0.627366
0.655666
0.0841779
-0.7213
0.477519
0.644434
-0.394049
-0.190766
-0.27519
0.248335
-0.241012
-0.174474
-0.203472
0.672593
-0.183726
0.179011
-0.0476948
0.345578
-0.156338
-0.749241
-0.258425
-0.192644
0.093711
-0.218543
0.302622
-0.634987
-0.709591
0.0819865
-0.739835
0.741748
0.260642
0.639949
0.587347
-0.444456
0.679974
0.183327
-0.521091
-0.472222
0.692852
0.0234563
0.468318
-0.387934
0.54842
-0.467734
-0.453169
-0.403681
0.455353
0.260617
0.750474
-0.419766
0.317507
-0.221019
0.170485
-0.336396
0.41069
-0.368631
-0.150256
0.518266
0.56712
-0.187811
0.423726
0.0242515
-0.326462
0.257134
0.342366
-0.422115
-0.35494
0.587864
-0.145697
-0.406725
-0.226806
-0.435684
0.0299658
-0.375634
-0.206348
0.312335
-0.0400861
-0.488905
-0.197339
-0.0617407
-0.0863982
-0.63433
0.535525
-0.754923
-0.202961
0.224775
-0.259358
0.35844
-0.194732
-0.538214
-0.603176
-0.45782
0.286079
-0.152399
0.530556
-0.165739
0.187201
-0.581844
-0.331288
-0.762993
-0.194426
0.246376
-0.491019
0.580395
0.660839
0.118325
0.102127
-0.17789
0.438836
0.765124
0.663158
-0.384036
-0.775544
0.358052
-0.407303
-0.0891477
-0.251103
0.133835
-0.428477
0.366135
0.25469
-0.378969
0.621283
-0.23227
0.250343
0.461437
0.413097
-0.288728
0.660472
-0.673207
-0.308751
-0.320591
0.436683
-0.0584751
-0.500931
0.194923
-0.596135
0.313733
-0.713017
0.586041
0.213357
0.694581
-0.59924
0.285292
0.222198
-0.235279
-0.636168
-0.766406
0.65231
-0.402886
0.440996
0.183786
-0.0237314
0.293114
0.661845
-0.480985
0.0308317
0.343685
-0.0817859
-0.109913
0.425131
0.424686
0.347757
-0.0482574
-0.397885
0.635758
-0.608102
-0.290177
0.0953487
-0.528341
-0.370704
-0.430488
-0.60367
-0.22214
0.646008
0.396276
0.297031
-0.772702
0.396091
0.153587
-0.349031
-0.0208213
-0.521957
0.42958
-0.363032
-0.606615
0.693488
0.381208
0.505255
-0.130101
-0.508078
0.116981
-0.444698
0.627948
-0.660279
-0.0611976
0.303995
-0.441433
0.458857
-0.26541
-0.24613
-0.645144
0.124187
-0.11278
-0.0759954
0.0333947
-0.439788
-0.530797
-0.0774679
0.664269
0.348223
0.376753
-0.0329382
0.572343
-0.0294271
0.284075
0.819358
-0.0910855
-0.11072
0.448184
0.537177
0.144022
-0.0989391
-0.697715
-0.023762
-0.030974
0.0328162
-0.343463
0.254028
-0.260319
0.163449
-0.761217
-0.102083
-0.490592
-0.0757957
0.574224
0.268952
0.256007
-0.710207
-0.554475
0.109737
0.361792
0.546117
-0.705121
0.292805
-0.277124
0.382286
0.210819
0.422517
-0.559928
-0.0925554
0.168209
0.31733
0.516171
0.232414
-0.46593
-0.245373
-0.463597
-0.0412274
0.752487
0.036817
-0.553824
-0.70609
-0.746439
-0.356693
-0.0105096
0.590437
0.611459
-0.588658
0.562042
-0.720092
0.335207
0.250165
0.608343
0.39512
-0.397147
-0.441411
-0.0580603
0.538886
0.69519
0.120584
-0.3142
0.187412
-0.341934
-0.550964
-0.282874
-0.0269695
-0.0312451
-0.0705776
0.653741
-0.0427602
-0.701277
-0.859755
0.0428552
-0.5897
-0.359649
0.762568
0.633769
-0.499298
-0.587912
0.444471
-0.459208
0.469122
-0.0751154
-0.609432
0.129635
0.32079
-0.273511
-0.768221
0.209211
-0.316835
0.130711
0.595417
0.622284
0.570307
-0.726481
-0.439682
-0.236226
0.0408285
0.303002
-0.374159
0.762729
0.349954
-0.353885
0.0394408
0.451012
0.0913261
-0.0476991
0.26817
0.30795
0.121164
-0.0187362
0.601094
-0.114096
0.710758
-0.743483
-0.790081
0.258083
-0.246268
-0.713443
-0.289362
0.296428
0.234788
-0.512448
0.15977
-0.0187889
-0.486447
0.509839
0.510732
0.322822
0.0471774
-0.632317
0.302731
-0.382964
-0.221422
-0.466268
-0.851455
0.561993
0.350675
0.275441
0.114696
-0.348015
-0.445096
-0.0769869
0.318906
-0.493542
-0.0370495
0.313054
0.444289
0.48255
0.349522
-0.695655
-0.00182448
-0.223801
-0.424973
-0.586207
0.548513
-0.21397
0.66578
0.33288
-0.678902
-0.0250623
0.504067
0.401547
0.262571
-0.500908
0.690539
0.362919
-0.752008
0.124535
-0.203297
0.180458
0.60868
0.154808
-0.658505
0.200794
0.401255
0.0837251
-0.284192
0.103655
-0.1896
-0.723374
0.180794
0.552429
-0.187245
0.594177
0.632883
-0.402507
-0.488524
0.556231
0.763286
-0.398734
-0.260512
0.500042
0.765942
-0.717907
0.734803
0.691462
0.386667
-0.700414
0.0673357
-0.536731
0.178274
-0.0180091
0.453452
0.342691
-0.568083
0.0764177
-0.300938
-0.0915518
-0.597345
0.279836
-0.0901671
0.35893
0.0421606
0.524856
0.0992502
-0.0843082
-0.461761
0.355573
-0.20899
-0.528748
0.680529
0.306158
0.638991
0.616484
0.312702
0.63992
0.575224
-0.0499702
0.706106
-0.0830659
0.137126
0.148803
0.72453
-0.0737635
-0.205379
-0.709724
0.67507
0.241581
-0.0846608
-0.648758
-0.225974
0.638462
0.481808
0.562432
0.413623
-0.21475
-0.266932
0.597546
-0.683344
0.291862
-0.703454
0.741321
-0.15801
0.698876
0.583768
-0.603995
0.587378
0.40649
0.0712719
0.51666
-0.432111
-0.464404
-0.0829143
-0.500567
0.197347
0.516704
-0.391906
0.131128
0.000658152
0.331959
0.248006
0.543209
0.203545
-0.037163
0.317237
-0.151283
0.499617
-0.702174
-0.380443
0.585412
0.354648
-0.277282
0.54299
-0.573513
-0.343488
0.393985
-0.443139
-0.526883
0.0346063
0.44663
0.747325
0.372213
0.742564
-0.0550316
0.670401
0.125134
-0.310061
-0.472686
-0.484308
0.433723
0.581575
0.54158
0.183298
0.0287151
-0.264483
-0.265311
0.646178
-0.555768
-0.186512
-0.439261
-0.817333
-0.501372
0.135445
0.558494
-0.389671
0.465019
0.153756
-0.0483492
0.694352
-0.572727
-0.334911
0.745921
0.553725
-0.383513
-0.113467
0.468366
0.623661
0.0955635
0.583844
-0.655518
-0.0461088
0.439297
0.53854
-0.512993
-0.221873
-0.395318
-0.0266553
-0.320559
-0.212842
0.528855
-0.00416216
-0.19924
0.919475
-0.564105
-0.364209
-0.368703
0.477779
0.456103
0.313022
0.477688
0.69548
0.761592
0.451498
0.538669
-0.383926
-0.409519
0.209475
-0.601874
0.770805
0.195561
-0.44824
-0.0707558
-0.117978
-0.723124
0.100323
0.402494
-0.403283
-0.686689
-0.720098
0.150558
0.611922
0.0761361
0.722778
0.564946
0.202028
-0.497598
-0.584715
-0.144629
-0.695406
0.527477
-0.358309
-0.73786
0.545604
-0.681467
0.530618
-0.643359
-0.334587
-0.0161634
-0.476886
-0.419984
-0.633783
-0.0983428
0.11737
0.00734262
-0.0823459
-0.129093
-0.130099
0.0712803
-0.107877
-0.0827757
-0.17242
-0.168344
0.237025
-0.201556
-0.240875
-0.0171677
-0.0790824
-0.161173
0.223935
-0.0609357
-0.263636
-0.209791
-0.0426876
0.249832
-0.18562
-0.124764
0.285467
-0.0141874
0.16161
-0.188027
0.114601
0.223512
0.0091287
-0.0467604
-0.070992
0.228349
0.101307
0.105094
0.000405848
0.305606
-0.291697
0.129199
-0.178996
0.244093
0.223385
-0.11508
-0.099529
-0.146331
0.0227635
-0.145243
0.112019
0.0630502
-0.0542189
-0.219489
-0.010542
0.0470621
-0.0685915
-0.00764058
-0.245445
-0.197081
0.123202
0.182571
-0.27823
-0.167184
-0.178077
-0.0642383
-0.248888
0.226018
-0.245373
0.0579786
0.227118
-0.24484
-0.127131
-0.229304
0.294536
-0.192779
-0.0603056
-0.0911572
-0.040426
0.257813
0.059763
-0.224559
0.0056004
-0.298407
-0.157573
-0.283418
0.0640758
0.0841066
0.00469544
0.0962414
0.202849
-0.186775
-0.00069817
0.217106
-0.0579936
0.108742
-0.135162
-0.0119564
0.0173367
-0.075092
-0.241324
-0.0484255
-0.0219578
-0.0863634
0.00604148
-0.0353537
0.0496574
0.2385
0.157594
-0.28048
0.17764
-0.075663
-0.202505
-0.088989
-0.0725139
-0.0693907
-0.0903224
0.304314
-0.281122
0.227512
0.104769
0.223258
-0.250756
-0.220206
0.134099
-0.0192974
0.18135
-0.28514
0.279102
-0.0972042
-0.0958579
-0.263072
0.155557
0.18803
-0.0443198
-0.142808
-0.165243
-0.268865
-0.188364
0.288066
-0.251709
-0.286494
-0.066993
-0.154292
-0.091968
0.145198
0.0644154
0.147585
0.144382
0.0705566
0.0685559
-0.0495094
-0.0210642
0.123281
0.007105
-0.174889
-0.194004
-0.0873207
-0.176933
-0.24925
0.129873
0.03722
-0.214425
-0.0153332
-0.0771632
0.0665278
0.156813
0.066982
0.0772291
0.243889
0.0453404
0.117097
0.253055
0.290094
0.249184
-0.132347
0.151898
0.0105803
-0.285783
-0.00777331
-0.19989
0.0740884
0.201183
0.0828728
-0.131033
-0.0737584
0.21987
-0.0457738
0.132981
-0.241284
0.034858
-0.0333007
0.104617
0.104854
0.246126
-0.2735
-0.133438
0.0880097
0.0890783
0.25694
0.0241765
-0.162448
0.110831
-0.0176105
-0.169887
0.0572936
0.157451
0.262907
-0.218562
0.16154
-0.0526361
-0.117073
-0.0668154
-0.132388
0.268413
0.111203
0.110841
0.187647
-0.217006
-0.0405239
0.236294
0.113386
0.221118
0.0257174
-0.0618974
0.162936
0.0547548
0.121187
-0.0545552
-0.15456
0.09599
0.277621
-0.0158124
-0.115129
-0.043725
0.112492
0.241963
-0.18434
0.0803286
-0.293503
0.279432
-0.264426
-0.116725
-0.100368
-0.0999381
-0.14329
-0.275648
-0.284362
-0.250703
-0.201845
-0.0235036
0.280691
0.220905
-0.0929611
0.0127565
-0.136753
-0.229799
-0.237243
0.287313
0.00909485
-0.0843105
0.0787783
-0.0154633
0.202689
0.265747
0.241434
0.0159532
0.206859
-0.246002
-0.205153
0.218742
-0.264013
-0.17168
-0.199625
-0.0631191
0.0284103
-0.0374338
-0.0449494
0.0428811
0.00339969
0.0643672
-0.278797
-0.00829988
-0.0166182
-0.0776536
-0.289702
0.14659
-0.0217486
-0.22227
0.128913
0.290962
-0.0164073
-0.092978
-0.0284165
-0.118963
-0.124645
-0.0912809
0.19981
-0.224097
-0.033308
0.297379
-0.302106
-0.00230328
-0.186089
-0.204821
0.220594
0.142018
0.0827225
-0.092602
-0.123316
-0.217676
0.263526
-0.0857164
0.0609568
-0.0578159
0.133843
0.0800852
-0.213574
-0.165585
0.125731
0.205599
-0.212565
-0.156783
-0.187751
0.0742666
0.0246481
-0.0125973
0.278334
-0.088233
0.0710945
-0.039186
-0.0972222
0.0514906
0.255545
0.0398984
0.174177
0.192534
-0.128891
-0.0556818
-0.234739
0.0760407
0.0154104
-0.286742
0.284985
-0.187736
-0.0579118
0.12416
0.173763
0.0252225
0.225336
0.0367973
-0.0755813
-0.267598
0.157708
0.0344428
0.110026
-0.125877
-0.292707
0.105865
0.0801479
0.074858
-0.227242
-0.307773
-0.169781
-0.279891
0.0495437
-0.283586
0.190275
0.215794
-0.0460452
0.260954
0.000288959
0.29154
0.29824
-0.0129106
-0.237623
-0.0543822
-0.193826
0.233366
0.270586
-0.270147
-0.0303299
-0.144871
-0.243377
-0.172458
0.197319
0.190893
-0.0105318
0.201089
-0.0183075
-0.193606
-0.0406057
0.0564024
-0.191144
0.0868281
0.0757205
0.125732
0.129172
-0.0423075
0.069072
-0.229363
-0.0486349
-0.237384
-0.253072
-0.0421217
0.0604549
-0.165746
0.182559
0.160712
-0.2416
0.147364
0.20124
0.0225198
-0.283228
0.258996
0.136295
0.181925
0.146559
-0.140491
0.089152
-0.141877
-0.0451111
-0.219681
0.191836
0.0543011
0.159248
-0.0420789
-0.106198
-0.00426565
0.24447
0.257609
0.07483
-0.0939692
-0.244961
0.111831
0.130919
0.088752
0.230612
0.0194379
-0.0454449
-0.290332
-0.16759
-0.168656
0.0568155
-0.159715
-0.227482
-0.0877099
-0.266578
0.26311
0.0535566
0.142831
-0.215159
-0.274625
0.196376
0.287924
0.0970815
0.0868021
-0.0200606
0.2888
-0.240599
-0.0746483
0.264839
0.140883
0.126866
0.31025
-0.0546349
-0.049887
0.0839863
-0.111962
0.265466
-0.272597
-0.100818
-0.186992
-0.144592
0.248969
-0.0542664
-0.0383861
-0.140388
-0.00168172
-0.0971654
0.231823
-0.163842
-0.00694771
0.256865
-0.230094
0.00218453
0.0592322
0.143787
0.288947
0.0536457
0.204716
-0.105741
0.0305067
0.0268399
-0.298237
0.0262671
0.28561
-0.0238866
-0.216754
-0.11196
-0.0722949
-0.176854
0.0626156
0.0376377
-0.0260571
0.00229598
-0.303339
0.220991
0.18011
0.00192316
-0.186081
0.13052
0.156468
0.11994
0.0969075
0.196154
-0.185229
-0.155806
0.0307635
-0.206364
0.196188
-0.0620699
-0.0198986
-0.0860866
0.270452
-0.00802814
0.207934
0.24387
0.265353
-0.283272
-0.173029
-0.104254
-0.166972
0.197899
0.240465
0.105179
-0.0673091
0.248197
0.0221078
-0.181235
-0.0502247
0.132389
0.233775
-0.204386
-0.0602059
0.0373513
0.295669
0.0633493
0.179899
0.037527
0.149785
0.0793178
0.258932
-0.170905
0.266157
0.220176
0.131226
0.186105
0.169399
0.0953813
0.213686
-0.294332
0.289774
-0.25986
0.198467
0.221999
0.125573
-0.172389
0.167919
-0.15503
-0.0502965
-0.179862
0.286962
-0.121724
-0.0872733
-0.0528209
0.203356
-0.0845024
-0.295851
0.0868859
0.238001
0.163307
-0.142303
0.196823
0.286258
-0.157157
0.129141
0.130878
-0.271264
0.00166347
-0.0827536
0.239474
0.00757403
-0.0929063
0.271028
-0.0958399
-0.157059
0.0936592
0.0324375
-0.284059
0.248185
0.27178
-0.158467
0.23167
-0.147801
0.0441029
-0.126292
-0.246514
0.254776
-0.112865
0.158399
0.192098
-0.2546
-0.305788
0.10784
-0.271187
-0.168669
-0.070323
0.148901
-0.130737
0.224734
-0.230806
-0.202229
-0.0718287
-0.0389481
-0.22405
0.150216
0.0986964
0.178274
-0.129162
0.108448
0.107077
-0.151557
0.266413
0.0665349
-0.0115978
0.00324334
0.216812
0.0504526
-0.0416802
-0.19632
-0.0943227
-0.142265
-0.165679
-0.104879
0.256713
-0.140279
0.0343999
-0.125136
-0.274679
0.209729
-0.193898
-0.199255
-0.293847
0.0352623
0.0589781
-0.215918
-0.120244
-0.133855
0.244723
0.0649493
0.284965
0.0849678
0.197741
0.241011
-0.170795
-0.131492
-0.0526071
-0.232798
0.225788
0.209726
-0.120754
-0.178236
-0.242919
0.0122982
0.0214709
-0.28518
0.184934
-0.251736
-0.113924
0.217458
0.239898
-0.00927675
-0.291682
0.258368
-0.27311
0.0769752
-0.268868
-0.0898693
0.247118
0.285862
0.242224
0.229508
0.0633721
0.140002
0.173732
0.193986
-0.285348
-0.202486
0.251475
0.236536
-0.279327
-0.175855
-0.248622
-0.203052
0.13633
0.058724
-0.198393
0.0400603
0.114305
-0.0061371
-0.0190489
0.0362119
0.286831
-0.00976827
-0.00222081
-0.277255
-0.240011
0.0276019
-0.100048
-0.289117
0.0124163
-0.15112
0.249505
-0.234693
-0.303595
0.0981792
0.259898
-0.289811
0.218188
0.237781
0.258356
0.229803
-0.256652
-0.274429
-0.257208
0.214069
0.0724004
-0.168625
-0.0482505
-0.101227
0.141047
0.236826
0.224705
0.100331
-0.0697374
-0.0754545
0.101776
-0.0228502
0.235985
-0.28045
-0.00789681
-0.0487918
-0.125682
-0.0901656
0.0347758
-0.124758
-0.278674
0.0125294
-0.103109
0.237908
-0.0776506
-0.148994
0.203298
-0.033701
-0.105825
0.21018
-0.123202
0.249972
-0.255706
0.135263
-0.151824
0.17339
0.0536711
-0.230595
-0.0179205
0.277074
-0.0100678
-0.218427
-0.04746
-0.048471
-0.189513
0.225229
0.200913
-0.015957
-0.152845
-0.0588892
0.186358
-0.112636
0.232836
-0.229541
-0.179745
-0.152422
-0.0510489
-0.289854
0.106225
0.106326
0.22911
0.297314
0.0619488
0.276435
0.117555
0.205817
0.136085
-0.142209
0.246013
-0.173067
-0.14718
-0.0556323
-0.0784868
0.109862
0.179835
0.0158557
0.036085
0.0846569
-0.276666
0.177577
-0.280178
0.188453
-0.25455
0.238248
0.252669
-0.125557
-0.198054
-0.118873
-0.128369
0.21456
0.292338
-0.20341
0.20891
0.0529682
-0.244564
0.0305402
-0.0459007
0.202098
0.203363
-0.0839509
-0.266689
-0.240933
0.1731
-0.0498764
0.166719
0.0511495
0.263178
-0.110629
-0.147393
0.267579
-0.237485
-0.125439
0.167753
-0.181024
-0.177886
0.126003
-0.013855
-0.0942819
-0.281542
0.160065
-0.176812
-0.307214
0.2479
-0.264282
0.0604676
-0.295457
0.0650012
-0.301265
0.23351
-0.0364623
-0.0821694
0.265819
0.0265866
-0.210315
-0.0960812
-0.120088
0.139266
-0.128022
0.0832063
0.288141
-0.16361
0.143784
-0.134241
-0.28399
0.266724
-0.0203967
0.142338
-0.0387067
0.210445
0.137791
-0.185899
-0.274349
0.160622
-0.223052
-0.2418
-0.0835639
-0.193921
0.119137
-0.081117
-0.266057
-0.214132
0.128664
0.291199
0.126305
0.222563
-0.104905
-0.286614
0.0720966
0.0694956
0.0743693
0.0653576
0.203978
-0.0722872
0.216425
0.209336
-0.0942107
-0.0893853
0.0630556
0.159176
-0.205735
-0.0736679
0.26499
-0.168497
-0.214442
-0.240854
-0.112789
-0.0230161
-0.163777
-0.296
0.20264
-0.144466
-0.206291
0.0446959
-0.150063
0.212007
-0.0320626
0.0264356
0.201454
-0.250846
-0.20859
-0.0157703
0.0749943
0.298917
0.211906
0.00133183
0.211582
-0.188563
0.209999
-0.0126476
0.265866
-0.270895
0.214148
0.237766
-0.149821
0.281719
0.286041
0.0208554
-0.0288799
-0.16291
0.0276157
-0.138425
-0.00572397
0.135888
0.200876
0.131624
0.0190934
-0.11797
-0.128247
-0.0598591
-0.105601
-0.0479353
0.222919
0.272988
-0.0387397
0.14159
-0.012535
-0.116812
0.265037
-0.0951042
0.154394
0.220927
-0.0659142
0.0655293
0.158941
0.0677254
0.0393337
0.145781
-0.19512
-0.304164
0.261647
0.153687
-0.133611
-0.0526244
-0.0543187
-0.241997
-0.215177
0.272659
-0.0875501
-0.0457806
-0.0849711
0.110723
0.222728
-0.154059
0.0955628
-0.15338
0.279142
-0.204415
0.0228662
0.232827
-0.00259757
-0.0844534
0.156716
0.224824
0.274994
0.0330403
-0.0151008
0.0127437
-0.127628
0.0931968
0.015826
-0.168522
-0.0765487
0.150417
0.0948721
0.181757
0.23032
0.189661
0.162892
-0.156981
-0.144834
-0.221241
0.283226
-0.236829
-0.0644768
0.0967984
-0.0577763
-0.0873889
0.189249
0.264858
-0.135268
-0.108437
-0.128931
-0.293228
-0.16284
-0.178401
0.0398976
0.108772
0.13887
0.219163
-0.0641272
-0.143941
-0.241399
0.161421
-0.276878
0.131741
0.0594606
0.243647
0.0100258
-0.0836853
-0.168329
0.153317
-0.0161572
-0.189268
0.226057
0.215457
0.190428
-0.163889
-0.154246
0.0880713
-0.1706
-0.00854541
0.248188
-0.00217581
-0.00976031
-0.212963
0.12338
-0.269287
0.224171
-0.0174463
0.262654
-0.161349
0.108172
0.288303
0.277728
0.130072
0.145834
0.0235192
0.0835761
-0.127567
0.23638
0.20614
-0.265754
-0.0432695
-0.289649
0.228852
-0.128563
0.181616
-0.216411
0.0168571
-0.0398291
-0.105487
-0.290888
-0.0544647
0.18225
0.0239595
0.00674531
0.0175373
0.056973
-0.069791
0.279404
0.00998769
0.0780472
0.0769892
0.0135746
0.07412
-0.072902
-0.151129
-0.19805
-0.285549
0.0112571
-0.247236
0.216377
0.0305205
-0.000159022
0.228545
-0.0260073
0.196
0.117975
0.0596212
-0.0820936
-0.221942
0.258334
-0.0705494
0.0158188
0.153443
0.25586
-0.254143
-0.140732
0.0104616
-0.021013
-0.160514
-0.284842
-0.244075
0.216893
0.0380291
0.119434
-0.151223
0.183476
0.226337
-0.133704
-0.0999419
0.29325
-0.21378
0.225948
0.000214489
-0.277957
-0.0985238
-0.110083
0.125951
0.264884
0.109198
0.214988
0.216519
-0.256635
-0.0748567
0.0637484
0.287972
-0.0446691
0.231501
-0.000873818
0.242488
-0.233723
0.007259
0.291828
0.28693
-0.2508
0.122912
-0.163107
0.235561
0.0524122
0.0124766
-0.166282
0.0342689
0.0944776
-0.245968
-0.26076
0.117045
-0.0510667
-0.0739787
-0.0478389
-0.0881733
-0.256836
-0.13539
-0.163676
-0.231034
0.0826055
0.199055
-0.243442
-0.257434
0.135744
0.0536269
0.279621
0.203964
-0.227382
0.275869
0.194011
-0.182221
0.0942348
-0.263796
-0.244647
-0.153676
0.043899
-0.107459
0.177378
-0.158754
-0.0507834
0.218575
0.256387
0.207445
-0.155491
-0.073158
-0.189443
-0.116085
0.0772664
-0.0525213
-0.0313204
-0.136659
-0.142427
-9.40146e-05
-0.106546
0.293687
-0.257354
-0.107774
0.161663
-0.172653
-0.146614
0.0906627
-0.0405347
0.240219
0.10027
0.00253581
-0.20477
-0.144826
0.175684
0.252187
-0.0208262
-0.150465
0.161874
-0.0272129
-0.265515
-0.293368
0.166187
-0.143819
-0.0912516
-0.0253093
0.0883033
0.150329
0.0884091
0.243532
-0.152815
0.315197
0.203113
-0.0696136
-0.109876
0.120304
0.0758852
0.0424034
-0.104697
-0.254471
-0.0252765
-0.31115
0.00224174
0.0617418
-0.128304
-0.0969612
0.047909
0.202772
0.0560092
-0.0808659
-0.1584
0.0819539
-0.0843209
-0.296171
0.252478
0.147386
-0.0456219
0.0396808
-0.0393598
-0.22333
-0.0276216
0.14424
-0.243259
-0.127885
-0.214787
-0.0631486
0.266749
0.137137
0.25128
-0.121341
0.15746
-0.0701826
-0.116159
-0.11379
0.28579
0.0430635
0.111984
0.00968757
-0.0643553
-0.148258
0.238308
0.04719
0.253771
-0.145736
0.0731938
0.228884
0.295817
-0.272294
-0.0515899
-0.0137087
-0.235132
0.203999
-0.15812
-0.176587
-0.195711
-0.0848784
0.0644457
-0.213226
-0.241288
0.0360044
-0.0347732
0.222972
0.264697
0.146218
-0.191964
0.264008
-0.109746
0.20426
-0.00304564
0.115812
-0.213694
-0.0781093
-0.109209
-0.244241
0.0695728
0.235725
0.264205
0.0855343
0.28218
-0.0779073
-0.235519
-0.257481
-0.167278
-0.103879
-0.116328
-0.0623502
0.105996
0.258589
0.0291316
0.176426
-0.0248477
0.269504
0.0849522
-0.0717198
0.125482
0.187552
-0.104962
-0.284902
0.088227
0.17771
0.130652
0.163743
-0.187449
-0.302285
0.223916
0.174946
0.252407
0.197978
-0.0482582
0.21887
-0.175588
0.0179454
0.258467
-0.0371268
0.220546
-0.157031
0.200737
0.039197
-0.213734
-0.0783163
-0.0881434
0.0466854
-0.0871473
0.298147
0.279888
-0.267435
0.174807
-0.128081
-0.249787
-0.0323114
-0.255861
0.174304
-0.14545
-0.149422
0.192937
-0.23345
-0.262078
0.143108
0.27333
-0.00597091
0.0584954
-0.183159
-0.302068
0.0247167
0.081317
0.219875
0.160092
-0.0125096
-0.0326291
0.219294
0.203728
0.178418
-0.0300611
-0.168667
0.164687
-0.0725813
-0.126553
0.0392639
0.116202
-0.0728427
-0.260469
0.169191
-0.216285
-0.132388
-0.282076
0.284973
-0.0690547
-0.242711
0.132423
-0.0776737
0.0550538
-0.113829
0.0193273
0.0466769
0.216329
-0.189224
-0.0217531
0.0395372
0.095853
0.224195
-0.0283262
0.00397863
0.093197
0.237563
0.144491
-0.0375868
-0.106487
-0.289115
-0.296235
-0.288328
-0.0772689
-0.274039
0.16443
0.0264217
-0.0943618
0.193478
-0.00671082
0.143549
0.268271
-0.181833
-0.242891
-0.00453501
0.0253711
0.0840863
-0.242778
-0.0954356
0.187339
0.0317105
0.242204
-0.00475078
-0.0332747
-0.0710365
-0.284844
-0.223281
-0.125759
0.139891
0.03095
0.0749576
0.155798
0.0406038
0.0639897
-0.233475
0.0642733
-0.0664054
0.0691575
0.250194
-0.152183
-0.225094
0.0766216
-0.223575
-0.113276
0.144
0.077009
0.173689
-0.0695551
0.135512
-0.214915
-0.172156
-0.122752
-0.266545
0.0959371
0.127244
-0.0286898
0.102319
0.197212
0.142758
-0.0126626
-0.0745519
-0.0961346
-0.180952
0.269127
0.266032
-0.113366
0.0488047
-0.0979936
0.25913
-0.00753216
0.0421132
-0.274288
-0.212771
0.128806
-0.0834273
0.245578
-0.0934227
-0.204258
-0.120359
-0.252796
-0.105727
0.00178313
-0.0902988
-0.067686
-0.188655
-0.248902
0.212127
0.229718
0.252066
0.0652766
-0.108037
-0.114751
0.270328
-9.22665e-06
-0.142732
0.230212
0.188566
0.208756
-0.152153
0.131691
-0.0870919
0.192249
0.15717
-0.0060703
0.0194925
-0.230878
-0.0611807
0.226902
-0.121494
0.105987
0.27632
0.0598461
-0.18086
-0.108783
0.292411
-0.0767697
-0.0559072
0.204671
-0.134661
-0.124035
-0.0261038
0.0544309
0.0580619
-0.062692
-0.245586
0.222477
-0.120215
0.243732
0.126944
0.0214841
0.0834818
-0.25549
-0.0780384
-0.0599439
0.0320332
0.232096
0.0158066
0.265554
0.159375
0.172264
0.0903992
0.135048
-0.0559955
0.189572
-0.279941
-0.0566651
-0.181828
-0.0595013
-0.152266
-0.0197048
0.123491
0.119943
-0.263196
-0.116092
-0.251399
-0.208867
-0.19454
-0.0714484
-0.271637
0.236218
0.270126
0.104441
0.27781
-0.122093
-0.220245
-0.0311886
-0.203164
0.0676984
0.00206709
0.248171
-0.0470823
-0.223408
0.0754696
0.190003
0.267083
0.141944
-0.183921
-0.225855
-0.185814
-0.0504571
0.0658365
0.189611
-0.172842
0.0985532
-0.187682
-0.138226
0.133057
-0.101596
0.097831
0.202218
-0.138735
0.019037
-0.0231788
-0.175544
0.249428
0.0829182
0.146844
-0.285445
-0.193178
-0.190329
-0.252833
0.0383035
-0.143352
0.1562
-0.000215882
-0.201196
-0.0250448
0.0979191
-0.118769
0.0417818
-0.17315
0.198701
-0.0403984
-0.100419
-0.0496794
0.0713987
0.0652515
-0.181685
0.286208
-0.176751
-0.26882
-0.180612
0.201211
0.0361484
-0.02117
0.166011
-0.196839
-0.22383
0.204715
-0.0732741
-0.104887
0.221664
-0.322294
0.0704907
0.0897584
-0.0493816
0.165294
-0.249042
-0.22515
-0.267999
0.098814
-0.143563
0.206461
-0.29059
0.0238613
-0.102932
0.0854211
-0.213918
0.0461821
0.0345409
-0.0458199
0.0867295
0.19475
-0.117382
-0.194171
-0.127201
-0.292385
-0.0660975
-0.0495293
0.254429
0.165578
0.190877
0.183469
0.101323
0.00322252
-0.0676743
-0.177946
-0.179078
-0.0130279
-0.118331
-0.153336
-0.214883
0.049669
-0.201217
-0.18061
-0.202002
-0.030511
0.205474
-0.0774781
-0.272375
-0.0292267
0.183186
0.0662906
-0.135487
-0.241414
0.182696
0.0470001
-0.177305
-0.220451
-0.282135
-0.272131
0.204161
0.21725
0.228418
0.0127486
-0.117261
-0.137147
0.168468
0.0150686
0.158828
-0.294301
0.14568
0.240793
0.0539802
0.207641
-0.249117
0.11761
-0.0971574
0.265001
-0.242803
-0.121794
-0.0627909
0.246042
0.282988
0.125646
-0.261299
0.174386
-0.112195
-0.187573
0.246201
-0.109427
-0.137517
0.202008
-0.216484
-0.187811
-0.0775246
-0.0154711
-0.0248651
-0.248011
0.267155
-0.18675
-0.227942
0.13708
-0.23734
0.123309
0.0355865
-0.211986
-0.0116161
0.24454
-0.250722
0.0322413
-0.154485
-0.0108225
-0.0270189
-0.165131
-0.151587
-0.0211417
-0.27663
0.0104
0.101053
0.300551
0.206357
0.248184
0.138447
-0.273416
-0.251012
-0.209211
-0.00820194
0.0143822
-0.162486
-0.0289764
0.115258
-0.1288
-0.171128
0.19439
0.28677
0.151067
0.27961
-0.0307702
0.106346
-0.254397
0.277167
0.228882
0.0535676
-0.0522199
-0.237453
0.176654
0.224316
-0.209189
-0.135872
0.00996993
-0.240274
-0.224008
-0.0344203
0.211029
-0.212796
0.0117245
0.275753
0.0838575
-0.28022
-0.205195
-0.222192
0.177925
-0.0143682
-0.122028
0.0505661
-0.0253213
-0.26962
0.014374
0.227777
0.131229
0.0736262
0.19887
0.0612437
-0.15906
-0.157107
0.131565
-0.282532
-0.232798
0.218213
-0.125197
0.0833406
0.277537
-0.044937
-0.255575
0.202496
0.0295918
0.065115
0.1789
-0.18083
0.0832454
0.278494
-0.116488
-0.0421005
-0.0276564
0.0500516
-0.291167
0.244519
0.0969641
0.0407585
0.174606
-0.0885423
-0.195915
0.098576
0.296351
-0.0422167
0.246167
0.105907
-0.0430485
-0.293252
0.0161674
0.132905
0.0671596
0.0164743
-0.234991
0.128013
-0.102194
0.0945159
-0.101123
-0.220724
0.189857
0.274921
-0.232856
-0.225453
-0.0588032
0.0267041
0.11211
-0.0652559
-0.0325371
-0.0885345
0.272105
-0.154727
0.129183
-0.189078
0.227607
0.108079
0.055154
0.203633
-0.0851985
-0.26584
0.191145
0.234221
0.15007
-0.026243
-0.0556383
0.212477
-0.165854
0.145313
0.0239493
-0.00624767
0.19882
-0.0834775
-0.0112877
0.281086
-0.0169178
0.232114
0.0139905
-0.169165
-0.117304
0.265824
0.0314377
-0.143037
-0.161345
-0.133244
-0.0424319
-0.222971
0.259805
-0.288289
0.257121
-0.107825
-0.270065
0.148027
-0.161586
0.189138
-0.156549
0.102474
0.0988382
-0.0398595
-0.0828053
-0.179152
0.25806
-0.147368
0.0186682
-0.0373699
-0.179661
-0.271835
-0.0757832
0.120138
-0.152342
0.110144
0.106228
0.156424
0.246593
0.244237
-0.255793
-0.0901619
-0.255514
-0.241141
-0.0692185
0.294838
-0.0635334
-0.0353258
0.14771
0.0717588
-0.145179
0.295665
-0.160212
0.265333
-0.0454362
0.0631873
-0.222892
-0.0608291
0.189125
0.110016
0.201697
-0.263572
0.0978911
-0.207088
0.129642
0.251117
0.204326
-0.0669598
0.123953
0.135056
-0.103101
0.165525
-0.237168
-0.096273
0.211077
-0.00268976
-0.118199
-0.145776
0.260856
-0.255015
0.225798
-0.158726
-0.263499
-0.248533
-0.203342
-0.00522848
0.118158
-0.139384
0.223286
0.00384228
0.24569
0.126314
0.0134025
0.0757896
0.240043
-0.124831
0.0369915
0.117748
0.109269
-0.136934
-0.0352329
-0.284934
-0.26255
0.0415651
-0.0883372
0.248527
-0.251147
0.101487
-0.205581
-0.278004
0.124795
0.305254
-0.128768
0.172768
-0.264564
-0.0272635
-0.144742
0.166868
0.133355
-0.198348
-0.115714
0.100321
0.200618
0.20522
-0.108679
0.161729
-0.225663
0.209383
-0.0199579
0.205991
-0.234803
0.249444
0.208607
-0.201418
-0.0243143
-0.193895
-0.281184
0.0380693
0.207738
-0.164985
0.0519376
0.0206631
-0.172535
0.208275
-0.120776
-0.137757
-0.119743
0.0564283
-0.259115
-0.271086
0.149515
-0.0941991
0.110572
0.0572545
-0.169931
-0.285795
-0.0997757
-0.0942991
0.215251
0.180696
-0.186723
0.271727
0.157595
-0.292684
-0.237418
-0.163681
-0.193253
-0.209534
0.160464
-0.282111
-0.0917917
-0.0760902
0.0523806
0.0365044
-0.155326
0.237363
0.20684
0.019014
0.00351686
0.243205
0.0394121
-0.149489
-0.160778
-0.133821
0.205963
-0.021654
-0.14502
-0.201361
0.173664
-0.227214
-0.305295
0.289166
-0.256404
0.137511
0.288463
-0.178025
0.284883
-0.188274
-0.0770894
0.135799
-0.162187
0.142753
-0.222887
0.17366
-0.14606
-0.0784758
0.102393
-0.254449
0.248242
-0.179317
0.274532
-0.0139262
-0.0543637
-0.174513
0.158304
-0.133422
0.0980735
-0.285883
-0.035245
-0.0377845
-0.214974
-0.0226899
-0.0543781
-0.168556
-0.164325
-0.0546183
-0.0407649
-0.199768
0.0381232
0.160953
0.247309
0.174626
0.0100408
-0.277867
0.0190291
0.142857
-0.0643041
-0.162446
0.190245
-0.108664
-0.0490331
0.179091
0.153853
0.227367
-0.288811
-0.004764
-0.24334
0.106651
0.0199577
0.0196934
-0.234958
0.105809
0.293839
0.00494126
0.236358
-0.173358
0.258132
-0.103728
-0.0834609
0.00728868
-0.227176
-0.131208
-0.142811
0.0716563
-0.104012
0.178311
-0.0666952
0.104077
-0.27252
-0.130644
0.277425
-0.0132614
-0.258592
0.161134
-0.107129
-0.229917
-0.130735
-0.0396684
0.175296
0.174413
0.28519
0.238997
-0.0312352
0.270022
-0.0439533
-0.0620964
-0.234039
-0.0654772
0.120768
-0.0108993
0.230024
0.206617
0.160158
-0.202589
-0.00056351
-0.277576
0.286317
0.212594
0.141524
-0.257201
-0.214892
0.133891
0.0226795
-0.187616
-0.0110551
0.207078
-0.130575
0.148917
-0.136967
-0.260358
0.0327932
-0.179836
0.28939
-0.27265
-0.20462
-0.0582279
-0.0299626
-0.137558
0.188637
-0.208198
0.15053
0.0882786
0.28662
-0.0144941
0.18969
-0.0277898
0.0125501
0.161469
-0.0968156
-0.131027
0.196916
-0.0392681
0.3014
-0.0719349
0.0803766
-0.0175127
-0.14881
0.269238
-0.144324
-0.010837
-0.288607
0.18185
0.129827
0.317179
0.203704
0.229781
-0.0510711
-0.124651
-0.20946
-0.184896
-0.049783
0.221987
0.217391
-0.0450098
-0.0798166
0.112807
0.216716
0.222577
-0.00253023
-0.177028
-0.220172
-0.0954367
0.0926421
-0.223063
0.106632
-0.104059
0.0921989
0.25809
-0.132577
0.23688
-0.0363416
-0.118044
0.131788
-0.221108
-0.129839
0.0387936
-0.292905
0.133087
0.205199
-0.20338
0.248024
-0.136326
-0.284156
0.144817
0.125538
-0.0674218
-0.0364547
0.0431598
-0.130475
0.248793
0.1604
-0.0595587
-0.154085
-0.0425196
0.0342339
0.261305
0.14764
-0.18541
0.209129
-0.291727
-0.257073
-0.141322
-0.112528
0.160873
-0.0535993
0.0571901
-0.0928426
-0.0547496
-0.121632
-0.188801
0.035381
-0.182024
-0.0116251
0.0570771
0.296232
-0.187843
0.291664
-0.0516017
0.148196
-0.147283
-0.102224
0.0055903
0.0950851
0.0425651
0.25737
-0.172044
0.00666194
0.111303
-0.0590826
-0.077679
0.120257
-0.0156332
0.0832016
0.299716
-0.143259
-0.275781
0.0409845
0.0529333
-0.0281429
0.226341
0.172985
-0.288662
-0.239017
-0.129055
0.0558176
-0.259266
-0.0274172
0.0441674
-0.0139041
-0.179951
0.202209
0.186514
0.123473
0.00132559
-0.0699909
0.082364
0.122895
0.244681
-0.100384
-0.233684
-0.143005
-0.291713
0.0590547
0.252625
-0.30051
0.20971
0.279072
0.0596031
-0.0258314
-0.0558899
-0.00612305
-0.147126
-0.047549
0.0451921
0.0176405
-0.282154
0.0689298
0.293016
0.0589379
-0.234576
-0.195011
-0.0334768
0.245455
0.231086
0.255032
-0.121728
0.0107147
0.0785463
-0.179069
0.219927
0.159692
-0.028329
0.202784
-0.0918588
-0.0847056
0.21275
-0.178541
-0.0994321
-0.0271706
0.0946455
0.152744
0.255335
0.220535
-0.184056
0.00583321
-0.025007
-0.191918
-0.216918
-0.0588003
0.167741
-0.149342
0.0550806
-0.149658
-0.214965
-0.0350466
-0.200199
-0.0133703
0.294711
0.162765
0.0967405
0.180665
0.0316607
-0.222328
0.120857
0.233975
0.0087963
0.019281
-0.24385
0.208381
-0.271801
0.146071
0.0559241
0.273648
0.0862001
0.146194
-0.00411245
-0.268486
0.269758
0.0715378
-0.0383864
0.131781
0.228326
-0.288853
0.282395
-0.285745
-0.0240288
-0.222309
-0.0162559
-0.0458397
0.223612
-0.221626
-0.134058
-0.0434079
-0.13578
0.283391
-0.103805
0.167709
0.012441
-0.0358844
0.0946688
0.0130229
-0.196698
-0.15722
-6.48018e-05
0.188122
0.286767
-0.284474
0.221276
0.257039
0.0840212
-0.123948
0.095766
-0.000479759
-0.108611
0.0614028
0.0260253
0.175058
0.125323
-0.292341
-0.160789
0.0724177
-0.22765
0.0144261
-0.278629
-0.0510848
-0.0115568
-0.0950334
-0.172857
0.281956
0.156758
0.198086
0.00804911
0.260499
-0.270295
-0.273957
0.145583
-0.271691
-0.270688
0.0620783
0.287845
0.124337
0.245434
0.0807831
-0.180075
-0.161361
-0.164975
0.148521
-0.292218
0.255336
0.15732
-0.151965
0.0228902
0.250916
0.159232
0.0285188
-0.11873
-0.166631
0.236647
0.0140104
-0.176812
0.107138
-0.0889238
0.147424
0.0728791
-0.0591248
0.178524
-0.0825959
-0.0521676
0.218591
0.297617
-0.0634006
0.0294184
0.227261
-0.282232
0.148761
-0.235326
-0.149604
-0.00680246
-0.239455
-0.187096
-0.158622
-0.101348
0.133765
-0.199613
-0.232759
-0.138646
-0.0252027
-0.111565
-0.196082
0.276333
0.0209024
0.212963
-0.110022
-0.13783
-0.00972417
0.133884
-0.266659
0.208995
-0.208857
0.247221
0.202421
0.0224464
-0.0274348
0.128226
0.0451879
-0.171115
0.184731
0.201318
0.115624
0.250844
-0.282978
0.252821
-0.144029
0.159977
-0.251335
-0.0835541
-0.277732
0.0261918
0.116127
-0.162801
0.0118135
-0.173095
-0.245269
0.200651
-0.016781
0.0393892
0.0266343
0.00990665
-0.0453961
0.117469
-0.071137
-0.159368
-0.178127
0.195091
0.292855
0.152283
-0.292764
0.190772
0.050014
0.144252
0.153124
0.130043
0.106234
0.280434
-0.0301123
0.134304
-0.0907485
-0.0214403
-0.100569
-0.292964
0.126455
0.193315
-0.160976
0.167958
0.117478
0.102506
-0.123945
-0.219324
-0.213031
0.158981
0.218845
0.059459
-0.281945
-0.244648
-0.0563896
0.305137
0.254441
0.00254108
0.132751
0.0318524
-0.110618
-0.0178709
-0.17618
0.242076
-0.0175556
0.0632658
0.125306
0.162322
-0.260944
0.304664
0.145633
0.118979
0.15491
0.302371
0.0132096
-0.0489766
0.0723309
0.191904
0.0548576
0.185155
0.0481215
-0.0160722
-0.0513859
0.0453974
0.0415473
0.230491
0.0586879
-0.0295348
-0.0673134
-0.0634738
0.320882
0.0825858
0.184258
-0.16611
0.0528112
-0.142113
0.183921
-0.138233
-0.265748
0.16779
-0.183896
0.179178
0.0205194
-0.324966
0.163233
-0.271827
-0.0524784
-0.0439737
0.232664
-0.24589
-0.142907
-0.0134334
0.000880166
0.133835
-0.263336
-0.227953
0.0595723
0.134658
0.0410483
0.28795
-0.244736
0.0203144
0.0973911
0.222134
0.113679
-0.177391
-0.22477
-0.0184064
-0.0243154
-0.211921
-0.117575
0.103208
0.276314
0.227079
0.132423
0.147353
0.283198
-0.193408
-0.139629
0.200162
-0.188391
-0.0016198
-0.131067
0.129434
-0.158024
-0.0256767
0.155521
0.163625
-0.268572
-0.0783642
0.17306
-0.247723
0.217167
-0.0728572
0.294874
0.0515493
0.112462
-0.254305
-0.261991
-0.203257
-0.162885
-0.105078
0.255593
-0.199974
-0.150714
0.0608979
0.261969
-0.194988
0.179292
-0.22473
-0.261249
-0.295397
0.0681698
-0.0704915
0.134284
0.17831
0.1579
0.00199728
0.075137
0.220489
0.232009
-0.0646264
0.260591
0.127409
0.180842
0.238358
-0.11087
2.9339e-05
0.306545
-0.080431
0.105122
-0.154918
0.150409
0.0139512
-0.0327001
0.30985
-0.19088
-0.0920788
-0.179395
-0.293107
-0.00110821
-0.163079
-0.300576
-0.228128
0.0781407
0.143481
0.249171
-0.0813384
-0.119826
0.0133419
-0.159635
-0.210935
0.278624
-0.174506
0.19658
0.188431
-0.227653
-0.192968
-0.125383
-0.244189
0.0315661
0.24822
-0.0968858
-0.158284
0.00385295
0.144402
-0.124881
0.107409
-0.254583
-0.0144455
0.115673
0.0417148
0.137782
0.158262
0.0950845
-0.112655
0.0216905
0.0337766
0.121782
0.149419
-0.206543
0.264441
0.26452
-0.236516
-0.24402
0.158369
0.218334
-0.165482
0.2656
-0.222528
-0.133502
-0.0234795
-0.235089
0.0859447
0.148263
0.045676
-0.0906742
0.290455
-0.0933938
-0.0453255
-0.0341599
-0.26881
-0.261455
-0.225391
0.180809
0.104857
-0.0232215
-0.135036
-0.104962
-0.222475
-0.243943
-0.0320726
-0.284412
-0.287369
0.0208037
-0.219332
0.178694
-0.0832643
-0.0833277
0.135564
0.0168285
0.102175
-0.160585
0.0938466
-0.108052
0.264733
-0.15361
0.106362
0.255823
0.0445722
-0.220811
-0.0772031
0.0838231
-0.21865
0.00666234
-0.0529793
0.207572
0.262241
0.130104
-0.215746
-0.276541
0.145465
0.0377785
-0.252365
0.167929
-0.252669
-0.157789
0.0342419
-0.00668529
0.0545363
-0.112502
-0.272302
-0.160005
0.0263363
0.0912786
0.0507375
-0.0215355
0.264527
-0.149316
-0.0415935
0.0137608
-0.0807763
0.201629
-0.218797
0.0206881
-0.131855
0.0299434
-0.0525172
-0.176645
-0.145363
0.0332587
-0.140288
-0.272879
-0.21335
-0.0814614
0.194795
-0.162299
0.0546021
-0.0654736
0.133607
-0.213894
0.134251
0.15194
-0.044256
-0.142087
-0.042114
0.275964
0.144471
-0.0711172
-0.17539
-0.204864
0.217651
0.0500173
0.287278
-0.292004
-0.21327
-0.156874
0.0318431
0.0084885
-0.0146032
0.186776
-0.255509
0.145926
0.228259
-0.192699
-0.242084
0.103289
-0.0457043
0.0949711
-0.239162
-0.218603
0.204054
0.184602
0.222395
-0.146091
-0.26143
-0.123824
-0.162048
0.178568
0.100359
-0.0392026
0.280515
0.0297595
-0.281329
0.266304
0.0493027
-0.205635
-0.19158
-0.223107
0.10353
0.0952711
0.280037
0.149144
-0.0613504
0.182998
0.26979
-0.0186902
-0.00197313
-0.0886106
-0.216609
0.0570536
-0.0258013
0.274113
-0.0632809
-0.105619
-0.170448
-0.0321503
0.0794254
-0.0313367
-0.134289
-0.131589
0.232888
-0.148603
0.200303
0.243606
-0.198391
-0.0342762
-0.27952
-0.0804322
0.0368693
0.135789
-0.279729
0.0114675
-0.0032134
-0.0639595
-0.0801354
-0.0611496
0.219601
0.217157
0.135017
-0.291718
-0.0405458
-0.165416
0.298722
0.210184
0.030892
-0.164746
-0.11164
-0.215459
0.113621
0.0560511
-0.0355773
0.0131298
0.18643
-0.0969702
-0.0290388
-0.273244
0.143585
0.0126744
-0.0860376
-0.134014
-0.163342
-0.0687718
0.189081
0.131313
0.164722
-0.178259
-0.21182
0.0971878
-0.275234
0.23336
0.123538
0.0104126
-0.245553
0.120113
-0.0907073
0.0632231
0.215797
0.0940317
0.131755
0.033971
-0.139413
-0.161953
-0.22155
-0.255055
0.0161323
0.0415099
-0.269059
-0.15667
-0.253579
-0.047762
0.0318263
-0.1144
0.222229
-0.0764924
-0.297434
0.101035
0.0511853
-0.239485
-0.107472
0.0708407
0.310115
-0.28066
-0.230674
-0.245085
0.120788
-0.00416546
0.104306
0.068441
-0.224867
-0.0424611
-0.186937
-0.0652178
0.0845034
-0.124178
-0.0602491
-0.216735
0.21466
0.0171172
-0.0438428
0.26489
0.261488
0.27078
-0.133383
0.183907
-0.0848749
-0.137044
-0.0138607
0.234568
-0.0679725
0.154959
-0.021964
-0.0622422
0.213972
0.0654029
-0.0423151
0.0478655
-0.265686
-0.253173
-0.195626
-0.173175
0.00465503
-0.086028
0.0383427
-0.209694
0.092558
-0.298983
-0.111808
0.0191662
-0.0010344
0.156626
-0.0235977
0.00533663
0.107488
0.117531
-0.109354
-0.289401
0.277629
0.182905
0.246957
-0.0924053
0.0621389
-0.0551055
0.130876
-0.0207233
0.295804
-0.224483
-0.288582
-0.254985
-0.162496
-0.159773
-0.154469
0.145279
0.0777082
0.189346
0.204976
-0.120401
0.177455
-0.198873
0.191988
-0.0903658
0.229928
-0.127781
0.198079
0.0522356
-0.299382
-0.214025
0.061774
0.281539
0.260183
0.0261882
-0.119844
0.015551
0.261552
-0.286479
0.288844
0.249493
-0.212084
-0.276869
0.295387
-0.0695861
-0.144403
-0.164239
-0.238828
0.216427
-0.287061
0.29201
-0.208576
0.199374
-0.199929
0.287378
-0.199379
-0.254766
-0.122996
0.31351
0.0879962
-0.130473
-0.218077
-0.136098
-0.140648
-0.248206
0.169433
0.0450766
0.0661783
0.12043
0.0750275
0.0468419
0.0871976
0.156354
0.0668171
0.059609
-0.213084
0.209373
0.191976
-0.14375
0.124417
0.201705
-0.167397
0.23156
0.110017
-0.0576448
0.220798
0.210638
-0.0214673
-0.200039
0.21102
-0.227137
-0.00808627
0.295698
-0.0767377
0.143941
-0.26484
-0.195844
-0.120196
0.104108
0.213423
0.25444
-0.14427
-0.00418367
0.111512
0.228925
-0.251689
0.205614
0.123315
0.227852
-0.238193
-0.0180554
0.143189
-0.0895841
-0.0906182
-0.0502601
0.142733
-0.162993
-0.124086
-0.183023
-0.060186
-0.209241
-0.121208
0.214908
-0.228276
0.106333
0.0471298
-0.179428
0.195967
0.235742
0.236395
0.110908
0.183201
-0.215554
-0.200292
0.00157733
-0.300503
-0.16676
-0.0849948
0.143059
-0.222916
-0.0210755
-0.178975
0.228285
0.181916
0.0284636
-0.119793
0.0226295
0.16735
0.0625789
0.153927
-0.201457
0.130311
-0.269556
-0.286765
0.217643
0.124607
0.0463562
-0.254457
0.0189084
-0.0240883
0.254129
-0.180679
-0.132615
-0.264845
-0.085758
0.169676
-0.247399
0.0510637
-0.22065
0.215608
0.131751
0.0554839
-0.281052
0.0730365
-0.0739126
0.0563112
0.250379
0.270168
-0.0761304
0.0106529
0.120658
0.00781089
-0.132964
0.140819
0.00341289
-0.239988
-0.0312915
-0.2471
-0.202943
0.277565
0.0573663
-0.234117
-0.200886
0.235676
-0.193701
0.00234288
0.112304
-0.139301
-0.211073
0.180239
-0.225659
0.222083
-0.048802
-0.195654
-0.00699791
0.176734
0.167704
-0.05867
0.158541
-0.212399
0.264784
-0.0619358
0.0793095
-0.198218
-0.212803
-0.194778
-0.114948
0.0375727
-0.124963
-0.00355091
0.00905259
0.197702
0.0745358
0.113167
0.131699
0.190004
-0.153114
-0.0746827
-0.234368
-0.0731624
-0.183183
-0.162111
-0.169413
0.0553084
-0.0451686
0.115925
-0.0490041
-0.186789
-0.245363
-0.218333
-0.117834
-0.276582
0.0164527
0.267139
-0.154362
0.109232
-0.225423
0.022776
-0.155408
-0.062297
-0.300455
0.163257
-0.145281
0.0679579
-0.02924
0.282212
-0.0457702
0.112802
-0.0784714
0.0391717
-0.259977
0.0464882
0.168675
-0.134035
-0.199587
-0.196459
0.300938
0.0263955
-0.0858281
-0.234371
0.0885017
0.102762
-0.225095
-0.167085
0.0624522
-0.0788131
0.224952
0.139952
0.234663
-0.232269
-0.207228
0.221086
0.238481
-0.0549004
-0.000654082
-0.082119
-0.0975795
0.277066
-0.259827
0.129079
0.00383813
-0.229429
-0.136279
-0.13884
-0.0622248
-0.0416892
-0.019936
-0.0756412
0.264603
0.209209
-0.0220123
0.0670123
0.00501624
0.0582054
0.184468
-0.207688
0.266665
0.121428
0.237571
0.215343
0.209568
-0.270705
0.128426
0.143214
-0.0421833
-0.162515
-0.232723
0.160522
-0.195858
-0.201001
-0.0174478
0.107273
-0.132224
0.152319
0.28051
0.113036
-0.187167
-0.0372838
-0.272598
-0.207286
-0.139798
-0.0191008
0.160132
0.165568
-0.253383
0.0530711
0.264714
-0.266902
-0.115871
0.193654
0.218862
-0.224105
0.213465
0.0511803
0.217857
-0.127368
0.187609
0.284824
-0.257223
0.292378
-0.216545
0.0217456
0.108201
-0.0379198
-0.12352
0.080826
-0.244408
0.00432849
-0.243032
-0.225116
0.0913347
-0.0774488
0.0922593
-0.0366429
-0.210597
0.144154
-0.28332
-0.247164
0.162756
-0.109725
0.251809
0.0617505
-0.0247878
0.163668
-0.175064
-0.110135
-0.253174
-0.29579
-0.124765
-0.228779
-0.299984
-0.0456389
0.0819985
0.10226
0.201446
0.275862
-0.0964698
0.273183
-0.0346033
-0.065038
-0.230556
-0.251059
0.161076
0.155619
0.0266426
0.249365
-0.0331946
0.0298601
0.285719
-0.180596
0.199156
0.240559
0.199523
-0.106808
0.111579
-0.285675
0.0628534
0.122784
-0.278242
0.245452
0.206701
-0.29929
-0.0918408
-0.00997364
0.122204
-0.175551
-0.0389285
-0.284411
-0.21053
0.249352
-0.0301156
-0.164292
-0.294474
-0.144351
0.265726
0.0291815
-0.231384
-0.0585078
-0.249487
-0.224936
0.0536187
0.272859
-0.291728
-0.0678381
-0.148566
0.0853254
-0.0440607
0.241346
-0.0620079
-0.0412161
0.166356
-0.165261
-0.0430184
-0.221778
0.136259
-0.206688
-0.0926264
-0.193715
-0.187567
-0.0149703
-0.257744
0.0825506
0.11747
-0.241834
0.209377
0.0885114
0.0802608
0.287234
-0.282147
0.141003
-0.240092
0.0736794
0.0915589
-0.251353
-0.291424
0.242638
0.143586
-0.0441169
0.175134
-0.210479
0.203447
0.0625879
-0.0663892
-0.119252
0.118889
-0.252077
-0.017702
-0.278783
-0.143454
0.0787176
0.0255062
-0.0996037
-0.133434
-0.148857
-0.0348096
-0.222945
0.202466
-0.265913
-0.215795
0.220214
0.179413
-0.184396
-0.00876784
-0.0289297
-0.125079
0.0142191
-0.0694965
-0.257998
0.277405
-0.195925
-0.173296
0.189235
0.166829
0.0418752
-0.208557
-0.00130595
0.0924456
0.0607591
0.0454063
0.246178
-0.164522
-0.268087
-0.165063
0.022989
-0.104179
0.108943
0.103496
-0.202177
0.139865
0.16787
-0.241594
0.00416712
0.28393
0.0667231
0.303799
-0.128862
-0.23642
-0.0939036
-0.109886
-0.271639
0.0407547
0.0131231
0.231767
-0.11878
-0.265176
-0.286469
0.178721
0.119483
0.0751163
-0.100237
0.0802082
0.194308
-0.0394217
0.232398
-0.0874844
0.145663
0.0410746
-0.290225
0.237308
-0.112364
0.182579
0.286478
0.19221
0.173278
0.0482675
0.193107
-0.257421
0.0996608
-0.176335
-0.0611301
0.144993
0.143293
0.230102
0.0652128
-0.275148
0.278678
0.0617852
0.201581
0.146847
-0.174225
-0.174912
-0.0792935
-0.257087
0.0841309
-0.142834
-0.0294256
-0.0790761
0.218117
-0.0340879
-0.12147
-0.204641
-0.155596
-0.14591
-0.303169
-0.24504
0.178281
0.196116
-0.215963
-0.0141655
-0.265532
0.0226617
-0.186977
0.189462
-0.0508844
0.180136
0.21908
-0.0547466
-0.0559486
0.122272
-0.212504
0.0783206
0.250978
-0.0150596
0.134682
0.0363526
0.152749
-0.205608
0.246253
0.0484384
0.0481361
-0.175641
0.160995
0.214498
-0.0539712
0.144172
0.253901
-0.170029
0.0673679
-0.264885
0.113885
0.0940154
0.0416885
0.227453
-0.00494963
0.28961
0.0920607
-0.12061
-0.0575669
-0.248944
-0.275509
0.0313263
0.139696
0.259171
-0.269473
-0.0207
-0.000725584
0.188072
0.0670448
-0.0415828
-0.0644748
-0.172634
0.0590761
-0.202117
-0.264984
-0.284438
0.27125
-0.288369
-0.151664
0.0198822
-0.249263
0.255505
-0.196719
0.0830006
0.184476
0.0869752
0.0745169
-0.0326197
0.280045
-0.271138
0.0212996
0.285659
0.0422876
-0.121579
0.247995
0.0713155
0.129033
-0.0605484
-0.0332097
-0.100432
0.175298
0.208778
0.0241101
-0.0587832
-0.298725
0.0786014
-0.0430273
0.246842
0.076206
0.10644
-0.0327364
0.120349
0.0569337
0.0935024
-0.0805476
-0.073893
-0.121494
-0.285936
0.191071
-0.159258
-0.259514
-0.0648102
-0.174234
0.0956187
0.104542
-0.233484
-0.129839
-0.0526612
0.0281013
0.135923
0.142738
-0.0977303
0.0445463
-0.125578
0.147603
0.0526879
0.249047
-0.188853
0.0012792
0.0319873
0.210876
0.286262
-0.123926
-0.0282358
0.0524107
0.0784815
0.219597
0.245873
0.109027
0.110995
-0.222325
0.137249
-0.250367
-0.0777701
-0.065144
0.136797
0.0108276
0.120275
-0.20846
-0.279284
-0.0631356
0.22244
-0.0687132
0.289667
-0.217188
-0.228835
0.0311551
-0.283184
-0.125201
-0.278124
0.058567
-0.193297
-0.296818
0.22424
0.0511309
0.0813403
0.00314747
-0.036841
0.0173944
-0.184643
-0.217478
0.106128
0.262315
-0.174187
-0.286081
-0.106101
0.276871
0.0200717
-0.291725
-0.245632
0.0337714
-0.0400515
0.278177
0.256901
-0.059998
-0.242651
-0.277721
0.248834
-0.207854
-0.110277
0.279233
0.157067
-0.0254758
-0.301624
0.0796377
-0.243886
0.0778384
-0.201263
0.00592811
-0.213196
-0.068503
0.0809954
0.194373
-0.107563
0.231875
0.20142
0.0772335
0.223108
-0.0863269
0.0966211
0.265372
0.243463
-0.247751
0.245134
0.197796
-0.0105801
-0.287549
0.225435
-0.0443723
-0.187369
-0.174818
-0.0519693
0.267454
0.111638
-0.0471017
0.0436912
0.166247
-0.26961
0.147309
-0.117839
-0.183388
-0.234312
0.282026
-0.297762
-0.0503299
0.208331
0.198572
-0.262001
0.118077
-0.18347
0.138259
0.0822642
-0.242425
0.186164
0.035514
0.258962
-0.1307
0.0505224
0.190711
0.122004
0.160291
-0.289898
-0.225612
0.121029
0.129453
0.0231371
-0.131803
-0.00871887
0.0498835
-0.288304
0.170729
0.168806
-0.219939
0.149927
0.169879
0.029122
0.0591394
0.0714679
0.069769
-0.120376
0.188502
-0.0964758
0.263414
0.249435
-0.207899
-0.00377317
0.209632
-0.0351149
-0.251231
0.0947409
-0.213842
0.205462
0.107542
-0.142599
0.0287483
-0.0661277
0.180182
0.188861
0.223855
-0.0687989
0.204479
0.0930204
-0.200388
0.284229
-0.0542041
0.269948
0.0145163
-0.290089
0.0406863
-0.214858
-0.114974
-0.0673771
-0.0113311
-0.147779
-0.118191
0.0836985
0.149809
-0.210592
-0.251951
0.185773
0.179425
-0.169772
0.0851617
-0.00413876
-0.0109853
-0.181676
0.226667
-0.143628
-0.276969
0.162141
0.105013
0.23055
-0.0548043
0.186191
0.215401
0.197397
0.169487
-0.0662573
0.204853
-0.0872461
0.0214047
-0.195382
0.143575
0.307288
-0.0442396
-0.290136
0.0654888
-0.220538
-0.177988
0.123139
0.281067
0.294324
0.257286
0.0790532
-0.000161867
-0.0578735
0.224671
-0.0844986
0.111393
0.222882
-0.211332
-0.101226
0.134514
0.0404887
-0.190484
0.045638
-0.0764516
0.265742
0.286764
-0.17002
-0.149214
-0.0256881
-0.0583271
-0.286111
-0.0134578
0.167171
-0.287567
-0.236796
0.240204
-0.174597
0.169845
0.229347
-0.171467
0.142255
0.0260811
0.122567
-0.241686
-0.0711416
-0.255292
0.161059
-0.143345
-0.1806
-0.24183
-0.292717
0.146087
-0.15596
0.0640042
-0.204569
-0.200435
0.0238408
-0.0808094
-0.0475116
-0.303607
0.136353
-0.0308392
-0.0128718
0.00174256
-0.00069824
0.0515525
-0.0277896
0.101143
-0.0722279
-0.0755749
0.223082
-0.239373
0.247769
0.065826
-0.180972
-0.11016
0.111157
0.273805
0.0488222
0.238498
-0.255988
0.032535
0.0935188
-0.129581
-0.200537
0.175281
-0.0208841
0.127669
-0.215494
0.252385
0.130645
0.222276
-0.0781271
-0.17656
-0.0470306
0.196975
0.18072
0.217273
0.0168717
-0.200765
-0.148037
-0.0591156
-0.13371
-0.175252
-0.267039
-0.0193876
-0.00154167
0.0951164
-0.0543452
-0.274247
0.0284416
-0.00522577
0.078057
-0.205997
0.163343
0.187592
0.25893
-0.167261
0.0153258
-0.244104
-0.198143
-0.143208
0.306614
-0.000875156
-0.00866853
-0.0530363
-0.0932774
-0.12533
-0.121262
0.224784
-0.00825258
0.0212621
-0.0999477
0.141807
0.13971
-0.100164
-0.203372
-0.159326
-0.294763
0.0531219
-0.111122
0.0426502
-0.267717
0.252842
0.148618
0.209787
0.139156
0.117276
-0.254286
-0.153192
0.17384
-0.18352
0.002117
0.167841
0.138225
0.294739
-0.166817
-0.248577
-0.130539
0.0120435
0.282111
0.1203
-0.259606
-0.142081
-0.0324619
0.178428
0.0411648
0.055945
-0.300297
0.0582087
-0.20493
-0.105901
-0.223536
-0.165647
-0.137317
0.221122
-0.270654
0.270789
0.0874357
-0.250075
-0.166508
-0.0269268
-0.116814
0.152252
-0.13474
-0.285654
0.137621
-0.0408182
-0.253989
0.275683
0.250417
-0.263837
0.130151
0.289693
-0.112458
-0.217342
0.17302
0.226304
0.131865
0.16671
-0.041079
0.251723
-0.22913
0.065756
-0.188771
-0.0886971
0.00712106
-0.176952
-0.0703337
-0.211116
-0.120907
0.0461661
0.0442174
0.0530778
-0.114286
0.167816
0.0833709
-0.264214
-0.169554
0.130518
-0.281721
-0.183641
0.143266
0.141959
-0.194839
-0.269825
0.205937
0.263903
0.257049
0.073082
0.166869
-0.0813085
0.0279443
0.218016
0.298676
0.124105
-0.138311
0.00872545
0.24732
0.0782163
0.0835089
-0.187078
-0.174267
-0.181128
0.174439
0.0160306
-0.305323
-0.0380679
0.0328624
-0.15971
-0.206068
0.0580662
-0.0456947
0.255227
-0.105031
0.0496125
0.258715
-0.169647
0.0187928
0.238559
0.19292
-0.109696
-0.125414
-0.101441
-0.175003
-0.124896
-0.276177
-0.0278369
0.174981
0.264527
-0.250528
-0.0414316
-0.218189
-0.122618
0.0935335
0.254764
0.200893
0.0604751
-0.0609232
-0.0618919
0.205801
0.0456598
0.298056
-0.144931
-0.00583873
-0.104912
0.195666
-0.0442979
0.0246966
-0.0705771
-0.103204
-0.0825678
0.119364
0.0446119
0.132237
0.256508
0.22611
0.154342
-0.0528953
0.084056
0.12651
0.0189671
-0.263959
0.210767
0.200958
0.095844
0.177231
0.092675
-0.122281
-0.186647
-0.274252
-0.227899
0.168996
-0.259526
-0.044926
-0.152502
-0.0497164
-0.138241
0.108012
0.237045
0.106568
-0.301953
-0.145057
-0.0738582
0.0823065
0.272964
-0.119586
0.00135698
0.141014
0.13628
-0.233775
-0.0495148
-0.139069
-0.200977
-0.134317
-0.257033
0.190372
-0.249925
0.133124
-0.230599
-0.145595
0.158049
-0.14174
-0.270493
0.202505
0.0988099
-0.138195
-0.171017
0.2453
0.268047
-0.212551
0.0418277
0.279136
-0.0470265
0.264407
0.0389326
-0.0605885
-0.123256
-0.258118
-0.243605
-0.300046
-0.199454
0.0107042
-0.150204
-0.0974232
0.16264
-0.10095
-0.191151
0.207096
-0.255623
-0.131363
-0.220516
0.201004
0.0228259
-0.203374
0.0996369
-0.174517
-0.04944
0.250307
-0.222685
-0.0647646
-0.286411
0.134869
-0.0791421
-0.0186052
0.10633
0.259422
0.193255
0.271006
0.277848
0.254591
0.265034
-0.20006
-0.0172482
-0.16109
-0.00166087
-0.153257
0.0427638
0.1025
-0.235688
0.0891183
0.281165
-0.161843
0.00328402
-0.0124501
-0.087937
-0.17259
0.120036
0.179629
-0.245817
0.199708
-0.180538
-0.210116
0.0447189
0.0374822
0.0573892
-0.148565
-0.0225219
-0.0462645
-0.190047
-0.0404665
-0.0872141
-0.211557
0.0637771
0.181331
-0.0545612
-0.240608
-0.270201
0.302764
0.163941
-0.195906
0.106303
0.130088
-0.0790649
-0.200398
-0.165511
0.140231
-0.0744622
0.252307
0.0146867
-0.0294047
0.15765
0.130116
0.0556582
-0.0958316
-0.143271
-0.20139
0.038504
0.113932
0.0459696
0.146132
-0.213466
0.279557
0.259558
0.140645
0.153814
-0.102257
0.198257
0.195389
-0.0778236
0.0643229
0.295069
-0.295756
-0.11508
-0.0776376
-0.185506
0.0219881
-0.239563
0.0310817
-0.0159695
0.0873015
-0.2871
-0.160515
-0.0865988
0.0626618
0.0433008
0.0469176
0.14659
-0.221611
-0.116625
-0.0642936
0.221266
-0.0163587
-0.110327
0.189402
-0.195761
-0.23807
-0.180736
-0.30776
0.267015
0.0325346
0.0485805
0.246331
0.0463957
0.270259
-0.130404
0.157559
-0.0220109
-0.0471819
-0.119861
0.253628
-0.282722
-0.107542
-0.165752
-0.0482435
0.269648
0.142418
0.263446
0.126222
0.241717
-0.133221
-0.251083
0.165147
0.130921
-0.0255192
0.0843736
0.244854
0.0151446
0.213738
0.229888
-0.0327662
-0.0831515
0.0138334
-0.0832761
0.274417
-0.0228759
0.0914802
0.112424
0.26501
-0.276875
-0.294588
0.262062
-0.27123
-0.108404
-0.229959
-0.0322812
-0.1455
0.209402
-0.0314194
0.260734
0.156227
0.109921
-0.280024
0.0145472
-0.0602356
-0.0262202
-0.182758
-0.103206
0.285
-0.289158
-0.164461
-0.0542533
-0.0497443
0.141942
0.183016
-0.0765225
-0.163828
-0.0240059
-0.253892
-0.177383
0.00316325
-0.227924
-0.241188
0.0497431
-0.0412149
-0.174255
-0.261185
0.097822
-0.257559
-0.0304387
0.072214
0.208065
-0.194897
0.0996676
-0.0751622
0.0552426
-0.231269
0.03658
0.222346
-0.24858
0.0700851
-0.267495
-0.00988218
-0.299367
0.189545
-0.128555
-0.0723611
-0.279177
0.144691
-0.0266006
-0.156987
-0.161318
0.0231105
-0.0959253
0.182399
0.273495
0.0427089
0.190904
0.0648547
0.0772065
-0.129891
-0.17854
-0.0133374
-0.0417778
0.211738
0.219622
-0.298558
0.261696
-0.0363242
0.211157
-0.295416
-0.281929
0.272149
0.00245321
-0.270933
0.160482
0.169218
-0.0579826
0.188752
0.010548
0.208412
-0.272555
0.160027
-0.0771656
-0.0663982
0.0399125
-0.102462
0.251716
-0.0588918
0.256472
0.0368054
0.110983
-0.214693
-0.272874
-0.224896
0.283534
0.249307
-0.239261
0.251632
-0.0726662
0.279869
0.267042
-0.0572139
0.258215
-0.0313213
-0.0433257
0.109889
-0.164697
0.20767
0.00737833
0.154043
0.126774
0.0308525
-0.00266663
-0.244685
0.264405
-0.259585
-0.0465673
0.218372
-0.0215212
-0.101449
-0.0475482
-0.207902
-0.0196938
-0.00783939
-0.141015
-0.0299466
-0.0622616
-0.0664516
-0.0810132
0.151196
-0.0721903
-0.121079
-0.193663
-0.128182
0.153438
0.0612332
0.295119
0.288882
-0.0285884
0.00301514
0.139014
-0.203685
-0.290715
-0.162506
-0.162001
0.271822
-0.111341
0.0854298
0.190897
0.158478
0.280882
-0.13456
0.26169
-0.0152797
0.169003
-0.183547
0.227978
-0.203481
0.0510406
-0.136175
0.260325
0.266063
0.0529185
-0.237449
-0.131616
-0.099993
0.126561
-0.138226
-0.136926
-0.233134
0.134099
-0.263755
-0.128935
0.158193
-0.148279
0.0177083
0.150441
0.052808
-0.193403
0.0776592
-0.0932563
-0.200228
0.217781
-0.116738
0.0618626
0.0513362
-0.000449347
0.011797
0.155636
-0.254823
0.16657
0.115236
-0.288105
-0.123453
0.144765
-0.118427
0.0954373
-0.0356904
0.011242
0.255059
0.0453442
-0.155783
0.275979
0.203395
-0.281357
-0.159165
-0.077129
0.184774
0.18918
0.0197219
-0.04807
-0.197095
0.116251
-0.140551
-0.0335951
-0.128951
0.23567
0.261253
0.155504
0.107181
-0.286976
0.0096551
-0.103082
-0.282065
0.199891
-0.26451
-0.115755
-0.00636678
0.0126246
0.188064
-0.0265949
-0.245129
-0.240163
-0.0651444
0.262487
-0.192613
0.0588695
-0.110769
-0.312017
-0.0235065
0.192932
-0.0423177
0.0765197
-0.00145629
0.117966
-0.254368
0.170279
0.0554587
-0.295247
0.0385242
-0.151412
-0.268909
-0.253967
0.0373625
-0.257482
0.235933
0.0945586
-0.0539897
-0.0594458
-0.186091
-0.157212
0.187543
-0.154182
-0.0661698
-0.169448
-0.186185
0.0371589
0.214167
-0.0312504
0.0447049
-0.130875
-0.130052
0.27177
0.259827
0.161779
0.123775
0.299616
0.0294213
-0.142068
0.297736
-0.230492
0.0233872
-0.294761
-0.201316
-0.269172
-0.245696
-0.253872
0.131354
-0.03744
-0.0118759
0.240201
0.136302
-0.0843074
-0.190498
-0.220156
0.0656959
-0.112655
0.1035
-0.0527486
0.166314
-0.107752
0.13017
-0.228484
-0.116342
0.093473
0.228699
0.28166
0.070292
-0.0556061
-0.158439
0.0902955
0.0232416
0.157131
0.0803787
0.102276
0.217195
0.142345
0.168709
0.0353579
-0.189165
-0.134518
-0.0269607
0.249359
0.0711225
0.0484878
-0.265001
-0.178696
0.251531
0.155232
0.0809282
0.118545
-0.296149
-0.0569677
0.166725
-0.0984111
-0.278978
0.0858106
-0.129107
0.10184
-0.266403
0.000575617
-0.090634
0.0603756
-0.139584
0.273096
-0.128696
-0.242262
0.110629
-0.264369
0.0943858
0.217354
-0.0809024
-0.229807
0.175086
0.288963
0.131473
0.20383
-0.20787
0.0767012
0.0556482
0.172413
-0.107549
0.077646
-0.190815
-0.243432
0.261281
-0.1621
0.142771
-0.170898
0.267068
0.192682
0.158695
-0.142793
-0.0564598
-0.288681
-0.161354
0.114784
-0.233878
0.239075
0.150237
0.156629
0.156496
-0.241381
0.229969
0.0493272
-0.264053
0.0600697
-0.0469857
-0.164252
-0.168061
-0.293542
-0.290776
0.0180576
0.0753369
-0.187407
0.0820917
0.0368186
-0.0390881
-0.0647012
0.185678
-0.0794559
-0.1816
0.0323743
0.0707567
0.058332
0.0502038
0.216055
-0.122186
0.119719
0.153191
-0.271652
-0.0190154
0.025079
-0.203085
-0.0850262
-0.238126
-0.170472
0.266299
0.00123186
-0.0334583
-0.198598
0.00911524
-0.0348903
0.119458
-0.214619
0.0864817
-0.0932176
0.13156
-0.26676
0.134536
0.0152456
-0.0464823
0.254921
-0.255894
-0.274554
0.00191383
0.0864037
0.240158
0.184043
-0.100795
0.0968849
0.225571
0.182511
-0.19574
-0.29256
-0.203175
-0.138214
-0.167054
-0.225044
0.174897
0.0963665
-0.126708
-0.111094
-0.232666
0.284076
-0.0310441
0.147213
-0.111039
-0.193885
0.186436
-0.272754
0.117116
-0.175646
0.285741
0.152982
-0.14824
-0.00980778
-0.0563191
-0.207777
-0.113546
0.136389
0.188214
-0.207753
0.0225743
0.294744
-0.185037
0.134724
-0.12609
-0.0498509
0.199336
-0.260674
-0.251585
-0.232164
-0.087133
-0.182599
-0.233067
0.175953
0.25974
-0.0419696
0.277269
0.129794
-0.0119502
0.0830237
0.250682
-0.0232517
-0.0541845
-0.18691
0.269473
0.179881
-0.0878076
-0.147462
0.0159634
-0.192331
-0.047745
-0.250013
-0.206005
0.0754408
0.181656
-0.0431328
-0.279063
0.0828865
0.000123599
-0.231676
0.153012
0.229997
-0.122959
0.20982
0.105875
-0.154243
-0.131618
0.086035
0.273844
0.153086
-0.134897
0.227795
-0.17942
0.111522
-0.253201
-0.205322
-0.00513983
-0.046988
-0.0436001
-0.285379
0.0453957
0.229792
-0.231333
0.144538
-0.0150118
0.253822
-0.193806
0.00974386
0.0338821
0.111804
0.0812558
-0.123105
0.0394152
0.257794
-0.188961
-0.163367
-0.205484
-0.05288
0.216406
-0.24793
-0.192708
-0.218322
0.292451
-0.0754361
0.182057
-0.256245
0.0325806
-0.115002
0.006828
0.277529
-0.0802036
-0.248093
0.218801
-0.0329157
0.199166
-0.0944791
-0.0757657
-0.299054
0.20941
0.240896
0.143427
0.0143465
-0.172048
-0.173962
-0.0432631
-0.0795627
-0.0102232
0.0541285
0.199606
-0.0998793
0.0913611
0.299499
-0.0248806
0.0932434
-0.0586262
-0.117912
0.152928
0.271195
0.0760638
-0.160993
0.268932
0.284485
-0.115652
0.193441
-0.0415988
-0.216013
-0.195242
0.161632
-0.183416
-0.263561
0.108062
0.217816
0.0423067
0.233336
-0.227956
0.282062
-0.139106
0.050936
0.0387433
-0.237566
0.247589
-0.18171
-0.259269
-0.0544316
0.241891
-0.0289966
0.138253
0.0714184
-0.0337936
-0.0584501
0.197293
-0.0409515
-0.0801411
-0.195031
-0.15352
0.173457
-0.0936543
-0.0399784
0.0364418
-0.0224216
0.00922963
-0.159081
-0.108404
-0.264059
-0.208305
-0.0213299
0.28585
-0.0156357
-0.282228
0.0213266
0.00515267
0.263113
0.151184
0.0434335
-0.0719933
0.064492
-0.249606
-0.229236
-0.16448
0.0174503
-0.00552477
-0.261776
0.263779
0.200678
-0.164627
-0.190607
0.057468
0.0207642
0.0709069
-0.213419
-0.295406
-0.243075
-0.0630507
-0.102016
-0.221912
0.0223011
0.158773
-0.221597
0.276748
0.177631
0.101165
-0.0185382
0.152677
-0.0609601
-0.254043
-0.220366
-0.287441
-0.206664
-0.151907
-0.157321
0.110526
0.140756
-0.114168
0.0730639
0.0396735
0.015179
0.181623
-0.196429
-0.259997
-0.0506883
-0.104897
-0.258726
0.0106414
0.13031
-0.0575667
0.092199
-0.141733
-0.198939
0.166296
-0.170876
0.278384
-0.0268212
0.11686
0.136524
0.217606
0.162437
0.214263
0.222671
0.255483
-0.239817
-0.233808
0.0666265
0.203548
-0.0491232
-0.161983
-0.0582685
0.269782
-0.27723
0.0452596
-0.293434
-0.0307643
0.240537
-0.25334
0.27918
0.0682307
-0.0131603
0.0740645
0.224032
0.0879103
-0.0584925
-0.24471
0.0691057
0.209508
0.175672
-0.0997315
0.129093
0.035634
-0.186136
0.0508119
-0.00639366
-0.12515
0.118519
-0.236174
-0.224729
-0.229257
-0.0984945
0.0395792
-0.248303
-0.0648046
-0.231224
-0.24549
0.205246
-0.289338
-0.180502
0.178304
0.0765618
0.0577896
-0.0538753
0.000873109
-0.131887
0.179826
0.0569415
0.213744
0.0934871
-0.0645119
-0.185824
-0.071143
0.271018
-0.0750623
0.254912
-0.035802
0.133979
0.116163
0.0496355
0.172477
0.175471
0.22868
-0.0672261
0.214393
-0.134072
-0.0363732
0.241598
-0.240143
0.0037706
-0.280653
0.212202
-0.253772
0.123424
-0.11073
0.0666666
0.270832
-0.23622
-0.150624
0.214375
0.163973
0.0926893
-0.250652
-0.182846
0.0409967
-0.0382138
-0.220101
-0.279825
-0.170463
0.166113
0.0590285
-0.281941
0.0420294
-0.00514968
-0.0768261
-0.0530885
0.126303
0.190555
-0.0835052
0.202475
-0.124164
-0.0534846
0.104029
-0.0288182
-0.229371
0.266911
-0.272999
-0.253832
-0.256856
-0.145486
0.286694
0.244877
0.227822
-0.256496
-0.260461
-0.0474103
0.0380177
-0.178005
-0.0453212
0.127119
0.280353
-0.30215
0.142682
0.0324922
-0.0237696
-0.238897
-0.315862
-0.202232
0.231217
-0.072389
0.298659
-0.195573
0.189014
0.10845
0.0735739
0.253269
0.0875155
0.0892655
-0.277832
0.134787
0.231216
-0.285531
0.0633114
0.153275
-0.255798
0.0778085
-0.205662
0.067426
0.188185
0.0717559
-0.107852
0.181503
0.0751539
-0.273727
-0.0764814
-0.246242
-0.226808
-0.062908
-0.141683
-0.287455
0.165128
-0.133934
-0.169855
0.0468196
0.263505
0.203054
0.00295654
0.0604599
0.000515543
0.0380873
-0.107909
-0.0619576
0.0465594
0.26744
-0.213356
0.079656
0.0444223
-0.105086
-0.154269
-0.0628202
0.26271
0.0346226
-0.196333
0.02398
0.0530948
0.0396094
0.0799053
0.127288
0.276109
0.225865
0.14262
0.132379
-0.208249
0.256851
-0.121568
-0.232914
0.168372
0.190492
0.123928
-0.14185
-0.0836499
-0.290408
0.104204
0.275533
0.270269
0.183017
0.0606598
0.0142275
-0.217764
0.19755
0.26518
-0.26509
-0.0667959
-0.227155
0.0493423
0.289324
0.11365
-0.168835
0.110081
0.0896616
-0.224784
-0.0605273
-0.0701128
-0.136049
-0.0889368
0.106144
-0.0700543
-0.223354
-0.00172496
-0.252539
-0.0649782
0.225746
-0.239447
-0.274171
0.194225
-0.249405
0.206307
-0.0315497
0.057185
0.284018
-0.1412
0.0147528
-0.272318
0.0937443
0.101028
0.0765143
0.0709557
-0.0812952
0.194815
-0.103327
0.294027
0.285681
0.13651
-0.0779889
-0.146077
-0.257293
-0.270939
0.0839783
-0.18818
0.0191193
0.103946
0.0362199
-0.0581536
0.18048
0.0719896
-0.157106
0.220242
-0.0175598
0.104494
-0.0139985
-0.0136662
0.250965
0.295922
0.0115321
0.0473035
0.0890138
-0.20912
-0.161751
0.294054
-0.290962
0.0154815
0.2911
0.310829
-0.14071
-0.0928898
-0.143976
-0.0912115
-0.0696141
0.203514
0.00472408
0.269826
0.0249471
-0.256373
-0.0718832
-0.0870281
0.11534
0.0556275
-0.159464
-0.191032
-0.136758
0.124758
0.100794
-0.165792
0.120064
-0.201055
0.171779
-0.0876903
-0.104548
0.287405
-0.110391
-0.088719
0.0139642
-0.138856
-0.0918264
0.164966
0.0959567
0.0421543
-0.262267
-0.264812
-0.0411267
0.0570951
0.289358
-0.291277
0.0827382
-0.0775944
-0.0905773
-0.0895435
0.279554
0.0635909
0.030553
-0.131394
-0.109086
-0.177228
-0.0246993
-0.284425
-0.0943687
-0.183868
-0.0819771
0.110473
-0.179912
0.105874
-0.263101
0.107603
0.291019
-0.062327
0.00065978
0.0905933
0.290988
0.0546086
0.12751
-0.0642878
-0.180727
0.134467
-0.0506326
0.205778
-0.26542
0.156024
-0.174401
-0.272939
-0.0601931
0.125809
-0.126327
0.11776
0.26697
0.122618
0.14754
-0.15116
0.256584
-0.24733
0.297131
-0.202248
0.141813
-0.299511
0.244545
0.178483
-0.0379825
-0.0727087
-0.0400345
-0.0675495
0.296673
-0.211231
0.158538
-0.219715
0.184759
-0.203042
0.287497
0.208252
0.287245
-0.17258
0.258814
-0.0733831
0.210866
-0.172073
-0.257424
0.158533
0.274821
0.175848
-0.271434
0.239719
0.254307
-0.272008
-0.286906
0.0891009
-0.26359
0.263778
-0.0146753
-0.0440364
-0.104893
0.243685
0.221263
-0.0955973
-0.290827
0.0859651
-0.0319725
0.185436
0.218871
-0.048122
0.129572
0.225302
0.0344865
0.0703922
-0.132334
-0.0141638
0.192698
-0.0785953
-0.156326
0.15773
-0.202125
-0.102593
0.0888752
-0.244463
-0.0674358
0.0809296
0.126905
-0.029217
0.0783994
-0.174349
0.251509
0.266209
-0.260116
0.178587
-0.153172
-0.274381
-0.02918
0.0914909
0.212108
-0.151269
-0.261098
0.0789267
-0.192562
0.0882674
-0.156387
-0.0513
-0.231788
-0.24545
0.149224
-0.0615017
0.168784
0.243669
0.11191
-0.0428914
0.298825
-0.210799
-0.220619
0.114514
0.0185416
0.116621
0.236442
-0.0378969
0.0836499
0.266959
-0.168218
0.172904
-0.260973
0.0817084
-0.0456521
0.252663
0.272551
0.0409766
0.0168149
-0.217738
-0.172955
0.186821
0.0504292
-0.122261
0.243086
-0.0619144
0.157742
0.114115
-0.152433
-0.0213574
-0.182644
-0.153694
0.04679
-0.116448
0.278627
-0.22437
0.2819
0.208734
0.0325112
0.0410217
0.176036
0.176516
-0.0863313
0.168144
-0.0329842
0.206819
0.150352
-0.0488434
-0.0761113
-0.112421
0.069468
0.0381619
-0.241269
-0.157223
0.270475
-0.287085
0.0575637
0.131557
0.165816
0.205893
-0.209675
0.270997
-0.250687
0.0987182
-0.171799
-0.259261
0.195279
-0.219995
0.260585
-0.0727798
0.116441
0.090456
-0.190812
-0.269845
-0.0204611
0.108243
0.214732
-0.130308
-0.2204
-0.131569
0.0381499
0.14893
0.204966
0.104697
0.278115
0.168043
0.131934
0.00863606
-0.046175
-0.0303508
-0.0938903
0.0530673
-0.0935551
-0.0335723
-0.128371
0.0263019
-0.00760285
-0.233224
0.0978511
-0.07321
0.0134384
-0.0864906
-0.275015
0.121967
-0.0667425
0.0518534
-0.0709268
-0.136467
0.203865
0.00696204
0.0259771
-0.0471414
-0.132966
-0.0534887
-0.238619
-0.160392
-0.199208
0.173626
0.141755
0.0656352
-0.153711
-0.233474
-0.197653
0.0709282
0.0384063
-0.0295138
-0.206234
-0.266132
0.042503
0.183521
-0.0657387
-0.255216
-0.198911
-0.0090799
0.178695
0.0502574
-0.272401
-0.18886
0.213089
0.239898
0.113454
-0.0674023
-0.106371
0.286684
0.175968
-0.0532211
-0.186268
0.281931
-0.179377
0.269599
0.0246189
-0.0487791
-0.258704
0.128533
-0.287184
0.0561174
-0.204835
-0.192887
0.0774879
0.134757
-0.309871
-0.272362
0.184189
-0.203737
0.0233226
0.0528316
0.147849
0.0466368
0.1712
0.0441621
-0.00543049
-0.0121697
0.299205
0.184083
-0.0237754
0.179509
-0.186167
0.106676
0.154563
-0.0584045
0.0735866
-0.132064
0.196462
0.100701
-0.281231
0.240476
-0.122212
-0.185113
-0.250246
0.254207
0.23921
-0.251926
0.291567
0.117838
-0.164101
0.00503398
-0.101137
0.295485
-0.215671
-0.242158
0.0405821
0.0598672
0.0380638
0.0393808
-0.0558236
-0.29462
-0.0926352
0.054109
0.124534
-0.232511
-0.288392
-0.119187
-0.0605216
0.233552
0.301809
-0.0706546
0.162632
-0.146035
0.0426707
0.188394
-0.169083
-0.0335844
0.241775
-0.168829
-0.175292
-0.196011
0.144694
0.00646304
-0.213416
0.197459
0.0414335
0.125551
-0.0486175
-0.179345
-0.152288
0.217984
-0.164804
0.058413
-0.0112413
0.255565
0.105247
-0.0119785
-0.166629
-0.237957
-0.0659153
-0.177786
-0.00463743
-0.229438
0.00334725
-0.269497
0.270101
0.109054
0.00963734
0.230983
0.241607
0.118849
-0.266857
0.0420896
-0.169996
-0.201216
-0.0577934
0.208126
0.222486
0.188313
-0.304069
-0.208217
0.0939557
-0.15444
0.144363
-0.217566
-0.220332
-0.0439425
0.0563286
-0.0971469
0.0220814
-0.282193
0.022386
-0.311318
-0.209631
-0.271087
-0.270318
-0.241998
0.124862
0.0255199
0.307955
0.0468007
-0.130506
-0.27548
-0.19033
0.000743161
-0.205227
0.0196206
-0.089136
-0.276862
-0.0612502
-0.121412
-0.207294
-0.249315
0.0225892
0.256094
-0.163155
0.0955978
-0.0965834
0.226633
-0.285586
0.221526
0.228565
0.0105764
0.208807
-0.283127
0.0391968
0.250817
-0.198607
-0.169351
0.0116993
-0.199701
0.161595
0.154161
-0.187376
0.263779
-0.15353
-0.0792769
0.00875721
0.0224899
-0.0573557
0.248906
0.260733
0.0524932
0.296735
-0.0397181
0.00457111
-0.164803
-0.22165
0.171968
-0.223914
-0.229561
0.090189
-0.298421
0.0790325
0.0140286
-0.246925
-0.177904
-0.0449697
-0.173904
-0.0410846
0.264018
-0.074053
-0.182036
0.107819
0.0401065
-0.204429
0.254205
0.241915
0.0848728
0.00747789
-0.0758094
0.0454148
-0.0642907
0.243733
0.0342624
0.202611
-0.0943625
0.191446
0.263411
-0.213356
0.245179
-0.247702
0.189805
0.231078
0.128801
-0.112026
0.276132
0.223358
0.13991
-0.183283
-0.116268
0.115161
0.00438883
0.0135114
-0.0806251
-0.231576
0.104903
-0.142021
-0.279137
-0.109793
0.162249
-0.0837149
0.24563
-0.21396
-0.146041
-0.0203612
0.26892
0.0891709
-0.15527
0.227051
0.173168
-0.190079
0.286421
0.0588074
-0.228794
0.0980111
0.265829
-0.278924
0.0467061
0.138139
-0.152647
0.237422
-0.0611253
0.131275
-0.0449948
0.152492
0.197256
-0.234156
-0.288739
0.204649
-0.0336037
0.149154
-0.195087
-0.0939765
0.234614
-0.0147345
0.205116
0.235269
-0.227385
-0.248799
0.156168
0.241459
-0.129513
0.149847
0.00540929
-0.0767491
-0.0311293
-0.0252481
-0.0402049
0.301748
-0.181344
0.0635983
0.209196
0.0739349
-0.0699861
-0.135025
-0.0820966
-0.154318
-0.0608824
-0.0726896
-0.259986
0.204651
-0.218158
-0.136669
-0.189321
-0.284735
0.153715
0.288469
0.232231
0.222406
-0.249227
0.109064
0.153723
-0.0636951
-0.0399193
-0.114113
0.146318
0.165787
0.177358
-0.208483
0.172874
0.278888
0.165122
0.0750531
0.0361808
-0.205576
0.236643
0.276183
-0.0691536
-0.120093
-0.0849911
-0.0159828
-0.232038
-0.0438534
0.187854
-0.133593
-0.0317124
0.0361273
-0.129079
-0.0958219
-0.0157379
-0.0909697
-0.292357
-0.161749
0.125738
-0.0540704
0.00783931
-0.0259411
-0.161331
-0.137065
0.0607447
-0.29637
-0.157083
-0.0766103
0.0895336
0.183547
0.0208172
0.0342483
0.161774
0.257842
0.198782
-0.26672
-0.0354995
0.266677
0.0240851
-0.149246
-0.157928
0.289541
0.179591
-0.00913499
-0.0835022
-0.151875
0.195458
-0.0705706
0.00111544
0.0307368
0.170397
-0.293659
0.290882
-0.304997
-0.116481
0.04863
-0.295325
0.00800764
0.264013
0.0965348
-0.0925117
-0.0226518
-0.167805
-0.258938
-0.0384972
-0.274599
-0.202236
0.232298
0.285968
0.1055
-0.22709
-0.185529
0.0929601
0.256615
0.115191
-0.297362
-0.199785
0.0149685
-0.0727589
0.107719
-0.247537
-0.2081
0.122071
-0.250933
-0.198744
0.27862
0.09021
-0.197652
0.00686952
0.0681788
0.185849
0.205648
-0.217739
-0.286507
0.263936
0.0379547
-0.258771
-0.240578
-0.0273488
-0.252843
0.164655
0.0508456
-0.144084
-0.0271665
0.00539773
0.251851
-0.0229227
0.109205
-0.00940271
0.180566
-0.0703415
0.0331606
0.272466
-0.243089
0.0808523
-0.231007
-0.254794
-0.120444
-0.132218
0.0515656
0.245565
-0.24187
-0.0332612
-0.278516
-0.232361
-0.0682079
0.0406956
-0.18164
-0.00798457
-0.290036
-0.147796
-0.140967
0.0434211
0.00298756
0.119763
-0.260669
-0.0332123
-0.220111
0.147647
0.259198
0.262276
-0.210846
-0.00864052
0.235894
-0.168511
-0.225746
-0.299959
-0.117696
-0.0508194
-0.132863
0.222957
-0.102269
-0.0711154
-0.10327
-0.0940077
0.00849928
0.123938
0.259436
0.125323
-0.177803
0.271033
0.2828
-0.024444
0.00906829
-0.0243379
-0.201587
0.0599389
0.242973
-0.111336
-0.0829231
0.211508
-0.149996
-0.0106542
-0.103082
-0.217599
0.125454
-0.025847
-0.21232
-0.293672
0.221263
-0.0526255
0.239073
-0.178306
0.179098
-0.169667
0.0292562
-0.111539
0.247749
-0.014313
-0.283364
-0.234494
-0.035667
0.291253
0.0450833
0.277426
-0.0279536
0.1427
0.0272653
-0.0739139
-0.27639
0.24924
-0.170877
-0.123547
-0.063474
0.0331762
-0.0434012
-0.238895
-0.287875
0.0421626
-0.231887
0.232035
0.288567
0.299654
-0.238341
0.182366
-0.165959
0.0893955
-0.227724
-0.226563
-0.226642
-0.213522
-0.163881
0.0296934
-0.224447
0.188843
0.00157488
0.0446288
0.0159743
-0.255207
0.266012
0.0497112
0.284302
-0.199566
0.222135
-0.0961804
0.144313
-0.106361
-0.0281536
0.144936
0.221296
0.0467093
0.0781653
0.235396
0.0488227
0.138707
0.101321
0.1692
-0.0760459
0.187324
0.240324
-0.0180493
0.24584
-0.21644
-0.277907
-0.267653
0.275169
0.0304125
0.0708947
0.00551302
0.0661252
0.0440037
-0.240445
0.0539009
0.144467
0.281966
0.269072
-0.0222573
-0.122168
-0.0630016
-0.168198
-0.188604
0.292346
0.212366
-0.271498
0.0384773
0.039875
0.124696
-0.0981148
0.262567
-0.00110705
-0.159683
-0.0600423
-0.034738
-0.0649764
-0.0382458
-0.0101323
-0.101857
0.299511
-0.241731
0.211558
0.0579557
0.0961464
0.269662
-0.187259
-0.0614809
0.258062
-0.217902
0.214182
-0.171838
0.0287845
-0.24492
-0.0712888
0.0132058
0.266397
-0.0492968
-0.251374
-0.00271385
-0.221224
-0.0366732
-0.0429133
0.0900975
0.109513
0.210966
-0.253902
-0.252841
-0.137312
0.0403343
-0.0550419
-0.128983
0.0874146
-0.139746
0.232811
-0.111354
-0.169955
-0.255183
0.120463
-0.207037
-0.180218
0.0512551
-0.0859077
0.156503
0.0952939
0.143389
-0.12536
0.063521
-0.203881
-0.0598006
-0.233278
-0.104166
0.196566
0.0371956
0.259762
0.00471843
-0.0686688
-0.285845
0.0541556
0.117464
0.041549
-0.300982
0.286059
-0.162866
-0.140096
0.22278
0.0255554
-0.00854416
0.265653
-0.138517
0.0697966
-0.209784
0.19683
0.283749
0.24597
-0.00520054
0.119188
-0.165989
-0.240736
0.240967
0.0643749
-0.18637
-0.183329
-0.0448442
0.146753
-0.212356
0.261037
-0.20365
-0.195657
0.0197465
0.208506
0.141753
0.017096
0.188559
0.282504
0.187067
0.0988738
0.0105998
-0.126417
0.0750197
0.175604
0.248795
0.172611
0.0761792
0.226642
0.120907
-0.233543
0.0650767
0.248064
-0.180169
-0.013099
0.0189993
-0.0570908
0.0959092
0.279379
-0.224207
0.18753
0.233475
-0.116958
0.273667
-0.0450315
-0.208023
0.114004
0.26649
0.26902
0.0950233
0.164852
0.094822
-0.173598
-0.282706
-0.132317
0.296181
0.255576
-0.248257
0.0517577
0.171425
0.138437
0.11931
-0.0600248
0.114902
0.231096
0.221171
-0.177208
-0.116262
0.0136188
-0.227547
-0.029443
-0.0893027
-0.267229
0.151032
-0.13943
-0.0103454
0.242886
-0.277283
-0.0611984
0.213802
0.11511
-0.183417
0.0190592
0.25134
-0.185299
0.150847
0.240885
-0.236036
0.167881
-0.0226263
0.235387
0.0389059
-0.160798
-0.116133
-0.162687
-0.241614
-0.177874
-0.0473564
-0.0497542
0.172274
0.0454019
0.236841
-0.240819
0.0633384
0.0781425
-0.0736692
-0.197216
0.00170206
-0.0601226
0.0338504
-0.073347
-0.255003
0.120425
0.23032
0.280773
0.247461
0.0996563
0.226209
-0.272133
-0.0282941
-0.0942024
0.2806
-0.264446
0.00852046
-0.131627
-0.140381
0.0751567
-0.00972795
0.141852
-0.239115
-0.152872
-0.088104
0.273385
-0.130614
0.30238
0.050335
0.101313
-0.25311
-0.229619
-0.273671
0.104944
-0.00279459
-0.242593
-0.0566567
-0.0644039
-0.258356
-0.129396
-0.252192
0.267406
-0.126147
0.0329078
-0.144484
-0.135083
0.0633094
0.17381
0.0308623
0.242804
-0.0404807
-0.284983
0.0760513
-0.00584882
-0.166014
0.270338
-0.0410684
0.0118526
0.252442
-0.294757
-0.186379
-0.287047
-0.229026
-0.169016
0.0973888
0.0757191
-0.0934013
-0.273692
-0.278944
-0.0460106
-0.102746
-0.228922
-0.0979731
0.089899
0.101818
0.0556504
0.252792
-0.136643
-0.0726641
-0.0262927
-0.199612
0.187274
-0.0132635
0.173855
-0.113851
0.125227
0.158368
0.144592
-0.16157
0.107124
0.153107
-0.0568268
0.118443
0.227564
0.0830825
-0.0732071
0.00513605
0.287527
-0.0539648
0.0284532
-0.0574669
0.14551
0.0936017
0.143708
-0.0679864
-0.107127
-0.103835
-0.11492
0.0541661
0.125735
0.16249
0.158315
0.0200963
-0.151853
0.0368388
0.204694
0.275273
-0.114987
0.0520196
-0.192043
0.291763
-0.0990875
0.0603959
0.117597
-0.166056
-0.153345
-0.257909
0.130493
-0.165863
-0.0112921
-0.138192
0.0711943
-0.170001
0.250999
-0.0833289
0.0654273
-0.158316
0.115646
0.249719
0.200964
-0.0593204
0.114497
0.0520643
0.253659
0.267986
-0.209988
0.15889
0.244531
-0.0240362
-0.0866245
-0.239119
-0.0292433
0.119948
0.113908
-0.211682
0.241645
0.256013
-0.169297
0.0794357
-0.213328
0.116793
0.230979
0.164897
0.24594
0.180084
-0.226299
0.00927418
-0.27403
0.191314
-0.0377267
0.226058
-0.167205
-0.215437
-0.0278047
-0.2033
-0.249408
0.07034
0.254656
0.290957
-0.269055
-0.130264
-0.261816
0.0020584
0.289176
0.162148
0.081313
0.236672
0.124366
0.214396
0.00524788
0.217217
0.0356769
-0.057703
0.0643979
-0.0207449
-0.170006
0.154449
0.286421
-0.146817
0.0386812
-0.0390029
-0.219511
0.171445
0.0481432
0.05399
0.267738
0.0964187
-0.188084
0.21553
0.0777999
-0.151057
-0.208529
0.126357
0.153046
-0.217056
-0.0149496
-0.0543721
-0.284053
-0.198914
-0.13649
0.0284913
-0.292589
0.184964
0.274577
0.0892322
-0.128289
-0.197306
-0.0611736
-0.130631
-0.0457528
0.281235
0.127704
0.0294411
0.152307
-0.130452
-0.205458
0.117911
0.262763
-0.0958215
0.039677
0.0404633
0.0444233
0.134589
-0.137174
-0.0965461
0.209249
0.159815
0.141068
0.224083
0.248829
-0.29573
-0.0467969
0.262862
0.19023
-0.0806428
0.0481939
-0.246388
0.0336708
-0.300154
-0.0902216
0.296319
0.273118
-0.234096
0.0148183
0.125757
-0.0928493
0.0946148
-0.0424894
-0.1155
-0.287245
0.282657
0.203992
0.0597289
0.13877
-0.215692
0.246322
0.0437371
0.220388
0.107653
-0.0250307
0.194876
0.0988453
0.220838
0.147481
-0.00490153
-0.158397
-0.069836
0.0457274
0.183507
-0.0892236
0.27819
0.152755
-0.102219
-0.287005
-0.134833
-0.263995
-0.0765874
0.264497
-0.00836299
0.101547
0.285056
-0.0159228
0.00172671
0.0367703
-0.187991
0.0599942
-0.021295
0.146164
-0.00140123
-0.218884
-0.173685
-0.104614
0.178975
-0.265874
-0.247808
-0.127513
-0.0975807
-0.0376802
0.228231
-0.229615
0.196834
0.204815
0.217063
-0.193089
0.233572
-0.203574
-0.149783
-0.15135
-0.22785
0.147556
0.24352
-0.262119
-0.158766
-0.0530356
0.0643995
-0.042131
-0.273715
-0.241098
-0.209191
0.0376117
-0.170696
-0.0785416
0.210881
0.292712
-0.0320061
0.258028
-0.12605
0.153251
-0.048079
-0.219316
0.190418
-0.14018
0.292392
0.0965015
-0.0457313
0.209535
0.188488
0.0982121
-0.227706
0.282755
-0.0727013
-0.265609
-0.262204
0.125666
-0.0487458
0.0919493
-0.269997
-0.0378591
0.155985
-0.137815
-0.263705
0.255333
0.0379972
0.210296
0.281869
-0.274937
0.175975
-0.168418
0.114335
-0.148723
-0.0590068
0.0781311
-0.027883
-0.0569625
-0.112253
0.239843
-0.191867
-0.145477
0.0201917
-0.0940225
-0.192411
0.29988
-0.11128
-0.147742
0.0565263
0.175441
0.267469
0.0788139
-0.149212
0.126852
0.21529
-0.142639
0.0803188
-0.0393587
-0.21049
0.0517543
-0.0403672
0.240411
0.166166
-0.185352
-0.210418
-0.172091
0.196403
0.0698366
0.044518
-0.201321
-0.00414558
0.210904
-0.102174
-0.263425
-0.179626
0.0333788
-0.299034
0.0281434
0.218601
0.081905
-0.111737
0.181605
-0.136699
0.0505368
0.00214936
-0.228691
0.182158
-0.185159
0.03823
0.252789
0.160866
-0.280433
0.237982
0.0144559
-0.146591
0.313428
0.171898
-0.258921
0.0505263
-0.067257
-0.195194
-0.244402
-0.184621
0.0434301
-0.212664
-0.0973902
-0.199537
-0.209711
0.24668
-0.270882
0.159125
-0.164854
0.214356
-0.283949
0.177429
-0.0657321
-0.205945
0.0534518
0.0343252
0.125493
0.0285696
-0.109508
0.145755
-0.0719775
0.233311
0.277968
-0.0633719
0.104884
-0.250079
0.29187
-0.283692
-0.150018
-0.245443
-0.183974
0.189231
-0.170259
0.0183036
-0.302941
-0.0938649
-0.0528077
-0.273529
-0.202117
0.0841687
0.2495
-0.189967
-0.041094
-0.126628
-0.103357
-0.281387
0.199941
-0.288361
0.0376502
-0.192447
0.154977
0.273246
-0.248759
0.168905
-0.0827377
0.136156
0.183219
-0.106024
0.143574
-0.246623
-0.0461317
0.272464
0.248441
0.0859785
-0.00620815
0.247783
-0.294991
0.247668
0.28061
-0.20266
0.0266445
0.215649
-0.111782
0.295781
-0.181664
0.0787985
-0.298735
-0.282836
0.116161
0.0544078
-0.178342
-0.0140932
0.0261968
-0.13435
-0.156185
0.235693
-0.294723
-0.285034
-0.169306
0.137974
-0.238701
0.0797327
0.123191
-0.30416
-0.131631
-0.186785
0.246172
-0.147698
-0.253355
0.246618
-0.0553422
0.0811963
0.164259
0.132441
0.0627237
0.273
-0.0865447
0.0651543
0.284347
-0.279058
-0.18928
-0.197592
-0.000596398
0.12155
-0.0217954
0.139924
0.0647257
-0.040535
0.160887
0.197241
-0.190754
0.212525
-0.0356934
0.229082
0.209676
0.124115
-0.263515
0.167278
0.291835
-0.205986
0.105373
-0.0630775
0.170976
-0.039724
-0.22052
-0.0576923
-0.0666681
-0.00313878
-0.286453
-0.0838808
0.024612
-0.175322
0.00709457
-0.295315
0.257379
0.271237
0.15241
0.0236185
-0.0643521
-0.00380737
-0.0846822
0.0412047
-0.0958418
0.188553
-0.0222449
-0.174211
-0.00628915
0.0308395
0.290966
-0.0202058
0.1014
0.0911409
0.230133
-0.0241595
-0.245893
-0.29751
0.209394
-0.0313652
-0.0166855
0.223628
0.199528
-0.286584
-0.255023
-0.0780437
-0.275863
-0.284694
-0.120298
0.184745
0.0410759
0.10802
-0.114106
0.229878
-0.139546
0.117702
0.109593
0.138866
0.235273
-0.174221
-0.14552
0.239134
0.100239
0.270528
0.0228712
0.0274314
-0.0577172
0.0732414
0.0151139
-0.146772
-0.241468
-0.268596
-0.229243
0.263105
-0.253119
-0.198483
-0.120825
-0.227855
-0.180238
0.0476606
0.263103
0.147009
-0.134314
-0.14939
0.0890931
0.0285696
0.272597
-0.100748
-0.120958
0.209064
0.0339425
0.0386278
0.12477
-0.162221
0.000933346
-0.144843
0.176875
0.229711
0.226385
-0.104452
-0.200666
0.279462
-0.0675669
-0.131976
0.250219
-0.025345
-0.0333414
-0.187373
0.0553324
0.0902037
0.145616
0.0132112
-0.0592911
-0.272854
0.170046
-0.254429
0.0622171
0.135355
-0.0477344
0.239295
0.0411377
0.275755
-0.020536
-0.129178
-0.172816
0.280899
0.0177635
0.273848
0.225173
-0.0472781
-0.121235
-0.287629
-0.0653779
0.101678
-0.129342
-0.132518
-0.21654
0.142252
-0.00881413
0.135667
-0.0739662
-0.143416
-0.146355
0.172844
-0.114277
-0.275318
0.201422
0.238918
0.153849
-0.159761
0.180335
-0.106813
-0.157612
-0.126002
0.0750243
-0.0538555
-0.158289
-0.200135
-0.0721909
-0.226404
0.0411204
0.110096
-0.226086
0.301751
-0.0792974
-0.0568016
-0.126548
0.018678
-0.207599
0.157605
-0.144341
0.0203101
-0.292594
-0.0123635
-0.128272
-0.105005
0.0327594
-0.197443
-0.170425
-0.115282
-0.0350851
-0.280394
0.086336
0.1061
-0.109567
-0.136407
-0.256715
0.0175854
-0.0449737
-0.0133072
0.070727
-0.296174
-0.21312
0.149765
0.283029
0.0305636
-0.208971
-0.147839
-0.268275
-0.121231
-0.311402
-0.142802
0.186101
-0.27677
0.169632
-0.229784
-0.0881725
-0.102335
-0.134447
0.0383469
0.104829
0.126878
0.0593032
-0.105872
-0.0797691
0.230504
0.0388427
-0.0322255
-0.0571014
-0.302116
0.239088
-0.286896
-0.277727
-0.2666
0.160388
0.288046
0.0508446
0.260808
-0.160667
0.0515912
-0.149167
-0.153453
0.220667
-0.270826
-0.135815
0.107153
-0.200392
0.0752597
-0.295987
-0.0405751
-0.180882
0.120339
-0.188066
0.163522
0.281812
0.0240562
0.0943638
0.03057
0.275903
-0.289233
0.0507728
0.207847
-0.273354
0.0347397
0.225458
0.200366
0.0189156
-0.0495448
0.163414
0.177592
-0.294908
-0.296496
-0.255168
0.232957
-0.280311
-0.112421
0.058075
-0.193986
0.263473
0.0624689
0.101548
-0.218664
-0.122476
0.2056
0.241414
-0.135086
-0.0988958
0.0260867
0.200466
-0.1224
0.047417
-0.060786
-0.213869
0.0830209
0.279367
-0.284309
-0.00664536
0.0169848
-0.0199086
-0.138612
-0.109314
-0.00202945
-0.131334
-0.0781163
-0.0533471
-0.103834
0.10977
-0.292792
0.0242791
0.0810104
0.080687
-0.177905
0.156508
0.259853
-0.29374
0.101216
-0.180304
-0.0934626
-0.17829
-0.276496
0.0907113
0.15877
-0.0425016
0.183006
-0.0424996
-0.0558827
0.196599
0.25056
0.254594
-0.123661
-0.185872
-0.155877
0.16945
-0.024943
0.0623433
-0.176815
0.173603
-0.122862
-0.168629
-0.0976733
0.262912
0.201127
0.0225133
0.116334
0.157912
0.0345114
-0.0839492
0.282089
0.243749
0.0392039
-0.29367
0.0338368
-0.0987159
-0.0306353
-0.0835697
0.160656
0.205181
-0.188878
0.1061
0.166174
-0.00705986
0.214974
-0.294626
-0.137328
-0.106047
0.0776623
-0.0167941
-0.226454
0.259828
0.105182
-0.0261896
0.22421
0.0136402
0.292103
0.037776
-0.12701
0.023134
0.253598
-0.140399
-0.0343429
-0.00649742
-0.133052
0.293858
0.187288
0.136858
-0.0961369
0.0493582
0.0289216
0.0208724
-0.138123
-0.106564
-0.275027
-0.229663
-0.0788232
-0.12129
-0.0262413
0.303538
0.169623
0.0513126
0.250554
-0.0245846
-0.275036
0.165672
0.28456
-0.302371
-0.0896373
-0.14195
0.040793
-0.138547
0.0340607
0.281985
0.135223
0.179394
0.286212
0.0387065
0.0419804
-0.0980214
-0.203239
-0.225415
0.22447
-0.0680537
-0.014898
0.25251
-0.0103581
0.207794
-0.154838
0.262191
0.19568
0.289072
0.00214191
0.130226
-0.0269752
0.0279395
0.00926693
-0.0567292
0.0281297
0.207814
0.105604
-0.256997
-0.219194
-0.182522
-0.263847
0.22143
-0.283464
-0.265332
-0.0613164
0.0374207
-0.0568886
0.0301435
0.0983998
-0.138518
0.270643
-0.208843
-0.181884
-0.0212832
0.28852
-0.0581339
-0.0481775
0.174712
-0.0603651
0.257574
0.00792598
0.200426
-0.0312362
-0.279483
-0.142616
-0.300596
0.224481
0.252672
-0.22799
-0.297869
-0.204313
-0.207465
0.220983
-0.181579
-0.158339
-0.113709
0.145747
0.0998719
0.195066
-0.0382489
0.251504
0.158905
0.0434726
-0.214381
-0.149785
0.00483204
0.0348708
0.0761733
-0.132577
0.280111
0.0354421
0.174345
0.188604
-0.299133
0.189653
-0.255432
-0.294591
0.129875
-0.283721
-0.237652
0.140139
-0.198701
-0.122312
0.0555791
-0.0863059
0.0212397
0.224841
-0.245461
-0.189493
0.123635
0.00548752
-0.230939
-0.00521604
-0.26981
-0.136762
0.126997
0.0372103
0.188437
-0.0910368
0.204645
0.179404
0.245225
0.0724831
0.0644728
0.255748
-0.0348697
0.121318
0.256835
-0.208072
0.125558
-0.26433
0.224666
0.226531
-0.0975912
-0.0269857
-0.162562
0.224139
-0.109041
-0.101776
-0.259243
-0.269413
0.202909
-0.208371
0.0218729
0.226662
-0.0568558
-0.151419
-0.0384867
-0.154581
0.064014
-0.127623
-0.279803
-0.00262292
0.233701
0.0817663
-0.0489509
-0.0873752
-0.104418
-0.0881172
0.00428246
-0.269962
-0.0500733
-0.0746414
0.26237
0.156499
0.197568
-0.189906
0.0689144
-0.199808
0.0169981
0.100583
-0.175681
-0.0819461
0.206235
0.136416
-0.140042
-0.155786
0.28865
0.122031
-0.00727452
0.0441547
0.289924
0.0102635
-0.265365
0.225874
-0.199162
-0.00518641
-0.159387
-0.00881766
0.215276
0.126514
0.0288314
-0.140696
-0.222131
0.00518074
-0.296081
0.264406
0.11278
0.0615775
-0.227981
-0.159675
-0.122651
-0.114457
0.0362193
-0.234389
-0.267778
0.198733
-0.0833277
-0.297191
0.00976091
0.210094
0.0342553
0.00695683
-0.0461558
0.0814728
-0.0768746
0.0403531
-0.219787
0.084162
-0.263803
0.274609
-0.0962154
0.0748531
-0.179052
-0.0346156
-0.224607
-0.142397
-0.0882458
0.195403
0.223472
-0.0210001
-0.300562
-0.20282
0.161764
0.0438486
-0.130886
0.192462
-0.0351985
0.0920863
0.191466
0.278164
0.0307826
-0.0551996
-0.0111758
0.260219
-0.259727
0.212038
0.0243607
-0.188044
-0.0116195
0.0544281
-0.209021
0.198676
-0.170935
-0.0869869
-0.140056
-0.093809
0.0650276
0.0783207
-0.195613
-0.0152822
-0.229798
-0.156988
0.06843
0.232245
0.178835
0.24105
0.122243
-0.161441
0.0630537
0.0398943
-0.185274
-0.219621
0.285481
0.0825641
-0.241671
-0.274805
-0.00428562
0.0595764
-0.178604
0.306703
-0.190948
-0.0953086
0.182047
-0.0452862
0.101815
-0.265847
0.161821
-0.0987771
0.114012
0.26213
0.154548
0.192759
-0.196635
-0.0713354
0.140606
0.25103
-0.143046
-0.0922202
-0.211035
0.229121
0.259583
-0.100773
-0.297772
0.233359
0.278762
-0.24601
0.214049
-0.00602745
0.104269
-0.266796
-0.0253851
0.224999
-0.0360524
-0.0998762
-0.0991258
-0.237924
-0.0670753
-0.255367
-0.0476773
-0.268637
0.309677
-0.21678
0.186536
-0.22443
0.0247187
8.25166e-05
-0.298724
0.192031
0.246902
-0.160531
0.109064
0.201891
0.00928428
0.130747
0.12024
-0.0135273
0.20292
0.0688095
-0.276639
-0.00516279
0.114223
-0.00221078
-0.0468699
-0.221162
0.185158
0.111552
-0.170665
-0.197946
0.152106
0.0708522
-0.161612
0.135398
0.167593
-0.250959
0.215402
-0.104152
0.0381575
0.23114
-0.187671
-0.0173082
-0.27007
0.232929
-0.119812
0.0408454
0.0383779
-0.247113
-0.203929
-0.0378657
0.119655
-0.198643
0.244348
-0.0644025
0.108794
-0.13165
-0.00332003
-0.0478831
0.28047
0.121656
0.0787264
0.122257
-0.100792
0.21224
-0.0266602
-0.251141
0.269585
-0.128948
-0.0674915
0.0294061
-0.22177
0.0715265
-0.262646
-0.157683
-0.0152751
-0.073739
0.190027
-0.259305
-0.0435752
0.260901
-0.0173819
-0.235129
-0.256523
-0.0884525
-0.0143253
0.149244
0.064525
0.276117
-0.174078
0.047832
0.0909998
0.217308
-0.133992
0.282684
0.138557
0.137163
-0.267842
0.102313
0.294042
0.00651021
-0.163734
-0.217589
-0.231752
-0.134556
-0.0754881
0.0611401
0.0955548
-0.173404
0.10287
-0.237396
-0.219724
-0.230402
-0.179434
-0.179138
-0.021258
0.115517
0.257489
-0.248533
0.107612
-0.214255
0.107271
-0.0999481
0.295833
0.263587
-0.130966
0.128415
0.107136
-0.0749408
-0.0566991
0.103397
0.229236
0.0835284
0.191133
-0.301795
0.245482
-0.190156
0.0691295
0.0505418
-0.0570159
-0.139132
0.0970071
0.0191322
-0.0644314
0.225888
0.128477
0.201036
0.0519993
0.0787979
0.252953
-0.166595
0.1602
0.0638131
0.0293085
0.157335
0.0216412
0.211384
-0.00759177
-0.174767
-0.153229
0.224059
0.235809
-0.237313
0.0109943
0.115498
-0.231407
-0.0427169
0.246683
0.125822
-0.293896
-0.1082
0.287618
0.110729
0.202413
-0.082752
0.044189
0.0250496
-0.16136
-0.222567
-0.174712
-0.202197
-0.0807476
0.279715
0.153142
0.258352
0.144272
-0.112969
0.182293
-0.17468
0.0153283
-0.289034
-0.233747
-0.0455454
-0.211493
0.0723774
-0.217745
-0.159108
-0.263807
-0.277164
0.284717
-0.278433
-0.0743058
0.264894
0.158161
-0.175911
-0.115674
-0.121727
0.148403
0.0253071
-0.0282003
0.254467
0.107622
0.177401
0.23845
-0.031815
0.142402
0.0664902
0.159595
0.0244034
0.217541
-0.105687
0.044296
0.286081
0.161082
0.109047
0.0437307
0.221161
0.261538
0.108555
0.25469
0.261115
0.142434
-0.128918
0.223475
-0.0188138
-0.0143367
-0.203414
0.16089
-0.156538
0.120747
-0.173386
-0.207949
-0.0767861
-0.269906
-0.264803
0.197469
0.155705
0.102628
0.0595752
-0.118225
0.0232152
0.256546
0.206161
0.00687004
0.100584
0.0251328
-0.226053
0.0312389
-0.0164883
0.153605
0.00215735
-0.0654764
0.0125426
0.171726
-0.147455
0.283165
-0.131952
-0.0556274
0.128032
0.0223887
-0.221911
0.263849
0.105781
0.0259027
0.29501
0.148395
-0.095943
0.155618
-0.0422907
0.262028
-0.261489
0.257949
0.197705
0.190188
-0.0328424
0.0282398
-0.0549052
0.0381171
-0.245245
0.239157
-0.113069
0.0496692
-0.156203
0.183609
-0.0670032
0.0161785
0.162206
0.093784
0.285888
0.035226
-0.147973
-0.270809
-0.0155776
0.224593
0.0414386
-0.0219311
0.0834215
0.252048
-0.220738
0.300324
0.253895
-0.212375
0.23008
0.163271
-0.279111
-0.0373708
-0.124657
-0.0321136
0.265658
-0.0392583
-0.104937
-0.124058
-0.256595
0.0844847
-0.193917
-0.0458133
-0.233131
0.25973
-0.221092
-0.215297
-0.0164784
-0.0840511
-0.185879
0.266696
-0.174046
0.152803
-0.0732422
0.176801
0.112717
0.0440657
0.185777
0.0519277
0.124342
0.144503
-0.06972
0.171664
-0.229534
0.12688
-0.160644
-0.249438
-0.223674
0.0877476
-0.0331997
-0.188689
-0.125195
0.066497
0.0609172
-0.0490045
0.0112295
0.14169
-0.00629162
0.274934
-0.276618
0.128723
0.263901
-0.183733
0.000561065
-0.115104
-0.295698
-0.223048
0.230561
0.189997
0.11207
0.0904877
0.0119657
-0.223611
-0.0312174
0.077057
0.200701
0.126699
0.147075
0.287434
-0.101959
-0.207059
-0.214831
0.0400256
0.121568
0.139805
0.286086
-0.176063
-0.0349041
-0.0139409
-0.176262
-0.0225409
-0.196638
-0.215947
0.109995
0.0753618
-0.00711082
0.120046
0.184653
-0.065882
-0.0106816
0.0217264
-0.27545
0.296782
0.0937437
-0.0124675
0.0751085
-0.00743927
-0.187455
-0.0851828
-0.0204481
0.0199644
0.00661265
0.0683116
-0.237639
-0.168143
-0.0938397
-0.259306
-0.040238
0.166647
0.0272333
0.0773967
-0.147734
0.13131
0.168036
0.265872
-0.0796192
-0.136958
0.0768516
-0.208965
0.0880779
-0.233972
0.115146
0.114078
-0.230446
-0.084985
-0.198153
0.14532
0.207852
-0.0815495
-0.237118
-0.109833
0.239063
0.0688228
0.251085
0.290859
0.200126
-0.132314
-0.270999
-0.140163
-0.265443
0.0660141
0.243517
-0.116477
-0.0973043
0.103233
-0.14976
0.115773
0.266163
0.226213
0.200434
0.0523141
0.286167
0.0173252
-0.138855
-0.238234
0.223013
-0.0332929
0.203669
0.136167
0.176265
0.257247
-0.26668
0.117077
0.0308521
0.28938
0.105033
-0.0680178
-0.145244
0.137481
0.0901834
-0.117436
-0.10307
0.0168205
0.0633842
0.0986008
-0.174605
0.210411
-0.0880432
-0.217399
0.135241
-0.183293
0.129542
0.128701
0.126794
0.291395
0.184455
0.0569397
-0.040033
0.0908185
-0.101659
-0.165354
0.0518494
-0.0720082
0.252824
-0.220891
-0.0842465
0.0530398
0.00642205
0.0604388
-0.106185
-0.206873
0.242241
0.0889
0.118301
0.0159506
-0.11272
0.240978
-0.0761081
0.101803
-0.276557
-0.242254
0.219471
0.161677
0.194988
0.045838
0.151826
0.0783405
-0.189867
-0.188847
-0.13328
0.0041051
-0.0512912
0.219812
0.229782
-0.103225
0.299059
-0.159621
0.251764
0.00850026
0.203386
-0.156281
0.100828
0.148756
0.238608
-0.0809603
-0.141477
-0.173454
-0.137359
0.0801862
0.223504
-0.107267
0.148381
0.14715
-0.247599
0.0404856
-0.106771
0.204294
-0.180994
0.00119947
-0.287925
-0.0184688
0.30115
-0.0397628
-0.0962132
0.227883
0.15938
-0.0979359
-0.229296
0.106173
0.214262
0.268964
0.251432
0.0264452
0.104672
0.189442
0.232847
0.277817
-0.29423
-0.201284
0.0721685
0.231124
0.00115509
-0.0720835
0.102462
0.0453233
0.236494
0.271736
-0.04543
-0.226595
-0.0269626
-0.0329895
0.0598742
-0.017995
0.220211
0.253559
-0.105571
0.0826826
-0.132527
-0.0332753
-0.124677
-0.230895
-0.0625748
-0.156619
0.104018
-0.241735
-0.275363
0.0186228
-0.265633
-0.24222
0.144413
0.0863764
0.303306
-0.141181
-0.294613
0.0877318
0.17755
0.251482
0.0595668
-0.158176
-0.287421
-0.261671
0.103396
0.0391189
0.00134719
0.00951479
0.00943036
0.212581
-0.208305
0.167795
-0.141553
-0.0137484
0.240708
0.103916
0.112931
0.0471141
0.162603
0.153067
-0.221438
0.188929
0.19334
0.214682
-0.0158101
0.208079
-0.237974
-0.0156975
-0.0224447
0.255686
-0.0795183
-0.266744
-0.21666
-0.0577743
-0.251431
0.159113
0.289952
0.0392026
-0.126235
-0.00153574
-0.0520627
-0.0259539
-0.129883
0.133689
0.264401
-0.177409
